<?xml version='1.0' encoding='utf-8'?>
<BIF VERSION="0.3">
  <NETWORK>
    <NAME>UNTITLED</NAME>
    <VARIABLE TYPE="nature">
      <NAME>aar_mod</NAME>
      <OUTCOME>0</OUTCOME>
      <OUTCOME>1</OUTCOME>
      <OUTCOME>2</OUTCOME>
      <OUTCOME>3</OUTCOME>
      <OUTCOME>4</OUTCOME>
      <OUTCOME>5</OUTCOME>
      <OUTCOME>6</OUTCOME>
      <OUTCOME>7</OUTCOME>
      <OUTCOME>8</OUTCOME>
      <OUTCOME>9</OUTCOME>
      <OUTCOME>10</OUTCOME>
      <PROPERTY>weight = None</PROPERTY>
    </VARIABLE>
    <VARIABLE TYPE="nature">
      <NAME>aks_m2</NAME>
      <OUTCOME>0</OUTCOME>
      <OUTCOME>1</OUTCOME>
      <OUTCOME>2</OUTCOME>
      <OUTCOME>3</OUTCOME>
      <OUTCOME>4</OUTCOME>
      <OUTCOME>5</OUTCOME>
      <OUTCOME>6</OUTCOME>
      <OUTCOME>7</OUTCOME>
      <PROPERTY>weight = None</PROPERTY>
    </VARIABLE>
    <VARIABLE TYPE="nature">
      <NAME>aks_vgt</NAME>
      <OUTCOME>0</OUTCOME>
      <OUTCOME>1</OUTCOME>
      <OUTCOME>2</OUTCOME>
      <OUTCOME>3</OUTCOME>
      <OUTCOME>4</OUTCOME>
      <OUTCOME>5</OUTCOME>
      <OUTCOME>6</OUTCOME>
      <OUTCOME>7</OUTCOME>
      <OUTCOME>8</OUTCOME>
      <PROPERTY>weight = None</PROPERTY>
    </VARIABLE>
    <VARIABLE TYPE="nature">
      <NAME>antplnt</NAME>
      <OUTCOME>0</OUTCOME>
      <OUTCOME>1</OUTCOME>
      <OUTCOME>2</OUTCOME>
      <OUTCOME>3</OUTCOME>
      <OUTCOME>4</OUTCOME>
      <OUTCOME>5</OUTCOME>
      <OUTCOME>6</OUTCOME>
      <PROPERTY>weight = None</PROPERTY>
    </VARIABLE>
    <VARIABLE TYPE="nature">
      <NAME>bgbyg</NAME>
      <OUTCOME>0</OUTCOME>
      <OUTCOME>1</OUTCOME>
      <OUTCOME>2</OUTCOME>
      <OUTCOME>3</OUTCOME>
      <OUTCOME>4</OUTCOME>
      <OUTCOME>5</OUTCOME>
      <PROPERTY>weight = None</PROPERTY>
    </VARIABLE>
    <VARIABLE TYPE="nature">
      <NAME>dg25</NAME>
      <OUTCOME>0</OUTCOME>
      <OUTCOME>1</OUTCOME>
      <OUTCOME>2</OUTCOME>
      <OUTCOME>3</OUTCOME>
      <OUTCOME>4</OUTCOME>
      <OUTCOME>5</OUTCOME>
      <OUTCOME>6</OUTCOME>
      <PROPERTY>weight = None</PROPERTY>
    </VARIABLE>
    <VARIABLE TYPE="nature">
      <NAME>dgv1059</NAME>
      <OUTCOME>0</OUTCOME>
      <OUTCOME>1</OUTCOME>
      <OUTCOME>2</OUTCOME>
      <OUTCOME>3</OUTCOME>
      <OUTCOME>4</OUTCOME>
      <OUTCOME>5</OUTCOME>
      <PROPERTY>weight = None</PROPERTY>
    </VARIABLE>
    <VARIABLE TYPE="nature">
      <NAME>dgv5980</NAME>
      <OUTCOME>0</OUTCOME>
      <OUTCOME>1</OUTCOME>
      <OUTCOME>2</OUTCOME>
      <OUTCOME>3</OUTCOME>
      <OUTCOME>4</OUTCOME>
      <OUTCOME>5</OUTCOME>
      <PROPERTY>weight = None</PROPERTY>
    </VARIABLE>
    <VARIABLE TYPE="nature">
      <NAME>exptgens</NAME>
      <OUTCOME>0</OUTCOME>
      <OUTCOME>1</OUTCOME>
      <OUTCOME>2</OUTCOME>
      <OUTCOME>3</OUTCOME>
      <OUTCOME>4</OUTCOME>
      <PROPERTY>weight = None</PROPERTY>
    </VARIABLE>
    <VARIABLE TYPE="nature">
      <NAME>forfrugt</NAME>
      <OUTCOME>0</OUTCOME>
      <OUTCOME>1</OUTCOME>
      <OUTCOME>2</OUTCOME>
      <OUTCOME>3</OUTCOME>
      <OUTCOME>4</OUTCOME>
      <PROPERTY>weight = None</PROPERTY>
    </VARIABLE>
    <VARIABLE TYPE="nature">
      <NAME>frspdag</NAME>
      <OUTCOME>0</OUTCOME>
      <OUTCOME>1</OUTCOME>
      <OUTCOME>2</OUTCOME>
      <OUTCOME>3</OUTCOME>
      <OUTCOME>4</OUTCOME>
      <OUTCOME>5</OUTCOME>
      <OUTCOME>6</OUTCOME>
      <OUTCOME>7</OUTCOME>
      <PROPERTY>weight = None</PROPERTY>
    </VARIABLE>
    <VARIABLE TYPE="nature">
      <NAME>jordinf</NAME>
      <OUTCOME>0</OUTCOME>
      <OUTCOME>1</OUTCOME>
      <OUTCOME>2</OUTCOME>
      <OUTCOME>3</OUTCOME>
      <OUTCOME>4</OUTCOME>
      <OUTCOME>5</OUTCOME>
      <OUTCOME>6</OUTCOME>
      <OUTCOME>7</OUTCOME>
      <PROPERTY>weight = None</PROPERTY>
    </VARIABLE>
    <VARIABLE TYPE="nature">
      <NAME>jordn</NAME>
      <OUTCOME>0</OUTCOME>
      <OUTCOME>1</OUTCOME>
      <OUTCOME>2</OUTCOME>
      <OUTCOME>3</OUTCOME>
      <OUTCOME>4</OUTCOME>
      <OUTCOME>5</OUTCOME>
      <OUTCOME>6</OUTCOME>
      <OUTCOME>7</OUTCOME>
      <OUTCOME>8</OUTCOME>
      <PROPERTY>weight = None</PROPERTY>
    </VARIABLE>
    <VARIABLE TYPE="nature">
      <NAME>jordtype</NAME>
      <OUTCOME>0</OUTCOME>
      <OUTCOME>1</OUTCOME>
      <OUTCOME>2</OUTCOME>
      <OUTCOME>3</OUTCOME>
      <OUTCOME>4</OUTCOME>
      <OUTCOME>5</OUTCOME>
      <OUTCOME>6</OUTCOME>
      <OUTCOME>7</OUTCOME>
      <OUTCOME>8</OUTCOME>
      <PROPERTY>weight = None</PROPERTY>
    </VARIABLE>
    <VARIABLE TYPE="nature">
      <NAME>keraks</NAME>
      <OUTCOME>0</OUTCOME>
      <OUTCOME>1</OUTCOME>
      <OUTCOME>2</OUTCOME>
      <OUTCOME>3</OUTCOME>
      <OUTCOME>4</OUTCOME>
      <OUTCOME>5</OUTCOME>
      <OUTCOME>6</OUTCOME>
      <PROPERTY>weight = None</PROPERTY>
    </VARIABLE>
    <VARIABLE TYPE="nature">
      <NAME>komm</NAME>
      <OUTCOME>0</OUTCOME>
      <OUTCOME>1</OUTCOME>
      <OUTCOME>2</OUTCOME>
      <OUTCOME>3</OUTCOME>
      <OUTCOME>4</OUTCOME>
      <PROPERTY>weight = None</PROPERTY>
    </VARIABLE>
    <VARIABLE TYPE="nature">
      <NAME>ksort</NAME>
      <OUTCOME>0</OUTCOME>
      <OUTCOME>1</OUTCOME>
      <OUTCOME>2</OUTCOME>
      <OUTCOME>3</OUTCOME>
      <OUTCOME>4</OUTCOME>
      <PROPERTY>weight = None</PROPERTY>
    </VARIABLE>
    <VARIABLE TYPE="nature">
      <NAME>markgrm</NAME>
      <OUTCOME>0</OUTCOME>
      <OUTCOME>1</OUTCOME>
      <OUTCOME>2</OUTCOME>
      <OUTCOME>3</OUTCOME>
      <OUTCOME>4</OUTCOME>
      <OUTCOME>5</OUTCOME>
      <OUTCOME>6</OUTCOME>
      <OUTCOME>7</OUTCOME>
      <OUTCOME>8</OUTCOME>
      <OUTCOME>9</OUTCOME>
      <PROPERTY>weight = None</PROPERTY>
    </VARIABLE>
    <VARIABLE TYPE="nature">
      <NAME>mod_nmin</NAME>
      <OUTCOME>0</OUTCOME>
      <OUTCOME>1</OUTCOME>
      <OUTCOME>2</OUTCOME>
      <OUTCOME>3</OUTCOME>
      <OUTCOME>4</OUTCOME>
      <OUTCOME>5</OUTCOME>
      <PROPERTY>weight = None</PROPERTY>
    </VARIABLE>
    <VARIABLE TYPE="nature">
      <NAME>nedbarea</NAME>
      <OUTCOME>0</OUTCOME>
      <OUTCOME>1</OUTCOME>
      <OUTCOME>2</OUTCOME>
      <PROPERTY>weight = None</PROPERTY>
    </VARIABLE>
    <VARIABLE TYPE="nature">
      <NAME>ngodn</NAME>
      <OUTCOME>0</OUTCOME>
      <OUTCOME>1</OUTCOME>
      <OUTCOME>2</OUTCOME>
      <OUTCOME>3</OUTCOME>
      <OUTCOME>4</OUTCOME>
      <OUTCOME>5</OUTCOME>
      <OUTCOME>6</OUTCOME>
      <PROPERTY>weight = None</PROPERTY>
    </VARIABLE>
    <VARIABLE TYPE="nature">
      <NAME>ngodnn</NAME>
      <OUTCOME>0</OUTCOME>
      <OUTCOME>1</OUTCOME>
      <OUTCOME>2</OUTCOME>
      <OUTCOME>3</OUTCOME>
      <OUTCOME>4</OUTCOME>
      <OUTCOME>5</OUTCOME>
      <OUTCOME>6</OUTCOME>
      <OUTCOME>7</OUTCOME>
      <OUTCOME>8</OUTCOME>
      <PROPERTY>weight = None</PROPERTY>
    </VARIABLE>
    <VARIABLE TYPE="nature">
      <NAME>ngodnt</NAME>
      <OUTCOME>0</OUTCOME>
      <OUTCOME>1</OUTCOME>
      <OUTCOME>2</OUTCOME>
      <OUTCOME>3</OUTCOME>
      <OUTCOME>4</OUTCOME>
      <OUTCOME>5</OUTCOME>
      <OUTCOME>6</OUTCOME>
      <OUTCOME>7</OUTCOME>
      <PROPERTY>weight = None</PROPERTY>
    </VARIABLE>
    <VARIABLE TYPE="nature">
      <NAME>ngtilg</NAME>
      <OUTCOME>0</OUTCOME>
      <OUTCOME>1</OUTCOME>
      <OUTCOME>2</OUTCOME>
      <OUTCOME>3</OUTCOME>
      <OUTCOME>4</OUTCOME>
      <OUTCOME>5</OUTCOME>
      <OUTCOME>6</OUTCOME>
      <OUTCOME>7</OUTCOME>
      <OUTCOME>8</OUTCOME>
      <PROPERTY>weight = None</PROPERTY>
    </VARIABLE>
    <VARIABLE TYPE="nature">
      <NAME>nmin</NAME>
      <OUTCOME>0</OUTCOME>
      <OUTCOME>1</OUTCOME>
      <OUTCOME>2</OUTCOME>
      <OUTCOME>3</OUTCOME>
      <OUTCOME>4</OUTCOME>
      <PROPERTY>weight = None</PROPERTY>
    </VARIABLE>
    <VARIABLE TYPE="nature">
      <NAME>nopt</NAME>
      <OUTCOME>0</OUTCOME>
      <OUTCOME>1</OUTCOME>
      <OUTCOME>2</OUTCOME>
      <OUTCOME>3</OUTCOME>
      <OUTCOME>4</OUTCOME>
      <PROPERTY>weight = None</PROPERTY>
    </VARIABLE>
    <VARIABLE TYPE="nature">
      <NAME>nplac</NAME>
      <OUTCOME>0</OUTCOME>
      <OUTCOME>1</OUTCOME>
      <OUTCOME>2</OUTCOME>
      <PROPERTY>weight = None</PROPERTY>
    </VARIABLE>
    <VARIABLE TYPE="nature">
      <NAME>nprot</NAME>
      <OUTCOME>0</OUTCOME>
      <OUTCOME>1</OUTCOME>
      <OUTCOME>2</OUTCOME>
      <OUTCOME>3</OUTCOME>
      <OUTCOME>4</OUTCOME>
      <OUTCOME>5</OUTCOME>
      <PROPERTY>weight = None</PROPERTY>
    </VARIABLE>
    <VARIABLE TYPE="nature">
      <NAME>ntilg</NAME>
      <OUTCOME>0</OUTCOME>
      <OUTCOME>1</OUTCOME>
      <OUTCOME>2</OUTCOME>
      <OUTCOME>3</OUTCOME>
      <OUTCOME>4</OUTCOME>
      <OUTCOME>5</OUTCOME>
      <OUTCOME>6</OUTCOME>
      <OUTCOME>7</OUTCOME>
      <OUTCOME>8</OUTCOME>
      <OUTCOME>9</OUTCOME>
      <PROPERTY>weight = None</PROPERTY>
    </VARIABLE>
    <VARIABLE TYPE="nature">
      <NAME>partigerm</NAME>
      <OUTCOME>0</OUTCOME>
      <OUTCOME>1</OUTCOME>
      <OUTCOME>2</OUTCOME>
      <OUTCOME>3</OUTCOME>
      <OUTCOME>4</OUTCOME>
      <OUTCOME>5</OUTCOME>
      <OUTCOME>6</OUTCOME>
      <OUTCOME>7</OUTCOME>
      <OUTCOME>8</OUTCOME>
      <PROPERTY>weight = None</PROPERTY>
    </VARIABLE>
    <VARIABLE TYPE="nature">
      <NAME>pesticid</NAME>
      <OUTCOME>0</OUTCOME>
      <PROPERTY>weight = None</PROPERTY>
    </VARIABLE>
    <VARIABLE TYPE="nature">
      <NAME>potnmin</NAME>
      <OUTCOME>0</OUTCOME>
      <OUTCOME>1</OUTCOME>
      <OUTCOME>2</OUTCOME>
      <OUTCOME>3</OUTCOME>
      <OUTCOME>4</OUTCOME>
      <OUTCOME>5</OUTCOME>
      <OUTCOME>6</OUTCOME>
      <OUTCOME>7</OUTCOME>
      <PROPERTY>weight = None</PROPERTY>
    </VARIABLE>
    <VARIABLE TYPE="nature">
      <NAME>protein</NAME>
      <OUTCOME>0</OUTCOME>
      <OUTCOME>1</OUTCOME>
      <OUTCOME>2</OUTCOME>
      <OUTCOME>3</OUTCOME>
      <OUTCOME>4</OUTCOME>
      <OUTCOME>5</OUTCOME>
      <OUTCOME>6</OUTCOME>
      <OUTCOME>7</OUTCOME>
      <PROPERTY>weight = None</PROPERTY>
    </VARIABLE>
    <VARIABLE TYPE="nature">
      <NAME>rokap</NAME>
      <OUTCOME>0</OUTCOME>
      <OUTCOME>1</OUTCOME>
      <OUTCOME>2</OUTCOME>
      <OUTCOME>3</OUTCOME>
      <OUTCOME>4</OUTCOME>
      <OUTCOME>5</OUTCOME>
      <OUTCOME>6</OUTCOME>
      <PROPERTY>weight = None</PROPERTY>
    </VARIABLE>
    <VARIABLE TYPE="nature">
      <NAME>s2225</NAME>
      <OUTCOME>0</OUTCOME>
      <OUTCOME>1</OUTCOME>
      <OUTCOME>2</OUTCOME>
      <PROPERTY>weight = None</PROPERTY>
    </VARIABLE>
    <VARIABLE TYPE="nature">
      <NAME>s2528</NAME>
      <OUTCOME>0</OUTCOME>
      <OUTCOME>1</OUTCOME>
      <OUTCOME>2</OUTCOME>
      <OUTCOME>3</OUTCOME>
      <OUTCOME>4</OUTCOME>
      <OUTCOME>5</OUTCOME>
      <OUTCOME>6</OUTCOME>
      <PROPERTY>weight = None</PROPERTY>
    </VARIABLE>
    <VARIABLE TYPE="nature">
      <NAME>saakern</NAME>
      <OUTCOME>0</OUTCOME>
      <OUTCOME>1</OUTCOME>
      <OUTCOME>2</OUTCOME>
      <OUTCOME>3</OUTCOME>
      <OUTCOME>4</OUTCOME>
      <OUTCOME>5</OUTCOME>
      <OUTCOME>6</OUTCOME>
      <PROPERTY>weight = None</PROPERTY>
    </VARIABLE>
    <VARIABLE TYPE="nature">
      <NAME>saamng</NAME>
      <OUTCOME>0</OUTCOME>
      <OUTCOME>1</OUTCOME>
      <OUTCOME>2</OUTCOME>
      <OUTCOME>3</OUTCOME>
      <OUTCOME>4</OUTCOME>
      <OUTCOME>5</OUTCOME>
      <OUTCOME>6</OUTCOME>
      <OUTCOME>7</OUTCOME>
      <OUTCOME>8</OUTCOME>
      <OUTCOME>9</OUTCOME>
      <PROPERTY>weight = None</PROPERTY>
    </VARIABLE>
    <VARIABLE TYPE="nature">
      <NAME>saatid</NAME>
      <OUTCOME>0</OUTCOME>
      <OUTCOME>1</OUTCOME>
      <OUTCOME>2</OUTCOME>
      <OUTCOME>3</OUTCOME>
      <OUTCOME>4</OUTCOME>
      <PROPERTY>weight = None</PROPERTY>
    </VARIABLE>
    <VARIABLE TYPE="nature">
      <NAME>slt22</NAME>
      <OUTCOME>0</OUTCOME>
      <OUTCOME>1</OUTCOME>
      <OUTCOME>2</OUTCOME>
      <OUTCOME>3</OUTCOME>
      <PROPERTY>weight = None</PROPERTY>
    </VARIABLE>
    <VARIABLE TYPE="nature">
      <NAME>sort</NAME>
      <OUTCOME>0</OUTCOME>
      <OUTCOME>1</OUTCOME>
      <OUTCOME>2</OUTCOME>
      <OUTCOME>3</OUTCOME>
      <OUTCOME>4</OUTCOME>
      <OUTCOME>5</OUTCOME>
      <OUTCOME>6</OUTCOME>
      <OUTCOME>7</OUTCOME>
      <OUTCOME>8</OUTCOME>
      <OUTCOME>9</OUTCOME>
      <OUTCOME>10</OUTCOME>
      <OUTCOME>11</OUTCOME>
      <OUTCOME>12</OUTCOME>
      <OUTCOME>13</OUTCOME>
      <OUTCOME>14</OUTCOME>
      <OUTCOME>15</OUTCOME>
      <OUTCOME>16</OUTCOME>
      <OUTCOME>17</OUTCOME>
      <OUTCOME>18</OUTCOME>
      <OUTCOME>19</OUTCOME>
      <OUTCOME>20</OUTCOME>
      <OUTCOME>21</OUTCOME>
      <OUTCOME>22</OUTCOME>
      <OUTCOME>23</OUTCOME>
      <OUTCOME>24</OUTCOME>
      <OUTCOME>25</OUTCOME>
      <OUTCOME>26</OUTCOME>
      <OUTCOME>27</OUTCOME>
      <OUTCOME>28</OUTCOME>
      <OUTCOME>29</OUTCOME>
      <OUTCOME>30</OUTCOME>
      <OUTCOME>31</OUTCOME>
      <OUTCOME>32</OUTCOME>
      <OUTCOME>33</OUTCOME>
      <OUTCOME>34</OUTCOME>
      <OUTCOME>35</OUTCOME>
      <OUTCOME>36</OUTCOME>
      <OUTCOME>37</OUTCOME>
      <OUTCOME>38</OUTCOME>
      <OUTCOME>39</OUTCOME>
      <OUTCOME>40</OUTCOME>
      <OUTCOME>41</OUTCOME>
      <OUTCOME>42</OUTCOME>
      <OUTCOME>43</OUTCOME>
      <OUTCOME>44</OUTCOME>
      <OUTCOME>45</OUTCOME>
      <OUTCOME>46</OUTCOME>
      <OUTCOME>47</OUTCOME>
      <OUTCOME>48</OUTCOME>
      <OUTCOME>49</OUTCOME>
      <OUTCOME>50</OUTCOME>
      <OUTCOME>51</OUTCOME>
      <OUTCOME>52</OUTCOME>
      <OUTCOME>53</OUTCOME>
      <OUTCOME>54</OUTCOME>
      <OUTCOME>55</OUTCOME>
      <OUTCOME>56</OUTCOME>
      <OUTCOME>57</OUTCOME>
      <OUTCOME>58</OUTCOME>
      <OUTCOME>59</OUTCOME>
      <OUTCOME>60</OUTCOME>
      <OUTCOME>61</OUTCOME>
      <OUTCOME>62</OUTCOME>
      <OUTCOME>63</OUTCOME>
      <OUTCOME>64</OUTCOME>
      <OUTCOME>65</OUTCOME>
      <OUTCOME>66</OUTCOME>
      <PROPERTY>weight = None</PROPERTY>
    </VARIABLE>
    <VARIABLE TYPE="nature">
      <NAME>sorttkv</NAME>
      <OUTCOME>0</OUTCOME>
      <OUTCOME>1</OUTCOME>
      <OUTCOME>2</OUTCOME>
      <OUTCOME>3</OUTCOME>
      <OUTCOME>4</OUTCOME>
      <OUTCOME>5</OUTCOME>
      <OUTCOME>6</OUTCOME>
      <OUTCOME>7</OUTCOME>
      <OUTCOME>8</OUTCOME>
      <PROPERTY>weight = None</PROPERTY>
    </VARIABLE>
    <VARIABLE TYPE="nature">
      <NAME>spndx</NAME>
      <OUTCOME>0</OUTCOME>
      <PROPERTY>weight = None</PROPERTY>
    </VARIABLE>
    <VARIABLE TYPE="nature">
      <NAME>srtprot</NAME>
      <OUTCOME>0</OUTCOME>
      <OUTCOME>1</OUTCOME>
      <OUTCOME>2</OUTCOME>
      <OUTCOME>3</OUTCOME>
      <OUTCOME>4</OUTCOME>
      <OUTCOME>5</OUTCOME>
      <OUTCOME>6</OUTCOME>
      <OUTCOME>7</OUTCOME>
      <PROPERTY>weight = None</PROPERTY>
    </VARIABLE>
    <VARIABLE TYPE="nature">
      <NAME>srtsize</NAME>
      <OUTCOME>0</OUTCOME>
      <OUTCOME>1</OUTCOME>
      <OUTCOME>2</OUTCOME>
      <OUTCOME>3</OUTCOME>
      <OUTCOME>4</OUTCOME>
      <OUTCOME>5</OUTCOME>
      <OUTCOME>6</OUTCOME>
      <PROPERTY>weight = None</PROPERTY>
    </VARIABLE>
    <VARIABLE TYPE="nature">
      <NAME>tkv</NAME>
      <OUTCOME>0</OUTCOME>
      <OUTCOME>1</OUTCOME>
      <OUTCOME>2</OUTCOME>
      <OUTCOME>3</OUTCOME>
      <OUTCOME>4</OUTCOME>
      <OUTCOME>5</OUTCOME>
      <OUTCOME>6</OUTCOME>
      <PROPERTY>weight = None</PROPERTY>
    </VARIABLE>
    <VARIABLE TYPE="nature">
      <NAME>tkvs</NAME>
      <OUTCOME>0</OUTCOME>
      <OUTCOME>1</OUTCOME>
      <OUTCOME>2</OUTCOME>
      <OUTCOME>3</OUTCOME>
      <OUTCOME>4</OUTCOME>
      <OUTCOME>5</OUTCOME>
      <OUTCOME>6</OUTCOME>
      <OUTCOME>7</OUTCOME>
      <OUTCOME>8</OUTCOME>
      <PROPERTY>weight = None</PROPERTY>
    </VARIABLE>
    <VARIABLE TYPE="nature">
      <NAME>udb</NAME>
      <OUTCOME>0</OUTCOME>
      <OUTCOME>1</OUTCOME>
      <OUTCOME>2</OUTCOME>
      <OUTCOME>3</OUTCOME>
      <OUTCOME>4</OUTCOME>
      <OUTCOME>5</OUTCOME>
      <OUTCOME>6</OUTCOME>
      <OUTCOME>7</OUTCOME>
      <OUTCOME>8</OUTCOME>
      <PROPERTY>weight = None</PROPERTY>
    </VARIABLE>
    <DEFINITION>
      <FOR>aar_mod</FOR>
      <GIVEN>ngodn</GIVEN>
      <GIVEN>sort</GIVEN>
      <TABLE>0.0909090909090909 0.0909090909090909 0.0909090909090909 0.0909090909090909 0.0909090909090909 0.0909090909090909 0.0909090909090909 0.0909090909090909 0.0909090909090909 0.0909090909090909 0.0909090909090909 0.0909090909090909 0.0909090909090909 0.0909090909090909 0.0909090909090909 0.0909090909090909 0.0909090909090909 0.0909090909090909 0.0909090909090909 0.0909090909090909 0.0909090909090909 0.0909090909090909 0.0009589566551591862 0.0009589566551591862 0.0009589566551591862 0.0009589566551591862 0.9904104334484076 0.0009589566551591862 0.0009589566551591862 0.0009589566551591862 0.0009589566551591862 0.0009589566551591862 0.0009589566551591862 0.0909090909090909 0.0909090909090909 0.0909090909090909 0.0909090909090909 0.0909090909090909 0.0909090909090909 0.0909090909090909 0.0909090909090909 0.0909090909090909 0.0909090909090909 0.0909090909090909 0.0009589566551591862 0.0009589566551591862 0.9904104334484076 0.0009589566551591862 0.0009589566551591862 0.0009589566551591862 0.0009589566551591862 0.0009589566551591862 0.0009589566551591862 0.0009589566551591862 0.0009589566551591862 0.0009589566551591862 0.0009589566551591862 0.9904104334484076 0.0009589566551591862 0.0009589566551591862 0.0009589566551591862 0.0009589566551591862 0.0009589566551591862 0.0009589566551591862 0.0009589566551591862 0.0009589566551591862 0.0909090909090909 0.0909090909090909 0.0909090909090909 0.0909090909090909 0.0909090909090909 0.0909090909090909 0.0909090909090909 0.0909090909090909 0.0909090909090909 0.0909090909090909 0.0909090909090909 0.0909090909090909 0.0909090909090909 0.0909090909090909 0.0909090909090909 0.0909090909090909 0.0909090909090909 0.0909090909090909 0.0909090909090909 0.0909090909090909 0.0909090909090909 0.0909090909090909 0.0909090909090909 0.0909090909090909 0.0909090909090909 0.0909090909090909 0.0909090909090909 0.0909090909090909 0.0909090909090909 0.0909090909090909 0.0909090909090909 0.0909090909090909 0.0909090909090909 0.0009589566551591862 0.0009589566551591862 0.0009589566551591862 0.9904104334484076 0.0009589566551591862 0.0009589566551591862 0.0009589566551591862 0.0009589566551591862 0.0009589566551591862 0.0009589566551591862 0.0009589566551591862 0.000958956655159186 0.9904104334484074 0.000958956655159186 0.000958956655159186 0.000958956655159186 0.000958956655159186 0.000958956655159186 0.000958956655159186 0.000958956655159186 0.000958956655159186 0.000958956655159186 0.0009589566551591862 0.0009589566551591862 0.0009589566551591862 0.0009589566551591862 0.9904104334484076 0.0009589566551591862 0.0009589566551591862 0.0009589566551591862 0.0009589566551591862 0.0009589566551591862 0.0009589566551591862 0.00048202063048298445 0.00048202063048298445 0.00048202063048298445 0.00048202063048298445 0.4978309071628264 0.4978309071628264 0.00048202063048298445 0.00048202063048298445 0.00048202063048298445 0.00048202063048298445 0.00048202063048298445 0.0909090909090909 0.0909090909090909 0.0909090909090909 0.0909090909090909 0.0909090909090909 0.0909090909090909 0.0909090909090909 0.0909090909090909 0.0909090909090909 0.0909090909090909 0.0909090909090909 0.0909090909090909 0.0909090909090909 0.0909090909090909 0.0909090909090909 0.0909090909090909 0.0909090909090909 0.0909090909090909 0.0909090909090909 0.0909090909090909 0.0909090909090909 0.0909090909090909 0.0009589566551591862 0.0009589566551591862 0.9904104334484076 0.0009589566551591862 0.0009589566551591862 0.0009589566551591862 0.0009589566551591862 0.0009589566551591862 0.0009589566551591862 0.0009589566551591862 0.0009589566551591862 0.0909090909090909 0.0909090909090909 0.0909090909090909 0.0909090909090909 0.0909090909090909 0.0909090909090909 0.0909090909090909 0.0909090909090909 0.0909090909090909 0.0909090909090909 0.0909090909090909 0.0009589566551591862 0.0009589566551591862 0.0009589566551591862 0.9904104334484076 0.0009589566551591862 0.0009589566551591862 0.0009589566551591862 0.0009589566551591862 0.0009589566551591862 0.0009589566551591862 0.0009589566551591862 0.0909090909090909 0.0909090909090909 0.0909090909090909 0.0909090909090909 0.0909090909090909 0.0909090909090909 0.0909090909090909 0.0909090909090909 0.0909090909090909 0.0909090909090909 0.0909090909090909 0.0009589566551591862 0.0009589566551591862 0.0009589566551591862 0.9904104334484076 0.0009589566551591862 0.0009589566551591862 0.0009589566551591862 0.0009589566551591862 0.0009589566551591862 0.0009589566551591862 0.0009589566551591862 0.00048202063048298445 0.00048202063048298445 0.00048202063048298445 0.4978309071628264 0.4978309071628264 0.00048202063048298445 0.00048202063048298445 0.00048202063048298445 0.00048202063048298445 0.00048202063048298445 0.00048202063048298445 0.0909090909090909 0.0909090909090909 0.0909090909090909 0.0909090909090909 0.0909090909090909 0.0909090909090909 0.0909090909090909 0.0909090909090909 0.0909090909090909 0.0909090909090909 0.0909090909090909 0.0909090909090909 0.0909090909090909 0.0909090909090909 0.0909090909090909 0.0909090909090909 0.0909090909090909 0.0909090909090909 0.0909090909090909 0.0909090909090909 0.0909090909090909 0.0909090909090909 0.0909090909090909 0.0909090909090909 0.0909090909090909 0.0909090909090909 0.0909090909090909 0.0909090909090909 0.0909090909090909 0.0909090909090909 0.0909090909090909 0.0909090909090909 0.0909090909090909 0.0909090909090909 0.0909090909090909 0.0909090909090909 0.0909090909090909 0.0909090909090909 0.0909090909090909 0.0909090909090909 0.0909090909090909 0.0909090909090909 0.0909090909090909 0.0909090909090909 0.0909090909090909 0.0909090909090909 0.0909090909090909 0.0909090909090909 0.0909090909090909 0.0909090909090909 0.0909090909090909 0.0909090909090909 0.0909090909090909 0.0909090909090909 0.0909090909090909 0.0009589566551591862 0.0009589566551591862 0.0009589566551591862 0.0009589566551591862 0.9904104334484076 0.0009589566551591862 0.0009589566551591862 0.0009589566551591862 0.0009589566551591862 0.0009589566551591862 0.0009589566551591862 0.0909090909090909 0.0909090909090909 0.0909090909090909 0.0909090909090909 0.0909090909090909 0.0909090909090909 0.0909090909090909 0.0909090909090909 0.0909090909090909 0.0909090909090909 0.0909090909090909 0.0909090909090909 0.0909090909090909 0.0909090909090909 0.0909090909090909 0.0909090909090909 0.0909090909090909 0.0909090909090909 0.0909090909090909 0.0909090909090909 0.0909090909090909 0.0909090909090909 0.0909090909090909 0.0909090909090909 0.0909090909090909 0.0909090909090909 0.0909090909090909 0.0909090909090909 0.0909090909090909 0.0909090909090909 0.0909090909090909 0.0909090909090909 0.0909090909090909 0.0009589566551591862 0.0009589566551591862 0.0009589566551591862 0.9904104334484076 0.0009589566551591862 0.0009589566551591862 0.0009589566551591862 0.0009589566551591862 0.0009589566551591862 0.0009589566551591862 0.0009589566551591862 0.0909090909090909 0.0909090909090909 0.0909090909090909 0.0909090909090909 0.0909090909090909 0.0909090909090909 0.0909090909090909 0.0909090909090909 0.0909090909090909 0.0909090909090909 0.0909090909090909 0.0009589566551591862 0.0009589566551591862 0.0009589566551591862 0.9904104334484076 0.0009589566551591862 0.0009589566551591862 0.0009589566551591862 0.0009589566551591862 0.0009589566551591862 0.0009589566551591862 0.0009589566551591862 0.0909090909090909 0.0909090909090909 0.0909090909090909 0.0909090909090909 0.0909090909090909 0.0909090909090909 0.0909090909090909 0.0909090909090909 0.0909090909090909 0.0909090909090909 0.0909090909090909 0.0909090909090909 0.0909090909090909 0.0909090909090909 0.0909090909090909 0.0909090909090909 0.0909090909090909 0.0909090909090909 0.0909090909090909 0.0909090909090909 0.0909090909090909 0.0909090909090909 0.0009589566551591862 0.0009589566551591862 0.0009589566551591862 0.9904104334484076 0.0009589566551591862 0.0009589566551591862 0.0009589566551591862 0.0009589566551591862 0.0009589566551591862 0.0009589566551591862 0.0009589566551591862 0.0909090909090909 0.0909090909090909 0.0909090909090909 0.0909090909090909 0.0909090909090909 0.0909090909090909 0.0909090909090909 0.0909090909090909 0.0909090909090909 0.0909090909090909 0.0909090909090909 0.0909090909090909 0.0909090909090909 0.0909090909090909 0.0909090909090909 0.0909090909090909 0.0909090909090909 0.0909090909090909 0.0909090909090909 0.0909090909090909 0.0909090909090909 0.0909090909090909 0.00048202063048298445 0.00048202063048298445 0.4978309071628264 0.00048202063048298445 0.4978309071628264 0.00048202063048298445 0.00048202063048298445 0.00048202063048298445 0.00048202063048298445 0.00048202063048298445 0.00048202063048298445 0.0909090909090909 0.0909090909090909 0.0909090909090909 0.0909090909090909 0.0909090909090909 0.0909090909090909 0.0909090909090909 0.0909090909090909 0.0909090909090909 0.0909090909090909 0.0909090909090909 0.0909090909090909 0.0909090909090909 0.0909090909090909 0.0909090909090909 0.0909090909090909 0.0909090909090909 0.0909090909090909 0.0909090909090909 0.0909090909090909 0.0909090909090909 0.0909090909090909 0.00048202063048298445 0.00048202063048298445 0.00048202063048298445 0.00048202063048298445 0.4978309071628264 0.00048202063048298445 0.00048202063048298445 0.00048202063048298445 0.00048202063048298445 0.00048202063048298445 0.4978309071628264 0.0009589566551591862 0.0009589566551591862 0.0009589566551591862 0.9904104334484076 0.0009589566551591862 0.0009589566551591862 0.0009589566551591862 0.0009589566551591862 0.0009589566551591862 0.0009589566551591862 0.0009589566551591862 0.0909090909090909 0.0909090909090909 0.0909090909090909 0.0909090909090909 0.0909090909090909 0.0909090909090909 0.0909090909090909 0.0909090909090909 0.0909090909090909 0.0909090909090909 0.0909090909090909 0.0909090909090909 0.0909090909090909 0.0909090909090909 0.0909090909090909 0.0909090909090909 0.0909090909090909 0.0909090909090909 0.0909090909090909 0.0909090909090909 0.0909090909090909 0.0909090909090909 0.0909090909090909 0.0909090909090909 0.0909090909090909 0.0909090909090909 0.0909090909090909 0.0909090909090909 0.0909090909090909 0.0909090909090909 0.0909090909090909 0.0909090909090909 0.0909090909090909 0.0909090909090909 0.0909090909090909 0.0909090909090909 0.0909090909090909 0.0909090909090909 0.0909090909090909 0.0909090909090909 0.0909090909090909 0.0909090909090909 0.0909090909090909 0.0909090909090909 0.0009589566551591862 0.0009589566551591862 0.0009589566551591862 0.9904104334484076 0.0009589566551591862 0.0009589566551591862 0.0009589566551591862 0.0009589566551591862 0.0009589566551591862 0.0009589566551591862 0.0009589566551591862 0.0909090909090909 0.0909090909090909 0.0909090909090909 0.0909090909090909 0.0909090909090909 0.0909090909090909 0.0909090909090909 0.0909090909090909 0.0909090909090909 0.0909090909090909 0.0909090909090909 0.0909090909090909 0.0909090909090909 0.0909090909090909 0.0909090909090909 0.0909090909090909 0.0909090909090909 0.0909090909090909 0.0909090909090909 0.0909090909090909 0.0909090909090909 0.0909090909090909 0.0009589566551591862 0.0009589566551591862 0.0009589566551591862 0.9904104334484076 0.0009589566551591862 0.0009589566551591862 0.0009589566551591862 0.0009589566551591862 0.0009589566551591862 0.0009589566551591862 0.0009589566551591862 0.0909090909090909 0.0909090909090909 0.0909090909090909 0.0909090909090909 0.0909090909090909 0.0909090909090909 0.0909090909090909 0.0909090909090909 0.0909090909090909 0.0909090909090909 0.0909090909090909 0.0009589566551591862 0.0009589566551591862 0.9904104334484076 0.0009589566551591862 0.0009589566551591862 0.0009589566551591862 0.0009589566551591862 0.0009589566551591862 0.0009589566551591862 0.0009589566551591862 0.0009589566551591862 0.0909090909090909 0.0909090909090909 0.0909090909090909 0.0909090909090909 0.0909090909090909 0.0909090909090909 0.0909090909090909 0.0909090909090909 0.0909090909090909 0.0909090909090909 0.0909090909090909 0.0909090909090909 0.0909090909090909 0.0909090909090909 0.0909090909090909 0.0909090909090909 0.0909090909090909 0.0909090909090909 0.0909090909090909 0.0909090909090909 0.0909090909090909 0.0909090909090909 0.0909090909090909 0.0909090909090909 0.0909090909090909 0.0909090909090909 0.0909090909090909 0.0909090909090909 0.0909090909090909 0.0909090909090909 0.0909090909090909 0.0909090909090909 0.0909090909090909 0.0009589566551591862 0.0009589566551591862 0.9904104334484076 0.0009589566551591862 0.0009589566551591862 0.0009589566551591862 0.0009589566551591862 0.0009589566551591862 0.0009589566551591862 0.0009589566551591862 0.0009589566551591862 0.0909090909090909 0.0909090909090909 0.0909090909090909 0.0909090909090909 0.0909090909090909 0.0909090909090909 0.0909090909090909 0.0909090909090909 0.0909090909090909 0.0909090909090909 0.0909090909090909 0.0009589566551591862 0.0009589566551591862 0.0009589566551591862 0.9904104334484076 0.0009589566551591862 0.0009589566551591862 0.0009589566551591862 0.0009589566551591862 0.0009589566551591862 0.0009589566551591862 0.0009589566551591862 0.0909090909090909 0.0909090909090909 0.0909090909090909 0.0909090909090909 0.0909090909090909 0.0909090909090909 0.0909090909090909 0.0909090909090909 0.0909090909090909 0.0909090909090909 0.0909090909090909 0.0009589566551591864 0.0009589566551591864 0.0009589566551591864 0.0009589566551591864 0.0009589566551591864 0.9904104334484078 0.0009589566551591864 0.0009589566551591864 0.0009589566551591864 0.0009589566551591864 0.0009589566551591864 0.0909090909090909 0.0909090909090909 0.0909090909090909 0.0909090909090909 0.0909090909090909 0.0909090909090909 0.0909090909090909 0.0909090909090909 0.0909090909090909 0.0909090909090909 0.0909090909090909 0.0909090909090909 0.0909090909090909 0.0909090909090909 0.0909090909090909 0.0909090909090909 0.0909090909090909 0.0909090909090909 0.0909090909090909 0.0909090909090909 0.0909090909090909 0.0909090909090909 0.00048202063048298445 0.00048202063048298445 0.4978309071628264 0.4978309071628264 0.00048202063048298445 0.00048202063048298445 0.00048202063048298445 0.00048202063048298445 0.00048202063048298445 0.00048202063048298445 0.00048202063048298445 0.0909090909090909 0.0909090909090909 0.0909090909090909 0.0909090909090909 0.0909090909090909 0.0909090909090909 0.0909090909090909 0.0909090909090909 0.0909090909090909 0.0909090909090909 0.0909090909090909 0.0909090909090909 0.0909090909090909 0.0909090909090909 0.0909090909090909 0.0909090909090909 0.0909090909090909 0.0909090909090909 0.0909090909090909 0.0909090909090909 0.0909090909090909 0.0909090909090909 0.00048202063048298445 0.00048202063048298445 0.4978309071628264 0.4978309071628264 0.00048202063048298445 0.00048202063048298445 0.00048202063048298445 0.00048202063048298445 0.00048202063048298445 0.00048202063048298445 0.00048202063048298445 0.0009589566551591862 0.0009589566551591862 0.0009589566551591862 0.0009589566551591862 0.9904104334484076 0.0009589566551591862 0.0009589566551591862 0.0009589566551591862 0.0009589566551591862 0.0009589566551591862 0.0009589566551591862 0.0909090909090909 0.0909090909090909 0.0909090909090909 0.0909090909090909 0.0909090909090909 0.0909090909090909 0.0909090909090909 0.0909090909090909 0.0909090909090909 0.0909090909090909 0.0909090909090909 0.0909090909090909 0.0909090909090909 0.0909090909090909 0.0909090909090909 0.0909090909090909 0.0909090909090909 0.0909090909090909 0.0909090909090909 0.0909090909090909 0.0909090909090909 0.0909090909090909 0.0909090909090909 0.0909090909090909 0.0909090909090909 0.0909090909090909 0.0909090909090909 0.0909090909090909 0.0909090909090909 0.0909090909090909 0.0909090909090909 0.0909090909090909 0.0909090909090909 0.0909090909090909 0.0909090909090909 0.0909090909090909 0.0909090909090909 0.0909090909090909 0.0909090909090909 0.0909090909090909 0.0909090909090909 0.0909090909090909 0.0909090909090909 0.0909090909090909 0.0909090909090909 0.0909090909090909 0.0909090909090909 0.0909090909090909 0.0909090909090909 0.0909090909090909 0.0909090909090909 0.0909090909090909 0.0909090909090909 0.0909090909090909 0.0909090909090909 0.0909090909090909 0.0909090909090909 0.0909090909090909 0.0909090909090909 0.0909090909090909 0.0909090909090909 0.0909090909090909 0.0909090909090909 0.0909090909090909 0.0909090909090909 0.0909090909090909 0.0909090909090909 0.0909090909090909 0.0909090909090909 0.0909090909090909 0.0909090909090909 0.0909090909090909 0.0909090909090909 0.0909090909090909 0.0909090909090909 0.0909090909090909 0.0909090909090909 0.0909090909090909 0.0909090909090909 0.0909090909090909 0.0909090909090909 0.0909090909090909 0.0909090909090909 0.0909090909090909 0.0909090909090909 0.0909090909090909 0.0909090909090909 0.0909090909090909 0.0909090909090909 0.0909090909090909 0.0909090909090909 0.0909090909090909 0.0909090909090909 0.0909090909090909 0.0909090909090909 0.0909090909090909 0.0909090909090909 0.0909090909090909 0.0909090909090909 0.0909090909090909 0.0909090909090909 0.0909090909090909 0.0909090909090909 0.0909090909090909 0.0909090909090909 0.0909090909090909 0.0909090909090909 0.0909090909090909 0.0909090909090909 0.0909090909090909 0.0909090909090909 0.0909090909090909 0.0909090909090909 0.0909090909090909 0.0909090909090909 0.0909090909090909 0.0909090909090909 0.0909090909090909 0.0909090909090909 0.0909090909090909 0.0909090909090909 0.0909090909090909 0.0909090909090909 0.0909090909090909 0.0909090909090909 0.0909090909090909 0.0909090909090909 0.0909090909090909 0.0909090909090909 0.0909090909090909 0.0909090909090909 0.0909090909090909 0.0909090909090909 0.0909090909090909 0.0909090909090909 0.0909090909090909 0.0909090909090909 0.0909090909090909 0.0909090909090909 0.0909090909090909 0.0909090909090909 0.0909090909090909 0.0909090909090909 0.0909090909090909 0.0909090909090909 0.0909090909090909 0.0909090909090909 0.0909090909090909 0.0909090909090909 0.0909090909090909 0.0909090909090909 0.0909090909090909 0.0909090909090909 0.0909090909090909 0.0909090909090909 0.0909090909090909 0.0909090909090909 0.0909090909090909 0.0909090909090909 0.0909090909090909 0.0909090909090909 0.0909090909090909 0.0909090909090909 0.0909090909090909 0.0909090909090909 0.0909090909090909 0.0909090909090909 0.0909090909090909 0.0909090909090909 0.0909090909090909 0.0909090909090909 0.0909090909090909 0.0909090909090909 0.0909090909090909 0.0909090909090909 0.0909090909090909 0.0009589566551591862 0.0009589566551591862 0.0009589566551591862 0.9904104334484076 0.0009589566551591862 0.0009589566551591862 0.0009589566551591862 0.0009589566551591862 0.0009589566551591862 0.0009589566551591862 0.0009589566551591862 0.0909090909090909 0.0909090909090909 0.0909090909090909 0.0909090909090909 0.0909090909090909 0.0909090909090909 0.0909090909090909 0.0909090909090909 0.0909090909090909 0.0909090909090909 0.0909090909090909 0.0909090909090909 0.0909090909090909 0.0909090909090909 0.0909090909090909 0.0909090909090909 0.0909090909090909 0.0909090909090909 0.0909090909090909 0.0909090909090909 0.0909090909090909 0.0909090909090909 0.0909090909090909 0.0909090909090909 0.0909090909090909 0.0909090909090909 0.0909090909090909 0.0909090909090909 0.0909090909090909 0.0909090909090909 0.0909090909090909 0.0909090909090909 0.0909090909090909 0.0909090909090909 0.0909090909090909 0.0909090909090909 0.0909090909090909 0.0909090909090909 0.0909090909090909 0.0909090909090909 0.0909090909090909 0.0909090909090909 0.0909090909090909 0.0909090909090909 0.0909090909090909 0.0909090909090909 0.0909090909090909 0.0909090909090909 0.0909090909090909 0.0909090909090909 0.0909090909090909 0.0909090909090909 0.0909090909090909 0.0909090909090909 0.0909090909090909 0.0009589566551591862 0.0009589566551591862 0.9904104334484076 0.0009589566551591862 0.0009589566551591862 0.0009589566551591862 0.0009589566551591862 0.0009589566551591862 0.0009589566551591862 0.0009589566551591862 0.0009589566551591862 0.0909090909090909 0.0909090909090909 0.0909090909090909 0.0909090909090909 0.0909090909090909 0.0909090909090909 0.0909090909090909 0.0909090909090909 0.0909090909090909 0.0909090909090909 0.0909090909090909 0.0909090909090909 0.0909090909090909 0.0909090909090909 0.0909090909090909 0.0909090909090909 0.0909090909090909 0.0909090909090909 0.0909090909090909 0.0909090909090909 0.0909090909090909 0.0909090909090909 0.0909090909090909 0.0909090909090909 0.0909090909090909 0.0909090909090909 0.0909090909090909 0.0909090909090909 0.0909090909090909 0.0909090909090909 0.0909090909090909 0.0909090909090909 0.0909090909090909 0.0909090909090909 0.0909090909090909 0.0909090909090909 0.0909090909090909 0.0909090909090909 0.0909090909090909 0.0909090909090909 0.0909090909090909 0.0909090909090909 0.0909090909090909 0.0909090909090909 0.0909090909090909 0.0909090909090909 0.0909090909090909 0.0909090909090909 0.0909090909090909 0.0909090909090909 0.0909090909090909 0.0909090909090909 0.0909090909090909 0.0909090909090909 0.0909090909090909 0.0909090909090909 0.0909090909090909 0.0909090909090909 0.0909090909090909 0.0909090909090909 0.0909090909090909 0.0909090909090909 0.0909090909090909 0.0909090909090909 0.0909090909090909 0.0909090909090909 0.0909090909090909 0.0909090909090909 0.0909090909090909 0.0909090909090909 0.0909090909090909 0.0909090909090909 0.0909090909090909 0.0909090909090909 0.0909090909090909 0.0909090909090909 0.0909090909090909 0.0909090909090909 0.0909090909090909 0.0909090909090909 0.0909090909090909 0.0909090909090909 0.0909090909090909 0.0909090909090909 0.0909090909090909 0.0909090909090909 0.0909090909090909 0.0909090909090909 0.0909090909090909 0.0909090909090909 0.0909090909090909 0.0909090909090909 0.0909090909090909 0.0909090909090909 0.0909090909090909 0.0909090909090909 0.0909090909090909 0.0909090909090909 0.0909090909090909 0.0909090909090909 0.0909090909090909 0.0909090909090909 0.0909090909090909 0.0909090909090909 0.0909090909090909 0.0909090909090909 0.0909090909090909 0.0909090909090909 0.0909090909090909 0.0909090909090909 0.0909090909090909 0.0909090909090909 0.0909090909090909 0.0909090909090909 0.0909090909090909 0.0909090909090909 0.0909090909090909 0.0909090909090909 0.0909090909090909 0.0909090909090909 0.0909090909090909 0.0909090909090909 0.0909090909090909 0.0909090909090909 0.0909090909090909 0.0909090909090909 0.0909090909090909 0.0909090909090909 0.0909090909090909 0.0909090909090909 0.0909090909090909 0.0909090909090909 0.0909090909090909 0.0909090909090909 0.0909090909090909 0.0909090909090909 0.0909090909090909 0.0909090909090909 0.0909090909090909 0.0909090909090909 0.0909090909090909 0.0909090909090909 0.0909090909090909 0.0909090909090909 0.0909090909090909 0.0909090909090909 0.0909090909090909 0.0909090909090909 0.0909090909090909 0.0909090909090909 0.0909090909090909 0.0909090909090909 0.0909090909090909 0.0909090909090909 0.0909090909090909 0.0909090909090909 0.0909090909090909 0.0909090909090909 0.0909090909090909 0.0909090909090909 0.0909090909090909 0.0909090909090909 0.0909090909090909 0.0909090909090909 0.0909090909090909 0.0909090909090909 0.0909090909090909 0.0909090909090909 0.0909090909090909 0.0909090909090909 0.0909090909090909 0.0909090909090909 0.0909090909090909 0.0909090909090909 0.0909090909090909 0.0909090909090909 0.0909090909090909 0.0909090909090909 0.0909090909090909 0.0909090909090909 0.0909090909090909 0.0909090909090909 0.0909090909090909 0.0909090909090909 0.0909090909090909 0.0909090909090909 0.0909090909090909 0.0909090909090909 0.0909090909090909 0.0909090909090909 0.0909090909090909 0.0909090909090909 0.0909090909090909 0.0909090909090909 0.0909090909090909 0.0909090909090909 0.0909090909090909 0.0909090909090909 0.0909090909090909 0.0909090909090909 0.0909090909090909 0.0909090909090909 0.0909090909090909 0.0909090909090909 0.0909090909090909 0.0909090909090909 0.0909090909090909 0.0909090909090909 0.0909090909090909 0.0909090909090909 0.0909090909090909 0.0909090909090909 0.0909090909090909 0.0909090909090909 0.0909090909090909 0.0909090909090909 0.0909090909090909 0.0909090909090909 0.0909090909090909 0.0909090909090909 0.0909090909090909 0.0909090909090909 0.0909090909090909 0.0909090909090909 0.0909090909090909 0.0909090909090909 0.0909090909090909 0.0909090909090909 0.0909090909090909 0.0909090909090909 0.0909090909090909 0.0909090909090909 0.0909090909090909 0.0909090909090909 0.0909090909090909 0.0909090909090909 0.0909090909090909 0.0909090909090909 0.0909090909090909 0.0909090909090909 0.0909090909090909 0.0909090909090909 0.0909090909090909 0.0909090909090909 0.0909090909090909 0.0909090909090909 0.0909090909090909 0.0909090909090909 0.0909090909090909 0.0909090909090909 0.0909090909090909 0.0909090909090909 0.0909090909090909 0.0909090909090909 0.0909090909090909 0.0909090909090909 0.0909090909090909 0.0909090909090909 0.0909090909090909 0.0909090909090909 0.0909090909090909 0.0909090909090909 0.0909090909090909 0.0909090909090909 0.0909090909090909 0.0909090909090909 0.0909090909090909 0.0909090909090909 0.0909090909090909 0.0909090909090909 0.0909090909090909 0.0909090909090909 0.0909090909090909 0.0909090909090909 0.0909090909090909 0.0909090909090909 0.0909090909090909 0.0909090909090909 0.0909090909090909 0.0909090909090909 0.0909090909090909 0.0909090909090909 0.0909090909090909 0.0909090909090909 0.0909090909090909 0.0909090909090909 0.0909090909090909 0.0909090909090909 0.0909090909090909 0.0909090909090909 0.0909090909090909 0.0909090909090909 0.0909090909090909 0.0909090909090909 0.0909090909090909 0.0909090909090909 0.0909090909090909 0.0909090909090909 0.0909090909090909 0.0909090909090909 0.0909090909090909 0.0909090909090909 0.0909090909090909 0.0909090909090909 0.0909090909090909 0.0909090909090909 0.0909090909090909 0.0909090909090909 0.0909090909090909 0.0909090909090909 0.0909090909090909 0.0909090909090909 0.0909090909090909 0.0909090909090909 0.0909090909090909 0.0909090909090909 0.0909090909090909 0.0909090909090909 0.0909090909090909 0.0909090909090909 0.0909090909090909 0.0909090909090909 0.0909090909090909 0.0909090909090909 0.0909090909090909 0.0909090909090909 0.0909090909090909 0.0909090909090909 0.0909090909090909 0.0909090909090909 0.0909090909090909 0.0909090909090909 0.0909090909090909 0.0909090909090909 0.0909090909090909 0.0909090909090909 0.0909090909090909 0.0909090909090909 0.0909090909090909 0.0909090909090909 0.0909090909090909 0.0009589566551591866 0.0009589566551591866 0.0009589566551591866 0.0009589566551591866 0.0009589566551591866 0.0009589566551591866 0.0009589566551591866 0.0009589566551591866 0.0009589566551591866 0.0009589566551591866 0.9904104334484081 0.0909090909090909 0.0909090909090909 0.0909090909090909 0.0909090909090909 0.0909090909090909 0.0909090909090909 0.0909090909090909 0.0909090909090909 0.0909090909090909 0.0909090909090909 0.0909090909090909 0.0909090909090909 0.0909090909090909 0.0909090909090909 0.0909090909090909 0.0909090909090909 0.0909090909090909 0.0909090909090909 0.0909090909090909 0.0909090909090909 0.0909090909090909 0.0909090909090909 0.0909090909090909 0.0909090909090909 0.0909090909090909 0.0909090909090909 0.0909090909090909 0.0909090909090909 0.0909090909090909 0.0909090909090909 0.0909090909090909 0.0909090909090909 0.0909090909090909 0.0909090909090909 0.0909090909090909 0.0909090909090909 0.0909090909090909 0.0909090909090909 0.0909090909090909 0.0909090909090909 0.0909090909090909 0.0909090909090909 0.0909090909090909 0.0909090909090909 0.0909090909090909 0.0909090909090909 0.0909090909090909 0.0909090909090909 0.0909090909090909 0.0909090909090909 0.0909090909090909 0.0909090909090909 0.0909090909090909 0.0909090909090909 0.0909090909090909 0.0909090909090909 0.0909090909090909 0.0909090909090909 0.0909090909090909 0.0909090909090909 0.0909090909090909 0.0909090909090909 0.0909090909090909 0.0909090909090909 0.0909090909090909 0.0909090909090909 0.0909090909090909 0.0909090909090909 0.0909090909090909 0.0909090909090909 0.0909090909090909 0.0909090909090909 0.0909090909090909 0.0909090909090909 0.0909090909090909 0.0909090909090909 0.0909090909090909 0.0009589566551591862 0.0009589566551591862 0.0009589566551591862 0.0009589566551591862 0.9904104334484076 0.0009589566551591862 0.0009589566551591862 0.0009589566551591862 0.0009589566551591862 0.0009589566551591862 0.0009589566551591862 0.0909090909090909 0.0909090909090909 0.0909090909090909 0.0909090909090909 0.0909090909090909 0.0909090909090909 0.0909090909090909 0.0909090909090909 0.0909090909090909 0.0909090909090909 0.0909090909090909 0.0909090909090909 0.0909090909090909 0.0909090909090909 0.0909090909090909 0.0909090909090909 0.0909090909090909 0.0909090909090909 0.0909090909090909 0.0909090909090909 0.0909090909090909 0.0909090909090909 0.0909090909090909 0.0909090909090909 0.0909090909090909 0.0909090909090909 0.0909090909090909 0.0909090909090909 0.0909090909090909 0.0909090909090909 0.0909090909090909 0.0909090909090909 0.0909090909090909 0.4978309071628264 0.00048202063048298445 0.00048202063048298445 0.00048202063048298445 0.4978309071628264 0.00048202063048298445 0.00048202063048298445 0.00048202063048298445 0.00048202063048298445 0.00048202063048298445 0.00048202063048298445 0.0909090909090909 0.0909090909090909 0.0909090909090909 0.0909090909090909 0.0909090909090909 0.0909090909090909 0.0909090909090909 0.0909090909090909 0.0909090909090909 0.0909090909090909 0.0909090909090909 0.3324748905485449 0.0003219160442956476 0.3324748905485449 0.3324748905485449 0.0003219160442956476 0.0003219160442956476 0.0003219160442956476 0.0003219160442956476 0.0003219160442956476 0.0003219160442956476 0.0003219160442956476 0.0909090909090909 0.0909090909090909 0.0909090909090909 0.0909090909090909 0.0909090909090909 0.0909090909090909 0.0909090909090909 0.0909090909090909 0.0909090909090909 0.0909090909090909 0.0909090909090909 0.0009589566551591864 0.0009589566551591864 0.0009589566551591864 0.0009589566551591864 0.0009589566551591864 0.0009589566551591864 0.0009589566551591864 0.9904104334484078 0.0009589566551591864 0.0009589566551591864 0.0009589566551591864 0.000958956655159186 0.9904104334484074 0.000958956655159186 0.000958956655159186 0.000958956655159186 0.000958956655159186 0.000958956655159186 0.000958956655159186 0.000958956655159186 0.000958956655159186 0.000958956655159186 0.0909090909090909 0.0909090909090909 0.0909090909090909 0.0909090909090909 0.0909090909090909 0.0909090909090909 0.0909090909090909 0.0909090909090909 0.0909090909090909 0.0909090909090909 0.0909090909090909 0.0009589566551591866 0.0009589566551591866 0.0009589566551591866 0.0009589566551591866 0.0009589566551591866 0.0009589566551591866 0.0009589566551591866 0.0009589566551591866 0.9904104334484081 0.0009589566551591866 0.0009589566551591866 0.000958956655159186 0.9904104334484074 0.000958956655159186 0.000958956655159186 0.000958956655159186 0.000958956655159186 0.000958956655159186 0.000958956655159186 0.000958956655159186 0.000958956655159186 0.000958956655159186 0.0003219160442956476 0.3324748905485449 0.0003219160442956476 0.0003219160442956476 0.0003219160442956476 0.0003219160442956476 0.0003219160442956476 0.0003219160442956476 0.664627865052794 0.0003219160442956476 0.0003219160442956476 0.0009589566551591862 0.0009589566551591862 0.0009589566551591862 0.0009589566551591862 0.9904104334484076 0.0009589566551591862 0.0009589566551591862 0.0009589566551591862 0.0009589566551591862 0.0009589566551591862 0.0009589566551591862 0.00032191604429564766 0.00032191604429564766 0.00032191604429564766 0.00032191604429564766 0.00032191604429564766 0.00032191604429564766 0.3324748905485449 0.3324748905485449 0.00032191604429564766 0.3324748905485449 0.00032191604429564766 0.0909090909090909 0.0909090909090909 0.0909090909090909 0.0909090909090909 0.0909090909090909 0.0909090909090909 0.0909090909090909 0.0909090909090909 0.0909090909090909 0.0909090909090909 0.0909090909090909 0.0009589566551591866 0.0009589566551591866 0.0009589566551591866 0.0009589566551591866 0.0009589566551591866 0.0009589566551591866 0.0009589566551591866 0.0009589566551591866 0.0009589566551591866 0.0009589566551591866 0.9904104334484081 0.0909090909090909 0.0909090909090909 0.0909090909090909 0.0909090909090909 0.0909090909090909 0.0909090909090909 0.0909090909090909 0.0909090909090909 0.0909090909090909 0.0909090909090909 0.0909090909090909 0.00048202063048298445 0.00048202063048298445 0.4978309071628264 0.00048202063048298445 0.00048202063048298445 0.4978309071628264 0.00048202063048298445 0.00048202063048298445 0.00048202063048298445 0.00048202063048298445 0.00048202063048298445 0.00048202063048298456 0.00048202063048298456 0.00048202063048298456 0.00048202063048298456 0.00048202063048298456 0.00048202063048298456 0.99517979369517 0.00048202063048298456 0.00048202063048298456 0.00048202063048298456 0.00048202063048298456 0.0009589566551591864 0.0009589566551591864 0.0009589566551591864 0.0009589566551591864 0.0009589566551591864 0.0009589566551591864 0.0009589566551591864 0.9904104334484078 0.0009589566551591864 0.0009589566551591864 0.0009589566551591864 0.0909090909090909 0.0909090909090909 0.0909090909090909 0.0909090909090909 0.0909090909090909 0.0909090909090909 0.0909090909090909 0.0909090909090909 0.0909090909090909 0.0909090909090909 0.0909090909090909 0.0009589566551591864 0.0009589566551591864 0.0009589566551591864 0.0009589566551591864 0.0009589566551591864 0.0009589566551591864 0.9904104334484078 0.0009589566551591864 0.0009589566551591864 0.0009589566551591864 0.0009589566551591864 0.0009589566551591866 0.0009589566551591866 0.0009589566551591866 0.0009589566551591866 0.0009589566551591866 0.0009589566551591866 0.0009589566551591866 0.0009589566551591866 0.0009589566551591866 0.0009589566551591866 0.9904104334484081 0.0909090909090909 0.0909090909090909 0.0909090909090909 0.0909090909090909 0.0909090909090909 0.0909090909090909 0.0909090909090909 0.0909090909090909 0.0909090909090909 0.0909090909090909 0.0909090909090909 0.0909090909090909 0.0909090909090909 0.0909090909090909 0.0909090909090909 0.0909090909090909 0.0909090909090909 0.0909090909090909 0.0909090909090909 0.0909090909090909 0.0909090909090909 0.0909090909090909 0.0009589566551591862 0.0009589566551591862 0.0009589566551591862 0.0009589566551591862 0.9904104334484076 0.0009589566551591862 0.0009589566551591862 0.0009589566551591862 0.0009589566551591862 0.0009589566551591862 0.0009589566551591862 0.0909090909090909 0.0909090909090909 0.0909090909090909 0.0909090909090909 0.0909090909090909 0.0909090909090909 0.0909090909090909 0.0909090909090909 0.0909090909090909 0.0909090909090909 0.0909090909090909 0.24957711082112993 0.00024165095935430858 0.00024165095935430858 0.00024165095935430858 0.00024165095935430858 0.00024165095935430858 0.00024165095935430858 0.00024165095935430858 0.00024165095935430858 0.24957711082112993 0.4989125706829055 0.0909090909090909 0.0909090909090909 0.0909090909090909 0.0909090909090909 0.0909090909090909 0.0909090909090909 0.0909090909090909 0.0909090909090909 0.0909090909090909 0.0909090909090909 0.0909090909090909 0.0909090909090909 0.0909090909090909 0.0909090909090909 0.0909090909090909 0.0909090909090909 0.0909090909090909 0.0909090909090909 0.0909090909090909 0.0909090909090909 0.0909090909090909 0.0909090909090909 0.0909090909090909 0.0909090909090909 0.0909090909090909 0.0909090909090909 0.0909090909090909 0.0909090909090909 0.0909090909090909 0.0909090909090909 0.0909090909090909 0.0909090909090909 0.0909090909090909 0.00032191604429564766 0.00032191604429564766 0.00032191604429564766 0.00032191604429564766 0.00032191604429564766 0.00032191604429564766 0.00032191604429564766 0.3324748905485449 0.6646278650527941 0.00032191604429564766 0.00032191604429564766 0.0909090909090909 0.0909090909090909 0.0909090909090909 0.0909090909090909 0.0909090909090909 0.0909090909090909 0.0909090909090909 0.0909090909090909 0.0909090909090909 0.0909090909090909 0.0909090909090909 0.0909090909090909 0.0909090909090909 0.0909090909090909 0.0909090909090909 0.0909090909090909 0.0909090909090909 0.0909090909090909 0.0909090909090909 0.0909090909090909 0.0909090909090909 0.0909090909090909 0.9904104334484074 0.000958956655159186 0.000958956655159186 0.000958956655159186 0.000958956655159186 0.000958956655159186 0.000958956655159186 0.000958956655159186 0.000958956655159186 0.000958956655159186 0.000958956655159186 0.0009589566551591864 0.0009589566551591864 0.0009589566551591864 0.0009589566551591864 0.0009589566551591864 0.9904104334484078 0.0009589566551591864 0.0009589566551591864 0.0009589566551591864 0.0009589566551591864 0.0009589566551591864 0.0909090909090909 0.0909090909090909 0.0909090909090909 0.0909090909090909 0.0909090909090909 0.0909090909090909 0.0909090909090909 0.0909090909090909 0.0909090909090909 0.0909090909090909 0.0909090909090909 0.0909090909090909 0.0909090909090909 0.0909090909090909 0.0909090909090909 0.0909090909090909 0.0909090909090909 0.0909090909090909 0.0909090909090909 0.0909090909090909 0.0909090909090909 0.0909090909090909 0.0909090909090909 0.0909090909090909 0.0909090909090909 0.0909090909090909 0.0909090909090909 0.0909090909090909 0.0909090909090909 0.0909090909090909 0.0909090909090909 0.0909090909090909 0.0909090909090909 0.0909090909090909 0.0909090909090909 0.0909090909090909 0.0909090909090909 0.0909090909090909 0.0909090909090909 0.0909090909090909 0.0909090909090909 0.0909090909090909 0.0909090909090909 0.0909090909090909 0.0909090909090909 0.0909090909090909 0.0909090909090909 0.0909090909090909 0.0909090909090909 0.0909090909090909 0.0909090909090909 0.0909090909090909 0.0909090909090909 0.0909090909090909 0.0909090909090909 0.00048202063048298445 0.00048202063048298445 0.00048202063048298445 0.4978309071628264 0.00048202063048298445 0.00048202063048298445 0.00048202063048298445 0.00048202063048298445 0.00048202063048298445 0.00048202063048298445 0.4978309071628264 0.0009589566551591866 0.0009589566551591866 0.0009589566551591866 0.0009589566551591866 0.0009589566551591866 0.0009589566551591866 0.0009589566551591866 0.0009589566551591866 0.0009589566551591866 0.9904104334484081 0.0009589566551591866 0.00048202063048298466 0.00048202063048298466 0.00048202063048298466 0.00048202063048298466 0.00048202063048298466 0.00048202063048298466 0.00048202063048298466 0.00048202063048298466 0.49783090716282663 0.49783090716282663 0.00048202063048298466 0.00048202063048298445 0.00048202063048298445 0.00048202063048298445 0.4978309071628264 0.4978309071628264 0.00048202063048298445 0.00048202063048298445 0.00048202063048298445 0.00048202063048298445 0.00048202063048298445 0.00048202063048298445 0.0009589566551591864 0.0009589566551591864 0.0009589566551591864 0.0009589566551591864 0.0009589566551591864 0.0009589566551591864 0.0009589566551591864 0.9904104334484078 0.0009589566551591864 0.0009589566551591864 0.0009589566551591864 0.00048202063048298456 0.00048202063048298456 0.00048202063048298456 0.00048202063048298456 0.00048202063048298456 0.00048202063048298456 0.00048202063048298456 0.4978309071628265 0.4978309071628265 0.00048202063048298456 0.00048202063048298456 0.0009589566551591866 0.0009589566551591866 0.0009589566551591866 0.0009589566551591866 0.0009589566551591866 0.0009589566551591866 0.0009589566551591866 0.0009589566551591866 0.9904104334484081 0.0009589566551591866 0.0009589566551591866 0.0009589566551591862 0.0009589566551591862 0.0009589566551591862 0.9904104334484076 0.0009589566551591862 0.0009589566551591862 0.0009589566551591862 0.0009589566551591862 0.0009589566551591862 0.0009589566551591862 0.0009589566551591862 0.00048202063048298445 0.00048202063048298445 0.00048202063048298445 0.00048202063048298445 0.4978309071628264 0.00048202063048298445 0.4978309071628264 0.00048202063048298445 0.00048202063048298445 0.00048202063048298445 0.00048202063048298445 0.0909090909090909 0.0909090909090909 0.0909090909090909 0.0909090909090909 0.0909090909090909 0.0909090909090909 0.0909090909090909 0.0909090909090909 0.0909090909090909 0.0909090909090909 0.0909090909090909 0.00048202063048298445 0.4978309071628264 0.00048202063048298445 0.4978309071628264 0.00048202063048298445 0.00048202063048298445 0.00048202063048298445 0.00048202063048298445 0.00048202063048298445 0.00048202063048298445 0.00048202063048298445 0.0009589566551591866 0.0009589566551591866 0.0009589566551591866 0.0009589566551591866 0.0009589566551591866 0.0009589566551591866 0.0009589566551591866 0.0009589566551591866 0.9904104334484081 0.0009589566551591866 0.0009589566551591866 0.0009589566551591864 0.0009589566551591864 0.0009589566551591864 0.0009589566551591864 0.0009589566551591864 0.0009589566551591864 0.0009589566551591864 0.9904104334484078 0.0009589566551591864 0.0009589566551591864 0.0009589566551591864 0.00048202063048298456 0.00048202063048298456 0.00048202063048298456 0.00048202063048298456 0.00048202063048298456 0.4978309071628265 0.00048202063048298456 0.4978309071628265 0.00048202063048298456 0.00048202063048298456 0.00048202063048298456 0.00048202063048298445 0.4978309071628264 0.00048202063048298445 0.00048202063048298445 0.00048202063048298445 0.00048202063048298445 0.4978309071628264 0.00048202063048298445 0.00048202063048298445 0.00048202063048298445 0.00048202063048298445 0.0909090909090909 0.0909090909090909 0.0909090909090909 0.0909090909090909 0.0909090909090909 0.0909090909090909 0.0909090909090909 0.0909090909090909 0.0909090909090909 0.0909090909090909 0.0909090909090909 0.0909090909090909 0.0909090909090909 0.0909090909090909 0.0909090909090909 0.0909090909090909 0.0909090909090909 0.0909090909090909 0.0909090909090909 0.0909090909090909 0.0909090909090909 0.0909090909090909 0.00048202063048298445 0.4978309071628264 0.00048202063048298445 0.00048202063048298445 0.00048202063048298445 0.00048202063048298445 0.00048202063048298445 0.00048202063048298445 0.4978309071628264 0.00048202063048298445 0.00048202063048298445 0.0909090909090909 0.0909090909090909 0.0909090909090909 0.0909090909090909 0.0909090909090909 0.0909090909090909 0.0909090909090909 0.0909090909090909 0.0909090909090909 0.0909090909090909 0.0909090909090909 0.0909090909090909 0.0909090909090909 0.0909090909090909 0.0909090909090909 0.0909090909090909 0.0909090909090909 0.0909090909090909 0.0909090909090909 0.0909090909090909 0.0909090909090909 0.0909090909090909 0.0009589566551591866 0.0009589566551591866 0.0009589566551591866 0.0009589566551591866 0.0009589566551591866 0.0009589566551591866 0.0009589566551591866 0.0009589566551591866 0.0009589566551591866 0.9904104334484081 0.0009589566551591866 0.0009589566551591862 0.0009589566551591862 0.0009589566551591862 0.0009589566551591862 0.9904104334484076 0.0009589566551591862 0.0009589566551591862 0.0009589566551591862 0.0009589566551591862 0.0009589566551591862 0.0009589566551591862 0.9904104334484074 0.000958956655159186 0.000958956655159186 0.000958956655159186 0.000958956655159186 0.000958956655159186 0.000958956655159186 0.000958956655159186 0.000958956655159186 0.000958956655159186 0.000958956655159186 0.00048202063048298445 0.4978309071628264 0.00048202063048298445 0.00048202063048298445 0.00048202063048298445 0.4978309071628264 0.00048202063048298445 0.00048202063048298445 0.00048202063048298445 0.00048202063048298445 0.00048202063048298445 0.3324748905485449 0.0003219160442956476 0.0003219160442956476 0.0003219160442956476 0.0003219160442956476 0.3324748905485449 0.0003219160442956476 0.3324748905485449 0.0003219160442956476 0.0003219160442956476 0.0003219160442956476 0.0909090909090909 0.0909090909090909 0.0909090909090909 0.0909090909090909 0.0909090909090909 0.0909090909090909 0.0909090909090909 0.0909090909090909 0.0909090909090909 0.0909090909090909 0.0909090909090909 0.00048202063048298445 0.00048202063048298445 0.00048202063048298445 0.00048202063048298445 0.4978309071628264 0.00048202063048298445 0.4978309071628264 0.00048202063048298445 0.00048202063048298445 0.00048202063048298445 0.00048202063048298445 0.0009589566551591864 0.0009589566551591864 0.0009589566551591864 0.0009589566551591864 0.0009589566551591864 0.0009589566551591864 0.9904104334484078 0.0009589566551591864 0.0009589566551591864 0.0009589566551591864 0.0009589566551591864 0.0909090909090909 0.0909090909090909 0.0909090909090909 0.0909090909090909 0.0909090909090909 0.0909090909090909 0.0909090909090909 0.0909090909090909 0.0909090909090909 0.0909090909090909 0.0909090909090909 0.0009589566551591864 0.0009589566551591864 0.0009589566551591864 0.0009589566551591864 0.0009589566551591864 0.9904104334484078 0.0009589566551591864 0.0009589566551591864 0.0009589566551591864 0.0009589566551591864 0.0009589566551591864 0.0909090909090909 0.0909090909090909 0.0909090909090909 0.0909090909090909 0.0909090909090909 0.0909090909090909 0.0909090909090909 0.0909090909090909 0.0909090909090909 0.0909090909090909 0.0909090909090909 0.00048202063048298456 0.00048202063048298456 0.00048202063048298456 0.00048202063048298456 0.00048202063048298456 0.00048202063048298456 0.4978309071628265 0.00048202063048298456 0.00048202063048298456 0.00048202063048298456 0.4978309071628265 0.0009589566551591862 0.0009589566551591862 0.9904104334484076 0.0009589566551591862 0.0009589566551591862 0.0009589566551591862 0.0009589566551591862 0.0009589566551591862 0.0009589566551591862 0.0009589566551591862 0.0009589566551591862 0.00048202063048298445 0.00048202063048298445 0.00048202063048298445 0.4978309071628264 0.00048202063048298445 0.00048202063048298445 0.00048202063048298445 0.4978309071628264 0.00048202063048298445 0.00048202063048298445 0.00048202063048298445 0.0003219160442956476 0.0003219160442956476 0.0003219160442956476 0.0003219160442956476 0.3324748905485449 0.3324748905485449 0.0003219160442956476 0.0003219160442956476 0.3324748905485449 0.0003219160442956476 0.0003219160442956476 0.0003219160442956476 0.0003219160442956476 0.0003219160442956476 0.3324748905485449 0.3324748905485449 0.0003219160442956476 0.0003219160442956476 0.0003219160442956476 0.3324748905485449 0.0003219160442956476 0.0003219160442956476 0.0909090909090909 0.0909090909090909 0.0909090909090909 0.0909090909090909 0.0909090909090909 0.0909090909090909 0.0909090909090909 0.0909090909090909 0.0909090909090909 0.0909090909090909 0.0909090909090909 0.0909090909090909 0.0909090909090909 0.0909090909090909 0.0909090909090909 0.0909090909090909 0.0909090909090909 0.0909090909090909 0.0909090909090909 0.0909090909090909 0.0909090909090909 0.0909090909090909 0.0909090909090909 0.0909090909090909 0.0909090909090909 0.0909090909090909 0.0909090909090909 0.0909090909090909 0.0909090909090909 0.0909090909090909 0.0909090909090909 0.0909090909090909 0.0909090909090909 0.00048202063048298456 0.00048202063048298456 0.00048202063048298456 0.00048202063048298456 0.00048202063048298456 0.4978309071628265 0.00048202063048298456 0.00048202063048298456 0.4978309071628265 0.00048202063048298456 0.00048202063048298456 0.0009589566551591866 0.0009589566551591866 0.0009589566551591866 0.0009589566551591866 0.0009589566551591866 0.0009589566551591866 0.0009589566551591866 0.0009589566551591866 0.0009589566551591866 0.0009589566551591866 0.9904104334484081 0.0009589566551591866 0.0009589566551591866 0.0009589566551591866 0.0009589566551591866 0.0009589566551591866 0.0009589566551591866 0.0009589566551591866 0.0009589566551591866 0.0009589566551591866 0.9904104334484081 0.0009589566551591866 0.0009589566551591866 0.0009589566551591866 0.0009589566551591866 0.0009589566551591866 0.0009589566551591866 0.0009589566551591866 0.0009589566551591866 0.0009589566551591866 0.0009589566551591866 0.0009589566551591866 0.9904104334484081 0.9904104334484074 0.000958956655159186 0.000958956655159186 0.000958956655159186 0.000958956655159186 0.000958956655159186 0.000958956655159186 0.000958956655159186 0.000958956655159186 0.000958956655159186 0.000958956655159186 0.0909090909090909 0.0909090909090909 0.0909090909090909 0.0909090909090909 0.0909090909090909 0.0909090909090909 0.0909090909090909 0.0909090909090909 0.0909090909090909 0.0909090909090909 0.0909090909090909 0.00048202063048298445 0.4978309071628264 0.00048202063048298445 0.00048202063048298445 0.00048202063048298445 0.00048202063048298445 0.00048202063048298445 0.00048202063048298445 0.00048202063048298445 0.00048202063048298445 0.4978309071628264 0.0009589566551591864 0.0009589566551591864 0.0009589566551591864 0.0009589566551591864 0.0009589566551591864 0.0009589566551591864 0.9904104334484078 0.0009589566551591864 0.0009589566551591864 0.0009589566551591864 0.0009589566551591864 0.0909090909090909 0.0909090909090909 0.0909090909090909 0.0909090909090909 0.0909090909090909 0.0909090909090909 0.0909090909090909 0.0909090909090909 0.0909090909090909 0.0909090909090909 0.0909090909090909 0.0009589566551591864 0.0009589566551591864 0.0009589566551591864 0.0009589566551591864 0.0009589566551591864 0.9904104334484078 0.0009589566551591864 0.0009589566551591864 0.0009589566551591864 0.0009589566551591864 0.0009589566551591864 0.0909090909090909 0.0909090909090909 0.0909090909090909 0.0909090909090909 0.0909090909090909 0.0909090909090909 0.0909090909090909 0.0909090909090909 0.0909090909090909 0.0909090909090909 0.0909090909090909 0.0009589566551591864 0.0009589566551591864 0.0009589566551591864 0.0009589566551591864 0.0009589566551591864 0.9904104334484078 0.0009589566551591864 0.0009589566551591864 0.0009589566551591864 0.0009589566551591864 0.0009589566551591864 0.0909090909090909 0.0909090909090909 0.0909090909090909 0.0909090909090909 0.0909090909090909 0.0909090909090909 0.0909090909090909 0.0909090909090909 0.0909090909090909 0.0909090909090909 0.0909090909090909 0.4978309071628264 0.00048202063048298445 0.00048202063048298445 0.00048202063048298445 0.00048202063048298445 0.00048202063048298445 0.4978309071628264 0.00048202063048298445 0.00048202063048298445 0.00048202063048298445 0.00048202063048298445 0.00048202063048298456 0.00048202063048298456 0.00048202063048298456 0.00048202063048298456 0.00048202063048298456 0.00048202063048298456 0.4978309071628265 0.00048202063048298456 0.00048202063048298456 0.00048202063048298456 0.4978309071628265 0.0009589566551591866 0.0009589566551591866 0.0009589566551591866 0.0009589566551591866 0.0009589566551591866 0.0009589566551591866 0.0009589566551591866 0.0009589566551591866 0.0009589566551591866 0.0009589566551591866 0.9904104334484081 0.0909090909090909 0.0909090909090909 0.0909090909090909 0.0909090909090909 0.0909090909090909 0.0909090909090909 0.0909090909090909 0.0909090909090909 0.0909090909090909 0.0909090909090909 0.0909090909090909 0.0003219160442956476 0.3324748905485449 0.0003219160442956476 0.0003219160442956476 0.0003219160442956476 0.0003219160442956476 0.0003219160442956476 0.0003219160442956476 0.0003219160442956476 0.3324748905485449 0.3324748905485449 0.0009589566551591862 0.0009589566551591862 0.9904104334484076 0.0009589566551591862 0.0009589566551591862 0.0009589566551591862 0.0009589566551591862 0.0009589566551591862 0.0009589566551591862 0.0009589566551591862 0.0009589566551591862 0.00048202063048298445 0.00048202063048298445 0.00048202063048298445 0.00048202063048298445 0.4978309071628264 0.00048202063048298445 0.4978309071628264 0.00048202063048298445 0.00048202063048298445 0.00048202063048298445 0.00048202063048298445 0.0009589566551591866 0.0009589566551591866 0.0009589566551591866 0.0009589566551591866 0.0009589566551591866 0.0009589566551591866 0.0009589566551591866 0.0009589566551591866 0.0009589566551591866 0.0009589566551591866 0.9904104334484081 0.0009589566551591862 0.0009589566551591862 0.0009589566551591862 0.0009589566551591862 0.9904104334484076 0.0009589566551591862 0.0009589566551591862 0.0009589566551591862 0.0009589566551591862 0.0009589566551591862 0.0009589566551591862 0.0909090909090909 0.0909090909090909 0.0909090909090909 0.0909090909090909 0.0909090909090909 0.0909090909090909 0.0909090909090909 0.0909090909090909 0.0909090909090909 0.0909090909090909 0.0909090909090909 0.0009589566551591862 0.0009589566551591862 0.9904104334484076 0.0009589566551591862 0.0009589566551591862 0.0009589566551591862 0.0009589566551591862 0.0009589566551591862 0.0009589566551591862 0.0009589566551591862 0.0009589566551591862 0.0009589566551591862 0.0009589566551591862 0.0009589566551591862 0.9904104334484076 0.0009589566551591862 0.0009589566551591862 0.0009589566551591862 0.0009589566551591862 0.0009589566551591862 0.0009589566551591862 0.0009589566551591862 0.0009589566551591864 0.0009589566551591864 0.0009589566551591864 0.0009589566551591864 0.0009589566551591864 0.0009589566551591864 0.9904104334484078 0.0009589566551591864 0.0009589566551591864 0.0009589566551591864 0.0009589566551591864 0.0909090909090909 0.0909090909090909 0.0909090909090909 0.0909090909090909 0.0909090909090909 0.0909090909090909 0.0909090909090909 0.0909090909090909 0.0909090909090909 0.0909090909090909 0.0909090909090909 0.0009589566551591866 0.0009589566551591866 0.0009589566551591866 0.0009589566551591866 0.0009589566551591866 0.0009589566551591866 0.0009589566551591866 0.0009589566551591866 0.9904104334484081 0.0009589566551591866 0.0009589566551591866 0.00048202063048298445 0.4978309071628264 0.00048202063048298445 0.00048202063048298445 0.00048202063048298445 0.00048202063048298445 0.00048202063048298445 0.00048202063048298445 0.00048202063048298445 0.00048202063048298445 0.4978309071628264 0.0909090909090909 0.0909090909090909 0.0909090909090909 0.0909090909090909 0.0909090909090909 0.0909090909090909 0.0909090909090909 0.0909090909090909 0.0909090909090909 0.0909090909090909 0.0909090909090909 0.000958956655159186 0.9904104334484074 0.000958956655159186 0.000958956655159186 0.000958956655159186 0.000958956655159186 0.000958956655159186 0.000958956655159186 0.000958956655159186 0.000958956655159186 0.000958956655159186 0.19976789168278528 0.0001934235976789168 0.0001934235976789168 0.0001934235976789168 0.0001934235976789168 0.0001934235976789168 0.0001934235976789168 0.19976789168278528 0.19976789168278528 0.0001934235976789168 0.3993423597678916 0.24957711082112993 0.00024165095935430858 0.24957711082112993 0.00024165095935430858 0.00024165095935430858 0.00024165095935430858 0.00024165095935430858 0.00024165095935430858 0.00024165095935430858 0.24957711082112993 0.24957711082112993 0.0909090909090909 0.0909090909090909 0.0909090909090909 0.0909090909090909 0.0909090909090909 0.0909090909090909 0.0909090909090909 0.0909090909090909 0.0909090909090909 0.0909090909090909 0.0909090909090909 0.0009589566551591866 0.0009589566551591866 0.0009589566551591866 0.0009589566551591866 0.0009589566551591866 0.0009589566551591866 0.0009589566551591866 0.0009589566551591866 0.0009589566551591866 0.9904104334484081 0.0009589566551591866 0.0009589566551591862 0.0009589566551591862 0.0009589566551591862 0.9904104334484076 0.0009589566551591862 0.0009589566551591862 0.0009589566551591862 0.0009589566551591862 0.0009589566551591862 0.0009589566551591862 0.0009589566551591862 0.0001934235976789168 0.0001934235976789168 0.19976789168278528 0.19976789168278528 0.0001934235976789168 0.0001934235976789168 0.19976789168278528 0.19976789168278528 0.0001934235976789168 0.19976789168278528 0.0001934235976789168 0.0909090909090909 0.0909090909090909 0.0909090909090909 0.0909090909090909 0.0909090909090909 0.0909090909090909 0.0909090909090909 0.0909090909090909 0.0909090909090909 0.0909090909090909 0.0909090909090909 0.0009589566551591862 0.0009589566551591862 0.9904104334484076 0.0009589566551591862 0.0009589566551591862 0.0009589566551591862 0.0009589566551591862 0.0009589566551591862 0.0009589566551591862 0.0009589566551591862 0.0009589566551591862 0.9904104334484074 0.000958956655159186 0.000958956655159186 0.000958956655159186 0.000958956655159186 0.000958956655159186 0.000958956655159186 0.000958956655159186 0.000958956655159186 0.000958956655159186 0.000958956655159186 0.00032191604429564766 0.00032191604429564766 0.00032191604429564766 0.00032191604429564766 0.00032191604429564766 0.00032191604429564766 0.3324748905485449 0.00032191604429564766 0.00032191604429564766 0.6646278650527941 0.00032191604429564766 0.0009589566551591864 0.0009589566551591864 0.0009589566551591864 0.0009589566551591864 0.0009589566551591864 0.9904104334484078 0.0009589566551591864 0.0009589566551591864 0.0009589566551591864 0.0009589566551591864 0.0009589566551591864 0.0009589566551591862 0.0009589566551591862 0.0009589566551591862 0.9904104334484076 0.0009589566551591862 0.0009589566551591862 0.0009589566551591862 0.0009589566551591862 0.0009589566551591862 0.0009589566551591862 0.0009589566551591862 0.0909090909090909 0.0909090909090909 0.0909090909090909 0.0909090909090909 0.0909090909090909 0.0909090909090909 0.0909090909090909 0.0909090909090909 0.0909090909090909 0.0909090909090909 0.0909090909090909 0.0009589566551591864 0.0009589566551591864 0.0009589566551591864 0.0009589566551591864 0.0009589566551591864 0.0009589566551591864 0.9904104334484078 0.0009589566551591864 0.0009589566551591864 0.0009589566551591864 0.0009589566551591864 0.0003219160442956476 0.3324748905485449 0.0003219160442956476 0.3324748905485449 0.0003219160442956476 0.0003219160442956476 0.0003219160442956476 0.3324748905485449 0.0003219160442956476 0.0003219160442956476 0.0003219160442956476 0.000958956655159186 0.9904104334484074 0.000958956655159186 0.000958956655159186 0.000958956655159186 0.000958956655159186 0.000958956655159186 0.000958956655159186 0.000958956655159186 0.000958956655159186 0.000958956655159186 0.0009589566551591864 0.0009589566551591864 0.0009589566551591864 0.0009589566551591864 0.0009589566551591864 0.0009589566551591864 0.0009589566551591864 0.9904104334484078 0.0009589566551591864 0.0009589566551591864 0.0009589566551591864 0.0909090909090909 0.0909090909090909 0.0909090909090909 0.0909090909090909 0.0909090909090909 0.0909090909090909 0.0909090909090909 0.0909090909090909 0.0909090909090909 0.0909090909090909 0.0909090909090909 0.0009589566551591864 0.0009589566551591864 0.0009589566551591864 0.0009589566551591864 0.0009589566551591864 0.9904104334484078 0.0009589566551591864 0.0009589566551591864 0.0009589566551591864 0.0009589566551591864 0.0009589566551591864 0.00048202063048298445 0.00048202063048298445 0.4978309071628264 0.00048202063048298445 0.00048202063048298445 0.00048202063048298445 0.00048202063048298445 0.4978309071628264 0.00048202063048298445 0.00048202063048298445 0.00048202063048298445 0.00048202063048298445 0.00048202063048298445 0.00048202063048298445 0.4978309071628264 0.00048202063048298445 0.00048202063048298445 0.00048202063048298445 0.00048202063048298445 0.00048202063048298445 0.4978309071628264 0.00048202063048298445 0.0009589566551591862 0.0009589566551591862 0.9904104334484076 0.0009589566551591862 0.0009589566551591862 0.0009589566551591862 0.0009589566551591862 0.0009589566551591862 0.0009589566551591862 0.0009589566551591862 0.0009589566551591862 0.0909090909090909 0.0909090909090909 0.0909090909090909 0.0909090909090909 0.0909090909090909 0.0909090909090909 0.0909090909090909 0.0909090909090909 0.0909090909090909 0.0909090909090909 0.0909090909090909 0.0009589566551591864 0.0009589566551591864 0.0009589566551591864 0.0009589566551591864 0.0009589566551591864 0.9904104334484078 0.0009589566551591864 0.0009589566551591864 0.0009589566551591864 0.0009589566551591864 0.0009589566551591864 0.00048202063048298456 0.00048202063048298456 0.00048202063048298456 0.00048202063048298456 0.00048202063048298456 0.00048202063048298456 0.00048202063048298456 0.99517979369517 0.00048202063048298456 0.00048202063048298456 0.00048202063048298456 0.0009589566551591864 0.0009589566551591864 0.0009589566551591864 0.0009589566551591864 0.0009589566551591864 0.0009589566551591864 0.9904104334484078 0.0009589566551591864 0.0009589566551591864 0.0009589566551591864 0.0009589566551591864 0.9951797936951697 0.00048202063048298445 0.00048202063048298445 0.00048202063048298445 0.00048202063048298445 0.00048202063048298445 0.00048202063048298445 0.00048202063048298445 0.00048202063048298445 0.00048202063048298445 0.00048202063048298445 0.00048202063048298445 0.00048202063048298445 0.00048202063048298445 0.4978309071628264 0.00048202063048298445 0.4978309071628264 0.00048202063048298445 0.00048202063048298445 0.00048202063048298445 0.00048202063048298445 0.00048202063048298445 0.0909090909090909 0.0909090909090909 0.0909090909090909 0.0909090909090909 0.0909090909090909 0.0909090909090909 0.0909090909090909 0.0909090909090909 0.0909090909090909 0.0909090909090909 0.0909090909090909 0.0909090909090909 0.0909090909090909 0.0909090909090909 0.0909090909090909 0.0909090909090909 0.0909090909090909 0.0909090909090909 0.0909090909090909 0.0909090909090909 0.0909090909090909 0.0909090909090909 0.0909090909090909 0.0909090909090909 0.0909090909090909 0.0909090909090909 0.0909090909090909 0.0909090909090909 0.0909090909090909 0.0909090909090909 0.0909090909090909 0.0909090909090909 0.0909090909090909 0.0009589566551591862 0.0009589566551591862 0.0009589566551591862 0.9904104334484076 0.0009589566551591862 0.0009589566551591862 0.0009589566551591862 0.0009589566551591862 0.0009589566551591862 0.0009589566551591862 0.0009589566551591862 0.0909090909090909 0.0909090909090909 0.0909090909090909 0.0909090909090909 0.0909090909090909 0.0909090909090909 0.0909090909090909 0.0909090909090909 0.0909090909090909 0.0909090909090909 0.0909090909090909 0.3324748905485449 0.0003219160442956476 0.0003219160442956476 0.3324748905485449 0.0003219160442956476 0.0003219160442956476 0.0003219160442956476 0.3324748905485449 0.0003219160442956476 0.0003219160442956476 0.0003219160442956476 0.00048202063048298445 0.4978309071628264 0.00048202063048298445 0.00048202063048298445 0.4978309071628264 0.00048202063048298445 0.00048202063048298445 0.00048202063048298445 0.00048202063048298445 0.00048202063048298445 0.00048202063048298445 0.0003219160442956476 0.3324748905485449 0.0003219160442956476 0.3324748905485449 0.0003219160442956476 0.3324748905485449 0.0003219160442956476 0.0003219160442956476 0.0003219160442956476 0.0003219160442956476 0.0003219160442956476 0.00024165095935430858 0.24957711082112993 0.00024165095935430858 0.4989125706829055 0.00024165095935430858 0.24957711082112993 0.00024165095935430858 0.00024165095935430858 0.00024165095935430858 0.00024165095935430858 0.00024165095935430858 0.0009589566551591862 0.0009589566551591862 0.0009589566551591862 0.0009589566551591862 0.9904104334484076 0.0009589566551591862 0.0009589566551591862 0.0009589566551591862 0.0009589566551591862 0.0009589566551591862 0.0009589566551591862 0.0003219160442956476 0.0003219160442956476 0.0003219160442956476 0.3324748905485449 0.0003219160442956476 0.0003219160442956476 0.3324748905485449 0.0003219160442956476 0.3324748905485449 0.0003219160442956476 0.0003219160442956476 0.00048202063048298445 0.00048202063048298445 0.00048202063048298445 0.4978309071628264 0.00048202063048298445 0.00048202063048298445 0.4978309071628264 0.00048202063048298445 0.00048202063048298445 0.00048202063048298445 0.00048202063048298445 0.00048202063048298466 0.00048202063048298466 0.00048202063048298466 0.00048202063048298466 0.00048202063048298466 0.00048202063048298466 0.00048202063048298466 0.00048202063048298466 0.49783090716282663 0.00048202063048298466 0.49783090716282663 0.0009589566551591862 0.0009589566551591862 0.9904104334484076 0.0009589566551591862 0.0009589566551591862 0.0009589566551591862 0.0009589566551591862 0.0009589566551591862 0.0009589566551591862 0.0009589566551591862 0.0009589566551591862 0.0909090909090909 0.0909090909090909 0.0909090909090909 0.0909090909090909 0.0909090909090909 0.0909090909090909 0.0909090909090909 0.0909090909090909 0.0909090909090909 0.0909090909090909 0.0909090909090909 0.9904104334484074 0.000958956655159186 0.000958956655159186 0.000958956655159186 0.000958956655159186 0.000958956655159186 0.000958956655159186 0.000958956655159186 0.000958956655159186 0.000958956655159186 0.000958956655159186 0.00048202063048298456 0.00048202063048298456 0.00048202063048298456 0.00048202063048298456 0.00048202063048298456 0.00048202063048298456 0.4978309071628265 0.4978309071628265 0.00048202063048298456 0.00048202063048298456 0.00048202063048298456 0.0909090909090909 0.0909090909090909 0.0909090909090909 0.0909090909090909 0.0909090909090909 0.0909090909090909 0.0909090909090909 0.0909090909090909 0.0909090909090909 0.0909090909090909 0.0909090909090909 0.0909090909090909 0.0909090909090909 0.0909090909090909 0.0909090909090909 0.0909090909090909 0.0909090909090909 0.0909090909090909 0.0909090909090909 0.0909090909090909 0.0909090909090909 0.0909090909090909 0.0909090909090909 0.0909090909090909 0.0909090909090909 0.0909090909090909 0.0909090909090909 0.0909090909090909 0.0909090909090909 0.0909090909090909 0.0909090909090909 0.0909090909090909 0.0909090909090909 0.0003219160442956476 0.0003219160442956476 0.0003219160442956476 0.0003219160442956476 0.3324748905485449 0.3324748905485449 0.3324748905485449 0.0003219160442956476 0.0003219160442956476 0.0003219160442956476 0.0003219160442956476 0.0009589566551591864 0.0009589566551591864 0.0009589566551591864 0.0009589566551591864 0.0009589566551591864 0.0009589566551591864 0.0009589566551591864 0.9904104334484078 0.0009589566551591864 0.0009589566551591864 0.0009589566551591864 0.0909090909090909 0.0909090909090909 0.0909090909090909 0.0909090909090909 0.0909090909090909 0.0909090909090909 0.0909090909090909 0.0909090909090909 0.0909090909090909 0.0909090909090909 0.0909090909090909 0.0909090909090909 0.0909090909090909 0.0909090909090909 0.0909090909090909 0.0909090909090909 0.0909090909090909 0.0909090909090909 0.0909090909090909 0.0909090909090909 0.0909090909090909 0.0909090909090909 0.0009589566551591864 0.0009589566551591864 0.0009589566551591864 0.0009589566551591864 0.0009589566551591864 0.0009589566551591864 0.9904104334484078 0.0009589566551591864 0.0009589566551591864 0.0009589566551591864 0.0009589566551591864 0.000958956655159186 0.9904104334484074 0.000958956655159186 0.000958956655159186 0.000958956655159186 0.000958956655159186 0.000958956655159186 0.000958956655159186 0.000958956655159186 0.000958956655159186 0.000958956655159186 0.0909090909090909 0.0909090909090909 0.0909090909090909 0.0909090909090909 0.0909090909090909 0.0909090909090909 0.0909090909090909 0.0909090909090909 0.0909090909090909 0.0909090909090909 0.0909090909090909 0.0009589566551591862 0.0009589566551591862 0.9904104334484076 0.0009589566551591862 0.0009589566551591862 0.0009589566551591862 0.0009589566551591862 0.0009589566551591862 0.0009589566551591862 0.0009589566551591862 0.0009589566551591862 0.0909090909090909 0.0909090909090909 0.0909090909090909 0.0909090909090909 0.0909090909090909 0.0909090909090909 0.0909090909090909 0.0909090909090909 0.0909090909090909 0.0909090909090909 0.0909090909090909 0.000958956655159186 0.9904104334484074 0.000958956655159186 0.000958956655159186 0.000958956655159186 0.000958956655159186 0.000958956655159186 0.000958956655159186 0.000958956655159186 0.000958956655159186 0.000958956655159186 0.0909090909090909 0.0909090909090909 0.0909090909090909 0.0909090909090909 0.0909090909090909 0.0909090909090909 0.0909090909090909 0.0909090909090909 0.0909090909090909 0.0909090909090909 0.0909090909090909 0.0909090909090909 0.0909090909090909 0.0909090909090909 0.0909090909090909 0.0909090909090909 0.0909090909090909 0.0909090909090909 0.0909090909090909 0.0909090909090909 0.0909090909090909 0.0909090909090909 0.000958956655159186 0.9904104334484074 0.000958956655159186 0.000958956655159186 0.000958956655159186 0.000958956655159186 0.000958956655159186 0.000958956655159186 0.000958956655159186 0.000958956655159186 0.000958956655159186 0.0909090909090909 0.0909090909090909 0.0909090909090909 0.0909090909090909 0.0909090909090909 0.0909090909090909 0.0909090909090909 0.0909090909090909 0.0909090909090909 0.0909090909090909 0.0909090909090909 0.0009589566551591866 0.0009589566551591866 0.0009589566551591866 0.0009589566551591866 0.0009589566551591866 0.0009589566551591866 0.0009589566551591866 0.0009589566551591866 0.0009589566551591866 0.9904104334484081 0.0009589566551591866 0.00048202063048298445 0.4978309071628264 0.00048202063048298445 0.00048202063048298445 0.00048202063048298445 0.4978309071628264 0.00048202063048298445 0.00048202063048298445 0.00048202063048298445 0.00048202063048298445 0.00048202063048298445 0.00048202063048298456 0.00048202063048298456 0.00048202063048298456 0.00048202063048298456 0.99517979369517 0.00048202063048298456 0.00048202063048298456 0.00048202063048298456 0.00048202063048298456 0.00048202063048298456 0.00048202063048298456 0.0009589566551591866 0.0009589566551591866 0.0009589566551591866 0.0009589566551591866 0.0009589566551591866 0.0009589566551591866 0.0009589566551591866 0.0009589566551591866 0.0009589566551591866 0.9904104334484081 0.0009589566551591866 0.3324748905485449 0.0003219160442956476 0.0003219160442956476 0.0003219160442956476 0.0003219160442956476 0.664627865052794 0.0003219160442956476 0.0003219160442956476 0.0003219160442956476 0.0003219160442956476 0.0003219160442956476 0.0909090909090909 0.0909090909090909 0.0909090909090909 0.0909090909090909 0.0909090909090909 0.0909090909090909 0.0909090909090909 0.0909090909090909 0.0909090909090909 0.0909090909090909 0.0909090909090909 0.0003219160442956476 0.0003219160442956476 0.0003219160442956476 0.0003219160442956476 0.3324748905485449 0.0003219160442956476 0.3324748905485449 0.0003219160442956476 0.3324748905485449 0.0003219160442956476 0.0003219160442956476 0.00048202063048298445 0.4978309071628264 0.4978309071628264 0.00048202063048298445 0.00048202063048298445 0.00048202063048298445 0.00048202063048298445 0.00048202063048298445 0.00048202063048298445 0.00048202063048298445 0.00048202063048298445 0.0009589566551591864 0.0009589566551591864 0.0009589566551591864 0.0009589566551591864 0.0009589566551591864 0.0009589566551591864 0.0009589566551591864 0.9904104334484078 0.0009589566551591864 0.0009589566551591864 0.0009589566551591864 0.0009589566551591862 0.0009589566551591862 0.0009589566551591862 0.0009589566551591862 0.9904104334484076 0.0009589566551591862 0.0009589566551591862 0.0009589566551591862 0.0009589566551591862 0.0009589566551591862 0.0009589566551591862 0.3324748905485449 0.0003219160442956476 0.0003219160442956476 0.3324748905485449 0.0003219160442956476 0.0003219160442956476 0.0003219160442956476 0.3324748905485449 0.0003219160442956476 0.0003219160442956476 0.0003219160442956476 0.0009589566551591864 0.0009589566551591864 0.0009589566551591864 0.0009589566551591864 0.0009589566551591864 0.9904104334484078 0.0009589566551591864 0.0009589566551591864 0.0009589566551591864 0.0009589566551591864 0.0009589566551591864 0.0909090909090909 0.0909090909090909 0.0909090909090909 0.0909090909090909 0.0909090909090909 0.0909090909090909 0.0909090909090909 0.0909090909090909 0.0909090909090909 0.0909090909090909 0.0909090909090909 0.0009589566551591866 0.0009589566551591866 0.0009589566551591866 0.0009589566551591866 0.0009589566551591866 0.0009589566551591866 0.0009589566551591866 0.0009589566551591866 0.0009589566551591866 0.0009589566551591866 0.9904104334484081 0.0009589566551591862 0.0009589566551591862 0.0009589566551591862 0.9904104334484076 0.0009589566551591862 0.0009589566551591862 0.0009589566551591862 0.0009589566551591862 0.0009589566551591862 0.0009589566551591862 0.0009589566551591862 0.0009589566551591862 0.0009589566551591862 0.9904104334484076 0.0009589566551591862 0.0009589566551591862 0.0009589566551591862 0.0009589566551591862 0.0009589566551591862 0.0009589566551591862 0.0009589566551591862 0.0009589566551591862 0.4978309071628264 0.00048202063048298445 0.00048202063048298445 0.4978309071628264 0.00048202063048298445 0.00048202063048298445 0.00048202063048298445 0.00048202063048298445 0.00048202063048298445 0.00048202063048298445 0.00048202063048298445 0.0909090909090909 0.0909090909090909 0.0909090909090909 0.0909090909090909 0.0909090909090909 0.0909090909090909 0.0909090909090909 0.0909090909090909 0.0909090909090909 0.0909090909090909 0.0909090909090909 0.0909090909090909 0.0909090909090909 0.0909090909090909 0.0909090909090909 0.0909090909090909 0.0909090909090909 0.0909090909090909 0.0909090909090909 0.0909090909090909 0.0909090909090909 0.0909090909090909 0.00048202063048298445 0.00048202063048298445 0.00048202063048298445 0.4978309071628264 0.00048202063048298445 0.4978309071628264 0.00048202063048298445 0.00048202063048298445 0.00048202063048298445 0.00048202063048298445 0.00048202063048298445 0.0009589566551591864 0.0009589566551591864 0.0009589566551591864 0.0009589566551591864 0.0009589566551591864 0.0009589566551591864 0.0009589566551591864 0.9904104334484078 0.0009589566551591864 0.0009589566551591864 0.0009589566551591864 0.0909090909090909 0.0909090909090909 0.0909090909090909 0.0909090909090909 0.0909090909090909 0.0909090909090909 0.0909090909090909 0.0909090909090909 0.0909090909090909 0.0909090909090909 0.0909090909090909 0.0909090909090909 0.0909090909090909 0.0909090909090909 0.0909090909090909 0.0909090909090909 0.0909090909090909 0.0909090909090909 0.0909090909090909 0.0909090909090909 0.0909090909090909 0.0909090909090909 0.0909090909090909 0.0909090909090909 0.0909090909090909 0.0909090909090909 0.0909090909090909 0.0909090909090909 0.0909090909090909 0.0909090909090909 0.0909090909090909 0.0909090909090909 0.0909090909090909 0.0909090909090909 0.0909090909090909 0.0909090909090909 0.0909090909090909 0.0909090909090909 0.0909090909090909 0.0909090909090909 0.0909090909090909 0.0909090909090909 0.0909090909090909 0.0909090909090909 0.0909090909090909 0.0909090909090909 0.0909090909090909 0.0909090909090909 0.0909090909090909 0.0909090909090909 0.0909090909090909 0.0909090909090909 0.0909090909090909 0.0909090909090909 0.0909090909090909 0.9904104334484074 0.000958956655159186 0.000958956655159186 0.000958956655159186 0.000958956655159186 0.000958956655159186 0.000958956655159186 0.000958956655159186 0.000958956655159186 0.000958956655159186 0.000958956655159186 0.0003219160442956476 0.3324748905485449 0.0003219160442956476 0.0003219160442956476 0.3324748905485449 0.0003219160442956476 0.0003219160442956476 0.0003219160442956476 0.0003219160442956476 0.0003219160442956476 0.3324748905485449 0.0009589566551591862 0.0009589566551591862 0.9904104334484076 0.0009589566551591862 0.0009589566551591862 0.0009589566551591862 0.0009589566551591862 0.0009589566551591862 0.0009589566551591862 0.0009589566551591862 0.0009589566551591862 0.0909090909090909 0.0909090909090909 0.0909090909090909 0.0909090909090909 0.0909090909090909 0.0909090909090909 0.0909090909090909 0.0909090909090909 0.0909090909090909 0.0909090909090909 0.0909090909090909 0.0909090909090909 0.0909090909090909 0.0909090909090909 0.0909090909090909 0.0909090909090909 0.0909090909090909 0.0909090909090909 0.0909090909090909 0.0909090909090909 0.0909090909090909 0.0909090909090909 0.00048202063048298445 0.00048202063048298445 0.00048202063048298445 0.4978309071628264 0.00048202063048298445 0.00048202063048298445 0.4978309071628264 0.00048202063048298445 0.00048202063048298445 0.00048202063048298445 0.00048202063048298445 0.0909090909090909 0.0909090909090909 0.0909090909090909 0.0909090909090909 0.0909090909090909 0.0909090909090909 0.0909090909090909 0.0909090909090909 0.0909090909090909 0.0909090909090909 0.0909090909090909 0.0009589566551591862 0.0009589566551591862 0.0009589566551591862 0.0009589566551591862 0.9904104334484076 0.0009589566551591862 0.0009589566551591862 0.0009589566551591862 0.0009589566551591862 0.0009589566551591862 0.0009589566551591862 0.3324748905485449 0.0003219160442956476 0.3324748905485449 0.0003219160442956476 0.0003219160442956476 0.3324748905485449 0.0003219160442956476 0.0003219160442956476 0.0003219160442956476 0.0003219160442956476 0.0003219160442956476 0.00048202063048298445 0.00048202063048298445 0.4978309071628264 0.4978309071628264 0.00048202063048298445 0.00048202063048298445 0.00048202063048298445 0.00048202063048298445 0.00048202063048298445 0.00048202063048298445 0.00048202063048298445 0.0009589566551591864 0.0009589566551591864 0.0009589566551591864 0.0009589566551591864 0.0009589566551591864 0.0009589566551591864 0.0009589566551591864 0.9904104334484078 0.0009589566551591864 0.0009589566551591864 0.0009589566551591864 0.0009589566551591864 0.0009589566551591864 0.0009589566551591864 0.0009589566551591864 0.0009589566551591864 0.0009589566551591864 0.9904104334484078 0.0009589566551591864 0.0009589566551591864 0.0009589566551591864 0.0009589566551591864 0.0909090909090909 0.0909090909090909 0.0909090909090909 0.0909090909090909 0.0909090909090909 0.0909090909090909 0.0909090909090909 0.0909090909090909 0.0909090909090909 0.0909090909090909 0.0909090909090909 0.0909090909090909 0.0909090909090909 0.0909090909090909 0.0909090909090909 0.0909090909090909 0.0909090909090909 0.0909090909090909 0.0909090909090909 0.0909090909090909 0.0909090909090909 0.0909090909090909 0.0909090909090909 0.0909090909090909 0.0909090909090909 0.0909090909090909 0.0909090909090909 0.0909090909090909 0.0909090909090909 0.0909090909090909 0.0909090909090909 0.0909090909090909 0.0909090909090909 0.0909090909090909 0.0909090909090909 0.0909090909090909 0.0909090909090909 0.0909090909090909 0.0909090909090909 0.0909090909090909 0.0909090909090909 0.0909090909090909 0.0909090909090909 0.0909090909090909 0.0909090909090909 0.0909090909090909 0.0909090909090909 0.0909090909090909 0.0909090909090909 0.0909090909090909 0.0909090909090909 0.0909090909090909 0.0909090909090909 0.0909090909090909 0.0909090909090909 0.0009589566551591862 0.0009589566551591862 0.0009589566551591862 0.9904104334484076 0.0009589566551591862 0.0009589566551591862 0.0009589566551591862 0.0009589566551591862 0.0009589566551591862 0.0009589566551591862 0.0009589566551591862 0.0009589566551591864 0.0009589566551591864 0.0009589566551591864 0.0009589566551591864 0.0009589566551591864 0.9904104334484078 0.0009589566551591864 0.0009589566551591864 0.0009589566551591864 0.0009589566551591864 0.0009589566551591864 0.0909090909090909 0.0909090909090909 0.0909090909090909 0.0909090909090909 0.0909090909090909 0.0909090909090909 0.0909090909090909 0.0909090909090909 0.0909090909090909 0.0909090909090909 0.0909090909090909 0.0909090909090909 0.0909090909090909 0.0909090909090909 0.0909090909090909 0.0909090909090909 0.0909090909090909 0.0909090909090909 0.0909090909090909 0.0909090909090909 0.0909090909090909 0.0909090909090909 0.00048202063048298445 0.00048202063048298445 0.00048202063048298445 0.4978309071628264 0.4978309071628264 0.00048202063048298445 0.00048202063048298445 0.00048202063048298445 0.00048202063048298445 0.00048202063048298445 0.00048202063048298445 0.0909090909090909 0.0909090909090909 0.0909090909090909 0.0909090909090909 0.0909090909090909 0.0909090909090909 0.0909090909090909 0.0909090909090909 0.0909090909090909 0.0909090909090909 0.0909090909090909 0.0909090909090909 0.0909090909090909 0.0909090909090909 0.0909090909090909 0.0909090909090909 0.0909090909090909 0.0909090909090909 0.0909090909090909 0.0909090909090909 0.0909090909090909 0.0909090909090909 0.0909090909090909 0.0909090909090909 0.0909090909090909 0.0909090909090909 0.0909090909090909 0.0909090909090909 0.0909090909090909 0.0909090909090909 0.0909090909090909 0.0909090909090909 0.0909090909090909 0.00048202063048298445 0.00048202063048298445 0.00048202063048298445 0.00048202063048298445 0.4978309071628264 0.4978309071628264 0.00048202063048298445 0.00048202063048298445 0.00048202063048298445 0.00048202063048298445 0.00048202063048298445 0.0003219160442956476 0.664627865052794 0.3324748905485449 0.0003219160442956476 0.0003219160442956476 0.0003219160442956476 0.0003219160442956476 0.0003219160442956476 0.0003219160442956476 0.0003219160442956476 0.0003219160442956476 0.0909090909090909 0.0909090909090909 0.0909090909090909 0.0909090909090909 0.0909090909090909 0.0909090909090909 0.0909090909090909 0.0909090909090909 0.0909090909090909 0.0909090909090909 0.0909090909090909 0.0909090909090909 0.0909090909090909 0.0909090909090909 0.0909090909090909 0.0909090909090909 0.0909090909090909 0.0909090909090909 0.0909090909090909 0.0909090909090909 0.0909090909090909 0.0909090909090909 0.00048202063048298445 0.00048202063048298445 0.00048202063048298445 0.4978309071628264 0.00048202063048298445 0.4978309071628264 0.00048202063048298445 0.00048202063048298445 0.00048202063048298445 0.00048202063048298445 0.00048202063048298445 0.00048202063048298445 0.4978309071628264 0.00048202063048298445 0.00048202063048298445 0.4978309071628264 0.00048202063048298445 0.00048202063048298445 0.00048202063048298445 0.00048202063048298445 0.00048202063048298445 0.00048202063048298445 0.3324748905485449 0.0003219160442956476 0.0003219160442956476 0.3324748905485449 0.3324748905485449 0.0003219160442956476 0.0003219160442956476 0.0003219160442956476 0.0003219160442956476 0.0003219160442956476 0.0003219160442956476 0.0909090909090909 0.0909090909090909 0.0909090909090909 0.0909090909090909 0.0909090909090909 0.0909090909090909 0.0909090909090909 0.0909090909090909 0.0909090909090909 0.0909090909090909 0.0909090909090909 0.0909090909090909 0.0909090909090909 0.0909090909090909 0.0909090909090909 0.0909090909090909 0.0909090909090909 0.0909090909090909 0.0909090909090909 0.0909090909090909 0.0909090909090909 0.0909090909090909 0.0009589566551591862 0.0009589566551591862 0.9904104334484076 0.0009589566551591862 0.0009589566551591862 0.0009589566551591862 0.0009589566551591862 0.0009589566551591862 0.0009589566551591862 0.0009589566551591862 0.0009589566551591862 0.0909090909090909 0.0909090909090909 0.0909090909090909 0.0909090909090909 0.0909090909090909 0.0909090909090909 0.0909090909090909 0.0909090909090909 0.0909090909090909 0.0909090909090909 0.0909090909090909 0.000958956655159186 0.9904104334484074 0.000958956655159186 0.000958956655159186 0.000958956655159186 0.000958956655159186 0.000958956655159186 0.000958956655159186 0.000958956655159186 0.000958956655159186 0.000958956655159186 0.0009589566551591862 0.0009589566551591862 0.9904104334484076 0.0009589566551591862 0.0009589566551591862 0.0009589566551591862 0.0009589566551591862 0.0009589566551591862 0.0009589566551591862 0.0009589566551591862 0.0009589566551591862 0.0009589566551591864 0.0009589566551591864 0.0009589566551591864 0.0009589566551591864 0.0009589566551591864 0.9904104334484078 0.0009589566551591864 0.0009589566551591864 0.0009589566551591864 0.0009589566551591864 0.0009589566551591864 0.4978309071628264 0.00048202063048298445 0.00048202063048298445 0.00048202063048298445 0.4978309071628264 0.00048202063048298445 0.00048202063048298445 0.00048202063048298445 0.00048202063048298445 0.00048202063048298445 0.00048202063048298445 0.0909090909090909 0.0909090909090909 0.0909090909090909 0.0909090909090909 0.0909090909090909 0.0909090909090909 0.0909090909090909 0.0909090909090909 0.0909090909090909 0.0909090909090909 0.0909090909090909 0.9904104334484074 0.000958956655159186 0.000958956655159186 0.000958956655159186 0.000958956655159186 0.000958956655159186 0.000958956655159186 0.000958956655159186 0.000958956655159186 0.000958956655159186 0.000958956655159186 0.0909090909090909 0.0909090909090909 0.0909090909090909 0.0909090909090909 0.0909090909090909 0.0909090909090909 0.0909090909090909 0.0909090909090909 0.0909090909090909 0.0909090909090909 0.0909090909090909 0.0909090909090909 0.0909090909090909 0.0909090909090909 0.0909090909090909 0.0909090909090909 0.0909090909090909 0.0909090909090909 