<?xml version='1.0' encoding='utf-8'?>
<BIF VERSION="0.3">
  <NETWORK>
    <NAME>UNTITLED</NAME>
    <VARIABLE TYPE="nature">
      <NAME>aar_mod</NAME>
      <OUTCOME>0</OUTCOME>
      <OUTCOME>1</OUTCOME>
      <OUTCOME>2</OUTCOME>
      <OUTCOME>3</OUTCOME>
      <OUTCOME>4</OUTCOME>
      <OUTCOME>5</OUTCOME>
      <OUTCOME>6</OUTCOME>
      <OUTCOME>7</OUTCOME>
      <OUTCOME>8</OUTCOME>
      <OUTCOME>9</OUTCOME>
      <OUTCOME>10</OUTCOME>
      <PROPERTY>weight = None</PROPERTY>
    </VARIABLE>
    <VARIABLE TYPE="nature">
      <NAME>aks_m2</NAME>
      <OUTCOME>0</OUTCOME>
      <OUTCOME>1</OUTCOME>
      <OUTCOME>2</OUTCOME>
      <OUTCOME>3</OUTCOME>
      <OUTCOME>4</OUTCOME>
      <OUTCOME>5</OUTCOME>
      <OUTCOME>6</OUTCOME>
      <OUTCOME>7</OUTCOME>
      <PROPERTY>weight = None</PROPERTY>
    </VARIABLE>
    <VARIABLE TYPE="nature">
      <NAME>aks_vgt</NAME>
      <OUTCOME>0</OUTCOME>
      <OUTCOME>1</OUTCOME>
      <OUTCOME>2</OUTCOME>
      <OUTCOME>3</OUTCOME>
      <OUTCOME>4</OUTCOME>
      <OUTCOME>5</OUTCOME>
      <OUTCOME>6</OUTCOME>
      <OUTCOME>7</OUTCOME>
      <OUTCOME>8</OUTCOME>
      <PROPERTY>weight = None</PROPERTY>
    </VARIABLE>
    <VARIABLE TYPE="nature">
      <NAME>antplnt</NAME>
      <OUTCOME>0</OUTCOME>
      <OUTCOME>1</OUTCOME>
      <OUTCOME>2</OUTCOME>
      <OUTCOME>3</OUTCOME>
      <OUTCOME>4</OUTCOME>
      <OUTCOME>5</OUTCOME>
      <OUTCOME>6</OUTCOME>
      <PROPERTY>weight = None</PROPERTY>
    </VARIABLE>
    <VARIABLE TYPE="nature">
      <NAME>bgbyg</NAME>
      <OUTCOME>0</OUTCOME>
      <OUTCOME>1</OUTCOME>
      <OUTCOME>2</OUTCOME>
      <OUTCOME>3</OUTCOME>
      <OUTCOME>4</OUTCOME>
      <OUTCOME>5</OUTCOME>
      <PROPERTY>weight = None</PROPERTY>
    </VARIABLE>
    <VARIABLE TYPE="nature">
      <NAME>dg25</NAME>
      <OUTCOME>0</OUTCOME>
      <OUTCOME>1</OUTCOME>
      <OUTCOME>2</OUTCOME>
      <OUTCOME>3</OUTCOME>
      <OUTCOME>4</OUTCOME>
      <OUTCOME>5</OUTCOME>
      <OUTCOME>6</OUTCOME>
      <PROPERTY>weight = None</PROPERTY>
    </VARIABLE>
    <VARIABLE TYPE="nature">
      <NAME>dgv1059</NAME>
      <OUTCOME>0</OUTCOME>
      <OUTCOME>1</OUTCOME>
      <OUTCOME>2</OUTCOME>
      <OUTCOME>3</OUTCOME>
      <OUTCOME>4</OUTCOME>
      <OUTCOME>5</OUTCOME>
      <PROPERTY>weight = None</PROPERTY>
    </VARIABLE>
    <VARIABLE TYPE="nature">
      <NAME>dgv5980</NAME>
      <OUTCOME>0</OUTCOME>
      <OUTCOME>1</OUTCOME>
      <OUTCOME>2</OUTCOME>
      <OUTCOME>3</OUTCOME>
      <OUTCOME>4</OUTCOME>
      <OUTCOME>5</OUTCOME>
      <PROPERTY>weight = None</PROPERTY>
    </VARIABLE>
    <VARIABLE TYPE="nature">
      <NAME>exptgens</NAME>
      <OUTCOME>0</OUTCOME>
      <OUTCOME>1</OUTCOME>
      <OUTCOME>2</OUTCOME>
      <OUTCOME>3</OUTCOME>
      <OUTCOME>4</OUTCOME>
      <PROPERTY>weight = None</PROPERTY>
    </VARIABLE>
    <VARIABLE TYPE="nature">
      <NAME>forfrugt</NAME>
      <OUTCOME>0</OUTCOME>
      <OUTCOME>1</OUTCOME>
      <OUTCOME>2</OUTCOME>
      <OUTCOME>3</OUTCOME>
      <OUTCOME>4</OUTCOME>
      <PROPERTY>weight = None</PROPERTY>
    </VARIABLE>
    <VARIABLE TYPE="nature">
      <NAME>frspdag</NAME>
      <OUTCOME>0</OUTCOME>
      <OUTCOME>1</OUTCOME>
      <OUTCOME>2</OUTCOME>
      <OUTCOME>3</OUTCOME>
      <OUTCOME>4</OUTCOME>
      <OUTCOME>5</OUTCOME>
      <OUTCOME>6</OUTCOME>
      <OUTCOME>7</OUTCOME>
      <PROPERTY>weight = None</PROPERTY>
    </VARIABLE>
    <VARIABLE TYPE="nature">
      <NAME>jordinf</NAME>
      <OUTCOME>0</OUTCOME>
      <OUTCOME>1</OUTCOME>
      <OUTCOME>2</OUTCOME>
      <OUTCOME>3</OUTCOME>
      <OUTCOME>4</OUTCOME>
      <OUTCOME>5</OUTCOME>
      <OUTCOME>6</OUTCOME>
      <OUTCOME>7</OUTCOME>
      <PROPERTY>weight = None</PROPERTY>
    </VARIABLE>
    <VARIABLE TYPE="nature">
      <NAME>jordn</NAME>
      <OUTCOME>0</OUTCOME>
      <OUTCOME>1</OUTCOME>
      <OUTCOME>2</OUTCOME>
      <OUTCOME>3</OUTCOME>
      <OUTCOME>4</OUTCOME>
      <OUTCOME>5</OUTCOME>
      <OUTCOME>6</OUTCOME>
      <OUTCOME>7</OUTCOME>
      <OUTCOME>8</OUTCOME>
      <PROPERTY>weight = None</PROPERTY>
    </VARIABLE>
    <VARIABLE TYPE="nature">
      <NAME>jordtype</NAME>
      <OUTCOME>0</OUTCOME>
      <OUTCOME>1</OUTCOME>
      <OUTCOME>2</OUTCOME>
      <OUTCOME>3</OUTCOME>
      <OUTCOME>4</OUTCOME>
      <OUTCOME>5</OUTCOME>
      <OUTCOME>6</OUTCOME>
      <OUTCOME>7</OUTCOME>
      <OUTCOME>8</OUTCOME>
      <PROPERTY>weight = None</PROPERTY>
    </VARIABLE>
    <VARIABLE TYPE="nature">
      <NAME>keraks</NAME>
      <OUTCOME>0</OUTCOME>
      <OUTCOME>1</OUTCOME>
      <OUTCOME>2</OUTCOME>
      <OUTCOME>3</OUTCOME>
      <OUTCOME>4</OUTCOME>
      <OUTCOME>5</OUTCOME>
      <OUTCOME>6</OUTCOME>
      <PROPERTY>weight = None</PROPERTY>
    </VARIABLE>
    <VARIABLE TYPE="nature">
      <NAME>komm</NAME>
      <OUTCOME>0</OUTCOME>
      <OUTCOME>1</OUTCOME>
      <OUTCOME>2</OUTCOME>
      <OUTCOME>3</OUTCOME>
      <OUTCOME>4</OUTCOME>
      <PROPERTY>weight = None</PROPERTY>
    </VARIABLE>
    <VARIABLE TYPE="nature">
      <NAME>ksort</NAME>
      <OUTCOME>0</OUTCOME>
      <OUTCOME>1</OUTCOME>
      <OUTCOME>2</OUTCOME>
      <OUTCOME>3</OUTCOME>
      <OUTCOME>4</OUTCOME>
      <PROPERTY>weight = None</PROPERTY>
    </VARIABLE>
    <VARIABLE TYPE="nature">
      <NAME>markgrm</NAME>
      <OUTCOME>0</OUTCOME>
      <OUTCOME>1</OUTCOME>
      <OUTCOME>2</OUTCOME>
      <OUTCOME>3</OUTCOME>
      <OUTCOME>4</OUTCOME>
      <OUTCOME>5</OUTCOME>
      <OUTCOME>6</OUTCOME>
      <OUTCOME>7</OUTCOME>
      <OUTCOME>8</OUTCOME>
      <OUTCOME>9</OUTCOME>
      <PROPERTY>weight = None</PROPERTY>
    </VARIABLE>
    <VARIABLE TYPE="nature">
      <NAME>mod_nmin</NAME>
      <OUTCOME>0</OUTCOME>
      <OUTCOME>1</OUTCOME>
      <OUTCOME>2</OUTCOME>
      <OUTCOME>3</OUTCOME>
      <OUTCOME>4</OUTCOME>
      <OUTCOME>5</OUTCOME>
      <PROPERTY>weight = None</PROPERTY>
    </VARIABLE>
    <VARIABLE TYPE="nature">
      <NAME>nedbarea</NAME>
      <OUTCOME>0</OUTCOME>
      <OUTCOME>1</OUTCOME>
      <OUTCOME>2</OUTCOME>
      <PROPERTY>weight = None</PROPERTY>
    </VARIABLE>
    <VARIABLE TYPE="nature">
      <NAME>ngodn</NAME>
      <OUTCOME>0</OUTCOME>
      <OUTCOME>1</OUTCOME>
      <OUTCOME>2</OUTCOME>
      <OUTCOME>3</OUTCOME>
      <OUTCOME>4</OUTCOME>
      <OUTCOME>5</OUTCOME>
      <OUTCOME>6</OUTCOME>
      <PROPERTY>weight = None</PROPERTY>
    </VARIABLE>
    <VARIABLE TYPE="nature">
      <NAME>ngodnn</NAME>
      <OUTCOME>0</OUTCOME>
      <OUTCOME>1</OUTCOME>
      <OUTCOME>2</OUTCOME>
      <OUTCOME>3</OUTCOME>
      <OUTCOME>4</OUTCOME>
      <OUTCOME>5</OUTCOME>
      <OUTCOME>6</OUTCOME>
      <OUTCOME>7</OUTCOME>
      <OUTCOME>8</OUTCOME>
      <PROPERTY>weight = None</PROPERTY>
    </VARIABLE>
    <VARIABLE TYPE="nature">
      <NAME>ngodnt</NAME>
      <OUTCOME>0</OUTCOME>
      <OUTCOME>1</OUTCOME>
      <OUTCOME>2</OUTCOME>
      <OUTCOME>3</OUTCOME>
      <OUTCOME>4</OUTCOME>
      <OUTCOME>5</OUTCOME>
      <OUTCOME>6</OUTCOME>
      <OUTCOME>7</OUTCOME>
      <PROPERTY>weight = None</PROPERTY>
    </VARIABLE>
    <VARIABLE TYPE="nature">
      <NAME>ngtilg</NAME>
      <OUTCOME>0</OUTCOME>
      <OUTCOME>1</OUTCOME>
      <OUTCOME>2</OUTCOME>
      <OUTCOME>3</OUTCOME>
      <OUTCOME>4</OUTCOME>
      <OUTCOME>5</OUTCOME>
      <OUTCOME>6</OUTCOME>
      <OUTCOME>7</OUTCOME>
      <OUTCOME>8</OUTCOME>
      <PROPERTY>weight = None</PROPERTY>
    </VARIABLE>
    <VARIABLE TYPE="nature">
      <NAME>nmin</NAME>
      <OUTCOME>0</OUTCOME>
      <OUTCOME>1</OUTCOME>
      <OUTCOME>2</OUTCOME>
      <OUTCOME>3</OUTCOME>
      <OUTCOME>4</OUTCOME>
      <PROPERTY>weight = None</PROPERTY>
    </VARIABLE>
    <VARIABLE TYPE="nature">
      <NAME>nopt</NAME>
      <OUTCOME>0</OUTCOME>
      <OUTCOME>1</OUTCOME>
      <OUTCOME>2</OUTCOME>
      <OUTCOME>3</OUTCOME>
      <OUTCOME>4</OUTCOME>
      <PROPERTY>weight = None</PROPERTY>
    </VARIABLE>
    <VARIABLE TYPE="nature">
      <NAME>nplac</NAME>
      <OUTCOME>0</OUTCOME>
      <OUTCOME>1</OUTCOME>
      <OUTCOME>2</OUTCOME>
      <PROPERTY>weight = None</PROPERTY>
    </VARIABLE>
    <VARIABLE TYPE="nature">
      <NAME>nprot</NAME>
      <OUTCOME>0</OUTCOME>
      <OUTCOME>1</OUTCOME>
      <OUTCOME>2</OUTCOME>
      <OUTCOME>3</OUTCOME>
      <OUTCOME>4</OUTCOME>
      <OUTCOME>5</OUTCOME>
      <PROPERTY>weight = None</PROPERTY>
    </VARIABLE>
    <VARIABLE TYPE="nature">
      <NAME>ntilg</NAME>
      <OUTCOME>0</OUTCOME>
      <OUTCOME>1</OUTCOME>
      <OUTCOME>2</OUTCOME>
      <OUTCOME>3</OUTCOME>
      <OUTCOME>4</OUTCOME>
      <OUTCOME>5</OUTCOME>
      <OUTCOME>6</OUTCOME>
      <OUTCOME>7</OUTCOME>
      <OUTCOME>8</OUTCOME>
      <OUTCOME>9</OUTCOME>
      <PROPERTY>weight = None</PROPERTY>
    </VARIABLE>
    <VARIABLE TYPE="nature">
      <NAME>partigerm</NAME>
      <OUTCOME>0</OUTCOME>
      <OUTCOME>1</OUTCOME>
      <OUTCOME>2</OUTCOME>
      <OUTCOME>3</OUTCOME>
      <OUTCOME>4</OUTCOME>
      <OUTCOME>5</OUTCOME>
      <OUTCOME>6</OUTCOME>
      <OUTCOME>7</OUTCOME>
      <OUTCOME>8</OUTCOME>
      <PROPERTY>weight = None</PROPERTY>
    </VARIABLE>
    <VARIABLE TYPE="nature">
      <NAME>pesticid</NAME>
      <OUTCOME>0</OUTCOME>
      <PROPERTY>weight = None</PROPERTY>
    </VARIABLE>
    <VARIABLE TYPE="nature">
      <NAME>potnmin</NAME>
      <OUTCOME>0</OUTCOME>
      <OUTCOME>1</OUTCOME>
      <OUTCOME>2</OUTCOME>
      <OUTCOME>3</OUTCOME>
      <OUTCOME>4</OUTCOME>
      <OUTCOME>5</OUTCOME>
      <OUTCOME>6</OUTCOME>
      <OUTCOME>7</OUTCOME>
      <PROPERTY>weight = None</PROPERTY>
    </VARIABLE>
    <VARIABLE TYPE="nature">
      <NAME>protein</NAME>
      <OUTCOME>0</OUTCOME>
      <OUTCOME>1</OUTCOME>
      <OUTCOME>2</OUTCOME>
      <OUTCOME>3</OUTCOME>
      <OUTCOME>4</OUTCOME>
      <OUTCOME>5</OUTCOME>
      <OUTCOME>6</OUTCOME>
      <OUTCOME>7</OUTCOME>
      <PROPERTY>weight = None</PROPERTY>
    </VARIABLE>
    <VARIABLE TYPE="nature">
      <NAME>rokap</NAME>
      <OUTCOME>0</OUTCOME>
      <OUTCOME>1</OUTCOME>
      <OUTCOME>2</OUTCOME>
      <OUTCOME>3</OUTCOME>
      <OUTCOME>4</OUTCOME>
      <OUTCOME>5</OUTCOME>
      <OUTCOME>6</OUTCOME>
      <PROPERTY>weight = None</PROPERTY>
    </VARIABLE>
    <VARIABLE TYPE="nature">
      <NAME>s2225</NAME>
      <OUTCOME>0</OUTCOME>
      <OUTCOME>1</OUTCOME>
      <OUTCOME>2</OUTCOME>
      <PROPERTY>weight = None</PROPERTY>
    </VARIABLE>
    <VARIABLE TYPE="nature">
      <NAME>s2528</NAME>
      <OUTCOME>0</OUTCOME>
      <OUTCOME>1</OUTCOME>
      <OUTCOME>2</OUTCOME>
      <OUTCOME>3</OUTCOME>
      <OUTCOME>4</OUTCOME>
      <OUTCOME>5</OUTCOME>
      <OUTCOME>6</OUTCOME>
      <PROPERTY>weight = None</PROPERTY>
    </VARIABLE>
    <VARIABLE TYPE="nature">
      <NAME>saakern</NAME>
      <OUTCOME>0</OUTCOME>
      <OUTCOME>1</OUTCOME>
      <OUTCOME>2</OUTCOME>
      <OUTCOME>3</OUTCOME>
      <OUTCOME>4</OUTCOME>
      <OUTCOME>5</OUTCOME>
      <OUTCOME>6</OUTCOME>
      <PROPERTY>weight = None</PROPERTY>
    </VARIABLE>
    <VARIABLE TYPE="nature">
      <NAME>saamng</NAME>
      <OUTCOME>0</OUTCOME>
      <OUTCOME>1</OUTCOME>
      <OUTCOME>2</OUTCOME>
      <OUTCOME>3</OUTCOME>
      <OUTCOME>4</OUTCOME>
      <OUTCOME>5</OUTCOME>
      <OUTCOME>6</OUTCOME>
      <OUTCOME>7</OUTCOME>
      <OUTCOME>8</OUTCOME>
      <OUTCOME>9</OUTCOME>
      <PROPERTY>weight = None</PROPERTY>
    </VARIABLE>
    <VARIABLE TYPE="nature">
      <NAME>saatid</NAME>
      <OUTCOME>0</OUTCOME>
      <OUTCOME>1</OUTCOME>
      <OUTCOME>2</OUTCOME>
      <OUTCOME>3</OUTCOME>
      <OUTCOME>4</OUTCOME>
      <PROPERTY>weight = None</PROPERTY>
    </VARIABLE>
    <VARIABLE TYPE="nature">
      <NAME>slt22</NAME>
      <OUTCOME>0</OUTCOME>
      <OUTCOME>1</OUTCOME>
      <OUTCOME>2</OUTCOME>
      <OUTCOME>3</OUTCOME>
      <PROPERTY>weight = None</PROPERTY>
    </VARIABLE>
    <VARIABLE TYPE="nature">
      <NAME>sort</NAME>
      <OUTCOME>0</OUTCOME>
      <OUTCOME>1</OUTCOME>
      <OUTCOME>2</OUTCOME>
      <OUTCOME>3</OUTCOME>
      <OUTCOME>4</OUTCOME>
      <OUTCOME>5</OUTCOME>
      <OUTCOME>6</OUTCOME>
      <OUTCOME>7</OUTCOME>
      <OUTCOME>8</OUTCOME>
      <OUTCOME>9</OUTCOME>
      <OUTCOME>10</OUTCOME>
      <OUTCOME>11</OUTCOME>
      <OUTCOME>12</OUTCOME>
      <OUTCOME>13</OUTCOME>
      <OUTCOME>14</OUTCOME>
      <OUTCOME>15</OUTCOME>
      <OUTCOME>16</OUTCOME>
      <OUTCOME>17</OUTCOME>
      <OUTCOME>18</OUTCOME>
      <OUTCOME>19</OUTCOME>
      <OUTCOME>20</OUTCOME>
      <OUTCOME>21</OUTCOME>
      <OUTCOME>22</OUTCOME>
      <OUTCOME>23</OUTCOME>
      <OUTCOME>24</OUTCOME>
      <OUTCOME>25</OUTCOME>
      <OUTCOME>26</OUTCOME>
      <OUTCOME>27</OUTCOME>
      <OUTCOME>28</OUTCOME>
      <OUTCOME>29</OUTCOME>
      <OUTCOME>30</OUTCOME>
      <OUTCOME>31</OUTCOME>
      <OUTCOME>32</OUTCOME>
      <OUTCOME>33</OUTCOME>
      <OUTCOME>34</OUTCOME>
      <OUTCOME>35</OUTCOME>
      <OUTCOME>36</OUTCOME>
      <OUTCOME>37</OUTCOME>
      <OUTCOME>38</OUTCOME>
      <OUTCOME>39</OUTCOME>
      <OUTCOME>40</OUTCOME>
      <OUTCOME>41</OUTCOME>
      <OUTCOME>42</OUTCOME>
      <OUTCOME>43</OUTCOME>
      <OUTCOME>44</OUTCOME>
      <OUTCOME>45</OUTCOME>
      <OUTCOME>46</OUTCOME>
      <OUTCOME>47</OUTCOME>
      <OUTCOME>48</OUTCOME>
      <OUTCOME>49</OUTCOME>
      <OUTCOME>50</OUTCOME>
      <OUTCOME>51</OUTCOME>
      <OUTCOME>52</OUTCOME>
      <OUTCOME>53</OUTCOME>
      <OUTCOME>54</OUTCOME>
      <OUTCOME>55</OUTCOME>
      <OUTCOME>56</OUTCOME>
      <OUTCOME>57</OUTCOME>
      <OUTCOME>58</OUTCOME>
      <OUTCOME>59</OUTCOME>
      <OUTCOME>60</OUTCOME>
      <OUTCOME>61</OUTCOME>
      <OUTCOME>62</OUTCOME>
      <OUTCOME>63</OUTCOME>
      <OUTCOME>64</OUTCOME>
      <OUTCOME>65</OUTCOME>
      <OUTCOME>66</OUTCOME>
      <PROPERTY>weight = None</PROPERTY>
    </VARIABLE>
    <VARIABLE TYPE="nature">
      <NAME>sorttkv</NAME>
      <OUTCOME>0</OUTCOME>
      <OUTCOME>1</OUTCOME>
      <OUTCOME>2</OUTCOME>
      <OUTCOME>3</OUTCOME>
      <OUTCOME>4</OUTCOME>
      <OUTCOME>5</OUTCOME>
      <OUTCOME>6</OUTCOME>
      <OUTCOME>7</OUTCOME>
      <OUTCOME>8</OUTCOME>
      <PROPERTY>weight = None</PROPERTY>
    </VARIABLE>
    <VARIABLE TYPE="nature">
      <NAME>spndx</NAME>
      <OUTCOME>0</OUTCOME>
      <PROPERTY>weight = None</PROPERTY>
    </VARIABLE>
    <VARIABLE TYPE="nature">
      <NAME>srtprot</NAME>
      <OUTCOME>0</OUTCOME>
      <OUTCOME>1</OUTCOME>
      <OUTCOME>2</OUTCOME>
      <OUTCOME>3</OUTCOME>
      <OUTCOME>4</OUTCOME>
      <OUTCOME>5</OUTCOME>
      <OUTCOME>6</OUTCOME>
      <OUTCOME>7</OUTCOME>
      <PROPERTY>weight = None</PROPERTY>
    </VARIABLE>
    <VARIABLE TYPE="nature">
      <NAME>srtsize</NAME>
      <OUTCOME>0</OUTCOME>
      <OUTCOME>1</OUTCOME>
      <OUTCOME>2</OUTCOME>
      <OUTCOME>3</OUTCOME>
      <OUTCOME>4</OUTCOME>
      <OUTCOME>5</OUTCOME>
      <OUTCOME>6</OUTCOME>
      <PROPERTY>weight = None</PROPERTY>
    </VARIABLE>
    <VARIABLE TYPE="nature">
      <NAME>tkv</NAME>
      <OUTCOME>0</OUTCOME>
      <OUTCOME>1</OUTCOME>
      <OUTCOME>2</OUTCOME>
      <OUTCOME>3</OUTCOME>
      <OUTCOME>4</OUTCOME>
      <OUTCOME>5</OUTCOME>
      <OUTCOME>6</OUTCOME>
      <PROPERTY>weight = None</PROPERTY>
    </VARIABLE>
    <VARIABLE TYPE="nature">
      <NAME>tkvs</NAME>
      <OUTCOME>0</OUTCOME>
      <OUTCOME>1</OUTCOME>
      <OUTCOME>2</OUTCOME>
      <OUTCOME>3</OUTCOME>
      <OUTCOME>4</OUTCOME>
      <OUTCOME>5</OUTCOME>
      <OUTCOME>6</OUTCOME>
      <OUTCOME>7</OUTCOME>
      <OUTCOME>8</OUTCOME>
      <PROPERTY>weight = None</PROPERTY>
    </VARIABLE>
    <VARIABLE TYPE="nature">
      <NAME>udb</NAME>
      <OUTCOME>0</OUTCOME>
      <OUTCOME>1</OUTCOME>
      <OUTCOME>2</OUTCOME>
      <OUTCOME>3</OUTCOME>
      <OUTCOME>4</OUTCOME>
      <OUTCOME>5</OUTCOME>
      <OUTCOME>6</OUTCOME>
      <OUTCOME>7</OUTCOME>
      <OUTCOME>8</OUTCOME>
      <PROPERTY>weight = None</PROPERTY>
    </VARIABLE>
    <DEFINITION>
      <FOR>aar_mod</FOR>
      <GIVEN>ngodnt</GIVEN>
      <GIVEN>sort</GIVEN>
      <TABLE>0.09090909090909094 0.09090909090909094 0.09090909090909094 0.09090909090909094 0.09090909090909094 0.09090909090909094 0.09090909090909094 0.09090909090909094 0.09090909090909094 0.09090909090909094 0.09090909090909094 0.09090909090909094 0.09090909090909094 0.09090909090909094 0.09090909090909094 0.09090909090909094 0.09090909090909094 0.09090909090909094 0.09090909090909094 0.09090909090909094 0.09090909090909094 0.09090909090909094 0.00042204777580822137 0.49810078500886285 0.00042204777580822137 0.00042204777580822137 0.49810078500886285 0.00042204777580822137 0.00042204777580822137 0.00042204777580822137 0.00042204777580822137 0.00042204777580822137 0.00042204777580822137 0.09090909090909094 0.09090909090909094 0.09090909090909094 0.09090909090909094 0.09090909090909094 0.09090909090909094 0.09090909090909094 0.09090909090909094 0.09090909090909094 0.09090909090909094 0.09090909090909094 0.3325818632700218 0.00028180127374175716 0.664881925266302 0.00028180127374175716 0.00028180127374175716 0.00028180127374175716 0.00028180127374175716 0.00028180127374175716 0.00028180127374175716 0.00028180127374175716 0.00028180127374175716 0.0002818012737417572 0.0002818012737417572 0.6648819252663021 0.33258186327002187 0.0002818012737417572 0.0002818012737417572 0.0002818012737417572 0.0002818012737417572 0.0002818012737417572 0.0002818012737417572 0.0002818012737417572 0.0008401949252226519 0.0008401949252226519 0.0008401949252226519 0.0008401949252226519 0.9915980507477737 0.0008401949252226519 0.0008401949252226519 0.0008401949252226519 0.0008401949252226519 0.0008401949252226519 0.0008401949252226519 0.0004220477758082215 0.0004220477758082215 0.0004220477758082215 0.49810078500886296 0.0004220477758082215 0.0004220477758082215 0.0004220477758082215 0.0004220477758082215 0.0004220477758082215 0.49810078500886296 0.0004220477758082215 0.00028180127374175727 0.33258186327002187 0.00028180127374175727 0.33258186327002187 0.33258186327002187 0.00028180127374175727 0.00028180127374175727 0.00028180127374175727 0.00028180127374175727 0.00028180127374175727 0.00028180127374175727 0.00028180127374175716 0.00028180127374175716 0.00028180127374175716 0.3325818632700218 0.664881925266302 0.00028180127374175716 0.00028180127374175716 0.00028180127374175716 0.00028180127374175716 0.00028180127374175716 0.00028180127374175716 0.00028180127374175716 0.6648819252663019 0.00028180127374175716 0.33258186327002176 0.00028180127374175716 0.00028180127374175716 0.00028180127374175716 0.00028180127374175716 0.00028180127374175716 0.00028180127374175716 0.00028180127374175716 0.00021151486949532564 0.2496298489783833 0.00021151486949532564 0.49904818308727134 0.2496298489783833 0.00021151486949532564 0.00021151486949532564 0.00021151486949532564 0.00021151486949532564 0.00021151486949532564 0.00021151486949532564 0.0002818012737417572 0.0002818012737417572 0.0002818012737417572 0.0002818012737417572 0.6648819252663021 0.33258186327002187 0.0002818012737417572 0.0002818012737417572 0.0002818012737417572 0.0002818012737417572 0.0002818012737417572 0.09090909090909094 0.09090909090909094 0.09090909090909094 0.09090909090909094 0.09090909090909094 0.09090909090909094 0.09090909090909094 0.09090909090909094 0.09090909090909094 0.09090909090909094 0.09090909090909094 0.09090909090909094 0.09090909090909094 0.09090909090909094 0.09090909090909094 0.09090909090909094 0.09090909090909094 0.09090909090909094 0.09090909090909094 0.09090909090909094 0.09090909090909094 0.09090909090909094 0.0008401949252226521 0.0008401949252226521 0.991598050747774 0.0008401949252226521 0.0008401949252226521 0.0008401949252226521 0.0008401949252226521 0.0008401949252226521 0.0008401949252226521 0.0008401949252226521 0.0008401949252226521 0.09090909090909094 0.09090909090909094 0.09090909090909094 0.09090909090909094 0.09090909090909094 0.09090909090909094 0.09090909090909094 0.09090909090909094 0.09090909090909094 0.09090909090909094 0.09090909090909094 0.00028180127374175727 0.33258186327002187 0.00028180127374175727 0.33258186327002187 0.33258186327002187 0.00028180127374175727 0.00028180127374175727 0.00028180127374175727 0.00028180127374175727 0.00028180127374175727 0.00028180127374175727 0.09090909090909094 0.09090909090909094 0.09090909090909094 0.09090909090909094 0.09090909090909094 0.09090909090909094 0.09090909090909094 0.09090909090909094 0.09090909090909094 0.09090909090909094 0.09090909090909094 0.0008401949252226519 0.0008401949252226519 0.0008401949252226519 0.9915980507477737 0.0008401949252226519 0.0008401949252226519 0.0008401949252226519 0.0008401949252226519 0.0008401949252226519 0.0008401949252226519 0.0008401949252226519 0.0004220477758082213 0.0004220477758082213 0.0004220477758082213 0.49810078500886273 0.49810078500886273 0.0004220477758082213 0.0004220477758082213 0.0004220477758082213 0.0004220477758082213 0.0004220477758082213 0.0004220477758082213 0.09090909090909094 0.09090909090909094 0.09090909090909094 0.09090909090909094 0.09090909090909094 0.09090909090909094 0.09090909090909094 0.09090909090909094 0.09090909090909094 0.09090909090909094 0.09090909090909094 0.0008401949252226521 0.991598050747774 0.0008401949252226521 0.0008401949252226521 0.0008401949252226521 0.0008401949252226521 0.0008401949252226521 0.0008401949252226521 0.0008401949252226521 0.0008401949252226521 0.0008401949252226521 0.0008401949252226519 0.0008401949252226519 0.0008401949252226519 0.0008401949252226519 0.9915980507477737 0.0008401949252226519 0.0008401949252226519 0.0008401949252226519 0.0008401949252226519 0.0008401949252226519 0.0008401949252226519 0.09090909090909094 0.09090909090909094 0.09090909090909094 0.09090909090909094 0.09090909090909094 0.09090909090909094 0.09090909090909094 0.09090909090909094 0.09090909090909094 0.09090909090909094 0.09090909090909094 0.0008401949252226519 0.0008401949252226519 0.0008401949252226519 0.0008401949252226519 0.0008401949252226519 0.9915980507477737 0.0008401949252226519 0.0008401949252226519 0.0008401949252226519 0.0008401949252226519 0.0008401949252226519 0.00028180127374175727 0.00028180127374175727 0.00028180127374175727 0.00028180127374175727 0.6648819252663021 0.00028180127374175727 0.00028180127374175727 0.00028180127374175727 0.00028180127374175727 0.00028180127374175727 0.33258186327002187 0.0004220477758082213 0.0004220477758082213 0.0004220477758082213 0.49810078500886273 0.49810078500886273 0.0004220477758082213 0.0004220477758082213 0.0004220477758082213 0.0004220477758082213 0.0004220477758082213 0.0004220477758082213 0.09090909090909094 0.09090909090909094 0.09090909090909094 0.09090909090909094 0.09090909090909094 0.09090909090909094 0.09090909090909094 0.09090909090909094 0.09090909090909094 0.09090909090909094 0.09090909090909094 0.09090909090909094 0.09090909090909094 0.09090909090909094 0.09090909090909094 0.09090909090909094 0.09090909090909094 0.09090909090909094 0.09090909090909094 0.09090909090909094 0.09090909090909094 0.09090909090909094 0.00028180127374175727 0.00028180127374175727 0.33258186327002187 0.33258186327002187 0.33258186327002187 0.00028180127374175727 0.00028180127374175727 0.00028180127374175727 0.00028180127374175727 0.00028180127374175727 0.00028180127374175727 0.09090909090909094 0.09090909090909094 0.09090909090909094 0.09090909090909094 0.09090909090909094 0.09090909090909094 0.09090909090909094 0.09090909090909094 0.09090909090909094 0.09090909090909094 0.09090909090909094 0.09090909090909094 0.09090909090909094 0.09090909090909094 0.09090909090909094 0.09090909090909094 0.09090909090909094 0.09090909090909094 0.09090909090909094 0.09090909090909094 0.09090909090909094 0.09090909090909094 0.0008401949252226521 0.0008401949252226521 0.991598050747774 0.0008401949252226521 0.0008401949252226521 0.0008401949252226521 0.0008401949252226521 0.0008401949252226521 0.0008401949252226521 0.0008401949252226521 0.0008401949252226521 0.09090909090909094 0.09090909090909094 0.09090909090909094 0.09090909090909094 0.09090909090909094 0.09090909090909094 0.09090909090909094 0.09090909090909094 0.09090909090909094 0.09090909090909094 0.09090909090909094 0.00028180127374175716 0.00028180127374175716 0.00028180127374175716 0.3325818632700218 0.664881925266302 0.00028180127374175716 0.00028180127374175716 0.00028180127374175716 0.00028180127374175716 0.00028180127374175716 0.00028180127374175716 0.09090909090909094 0.09090909090909094 0.09090909090909094 0.09090909090909094 0.09090909090909094 0.09090909090909094 0.09090909090909094 0.09090909090909094 0.09090909090909094 0.09090909090909094 0.09090909090909094 0.09090909090909094 0.09090909090909094 0.09090909090909094 0.09090909090909094 0.09090909090909094 0.09090909090909094 0.09090909090909094 0.09090909090909094 0.09090909090909094 0.09090909090909094 0.09090909090909094 0.0002115148694953256 0.24962984897838325 0.24962984897838325 0.0002115148694953256 0.4990481830872712 0.0002115148694953256 0.0002115148694953256 0.0002115148694953256 0.0002115148694953256 0.0002115148694953256 0.0002115148694953256 0.0002115148694953255 0.24962984897838314 0.0002115148694953255 0.0002115148694953255 0.499048183087271 0.0002115148694953255 0.0002115148694953255 0.0002115148694953255 0.0002115148694953255 0.0002115148694953255 0.24962984897838314 0.09090909090909094 0.09090909090909094 0.09090909090909094 0.09090909090909094 0.09090909090909094 0.09090909090909094 0.09090909090909094 0.09090909090909094 0.09090909090909094 0.09090909090909094 0.09090909090909094 0.00028180127374175727 0.33258186327002187 0.00028180127374175727 0.00028180127374175727 0.33258186327002187 0.00028180127374175727 0.00028180127374175727 0.00028180127374175727 0.00028180127374175727 0.00028180127374175727 0.33258186327002187 0.49810078500886307 0.0004220477758082216 0.0004220477758082216 0.0004220477758082216 0.0004220477758082216 0.0004220477758082216 0.0004220477758082216 0.0004220477758082216 0.0004220477758082216 0.0004220477758082216 0.49810078500886307 0.0008401949252226519 0.0008401949252226519 0.0008401949252226519 0.0008401949252226519 0.9915980507477737 0.0008401949252226519 0.0008401949252226519 0.0008401949252226519 0.0008401949252226519 0.0008401949252226519 0.0008401949252226519 0.0008401949252226519 0.0008401949252226519 0.0008401949252226519 0.9915980507477737 0.0008401949252226519 0.0008401949252226519 0.0008401949252226519 0.0008401949252226519 0.0008401949252226519 0.0008401949252226519 0.0008401949252226519 0.09090909090909094 0.09090909090909094 0.09090909090909094 0.09090909090909094 0.09090909090909094 0.09090909090909094 0.09090909090909094 0.09090909090909094 0.09090909090909094 0.09090909090909094 0.09090909090909094 0.09090909090909094 0.09090909090909094 0.09090909090909094 0.09090909090909094 0.09090909090909094 0.09090909090909094 0.09090909090909094 0.09090909090909094 0.09090909090909094 0.09090909090909094 0.09090909090909094 0.0008401949252226519 0.0008401949252226519 0.0008401949252226519 0.9915980507477737 0.0008401949252226519 0.0008401949252226519 0.0008401949252226519 0.0008401949252226519 0.0008401949252226519 0.0008401949252226519 0.0008401949252226519 0.0004220477758082213 0.0004220477758082213 0.0004220477758082213 0.0004220477758082213 0.0004220477758082213 0.9957795222419173 0.0004220477758082213 0.0004220477758082213 0.0004220477758082213 0.0004220477758082213 0.0004220477758082213 0.49810078500886273 0.0004220477758082213 0.0004220477758082213 0.49810078500886273 0.0004220477758082213 0.0004220477758082213 0.0004220477758082213 0.0004220477758082213 0.0004220477758082213 0.0004220477758082213 0.0004220477758082213 0.0008401949252226521 0.0008401949252226521 0.991598050747774 0.0008401949252226521 0.0008401949252226521 0.0008401949252226521 0.0008401949252226521 0.0008401949252226521 0.0008401949252226521 0.0008401949252226521 0.0008401949252226521 0.09090909090909094 0.09090909090909094 0.09090909090909094 0.09090909090909094 0.09090909090909094 0.09090909090909094 0.09090909090909094 0.09090909090909094 0.09090909090909094 0.09090909090909094 0.09090909090909094 0.0008401949252226521 0.0008401949252226521 0.991598050747774 0.0008401949252226521 0.0008401949252226521 0.0008401949252226521 0.0008401949252226521 0.0008401949252226521 0.0008401949252226521 0.0008401949252226521 0.0008401949252226521 0.0004220477758082213 0.49810078500886273 0.0004220477758082213 0.49810078500886273 0.0004220477758082213 0.0004220477758082213 0.0004220477758082213 0.0004220477758082213 0.0004220477758082213 0.0004220477758082213 0.0004220477758082213 0.0004220477758082213 0.0004220477758082213 0.49810078500886273 0.49810078500886273 0.0004220477758082213 0.0004220477758082213 0.0004220477758082213 0.0004220477758082213 0.0004220477758082213 0.0004220477758082213 0.0004220477758082213 0.09090909090909094 0.09090909090909094 0.09090909090909094 0.09090909090909094 0.09090909090909094 0.09090909090909094 0.09090909090909094 0.09090909090909094 0.09090909090909094 0.09090909090909094 0.09090909090909094 0.0008401949252226521 0.0008401949252226521 0.991598050747774 0.0008401949252226521 0.0008401949252226521 0.0008401949252226521 0.0008401949252226521 0.0008401949252226521 0.0008401949252226521 0.0008401949252226521 0.0008401949252226521 0.09090909090909094 0.09090909090909094 0.09090909090909094 0.09090909090909094 0.09090909090909094 0.09090909090909094 0.09090909090909094 0.09090909090909094 0.09090909090909094 0.09090909090909094 0.09090909090909094 0.0002818012737417572 0.33258186327002187 0.0002818012737417572 0.6648819252663021 0.0002818012737417572 0.0002818012737417572 0.0002818012737417572 0.0002818012737417572 0.0002818012737417572 0.0002818012737417572 0.0002818012737417572 0.09090909090909094 0.09090909090909094 0.09090909090909094 0.09090909090909094 0.09090909090909094 0.09090909090909094 0.09090909090909094 0.09090909090909094 0.09090909090909094 0.09090909090909094 0.09090909090909094 0.00014111935875363386 0.16654906720103865 0.00014111935875363386 0.16654906720103865 0.33295701504332376 0.33295701504332376 0.00014111935875363386 0.00014111935875363386 0.00014111935875363386 0.00014111935875363386 0.00014111935875363386 0.09090909090909094 0.09090909090909094 0.09090909090909094 0.09090909090909094 0.09090909090909094 0.09090909090909094 0.09090909090909094 0.09090909090909094 0.09090909090909094 0.09090909090909094 0.09090909090909094 0.09090909090909094 0.09090909090909094 0.09090909090909094 0.09090909090909094 0.09090909090909094 0.09090909090909094 0.09090909090909094 0.09090909090909094 0.09090909090909094 0.09090909090909094 0.09090909090909094 0.0002818012737417572 0.0002818012737417572 0.6648819252663021 0.33258186327002187 0.0002818012737417572 0.0002818012737417572 0.0002818012737417572 0.0002818012737417572 0.0002818012737417572 0.0002818012737417572 0.0002818012737417572 0.0004220477758082213 0.0004220477758082213 0.0004220477758082213 0.0004220477758082213 0.9957795222419173 0.0004220477758082213 0.0004220477758082213 0.0004220477758082213 0.0004220477758082213 0.0004220477758082213 0.0004220477758082213 0.00042204777580822137 0.00042204777580822137 0.49810078500886285 0.00042204777580822137 0.49810078500886285 0.00042204777580822137 0.00042204777580822137 0.00042204777580822137 0.00042204777580822137 0.00042204777580822137 0.00042204777580822137 0.0004220477758082213 0.0004220477758082213 0.49810078500886273 0.49810078500886273 0.0004220477758082213 0.0004220477758082213 0.0004220477758082213 0.0004220477758082213 0.0004220477758082213 0.0004220477758082213 0.0004220477758082213 0.0008401949252226519 0.0008401949252226519 0.0008401949252226519 0.0008401949252226519 0.9915980507477737 0.0008401949252226519 0.0008401949252226519 0.0008401949252226519 0.0008401949252226519 0.0008401949252226519 0.0008401949252226519 0.09090909090909094 0.09090909090909094 0.09090909090909094 0.09090909090909094 0.09090909090909094 0.09090909090909094 0.09090909090909094 0.09090909090909094 0.09090909090909094 0.09090909090909094 0.09090909090909094 0.09090909090909094 0.09090909090909094 0.09090909090909094 0.09090909090909094 0.09090909090909094 0.09090909090909094 0.09090909090909094 0.09090909090909094 0.09090909090909094 0.09090909090909094 0.09090909090909094 0.09090909090909094 0.09090909090909094 0.09090909090909094 0.09090909090909094 0.09090909090909094 0.09090909090909094 0.09090909090909094 0.09090909090909094 0.09090909090909094 0.09090909090909094 0.09090909090909094 0.09090909090909094 0.09090909090909094 0.09090909090909094 0.09090909090909094 0.09090909090909094 0.09090909090909094 0.09090909090909094 0.09090909090909094 0.09090909090909094 0.09090909090909094 0.09090909090909094 0.09090909090909094 0.09090909090909094 0.09090909090909094 0.09090909090909094 0.09090909090909094 0.09090909090909094 0.09090909090909094 0.09090909090909094 0.09090909090909094 0.09090909090909094 0.09090909090909094 0.09090909090909094 0.09090909090909094 0.09090909090909094 0.09090909090909094 0.09090909090909094 0.09090909090909094 0.09090909090909094 0.09090909090909094 0.09090909090909094 0.09090909090909094 0.09090909090909094 0.0008401949252226519 0.0008401949252226519 0.0008401949252226519 0.0008401949252226519 0.9915980507477737 0.0008401949252226519 0.0008401949252226519 0.0008401949252226519 0.0008401949252226519 0.0008401949252226519 0.0008401949252226519 0.09090909090909094 0.09090909090909094 0.09090909090909094 0.09090909090909094 0.09090909090909094 0.09090909090909094 0.09090909090909094 0.09090909090909094 0.09090909090909094 0.09090909090909094 0.09090909090909094 0.09090909090909094 0.09090909090909094 0.09090909090909094 0.09090909090909094 0.09090909090909094 0.09090909090909094 0.09090909090909094 0.09090909090909094 0.09090909090909094 0.09090909090909094 0.09090909090909094 0.09090909090909094 0.09090909090909094 0.09090909090909094 0.09090909090909094 0.09090909090909094 0.09090909090909094 0.09090909090909094 0.09090909090909094 0.09090909090909094 0.09090909090909094 0.09090909090909094 0.09090909090909094 0.09090909090909094 0.09090909090909094 0.09090909090909094 0.09090909090909094 0.09090909090909094 0.09090909090909094 0.09090909090909094 0.09090909090909094 0.09090909090909094 0.09090909090909094 0.09090909090909094 0.09090909090909094 0.09090909090909094 0.09090909090909094 0.09090909090909094 0.09090909090909094 0.09090909090909094 0.09090909090909094 0.09090909090909094 0.09090909090909094 0.09090909090909094 0.09090909090909094 0.09090909090909094 0.09090909090909094 0.09090909090909094 0.09090909090909094 0.09090909090909094 0.09090909090909094 0.09090909090909094 0.09090909090909094 0.09090909090909094 0.09090909090909094 0.09090909090909094 0.09090909090909094 0.09090909090909094 0.09090909090909094 0.09090909090909094 0.09090909090909094 0.09090909090909094 0.09090909090909094 0.09090909090909094 0.09090909090909094 0.09090909090909094 0.09090909090909094 0.09090909090909094 0.09090909090909094 0.09090909090909094 0.09090909090909094 0.09090909090909094 0.09090909090909094 0.09090909090909094 0.09090909090909094 0.09090909090909094 0.09090909090909094 0.09090909090909094 0.09090909090909094 0.09090909090909094 0.09090909090909094 0.09090909090909094 0.09090909090909094 0.09090909090909094 0.09090909090909094 0.09090909090909094 0.09090909090909094 0.09090909090909094 0.0008401949252226519 0.0008401949252226519 0.0008401949252226519 0.9915980507477737 0.0008401949252226519 0.0008401949252226519 0.0008401949252226519 0.0008401949252226519 0.0008401949252226519 0.0008401949252226519 0.0008401949252226519 0.09090909090909094 0.09090909090909094 0.09090909090909094 0.09090909090909094 0.09090909090909094 0.09090909090909094 0.09090909090909094 0.09090909090909094 0.09090909090909094 0.09090909090909094 0.09090909090909094 0.09090909090909094 0.09090909090909094 0.09090909090909094 0.09090909090909094 0.09090909090909094 0.09090909090909094 0.09090909090909094 0.09090909090909094 0.09090909090909094 0.09090909090909094 0.09090909090909094 0.09090909090909094 0.09090909090909094 0.09090909090909094 0.09090909090909094 0.09090909090909094 0.09090909090909094 0.09090909090909094 0.09090909090909094 0.09090909090909094 0.09090909090909094 0.09090909090909094 0.0008401949252226519 0.0008401949252226519 0.0008401949252226519 0.0008401949252226519 0.9915980507477737 0.0008401949252226519 0.0008401949252226519 0.0008401949252226519 0.0008401949252226519 0.0008401949252226519 0.0008401949252226519 0.09090909090909094 0.09090909090909094 0.09090909090909094 0.09090909090909094 0.09090909090909094 0.09090909090909094 0.09090909090909094 0.09090909090909094 0.09090909090909094 0.09090909090909094 0.09090909090909094 0.0008401949252226521 0.0008401949252226521 0.991598050747774 0.0008401949252226521 0.0008401949252226521 0.0008401949252226521 0.0008401949252226521 0.0008401949252226521 0.0008401949252226521 0.0008401949252226521 0.0008401949252226521 0.09090909090909094 0.09090909090909094 0.09090909090909094 0.09090909090909094 0.09090909090909094 0.09090909090909094 0.09090909090909094 0.09090909090909094 0.09090909090909094 0.09090909090909094 0.09090909090909094 0.09090909090909094 0.09090909090909094 0.09090909090909094 0.09090909090909094 0.09090909090909094 0.09090909090909094 0.09090909090909094 0.09090909090909094 0.09090909090909094 0.09090909090909094 0.09090909090909094 0.09090909090909094 0.09090909090909094 0.09090909090909094 0.09090909090909094 0.09090909090909094 0.09090909090909094 0.09090909090909094 0.09090909090909094 0.09090909090909094 0.09090909090909094 0.09090909090909094 0.09090909090909094 0.09090909090909094 0.09090909090909094 0.09090909090909094 0.09090909090909094 0.09090909090909094 0.09090909090909094 0.09090909090909094 0.09090909090909094 0.09090909090909094 0.09090909090909094 0.09090909090909094 0.09090909090909094 0.09090909090909094 0.09090909090909094 0.09090909090909094 0.09090909090909094 0.09090909090909094 0.09090909090909094 0.09090909090909094 0.09090909090909094 0.09090909090909094 0.09090909090909094 0.09090909090909094 0.09090909090909094 0.09090909090909094 0.09090909090909094 0.09090909090909094 0.09090909090909094 0.09090909090909094 0.09090909090909094 0.09090909090909094 0.09090909090909094 0.09090909090909094 0.09090909090909094 0.09090909090909094 0.09090909090909094 0.09090909090909094 0.09090909090909094 0.09090909090909094 0.09090909090909094 0.09090909090909094 0.09090909090909094 0.09090909090909094 0.09090909090909094 0.09090909090909094 0.09090909090909094 0.09090909090909094 0.09090909090909094 0.09090909090909094 0.09090909090909094 0.09090909090909094 0.09090909090909094 0.09090909090909094 0.09090909090909094 0.0004220477758082213 0.0004220477758082213 0.0004220477758082213 0.49810078500886273 0.49810078500886273 0.0004220477758082213 0.0004220477758082213 0.0004220477758082213 0.0004220477758082213 0.0004220477758082213 0.0004220477758082213 0.09090909090909094 0.09090909090909094 0.09090909090909094 0.09090909090909094 0.09090909090909094 0.09090909090909094 0.09090909090909094 0.09090909090909094 0.09090909090909094 0.09090909090909094 0.09090909090909094 0.09090909090909094 0.09090909090909094 0.09090909090909094 0.09090909090909094 0.09090909090909094 0.09090909090909094 0.09090909090909094 0.09090909090909094 0.09090909090909094 0.09090909090909094 0.09090909090909094 0.09090909090909094 0.09090909090909094 0.09090909090909094 0.09090909090909094 0.09090909090909094 0.09090909090909094 0.09090909090909094 0.09090909090909094 0.09090909090909094 0.09090909090909094 0.09090909090909094 0.09090909090909094 0.09090909090909094 0.09090909090909094 0.09090909090909094 0.09090909090909094 0.09090909090909094 0.09090909090909094 0.09090909090909094 0.09090909090909094 0.09090909090909094 0.09090909090909094 0.09090909090909094 0.09090909090909094 0.09090909090909094 0.09090909090909094 0.09090909090909094 0.09090909090909094 0.09090909090909094 0.09090909090909094 0.09090909090909094 0.09090909090909094 0.09090909090909094 0.09090909090909094 0.09090909090909094 0.09090909090909094 0.09090909090909094 0.09090909090909094 0.09090909090909094 0.09090909090909094 0.09090909090909094 0.09090909090909094 0.09090909090909094 0.09090909090909094 0.09090909090909094 0.09090909090909094 0.09090909090909094 0.09090909090909094 0.09090909090909094 0.09090909090909094 0.09090909090909094 0.09090909090909094 0.09090909090909094 0.09090909090909094 0.09090909090909094 0.09090909090909094 0.09090909090909094 0.09090909090909094 0.09090909090909094 0.09090909090909094 0.09090909090909094 0.09090909090909094 0.09090909090909094 0.09090909090909094 0.09090909090909094 0.09090909090909094 0.0008401949252226521 0.0008401949252226521 0.991598050747774 0.0008401949252226521 0.0008401949252226521 0.0008401949252226521 0.0008401949252226521 0.0008401949252226521 0.0008401949252226521 0.0008401949252226521 0.0008401949252226521 0.0004220477758082213 0.0004220477758082213 0.0004220477758082213 0.49810078500886273 0.49810078500886273 0.0004220477758082213 0.0004220477758082213 0.0004220477758082213 0.0004220477758082213 0.0004220477758082213 0.0004220477758082213 0.09090909090909094 0.09090909090909094 0.09090909090909094 0.09090909090909094 0.09090909090909094 0.09090909090909094 0.09090909090909094 0.09090909090909094 0.09090909090909094 0.09090909090909094 0.09090909090909094 0.0008401949252226521 0.0008401949252226521 0.991598050747774 0.0008401949252226521 0.0008401949252226521 0.0008401949252226521 0.0008401949252226521 0.0008401949252226521 0.0008401949252226521 0.0008401949252226521 0.0008401949252226521 0.09090909090909094 0.09090909090909094 0.09090909090909094 0.09090909090909094 0.09090909090909094 0.09090909090909094 0.09090909090909094 0.09090909090909094 0.09090909090909094 0.09090909090909094 0.09090909090909094 0.0008401949252226519 0.0008401949252226519 0.0008401949252226519 0.0008401949252226519 0.9915980507477737 0.0008401949252226519 0.0008401949252226519 0.0008401949252226519 0.0008401949252226519 0.0008401949252226519 0.0008401949252226519 0.09090909090909094 0.09090909090909094 0.09090909090909094 0.09090909090909094 0.09090909090909094 0.09090909090909094 0.09090909090909094 0.09090909090909094 0.09090909090909094 0.09090909090909094 0.09090909090909094 0.09090909090909094 0.09090909090909094 0.09090909090909094 0.09090909090909094 0.09090909090909094 0.09090909090909094 0.09090909090909094 0.09090909090909094 0.09090909090909094 0.09090909090909094 0.09090909090909094 0.09090909090909094 0.09090909090909094 0.09090909090909094 0.09090909090909094 0.09090909090909094 0.09090909090909094 0.09090909090909094 0.09090909090909094 0.09090909090909094 0.09090909090909094 0.09090909090909094 0.0008401949252226519 0.0008401949252226519 0.0008401949252226519 0.9915980507477737 0.0008401949252226519 0.0008401949252226519 0.0008401949252226519 0.0008401949252226519 0.0008401949252226519 0.0008401949252226519 0.0008401949252226519 0.09090909090909094 0.09090909090909094 0.09090909090909094 0.09090909090909094 0.09090909090909094 0.09090909090909094 0.09090909090909094 0.09090909090909094 0.09090909090909094 0.09090909090909094 0.09090909090909094 0.09090909090909094 0.09090909090909094 0.09090909090909094 0.09090909090909094 0.09090909090909094 0.09090909090909094 0.09090909090909094 0.09090909090909094 0.09090909090909094 0.09090909090909094 0.09090909090909094 0.09090909090909094 0.09090909090909094 0.09090909090909094 0.09090909090909094 0.09090909090909094 0.09090909090909094 0.09090909090909094 0.09090909090909094 0.09090909090909094 0.09090909090909094 0.09090909090909094 0.09090909090909094 0.09090909090909094 0.09090909090909094 0.09090909090909094 0.09090909090909094 0.09090909090909094 0.09090909090909094 0.09090909090909094 0.09090909090909094 0.09090909090909094 0.09090909090909094 0.0008401949252226517 0.0008401949252226517 0.0008401949252226517 0.0008401949252226517 0.0008401949252226517 0.0008401949252226517 0.0008401949252226517 0.0008401949252226517 0.0008401949252226517 0.0008401949252226517 0.9915980507477735 0.09090909090909094 0.09090909090909094 0.09090909090909094 0.09090909090909094 0.09090909090909094 0.09090909090909094 0.09090909090909094 0.09090909090909094 0.09090909090909094 0.09090909090909094 0.09090909090909094 0.09090909090909094 0.09090909090909094 0.09090909090909094 0.09090909090909094 0.09090909090909094 0.09090909090909094 0.09090909090909094 0.09090909090909094 0.09090909090909094 0.09090909090909094 0.09090909090909094 0.09090909090909094 0.09090909090909094 0.09090909090909094 0.09090909090909094 0.09090909090909094 0.09090909090909094 0.09090909090909094 0.09090909090909094 0.09090909090909094 0.09090909090909094 0.09090909090909094 0.09090909090909094 0.09090909090909094 0.09090909090909094 0.09090909090909094 0.09090909090909094 0.09090909090909094 0.09090909090909094 0.09090909090909094 0.09090909090909094 0.09090909090909094 0.09090909090909094 0.09090909090909094 0.09090909090909094 0.09090909090909094 0.09090909090909094 0.09090909090909094 0.09090909090909094 0.09090909090909094 0.09090909090909094 0.09090909090909094 0.09090909090909094 0.09090909090909094 0.09090909090909094 0.09090909090909094 0.09090909090909094 0.09090909090909094 0.09090909090909094 0.09090909090909094 0.09090909090909094 0.09090909090909094 0.09090909090909094 0.09090909090909094 0.09090909090909094 0.09090909090909094 0.09090909090909094 0.09090909090909094 0.09090909090909094 0.09090909090909094 0.09090909090909094 0.09090909090909094 0.09090909090909094 0.09090909090909094 0.09090909090909094 0.09090909090909094 0.0008401949252226519 0.0008401949252226519 0.0008401949252226519 0.0008401949252226519 0.9915980507477737 0.0008401949252226519 0.0008401949252226519 0.0008401949252226519 0.0008401949252226519 0.0008401949252226519 0.0008401949252226519 0.09090909090909094 0.09090909090909094 0.09090909090909094 0.09090909090909094 0.09090909090909094 0.09090909090909094 0.09090909090909094 0.09090909090909094 0.09090909090909094 0.09090909090909094 0.09090909090909094 0.09090909090909094 0.09090909090909094 0.09090909090909094 0.09090909090909094 0.09090909090909094 0.09090909090909094 0.09090909090909094 0.09090909090909094 0.09090909090909094 0.09090909090909094 0.09090909090909094 0.09090909090909094 0.09090909090909094 0.09090909090909094 0.09090909090909094 0.09090909090909094 0.09090909090909094 0.09090909090909094 0.09090909090909094 0.09090909090909094 0.09090909090909094 0.09090909090909094 0.09090909090909094 0.09090909090909094 0.09090909090909094 0.09090909090909094 0.09090909090909094 0.09090909090909094 0.09090909090909094 0.09090909090909094 0.09090909090909094 0.09090909090909094 0.09090909090909094 0.09090909090909094 0.09090909090909094 0.09090909090909094 0.09090909090909094 0.09090909090909094 0.09090909090909094 0.09090909090909094 0.09090909090909094 0.09090909090909094 0.09090909090909094 0.09090909090909094 0.09090909090909094 0.09090909090909094 0.09090909090909094 0.09090909090909094 0.09090909090909094 0.09090909090909094 0.09090909090909094 0.09090909090909094 0.09090909090909094 0.09090909090909094 0.09090909090909094 0.09090909090909094 0.09090909090909094 0.09090909090909094 0.09090909090909094 0.09090909090909094 0.09090909090909094 0.09090909090909094 0.09090909090909094 0.09090909090909094 0.09090909090909094 0.09090909090909094 0.09090909090909094 0.09090909090909094 0.09090909090909094 0.09090909090909094 0.09090909090909094 0.09090909090909094 0.09090909090909094 0.09090909090909094 0.09090909090909094 0.09090909090909094 0.09090909090909094 0.09090909090909094 0.09090909090909094 0.09090909090909094 0.09090909090909094 0.09090909090909094 0.09090909090909094 0.09090909090909094 0.09090909090909094 0.09090909090909094 0.09090909090909094 0.09090909090909094 0.09090909090909094 0.09090909090909094 0.09090909090909094 0.09090909090909094 0.09090909090909094 0.09090909090909094 0.09090909090909094 0.09090909090909094 0.09090909090909094 0.09090909090909094 0.09090909090909094 0.09090909090909094 0.09090909090909094 0.09090909090909094 0.09090909090909094 0.09090909090909094 0.09090909090909094 0.09090909090909094 0.09090909090909094 0.09090909090909094 0.09090909090909094 0.09090909090909094 0.09090909090909094 0.09090909090909094 0.09090909090909094 0.09090909090909094 0.09090909090909094 0.09090909090909094 0.09090909090909094 0.09090909090909094 0.09090909090909094 0.09090909090909094 0.09090909090909094 0.09090909090909094 0.09090909090909094 0.09090909090909094 0.09090909090909094 0.09090909090909094 0.09090909090909094 0.09090909090909094 0.09090909090909094 0.09090909090909094 0.09090909090909094 0.09090909090909094 0.0008401949252226519 0.0008401949252226519 0.0008401949252226519 0.0008401949252226519 0.9915980507477737 0.0008401949252226519 0.0008401949252226519 0.0008401949252226519 0.0008401949252226519 0.0008401949252226519 0.0008401949252226519 0.09090909090909094 0.09090909090909094 0.09090909090909094 0.09090909090909094 0.09090909090909094 0.09090909090909094 0.09090909090909094 0.09090909090909094 0.09090909090909094 0.09090909090909094 0.09090909090909094 0.09090909090909094 0.09090909090909094 0.09090909090909094 0.09090909090909094 0.09090909090909094 0.09090909090909094 0.09090909090909094 0.09090909090909094 0.09090909090909094 0.09090909090909094 0.09090909090909094 0.09090909090909094 0.09090909090909094 0.09090909090909094 0.09090909090909094 0.09090909090909094 0.09090909090909094 0.09090909090909094 0.09090909090909094 0.09090909090909094 0.09090909090909094 0.09090909090909094 0.09090909090909094 0.09090909090909094 0.09090909090909094 0.09090909090909094 0.09090909090909094 0.09090909090909094 0.09090909090909094 0.09090909090909094 0.09090909090909094 0.09090909090909094 0.09090909090909094 0.09090909090909094 0.09090909090909094 0.09090909090909094 0.09090909090909094 0.09090909090909094 0.09090909090909094 0.09090909090909094 0.09090909090909094 0.09090909090909094 0.09090909090909094 0.09090909090909094 0.09090909090909094 0.09090909090909094 0.09090909090909094 0.09090909090909094 0.09090909090909094 0.09090909090909094 0.09090909090909094 0.09090909090909094 0.09090909090909094 0.09090909090909094 0.09090909090909094 0.09090909090909094 0.09090909090909094 0.09090909090909094 0.09090909090909094 0.09090909090909094 0.09090909090909094 0.09090909090909094 0.09090909090909094 0.09090909090909094 0.09090909090909094 0.09090909090909094 0.09090909090909094 0.09090909090909094 0.09090909090909094 0.09090909090909094 0.09090909090909094 0.09090909090909094 0.09090909090909094 0.09090909090909094 0.09090909090909094 0.09090909090909094 0.09090909090909094 0.09090909090909094 0.09090909090909094 0.09090909090909094 0.09090909090909094 0.09090909090909094 0.09090909090909094 0.09090909090909094 0.09090909090909094 0.09090909090909094 0.09090909090909094 0.09090909090909094 0.09090909090909094 0.09090909090909094 0.09090909090909094 0.09090909090909094 0.09090909090909094 0.09090909090909094 0.09090909090909094 0.09090909090909094 0.09090909090909094 0.09090909090909094 0.09090909090909094 0.09090909090909094 0.09090909090909094 0.09090909090909094 0.09090909090909094 0.09090909090909094 0.09090909090909094 0.09090909090909094 0.09090909090909094 0.09090909090909094 0.09090909090909094 0.09090909090909094 0.09090909090909094 0.09090909090909094 0.09090909090909094 0.09090909090909094 0.09090909090909094 0.09090909090909094 0.09090909090909094 0.09090909090909094 0.09090909090909094 0.09090909090909094 0.09090909090909094 0.09090909090909094 0.09090909090909094 0.09090909090909094 0.09090909090909094 0.09090909090909094 0.09090909090909094 0.09090909090909094 0.09090909090909094 0.09090909090909094 0.09090909090909094 0.09090909090909094 0.09090909090909094 0.09090909090909094 0.09090909090909094 0.09090909090909094 0.09090909090909094 0.09090909090909094 0.09090909090909094 0.09090909090909094 0.09090909090909094 0.09090909090909094 0.09090909090909094 0.09090909090909094 0.09090909090909094 0.09090909090909094 0.09090909090909094 0.09090909090909094 0.09090909090909094 0.09090909090909094 0.09090909090909094 0.09090909090909094 0.09090909090909094 0.09090909090909094 0.09090909090909094 0.09090909090909094 0.09090909090909094 0.09090909090909094 0.09090909090909094 0.09090909090909094 0.09090909090909094 0.09090909090909094 0.09090909090909094 0.09090909090909094 0.09090909090909094 0.09090909090909094 0.09090909090909094 0.09090909090909094 0.09090909090909094 0.09090909090909094 0.09090909090909094 0.09090909090909094 0.09090909090909094 0.09090909090909094 0.09090909090909094 0.09090909090909094 0.09090909090909094 0.09090909090909094 0.09090909090909094 0.09090909090909094 0.09090909090909094 0.09090909090909094 0.09090909090909094 0.09090909090909094 0.09090909090909094 0.09090909090909094 0.09090909090909094 0.09090909090909094 0.09090909090909094 0.09090909090909094 0.09090909090909094 0.09090909090909094 0.09090909090909094 0.09090909090909094 0.09090909090909094 0.09090909090909094 0.09090909090909094 0.09090909090909094 0.0008401949252226521 0.0008401949252226521 0.991598050747774 0.0008401949252226521 0.0008401949252226521 0.0008401949252226521 0.0008401949252226521 0.0008401949252226521 0.0008401949252226521 0.0008401949252226521 0.0008401949252226521 0.09090909090909094 0.09090909090909094 0.09090909090909094 0.09090909090909094 0.09090909090909094 0.09090909090909094 0.09090909090909094 0.09090909090909094 0.09090909090909094 0.09090909090909094 0.09090909090909094 0.09090909090909094 0.09090909090909094 0.09090909090909094 0.09090909090909094 0.09090909090909094 0.09090909090909094 0.09090909090909094 0.09090909090909094 0.09090909090909094 0.09090909090909094 0.09090909090909094 0.09090909090909094 0.09090909090909094 0.09090909090909094 0.09090909090909094 0.09090909090909094 0.09090909090909094 0.09090909090909094 0.09090909090909094 0.09090909090909094 0.09090909090909094 0.09090909090909094 0.09090909090909094 0.09090909090909094 0.09090909090909094 0.09090909090909094 0.09090909090909094 0.09090909090909094 0.09090909090909094 0.09090909090909094 0.09090909090909094 0.09090909090909094 0.09090909090909094 0.09090909090909094 0.09090909090909094 0.09090909090909094 0.09090909090909094 0.09090909090909094 0.09090909090909094 0.09090909090909094 0.09090909090909094 0.09090909090909094 0.09090909090909094 0.09090909090909094 0.09090909090909094 0.09090909090909094 0.09090909090909094 0.09090909090909094 0.09090909090909094 0.09090909090909094 0.09090909090909094 0.09090909090909094 0.09090909090909094 0.09090909090909094 0.09090909090909094 0.09090909090909094 0.09090909090909094 0.09090909090909094 0.09090909090909094 0.09090909090909094 0.09090909090909094 0.09090909090909094 0.09090909090909094 0.09090909090909094 0.09090909090909094 0.09090909090909094 0.09090909090909094 0.09090909090909094 0.09090909090909094 0.09090909090909094 0.09090909090909094 0.09090909090909094 0.09090909090909094 0.09090909090909094 0.09090909090909094 0.09090909090909094 0.09090909090909094 0.09090909090909094 0.09090909090909094 0.09090909090909094 0.09090909090909094 0.09090909090909094 0.09090909090909094 0.09090909090909094 0.09090909090909094 0.09090909090909094 0.09090909090909094 0.09090909090909094 0.09090909090909094 0.09090909090909094 0.09090909090909094 0.09090909090909094 0.09090909090909094 0.09090909090909094 0.09090909090909094 0.09090909090909094 0.09090909090909094 0.09090909090909094 0.09090909090909094 0.09090909090909094 0.09090909090909094 0.09090909090909094 0.09090909090909094 0.09090909090909094 0.09090909090909094 0.09090909090909094 0.09090909090909094 0.09090909090909094 0.09090909090909094 0.09090909090909094 0.09090909090909094 0.09090909090909094 0.09090909090909094 0.09090909090909094 0.09090909090909094 0.09090909090909094 0.09090909090909094 0.09090909090909094 0.09090909090909094 0.09090909090909094 0.09090909090909094 0.09090909090909094 0.09090909090909094 0.09090909090909094 0.09090909090909094 0.09090909090909094 0.09090909090909094 0.09090909090909094 0.09090909090909094 0.09090909090909094 0.09090909090909094 0.09090909090909094 0.09090909090909094 0.09090909090909094 0.09090909090909094 0.09090909090909094 0.09090909090909094 0.09090909090909094 0.09090909090909094 0.09090909090909094 0.09090909090909094 0.09090909090909094 0.09090909090909094 0.09090909090909094 0.09090909090909094 0.09090909090909094 0.09090909090909094 0.09090909090909094 0.09090909090909094 0.09090909090909094 0.09090909090909094 0.09090909090909094 0.09090909090909094 0.09090909090909094 0.09090909090909094 0.09090909090909094 0.09090909090909094 0.09090909090909094 0.09090909090909094 0.09090909090909094 0.09090909090909094 0.09090909090909094 0.09090909090909094 0.09090909090909094 0.09090909090909094 0.09090909090909094 0.09090909090909094 0.09090909090909094 0.09090909090909094 0.09090909090909094 0.09090909090909094 0.09090909090909094 0.09090909090909094 0.09090909090909094 0.09090909090909094 0.09090909090909094 0.09090909090909094 0.09090909090909094 0.09090909090909094 0.09090909090909094 0.09090909090909094 0.09090909090909094 0.09090909090909094 0.09090909090909094 0.09090909090909094 0.09090909090909094 0.09090909090909094 0.09090909090909094 0.09090909090909094 0.09090909090909094 0.09090909090909094 0.09090909090909094 0.09090909090909094 0.09090909090909094 0.09090909090909094 0.09090909090909094 0.09090909090909094 0.09090909090909094 0.09090909090909094 0.09090909090909094 0.09090909090909094 0.09090909090909094 0.09090909090909094 0.09090909090909094 0.09090909090909094 0.09090909090909094 0.09090909090909094 0.09090909090909094 0.09090909090909094 0.09090909090909094 0.09090909090909094 0.09090909090909094 0.09090909090909094 0.09090909090909094 0.09090909090909094 0.09090909090909094 0.09090909090909094 0.09090909090909094 0.09090909090909094 0.09090909090909094 0.09090909090909094 0.09090909090909094 0.09090909090909094 0.09090909090909094 0.09090909090909094 0.09090909090909094 0.09090909090909094 0.09090909090909094 0.09090909090909094 0.09090909090909094 0.09090909090909094 0.09090909090909094 0.09090909090909094 0.09090909090909094 0.09090909090909094 0.09090909090909094 0.09090909090909094 0.09090909090909094 0.09090909090909094 0.09090909090909094 0.09090909090909094 0.09090909090909094 0.09090909090909094 0.09090909090909094 0.09090909090909094 0.09090909090909094 0.09090909090909094 0.09090909090909094 0.09090909090909094 0.09090909090909094 0.09090909090909094 0.09090909090909094 0.09090909090909094 0.09090909090909094 0.09090909090909094 0.09090909090909094 0.09090909090909094 0.09090909090909094 0.09090909090909094 0.09090909090909094 0.09090909090909094 0.09090909090909094 0.09090909090909094 0.09090909090909094 0.09090909090909094 0.09090909090909094 0.09090909090909094 0.09090909090909094 0.09090909090909094 0.09090909090909094 0.09090909090909094 0.09090909090909094 0.09090909090909094 0.09090909090909094 0.09090909090909094 0.09090909090909094 0.09090909090909094 0.09090909090909094 0.09090909090909094 0.09090909090909094 0.09090909090909094 0.09090909090909094 0.09090909090909094 0.09090909090909094 0.09090909090909094 0.09090909090909094 0.09090909090909094 0.09090909090909094 0.09090909090909094 0.09090909090909094 0.09090909090909094 0.09090909090909094 0.09090909090909094 0.09090909090909094 0.09090909090909094 0.09090909090909094 0.09090909090909094 0.09090909090909094 0.09090909090909094 0.09090909090909094 0.09090909090909094 0.09090909090909094 0.09090909090909094 0.09090909090909094 0.09090909090909094 0.09090909090909094 0.09090909090909094 0.09090909090909094 0.09090909090909094 0.09090909090909094 0.09090909090909094 0.09090909090909094 0.09090909090909094 0.09090909090909094 0.09090909090909094 0.09090909090909094 0.09090909090909094 0.09090909090909094 0.09090909090909094 0.09090909090909094 0.09090909090909094 0.09090909090909094 0.09090909090909094 0.09090909090909094 0.09090909090909094 0.09090909090909094 0.09090909090909094 0.09090909090909094 0.09090909090909094 0.09090909090909094 0.09090909090909094 0.09090909090909094 0.09090909090909094 0.09090909090909094 0.09090909090909094 0.09090909090909094 0.09090909090909094 0.09090909090909094 0.09090909090909094 0.09090909090909094 0.09090909090909094 0.09090909090909094 0.09090909090909094 0.09090909090909094 0.09090909090909094 0.09090909090909094 0.09090909090909094 0.09090909090909094 0.09090909090909094 0.09090909090909094 0.09090909090909094 0.09090909090909094 0.09090909090909094 0.09090909090909094 0.09090909090909094 0.09090909090909094 0.09090909090909094 0.09090909090909094 0.09090909090909094 0.09090909090909094 0.09090909090909094 0.09090909090909094 0.09090909090909094 0.09090909090909094 0.09090909090909094 0.09090909090909094 0.09090909090909094 0.09090909090909094 0.09090909090909094 0.09090909090909094 0.09090909090909094 0.09090909090909094 0.09090909090909094 0.09090909090909094 0.09090909090909094 0.09090909090909094 0.09090909090909094 0.09090909090909094 0.09090909090909094 0.09090909090909094 0.09090909090909094 0.09090909090909094 0.09090909090909094 0.09090909090909094 0.09090909090909094 0.0008401949252226517 0.0008401949252226517 0.0008401949252226517 0.0008401949252226517 0.0008401949252226517 0.0008401949252226517 0.0008401949252226517 0.0008401949252226517 0.9915980507477735 0.0008401949252226517 0.0008401949252226517 0.09090909090909094 0.09090909090909094 0.09090909090909094 0.09090909090909094 0.09090909090909094 0.09090909090909094 0.09090909090909094 0.09090909090909094 0.09090909090909094 0.09090909090909094 0.09090909090909094 0.0008401949252226517 0.0008401949252226517 0.0008401949252226517 0.0008401949252226517 0.0008401949252226517 0.0008401949252226517 0.0008401949252226517 0.0008401949252226517 0.0008401949252226517 0.9915980507477735 0.0008401949252226517 0.09090909090909094 0.09090909090909094 0.09090909090909094 0.09090909090909094 0.09090909090909094 0.09090909090909094 0.09090909090909094 0.09090909090909094 0.09090909090909094 0.09090909090909094 0.09090909090909094 0.0008401949252226521 0.0008401949252226521 0.991598050747774 0.0008401949252226521 0.0008401949252226521 0.0008401949252226521 0.0008401949252226521 0.0008401949252226521 0.0008401949252226521 0.0008401949252226521 0.0008401949252226521 0.09090909090909094 0.09090909090909094 0.09090909090909094 0.09090909090909094 0.09090909090909094 0.09090909090909094 0.09090909090909094 0.09090909090909094 0.09090909090909094 0.09090909090909094 0.09090909090909094 0.09090909090909094 0.09090909090909094 0.09090909090909094 0.09090909090909094 0.09090909090909094 0.09090909090909094 0.09090909090909094 0.09090909090909094 0.09090909090909094 0.09090909090909094 0.09090909090909094 0.09090909090909094 0.09090909090909094 0.09090909090909094 0.09090909090909094 0.09090909090909094 0.09090909090909094 0.09090909090909094 0.09090909090909094 0.09090909090909094 0.09090909090909094 0.09090909090909094 0.09090909090909094 0.09090909090909094 0.09090909090909094 0.09090909090909094 0.09090909090909094 0.09090909090909094 0.09090909090909094 0.09090909090909094 0.09090909090909094 0.09090909090909094 0.09090909090909094 0.0008401949252226517 0.0008401949252226517 0.0008401949252226517 0.0008401949252226517 0.0008401949252226517 0.0008401949252226517 0.0008401949252226517 0.0008401949252226517 0.9915980507477735 0.0008401949252226517 0.0008401949252226517 0.09090909090909094 0.09090909090909094 0.09090909090909094 0.09090909090909094 0.09090909090909094 0.09090909090909094 0.09090909090909094 0.09090909090909094 0.09090909090909094 0.09090909090909094 0.09090909090909094 0.0004220477758082215 0.0004220477758082215 0.0004220477758082215 0.0004220477758082215 0.0004220477758082215 0.0004220477758082215 0.49810078500886296 0.0004220477758082215 0.0004220477758082215 0.49810078500886296 0.0004220477758082215 0.09090909090909094 0.09090909090909094 0.09090909090909094 0.09090909090909094 0.09090909090909094 0.09090909090909094 0.09090909090909094 0.09090909090909094 0.09090909090909094 0.09090909090909094 0.09090909090909094 0.09090909090909094 0.09090909090909094 0.09090909090909094 0.09090909090909094 0.09090909090909094 0.09090909090909094 0.09090909090909094 0.09090909090909094 0.09090909090909094 0.09090909090909094 0.09090909090909094 0.09090909090909094 0.09090909090909094 0.09090909090909094 0.09090909090909094 0.09090909090909094 0.09090909090909094 0.09090909090909094 0.09090909090909094 0.09090909090909094 0.09090909090909094 0.09090909090909094 0.09090909090909094 0.09090909090909094 0.09090909090909094 0.09090909090909094 0.09090909090909094 0.09090909090909094 0.09090909090909094 0.09090909090909094 0.09090909090909094 0.09090909090909094 0.09090909090909094 0.0008401949252226519 0.0008401949252226519 0.0008401949252226519 0.0008401949252226519 0.0008401949252226519 0.0008401949252226519 0.9915980507477737 0.0008401949252226519 0.0008401949252226519 0.0008401949252226519 0.0008401949252226519 0.09090909090909094 0.09090909090909094 0.09090909090909094 0.09090909090909094 0.09090909090909094 0.09090909090909094 0.09090909090909094 0.09090909090909094 0.09090909090909094 0.09090909090909094 0.09090909090909094 0.00042204777580822137 0.00042204777580822137 0.00042204777580822137 0.49810078500886285 0.00042204777580822137 0.00042204777580822137 0.49810078500886285 0.00042204777580822137 0.00042204777580822137 0.00042204777580822137 0.00042204777580822137 0.0008401949252226517 0.0008401949252226517 0.0008401949252226517 0.0008401949252226517 0.0008401949252226517 0.0008401949252226517 0.0008401949252226517 0.0008401949252226517 0.0008401949252226517 0.9915980507477735 0.0008401949252226517 0.0008401949252226517 0.0008401949252226517 0.0008401949252226517 0.0008401949252226517 0.0008401949252226517 0.0008401949252226517 0.0008401949252226517 0.0008401949252226517 0.9915980507477735 0.0008401949252226517 0.0008401949252226517 0.09090909090909094 0.09090909090909094 0.09090909090909094 0.09090909090909094 0.09090909090909094 0.09090909090909094 0.09090909090909094 0.09090909090909094 0.09090909090909094 0.09090909090909094 0.09090909090909094 0.0008401949252226519 0.0008401949252226519 0.0008401949252226519 0.0008401949252226519 0.0008401949252226519 0.0008401949252226519 0.9915980507477737 0.0008401949252226519 0.0008401949252226519 0.0008401949252226519 0.0008401949252226519 0.09090909090909094 0.09090909090909094 0.09090909090909094 0.09090909090909094 0.09090909090909094 0.09090909090909094 0.09090909090909094 0.09090909090909094 0.09090909090909094 0.09090909090909094 0.09090909090909094 0.0004220477758082213 0.0004220477758082213 0.0004220477758082213 0.0004220477758082213 0.0004220477758082213 0.0004220477758082213 0.9957795222419173 0.0004220477758082213 0.0004220477758082213 0.0004220477758082213 0.0004220477758082213 0.0008401949252226517 0.0008401949252226517 0.0008401949252226517 0.0008401949252226517 0.0008401949252226517 0.0008401949252226517 0.0008401949252226517 0.0008401949252226517 0.0008401949252226517 0.9915980507477735 0.0008401949252226517 0.0008401949252226517 0.0008401949252226517 0.0008401949252226517 0.0008401949252226517 0.0008401949252226517 0.0008401949252226517 0.0008401949252226517 0.0008401949252226517 0.0008401949252226517 0.9915980507477735 0.0008401949252226517 0.09090909090909094 0.09090909090909094 0.09090909090909094 0.09090909090909094 0.09090909090909094 0.09090909090909094 0.09090909090909094 0.09090909090909094 0.09090909090909094 0.09090909090909094 0.09090909090909094 0.0004220477758082215 0.0004220477758082215 0.0004220477758082215 0.0004220477758082215 0.0004220477758082215 0.0004220477758082215 0.49810078500886296 0.49810078500886296 0.0004220477758082215 0.0004220477758082215 0.0004220477758082215 0.0008401949252226519 0.0008401949252226519 0.0008401949252226519 0.0008401949252226519 0.0008401949252226519 0.0008401949252226519 0.0008401949252226519 0.9915980507477737 0.0008401949252226519 0.0008401949252226519 0.0008401949252226519 0.09090909090909094 0.09090909090909094 0.09090909090909094 0.09090909090909094 0.09090909090909094 0.09090909090909094 0.09090909090909094 0.09090909090909094 0.09090909090909094 0.09090909090909094 0.09090909090909094 0.09090909090909094 0.09090909090909094 0.09090909090909094 0.09090909090909094 0.09090909090909094 0.09090909090909094 0.09090909090909094 0.09090909090909094 0.09090909090909094 0.09090909090909094 0.09090909090909094 0.0008401949252226519 0.0008401949252226519 0.0008401949252226519 0.0008401949252226519 0.0008401949252226519 0.0008401949252226519 0.9915980507477737 0.0008401949252226519 0.0008401949252226519 0.0008401949252226519 0.0008401949252226519 0.09090909090909094 0.09090909090909094 0.09090909090909094 0.09090909090909094 0.09090909090909094 0.09090909090909094 0.09090909090909094 0.09090909090909094 0.09090909090909094 0.09090909090909094 0.09090909090909094 0.09090909090909094 0.09090909090909094 0.09090909090909094 0.09090909090909094 0.09090909090909094 0.09090909090909094 0.09090909090909094 0.09090909090909094 0.09090909090909094 0.09090909090909094 0.09090909090909094 0.09090909090909094 0.09090909090909094 0.09090909090909094 0.09090909090909094 0.09090909090909094 0.09090909090909094 0.09090909090909094 0.09090909090909094 0.09090909090909094 0.09090909090909094 0.09090909090909094 0.09090909090909094 0.09090909090909094 0.09090909090909094 0.09090909090909094 0.09090909090909094 0.09090909090909094 0.09090909090909094 0.09090909090909094 0.09090909090909094 0.09090909090909094 0.09090909090909094 0.09090909090909094 0.09090909090909094 0.09090909090909094 0.09090909090909094 0.09090909090909094 0.09090909090909094 0.09090909090909094 0.09090909090909094 0.09090909090909094 0.09090909090909094 0.09090909090909094 0.09090909090909094 0.09090909090909094 0.09090909090909094 0.09090909090909094 0.09090909090909094 0.09090909090909094 0.09090909090909094 0.09090909090909094 0.09090909090909094 0.09090909090909094 0.09090909090909094 0.0008401949252226519 0.0008401949252226519 0.0008401949252226519 0.0008401949252226519 0.0008401949252226519 0.0008401949252226519 0.0008401949252226519 0.9915980507477737 0.0008401949252226519 0.0008401949252226519 0.0008401949252226519 0.0008401949252226517 0.0008401949252226517 0.0008401949252226517 0.0008401949252226517 0.0008401949252226517 0.0008401949252226517 0.0008401949252226517 0.0008401949252226517 0.0008401949252226517 0.9915980507477735 0.0008401949252226517 0.0002818012737417573 0.0002818012737417573 0.0002818012737417573 0.0002818012737417573 0.0002818012737417573 0.0002818012737417573 0.0002818012737417573 0.0002818012737417573 0.3325818632700219 0.6648819252663022 0.0002818012737417573 0.09090909090909094 0.09090909090909094 0.09090909090909094 0.09090909090909094 0.09090909090909094 0.09090909090909094 0.09090909090909094 0.09090909090909094 0.09090909090909094 0.09090909090909094 0.09090909090909094 0.09090909090909094 0.09090909090909094 0.09090909090909094 0.09090909090909094 0.09090909090909094 0.09090909090909094 0.09090909090909094 0.09090909090909094 0.09090909090909094 0.09090909090909094 0.09090909090909094 0.0008401949252226519 0.0008401949252226519 0.0008401949252226519 0.0008401949252226519 0.0008401949252226519 0.0008401949252226519 0.9915980507477737 0.0008401949252226519 0.0008401949252226519 0.0008401949252226519 0.0008401949252226519 0.09090909090909094 0.09090909090909094 0.09090909090909094 0.09090909090909094 0.09090909090909094 0.09090909090909094 0.09090909090909094 0.09090909090909094 0.09090909090909094 0.09090909090909094 0.09090909090909094 0.09090909090909094 0.09090909090909094 0.09090909090909094 0.09090909090909094 0.09090909090909094 0.09090909090909094 0.09090909090909094 0.09090909090909094 0.09090909090909094 0.09090909090909094 0.09090909090909094 0.09090909090909094 0.09090909090909094 0.09090909090909094 0.09090909090909094 0.09090909090909094 0.09090909090909094 0.09090909090909094 0.09090909090909094 0.09090909090909094 0.09090909090909094 0.09090909090909094 0.0004220477758082215 0.0004220477758082215 0.0004220477758082215 0.0004220477758082215 0.0004220477758082215 0.0004220477758082215 0.49810078500886296 0.0004220477758082215 0.0004220477758082215 0.49810078500886296 0.0004220477758082215 0.0008401949252226519 0.0008401949252226519 0.0008401949252226519 0.0008401949252226519 0.0008401949252226519 0.0008401949252226519 0.9915980507477737 0.0008401949252226519 0.0008401949252226519 0.0008401949252226519 0.0008401949252226519 0.09090909090909094 0.09090909090909094 0.09090909090909094 0.09090909090909094 0.09090909090909094 0.09090909090909094 0.09090909090909094 0.09090909090909094 0.09090909090909094 0.09090909090909094 0.09090909090909094 0.0008401949252226517 0.0008401949252226517 0.0008401949252226517 0.0008401949252226517 0.0008401949252226517 0.0008401949252226517 0.0008401949252226517 0.0008401949252226517 0.0008401949252226517 0.9915980507477735 0.0008401949252226517 0.09090909090909094 0.09090909090909094 0.09090909090909094 0.09090909090909094 0.09090909090909094 0.09090909090909094 0.09090909090909094 0.09090909090909094 0.09090909090909094 0.09090909090909094 0.09090909090909094 0.0004220477758082213 0.0004220477758082213 0.0004220477758082213 0.0004220477758082213 0.0004220477758082213 0.0004220477758082213 0.9957795222419173 0.0004220477758082213 0.0004220477758082213 0.0004220477758082213 0.0004220477758082213 0.09090909090909094 0.09090909090909094 0.09090909090909094 0.09090909090909094 0.09090909090909094 0.09090909090909094 0.09090909090909094 0.09090909090909094 0.09090909090909094 0.09090909090909094 0.09090909090909094 0.09090909090909094 0.09090909090909094 0.09090909090909094 0.09090909090909094 0.09090909090909094 0.09090909090909094 0.09090909090909094 0.09090909090909094 0.09090909090909094 0.09090909090909094 0.09090909090909094 0.0008401949252226517 0.0008401949252226517 0.0008401949252226517 0.0008401949252226517 0.0008401949252226517 0.0008401949252226517 0.0008401949252226517 0.0008401949252226517 0.0008401949252226517 0.9915980507477735 0.0008401949252226517 0.0008401949252226517 0.0008401949252226517 0.0008401949252226517 0.0008401949252226517 0.0008401949252226517 0.0008401949252226517 0.0008401949252226517 0.0008401949252226517 0.9915980507477735 0.0008401949252226517 0.0008401949252226517 0.09090909090909094 0.09090909090909094 0.09090909090909094 0.09090909090909094 0.09090909090909094 0.09090909090909094 0.09090909090909094 0.09090909090909094 0.09090909090909094 0.09090909090909094 0.09090909090909094 0.0004220477758082215 0.0004220477758082215 0.0004220477758082215 0.0004220477758082215 0.0004220477758082215 0.0004220477758082215 0.49810078500886296 0.0004220477758082215 0.0004220477758082215 0.49810078500886296 0.0004220477758082215 0.09090909090909094 0.09090909090909094 0.09090909090909094 0.09090909090909094 0.09090909090909094 0.09090909090909094 0.09090909090909094 0.09090909090909094 0.09090909090909094 0.09090909090909094 0.09090909090909094 0.09090909090909094 0.09090909090909094 0.09090909090909094 0.09090909090909094 0.09090909090909094 0.09090909090909094 0.09090909090909094 0.09090909090909094 0.09090909090909094 0.09090909090909094 0.09090909090909094 0.09090909090909094 0.09090909090909094 0.09090909090909094 0.09090909090909094 0.09090909090909094 0.09090909090909094 0.09090909090909094 0.09090909090909094 0.09090909090909094 0.09090909090909094 0.09090909090909094 0.09090909090909094 0.09090909090909094 0.09090909090909094 0.09090909090909094 0.09090909090909094 0.09090909090909094 0.09090909090909094 0.09090909090909094 0.09090909090909094 0.09090909090909094 0.09090909090909094 0.0008401949252226519 0.0008401949252226519 0.0008401949252226519 0.0008401949252226519 0.0008401949252226519 0.0008401949252226519 0.9915980507477737 0.0008401949252226519 0.0008401949252226519 0.0008401949252226519 0.0008401949252226519 0.09090909090909094 0.09090909090909094 0.09090909090909094 0.09090909090909094 0.09090909090909094 0.09090909090909094 0.09090909090909094 0.09090909090909094 0.09090909090909094 0.09090909090909094 0.09090909090909094 0.0008401949252226517 0.0008401949252226517 0.0008401949252226517 0.0008401949252226517 0.0008401949252226517 0.0008401949252226517 0.0008401949252226517 0.0008401949252226517 0.0008401949252226517 0.9915980507477735 0.0008401949252226517 0.09090909090909094 0.09090909090909094 0.09090909090909094 0.09090909090909094 0.09090909090909094 0.09090909090909094 0.09090909090909094 0.09090909090909094 0.09090909090909094 0.09090909090909094 0.09090909090909094 0.09090909090909094 0.09090909090909094 0.09090909090909094 0.09090909090909094 0.09090909090909094 0.09090909090909094 0.09090909090909094 0.09090909090909094 0.09090909090909094 0.09090909090909094 0.09090909090909094 0.09090909090909094 0.09090909090909094 0.09090909090909094 0.09090909090909094 0.09090909090909094 0.09090909090909094 0.09090909090909094 0.09090909090909094 0.09090909090909094 0.09090909090909094 0.09090909090909094 0.00028180127374175727 0.00028180127374175727 0.00028180127374175727 0.00028180127374175727 0.00028180127374175727 0.00028180127374175727 0.6648819252663021 0.00028180127374175727 0.00028180127374175727 0.00028180127374175727 0.33258186327002187 0.0008401949252226519 0.0008401949252226519 0.0008401949252226519 0.0008401949252226519 0.0008401949252226519 0.0008401949252226519 0.0008401949252226519 0.9915980507477737 0.0008401949252226519 0.0008401949252226519 0.0008401949252226519 0.0004220477758082215 0.0004220477758082215 0.0004220477758082215 0.0004220477758082215 0.0004220477758082215 0.0004220477758082215 0.0004220477758082215 0.49810078500886296 0.0004220477758082215 0.49810078500886296 0.0004220477758082215 0.00042204777580822137 0.00042204777580822137 0.00042204777580822137 0.00042204777580822137 0.00042204777580822137 0.00042204777580822137 0.00042204777580822137 0.00042204777580822137 0.9957795222419176 0.00042204777580822137 0.00042204777580822137 0.0008401949252226517 0.0008401949252226517 0.0008401949252226517 0.0008401949252226517 0.0008401949252226517 0.0008401949252226517 0.0008401949252226517 0.0008401949252226517 0.9915980507477735 0.0008401949252226517 0.0008401949252226517 0.09090909090909094 0.09090909090909094 0.09090909090909094 0.09090909090909094 0.09090909090909094 0.09090909090909094 0.09090909090909094 0.09090909090909094 0.09090909090909094 0.09090909090909094 0.09090909090909094 0.0004220477758082216 0.49810078500886307 0.0004220477758082216 0.0004220477758082216 0.0004220477758082216 0.0004220477758082216 0.0004220477758082216 0.0004220477758082216 0.49810078500886307 0.0004220477758082216 0.0004220477758082216 0.991598050747774 0.0008401949252226521 0.0008401949252226521 0.0008401949252226521 0.0008401949252226521 0.0008401949252226521 0.0008401949252226521 0.0008401949252226521 0.0008401949252226521 0.0008401949252226521 0.0008401949252226521 0.0002818012737417574 0.0002818012737417574 0.0002818012737417574 0.0002818012737417574 0.0002818012737417574 0.332581863270022 0.0002818012737417574 0.332581863270022 0.332581863270022 0.0002818012737417574 0.0002818012737417574 0.0008401949252226519 0.0008401949252226519 0.0008401949252226519 0.0008401949252226519 0.0008401949252226519 0.0008401949252226519 0.0008401949252226519 0.9915980507477737 0.0008401949252226519 0.0008401949252226519 0.0008401949252226519 0.0004220477758082215 0.0004220477758082215 0.0004220477758082215 0.0004220477758082215 0.0004220477758082215 0.49810078500886296 0.0004220477758082215 0.0004220477758082215 0.0004220477758082215 0.49810078500886296 0.0004220477758082215 0.0002818012737417574 0.0002818012737417574 0.0002818012737417574 0.0002818012737417574 0.0002818012737417574 0.0002818012737417574 0.0002818012737417574 0.332581863270022 0.332581863270022 0.0002818012737417574 0.332581863270022 0.00028180127374175727 0.00028180127374175727 0.00028180127374175727 0.33258186327002187 0.00028180127374175727 0.33258186327002187 0.00028180127374175727 0.00028180127374175727 0.33258186327002187 0.00028180127374175727 0.00028180127374175727 0.09090909090909094 0.09090909090909094 0.09090909090909094 0.09090909090909094 0.09090909090909094 0.09090909090909094 0.09090909090909094 0.09090909090909094 0.09090909090909094 0.09090909090909094 0.09090909090909094 0.0004220477758082215 0.0004220477758082215 0.0004220477758082215 0.0004220477758082215 0.0004220477758082215 0.0004220477758082215 0.49810078500886296 0.49810078500886296 0.0004220477758082215 0.0004220477758082215 0.0004220477758082215 0.0004220477758082213 0.0004220477758082213 0.0004220477758082213 0.0004220477758082213 0.0004220477758082213 0.0004220477758082213 0.9957795222419173 0.0004220477758082213 0.0004220477758082213 0.0004220477758082213 0.0004220477758082213 0.3325818632700219 0.0002818012737417573 0.0002818012737417573 0.0002818012737417573 0.0002818012737417573 0.0002818012737417573 0.3325818632700219 0.3325818632700219 0.0002818012737417573 0.0002818012737417573 0.0002818012737417573 0.0008401949252226519 0.0008401949252226519 0.0008401949252226519 0.0008401949252226519 0.0008401949252226519 0.9915980507477737 0.0008401949252226519 0.0008401949252226519 0.0008401949252226519 0.0008401949252226519 0.0008401949252226519 0.09090909090909094 0.09090909090909094 0.09090909090909094 0.09090909090909094 0.09090909090909094 0.09090909090909094 0.09090909090909094 0.09090909090909094 0.09090909090909094 0.09090909090909094 0.09090909090909094 0.09090909090909094 0.09090909090909094 0.09090909090909094 0.09090909090909094 0.09090909090909094 0.09090909090909094 0.09090909090909094 0.09090909090909094 0.09090909090909094 0.09090909090909094 0.09090909090909094 0.09090909090909094 0.09090909090909094 0.09090909090909094 0.09090909090909094 0.09090909090909094 0.09090909090909094 0.09090909090909094 0.09090909090909094 0.09090909090909094 0.09090909090909094 0.09090909090909094 0.09090909090909094 0.09090909090909094 0.09090909090909094 0.09090909090909094 0.09090909090909094 0.09090909090909094 0.09090909090909094 0.09090909090909094 0.09090909090909094 0.09090909090909094 0.09090909090909094 0.0004220477758082215 0.0004220477758082215 0.0004220477758082215 0.0004220477758082215 0.0004220477758082215 0.0004220477758082215 0.49810078500886296 0.0004220477758082215 0.0004220477758082215 0.49810078500886296 0.0004220477758082215 0.09090909090909094 0.09090909090909094 0.09090909090909094 0.09090909090909094 0.09090909090909094 0.09090909090909094 0.09090909090909094 0.09090909090909094 0.09090909090909094 0.09090909090909094 0.09090909090909094 0.0004220477758082215 0.0004220477758082215 0.0004220477758082215 0.0004220477758082215 0.0004220477758082215 0.0004220477758082215 0.0004220477758082215 0.49810078500886296 0.49810078500886296 0.0004220477758082215 0.0004220477758082215 0.0002818012737417573 0.0002818012737417573 0.0002818012737417573 0.0002818012737417573 0.0002818012737417573 0.0002818012737417573 0.0002818012737417573 0.3325818632700219 0.0002818012737417573 0.6648819252663022 0.0002818012737417573 0.0004220477758082215 0.0004220477758082215 0.0004220477758082215 0.0004220477758082215 0.0004220477758082215 0.0004220477758082215 0.49810078500886296 0.0004220477758082215 0.49810078500886296 0.0004220477758082215 0.0004220477758082215 0.0004220477758082215 0.0004220477758082215 0.0004220477758082215 0.0004220477758082215 0.0004220477758082215 0.0004220477758082215 0.49810078500886296 0.0004220477758082215 0.0004220477758082215 0.49810078500886296 0.0004220477758082215 0.0008401949252226517 0.0008401949252226517 0.0008401949252226517 0.0008401949252226517 0.0008401949252226517 0.0008401949252226517 0.0008401949252226517 0.0008401949252226517 0.0008401949252226517 0.0008401949252226517 0.9915980507477735 0.09090909090909094 0.09090909090909094 0.09090909090909094 0.09090909090909094 0.09090909090909094 0.09090909090909094 0.09090909090909094 0.09090909090909094 0.09090909090909094 0.09090909090909094 0.09090909090909094 0.09090909090909094 0.09090909090909094 0.09090909090909094 0.09090909090909094 0.09090909090909094 0.09090909090909094 0.09090909090909094 0.09090909090909094 0.09090909090909094 0.09090909090909094 0.09090909090909094 0.49810078500886307 0.0004220477758082216 0.0004220477758082216 0.0004220477758082216 0.0004220477758082216 0.0004220477758082216 0.0004220477758082216 0.0004220477758082216 0.0004220477758082216 0.49810078500886307 0.0004220477758082216 0.0008401949252226519 0.0008401949252226519 0.0008401949252226519 0.0008401949252226519 0.0008401949252226519 0.0008401949252226519 0.0008401949252226519 0.9915980507477737 0.0008401949252226519 0.0008401949252226519 0.0008401949252226519 0.0004220477758082213 0.0004220477758082213 0.0004220477758082213 0.0004220477758082213 0.0004220477758082213 0.0004220477758082213 0.9957795222419173 0.0004220477758082213 0.0004220477758082213 0.0004220477758082213 0.0004220477758082213 0.0008401949252226519 0.0008401949252226519 0.0008401949252226519 0.0008401949252226519 0.0008401949252226519 0.0008401949252226519 0.0008401949252226519 0.9915980507477737 0.0008401949252226519 0.0008401949252226519 0.0008401949252226519 0.09090909090909094 0.09090909090909094 0.09090909090909094 0.09090909090909094 0.09090909090909094 0.09090909090909094 0.09090909090909094 0.09090909090909094 0.09090909090909094 0.09090909090909094 0.09090909090909094 0.0008401949252226517 0.0008401949252226517 0.0008401949252226517 0.0008401949252226517 0.0008401949252226517 0.0008401949252226517 0.0008401949252226517 0.0008401949252226517 0.0008401949252226517 0.9915980507477735 0.0008401949252226517 0.0004220477758082215 0.0004220477758082215 0.0004220477758082215 0.0004220477758082215 0.0004220477758082215 0.0004220477758082215 0.0004220477758082215 0.49810078500886296 0.0004220477758082215 0.49810078500886296 0.0004220477758082215 0.0008401949252226517 0.0008401949252226517 0.0008401949252226517 0.0008401949252226517 0.0008401949252226517 0.0008401949252226517 0.0008401949252226517 0.0008401949252226517 0.9915980507477735 0.0008401949252226517 0.0008401949252226517 0.0008401949252226519 0.0008401949252226519 0.0008401949252226519 0.0008401949252226519 0.0008401949252226519 0.0008401949252226519 0.0008401949252226519 0.9915980507477737 0.0008401949252226519 0.0008401949252226519 0.0008401949252226519 0.991598050747774 0.0008401949252226521 0.0008401949252226521 0.0008401949252226521 0.0008401949252226521 0.0008401949252226521 0.0008401949252226521 0.0008401949252226521 0.0008401949252226521 0.0008401949252226521 0.0008401949252226521 0.09090909090909094 0.09090909090909094 0.09090909090909094 0.09090909090909094 0.09090909090909094 0.09090909090909094 0.09090909090909094 0.09090909090909094 0.09090909090909094 0.09090909090909094 0.09090909090909094 0.0008401949252226517 0.0008401949252226517 0.0008401949252226517 0.0008401949252226517 0.0008401949252226517 0.0008401949252226517 0.0008401949252226517 0.0008401949252226517 0.9915980507477735 0.0008401949252226517 0.0008401949252226517 0.0008401949252226517 0.0008401949252226517 0.0008401949252226517 0.0008401949252226517 0.0008401949252226517 0.0008401949252226517 0.0008401949252226517 0.0008401949252226517 0.9915980507477735 0.0008401949252226517 0.0008401949252226517 0.0002818012737417573 0.0002818012737417573 0.0002818012737417573 0.0002818012737417573 0.0002818012737417573 0.0002818012737417573 0.3325818632700219 0.3325818632700219 0.0002818012737417573 0.3325818632700219 0.0002818012737417573 0.0004220477758082215 0.0004220477758082215 0.0004220477758082215 0.0004220477758082215 0.0004220477758082215 0.0004220477758082215 0.0004220477758082215 0.0004220477758082215 0.49810078500886296 0.49810078500886296 0.0004220477758082215 0.09090909090909094 0.09090909090909094 0.09090909090909094 0.09090909090909094 0.09090909090909094 0.09090909090909094 0.09090909090909094 0.09090909090909094 0.09090909090909094 0.09090909090909094 0.09090909090909094 0.00028180127374175727 0.00028180127374175727 0.00028180127374175727 0.00028180127374175727 0.00028180127374175727 0.00028180127374175727 0.00028180127374175727 0.33258186327002187 0.6648819252663021 0.00028180127374175727 0.00028180127374175727 0.0004220477758082215 0.0004220477758082215 0.0004220477758082215 0.0004220477758082215 0.0004220477758082215 0.0004220477758082215 0.0004220477758082215 0.0004220477758082215 0.0004220477758082215 0.9957795222419178 0.0004220477758082215 0.0004220477758082215 0.0004220477758082215 0.0004220477758082215 0.0004220477758082215 0.0004220477758082215 0.49810078500886296 0.0004220477758082215 0.49810078500886296 0.0004220477758082215 0.0004220477758082215 0.0004220477758082215 0.33258186327002187 0.00028180127374175727 0.00028180127374175727 0.00028180127374175727 0.00028180127374175727 0.00028180127374175727 0.6648819252663021 0.00028180127374175727 0.00028180127374175727 0.00028180127374175727 0.00028180127374175727 0.09090909090909094 0.09090909090909094 0.09090909090909094 0.09090909090909094 0.09090909090909094 0.09090909090909094 0.09090909090909094 0.09090909090909094 0.09090909090909094 0.09090909090909094 0.09090909090909094 0.0004220477758082216 0.0004220477758082216 0.0004220477758082216 0.0004220477758082216 0.0004220477758082216 0.0004220477758082216 0.49810078500886307 0.0004220477758082216 0.0004220477758082216 0.0004220477758082216 0.49810078500886307 0.0004220477758082215 0.0004220477758082215 0.0004220477758082215 0.0004220477758082215 0.0004220477758082215 0.0004220477758082215 0.0004220477758082215 0.49810078500886296 0.49810078500886296 0.0004220477758082215 0.0004220477758082215 0.0008401949252226517 0.0008401949252226517 0.0008401949252226517 0.0008401949252226517 0.0008401949252226517 0.0008401949252226517 0.0008401949252226517 0.0008401949252226517 0.0008401949252226517 0.0008401949252226517 0.9915980507477735 0.0004220477758082216 0.0004220477758082216 0.0004220477758082216 0.0004220477758082216 0.0004220477758082216 0.0004220477758082216 0.0004220477758082216 0.49810078500886307 0.0004220477758082216 0.0004220477758082216 0.49810078500886307 0.09090909090909094 0.09090909090909094 0.09090909090909094 0.09090909090909094 0.09090909090909094 0.09090909090909094 0.09090909090909094 0.09090909090909094 0.09090909090909094 0.09090909090909094 0.09090909090909094 0.0008401949252226517 0.0008401949252226517 0.0008401949252226517 0.0008401949252226517 0.0008401949252226517 0.0008401949252226517 0.0008401949252226517 0.0008401949252226517 0.0008401949252226517 0.0008401949252226517 0.9915980507477735 0.9957795222419169 0.0004220477758082211 0.0004220477758082211 0.0004220477758082211 0.0004220477758082211 0.0004220477758082211 0.0004220477758082211 0.0004220477758082211 0.0004220477758082211 0.0004220477758082211 0.0004220477758082211 0.0002818012737417572 0.0002818012737417572 0.0002818012737417572 0.0002818012737417572 0.0002818012737417572 0.6648819252663021 0.0002818012737417572 0.0002818012737417572 0.0002818012737417572 0.33258186327002187 0.0002818012737417572 0.00042204777580822137 0.00042204777580822137 0.49810078500886285 0.00042204777580822137 0.00042204777580822137 0.00042204777580822137 0.49810078500886285 0.00042204777580822137 0.00042204777580822137 0.00042204777580822137 0.00042204777580822137 0.0008401949252226517 0.0008401949252226517 0.0008401949252226517 0.0008401949252226517 0.0008401949252226517 0.0008401949252226517 0.0008401949252226517 0.0008401949252226517 0.9915980507477735 0.0008401949252226517 0.0008401949252226517 0.00014111935875363386 0.00014111935875363386 0.00014111935875363386 0.00014111935875363386 0.16654906720103865 0.00014111935875363386 0.33295701504332376 0.16654906720103865 0.00014111935875363386 0.00014111935875363386 0.33295701504332376 0.0008401949252226519 0.0008401949252226519 0.0008401949252226519 0.0008401949252226519 0.0008401949252226519 0.0008401949252226519 0.0008401949252226519 0.9915980507477737 0.0008401949252226519 0.0008401949252226519 0.0008401949252226519 0.33258186327002187 0.00028180127374175727 0.00028180127374175727 0.00028180127374175727 0.33258186327002187 0.00028180127374175727 0.33258186327002187 0.00028180127374175727 0.00028180127374175727 0.00028180127374175727 0.00028180127374175727 0.9957795222419169 0.0004220477758082211 0.0004220477758082211 0.0004220477758082211 0.0004220477758082211 0.0004220477758082211 0.0004220477758082211 0.0004220477758082211 0.0004220477758082211 0.0004220477758082211 0.0004220477758082211 0.4990481830872709 0.00021151486949532545 0.24962984897838308 0.00021151486949532545 0.00021151486949532545 0.00021151486949532545 0.00021151486949532545 0.00021151486949532545 0.00021151486949532545 0.00021151486949532545 0.24962984897838308 0.09090909090909094 0.09090909090909094 0.09090909090909094 0.09090909090909094 0.09090909090909094 0.09090909090909094 0.09090909090909094 0.09090909090909094 0.09090909090909094 0.09090909090909094 0.09090909090909094 0.49810078500886296 0.0004220477758082215 0.0004220477758082215 0.0004220477758082215 0.0004220477758082215 0.0004220477758082215 0.0004220477758082215 0.49810078500886296 0.0004220477758082215 0.0004220477758082215 0.0004220477758082215 0.3325818632700219 0.0002818012737417573 0.0002818012737417573 0.0002818012737417573 0.0002818012737417573 0.0002818012737417573 0.0002818012737417573 0.6648819252663022 0.0002818012737417573 0.0002818012737417573 0.0002818012737417573 0.0004220477758082215 0.0004220477758082215 0.0004220477758082215 0.0004220477758082215 0.0004220477758082215 0.49810078500886296 0.0004220477758082215 0.0004220477758082215 0.49810078500886296 0.0004220477758082215 0.0004220477758082215 0.0008401949252226517 0.0008401949252226517 0.0008401949252226517 0.0008401949252226517 0.0008401949252226517 0.0008401949252226517 0.0008401949252226517 0.0008401949252226517 0.9915980507477735 0.0008401949252226517 0.0008401949252226517 0.0008401949252226519 0.0008401949252226519 0.0008401949252226519 0.0008401949252226519 0.0008401949252226519 0.0008401949252226519 0.0008401949252226519 0.9915980507477737 0.0008401949252226519 0.0008401949252226519 0.0008401949252226519 0.0008401949252226521 0.991598050747774 0.0008401949252226521 0.0008401949252226521 0.0008401949252226521 0.0008401949252226521 0.0008401949252226521 0.0008401949252226521 0.0008401949252226521 0.0008401949252226521 0.0008401949252226521 0.0008401949252226521 0.991598050747774 0.0008401949252226521 0.0008401949252226521 0.0008401949252226521 0.0008401949252226521 0.0008401949252226521 0.0008401949252226521 0.0008401949252226521 0.0008401949252226521 0.0008401949252226521 0.0004220477758082215 0.0004220477758082215 0.0004220477758082215 0.0004220477758082215 0.0004220477758082215 0.49810078500886296 0.0004220477758082215 0.49810078500886296 0.0004220477758082215 0.0004220477758082215 0.0004220477758082215 0.0008401949252226517 0.0008401949252226517 0.0008401949252226517 0.0008401949252226517 0.0008401949252226517 0.0008401949252226517 0.0008401949252226517 0.0008401949252226517 0.0008401949252226517 0.0008401949252226517 0.9915980507477735 0.0002115148694953255 0.0002115148694953255 0.0002115148694953255 0.24962984897838314 0.0002115148694953255 0.0002115148694953255 0.24962984897838314 0.0002115148694953255 0.24962984897838314 0.0002115148694953255 0.24962984897838314 0.00028180127374175727 0.33258186327002187 0.00028180127374175727 0.00028180127374175727 0.00028180127374175727 0.00028180127374175727 0.33258186327002187 0.00028180127374175727 0.00028180127374175727 0.00028180127374175727 0.33258186327002187 0.3325818632700218 0.3325818632700218 0.00028180127374175716 0.00028180127374175716 0.00028180127374175716 0.00028180127374175716 0.00028180127374175716 0.00028180127374175716 0.3325818632700218 0.00028180127374175716 0.00028180127374175716 0.0008401949252226519 0.0008401949252226519 0.0008401949252226519 0.0008401949252226519 0.0008401949252226519 0.0008401949252226519 0.9915980507477737 0.0008401949252226519 0.0008401949252226519 0.0008401949252226519 0.0008401949252226519 0.00042204777580822137 0.49810078500886285 0.00042204777580822137 0.00042204777580822137 0.00042204777580822137 0.00042204777580822137 0.49810078500886285 0.00042204777580822137 0.00042204777580822137 0.00042204777580822137 0.00042204777580822137 0.0008401949252226519 0.0008401949252226519 0.0008401949252226519 0.0008401949252226519 0.0008401949252226519 0.0008401949252226519 0.0008401949252226519 0.9915980507477737 0.0008401949252226519 0.0008401949252226519 0.0008401949252226519 0.0002818012737417573 0.3325818632700219 0.0002818012737417573 0.0002818012737417573 0.0002818012737417573 0.0002818012737417573 0.3325818632700219 0.3325818632700219 0.0002818012737417573 0.0002818012737417573 0.0002818012737417573 0.0008401949252226517 0.0008401949252226517 0.0008401949252226517 0.0008401949252226517 0.0008401949252226517 0.0008401949252226517 0.0008401949252226517 0.0008401949252226517 0.0008401949252226517 0.0008401949252226517 0.9915980507477735 0.09090909090909094 0.09090909090909094 0.09090909090909094 0.09090909090909094 0.09090909090909094 0.09090909090909094 0.09090909090909094 0.09090909090909094 0.09090909090909094 0.09090909090909094 0.09090909090909094 0.0008401949252226517 0.0008401949252226517 0.0008401949252226517 0.0008401949252226517 0.0008401949252226517 0.0008401949252226517 0.0008401949252226517 0.0008401949252226517 0.0008401949252226517 0.0008401949252226517 0.9915980507477735 0.2496298489783833 0.00021151486949532564 0.00021151486949532564 0.00021151486949532564 0.2496298489783833 0.2496298489783833 0.2496298489783833 0.00021151486949532564 0.00021151486949532564 0.00021151486949532564 0.00021151486949532564 0.3325818632700219 0.0002818012737417573 0.0002818012737417573 0.0002818012737417573 0.0002818012737417573 0.0002818012737417573 0.3325818632700219 0.3325818632700219 0.0002818012737417573 0.0002818012737417573 0.0002818012737417573 0.332581863270022 0.0002818012737417574 0.0002818012737417574 0.0002818012737417574 0.0002818012737417574 0.0002818012737417574 0.0002818012737417574 0.0002818012737417574 0.0002818012737417574 0.0002818012737417574 0.6648819252663023 0.0008401949252226519 0.0008401949252226519 0.0008401949252226519 0.0008401949252226519 0.0008401949252226519 0.9915980507477737 0.0008401949252226519 0.0008401949252226519 0.0008401949252226519 0.0008401949252226519 0.0008401949252226519 0.0008401949252226519 0.0008401949252226519 0.0008401949252226519 0.0008401949252226519 0.0008401949252226519 0.0008401949252226519 0.9915980507477737 0.0008401949252226519 0.0008401949252226519 0.0008401949252226519 0.0008401949252226519 0.0004220477758082216 0.49810078500886307 0.0004220477758082216 0.0004220477758082216 0.0004220477758082216 0.0004220477758082216 0.0004220477758082216 0.0004220477758082216 0.49810078500886307 0.0004220477758082216 0.0004220477758082216 0.00028180127374175727 0.00028180127374175727 0.00028180127374175727 0.00028180127374175727 0.00028180127374175727 0.00028180127374175727 0.00028180127374175727 0.6648819252663021 0.33258186327002187 0.00028180127374175727 0.00028180127374175727 0.00042204777580822137 0.49810078500886285 0.00042204777580822137 0.00042204777580822137 0.00042204777580822137 0.00042204777580822137 0.49810078500886285 0.00042204777580822137 0.00042204777580822137 0.00042204777580822137 0.00042204777580822137 0.0004220477758082216 0.49810078500886307 0.0004220477758082216 0.0004220477758082216 0.0004220477758082216 0.0004220477758082216 0.0004220477758082216 0.0004220477758082216 0.49810078500886307 