<?xml version='1.0' encoding='utf-8'?>
<BIF VERSION="0.3">
  <NETWORK>
    <NAME>UNTITLED</NAME>
    <VARIABLE TYPE="nature">
      <NAME>aar_mod</NAME>
      <OUTCOME>0</OUTCOME>
      <OUTCOME>1</OUTCOME>
      <OUTCOME>2</OUTCOME>
      <OUTCOME>3</OUTCOME>
      <OUTCOME>4</OUTCOME>
      <OUTCOME>5</OUTCOME>
      <OUTCOME>6</OUTCOME>
      <OUTCOME>7</OUTCOME>
      <OUTCOME>8</OUTCOME>
      <OUTCOME>9</OUTCOME>
      <OUTCOME>10</OUTCOME>
      <PROPERTY>weight = None</PROPERTY>
    </VARIABLE>
    <VARIABLE TYPE="nature">
      <NAME>aks_m2</NAME>
      <OUTCOME>0</OUTCOME>
      <OUTCOME>1</OUTCOME>
      <OUTCOME>2</OUTCOME>
      <OUTCOME>3</OUTCOME>
      <OUTCOME>4</OUTCOME>
      <OUTCOME>5</OUTCOME>
      <OUTCOME>6</OUTCOME>
      <OUTCOME>7</OUTCOME>
      <PROPERTY>weight = None</PROPERTY>
    </VARIABLE>
    <VARIABLE TYPE="nature">
      <NAME>aks_vgt</NAME>
      <OUTCOME>0</OUTCOME>
      <OUTCOME>1</OUTCOME>
      <OUTCOME>2</OUTCOME>
      <OUTCOME>3</OUTCOME>
      <OUTCOME>4</OUTCOME>
      <OUTCOME>5</OUTCOME>
      <OUTCOME>6</OUTCOME>
      <OUTCOME>7</OUTCOME>
      <OUTCOME>8</OUTCOME>
      <PROPERTY>weight = None</PROPERTY>
    </VARIABLE>
    <VARIABLE TYPE="nature">
      <NAME>antplnt</NAME>
      <OUTCOME>0</OUTCOME>
      <OUTCOME>1</OUTCOME>
      <OUTCOME>2</OUTCOME>
      <OUTCOME>3</OUTCOME>
      <OUTCOME>4</OUTCOME>
      <OUTCOME>5</OUTCOME>
      <OUTCOME>6</OUTCOME>
      <PROPERTY>weight = None</PROPERTY>
    </VARIABLE>
    <VARIABLE TYPE="nature">
      <NAME>bgbyg</NAME>
      <OUTCOME>0</OUTCOME>
      <OUTCOME>1</OUTCOME>
      <OUTCOME>2</OUTCOME>
      <OUTCOME>3</OUTCOME>
      <OUTCOME>4</OUTCOME>
      <OUTCOME>5</OUTCOME>
      <PROPERTY>weight = None</PROPERTY>
    </VARIABLE>
    <VARIABLE TYPE="nature">
      <NAME>dg25</NAME>
      <OUTCOME>0</OUTCOME>
      <OUTCOME>1</OUTCOME>
      <OUTCOME>2</OUTCOME>
      <OUTCOME>3</OUTCOME>
      <OUTCOME>4</OUTCOME>
      <OUTCOME>5</OUTCOME>
      <OUTCOME>6</OUTCOME>
      <PROPERTY>weight = None</PROPERTY>
    </VARIABLE>
    <VARIABLE TYPE="nature">
      <NAME>dgv1059</NAME>
      <OUTCOME>0</OUTCOME>
      <OUTCOME>1</OUTCOME>
      <OUTCOME>2</OUTCOME>
      <OUTCOME>3</OUTCOME>
      <OUTCOME>4</OUTCOME>
      <OUTCOME>5</OUTCOME>
      <PROPERTY>weight = None</PROPERTY>
    </VARIABLE>
    <VARIABLE TYPE="nature">
      <NAME>dgv5980</NAME>
      <OUTCOME>0</OUTCOME>
      <OUTCOME>1</OUTCOME>
      <OUTCOME>2</OUTCOME>
      <OUTCOME>3</OUTCOME>
      <OUTCOME>4</OUTCOME>
      <OUTCOME>5</OUTCOME>
      <PROPERTY>weight = None</PROPERTY>
    </VARIABLE>
    <VARIABLE TYPE="nature">
      <NAME>exptgens</NAME>
      <OUTCOME>0</OUTCOME>
      <OUTCOME>1</OUTCOME>
      <OUTCOME>2</OUTCOME>
      <OUTCOME>3</OUTCOME>
      <OUTCOME>4</OUTCOME>
      <PROPERTY>weight = None</PROPERTY>
    </VARIABLE>
    <VARIABLE TYPE="nature">
      <NAME>forfrugt</NAME>
      <OUTCOME>0</OUTCOME>
      <OUTCOME>1</OUTCOME>
      <OUTCOME>2</OUTCOME>
      <OUTCOME>3</OUTCOME>
      <OUTCOME>4</OUTCOME>
      <PROPERTY>weight = None</PROPERTY>
    </VARIABLE>
    <VARIABLE TYPE="nature">
      <NAME>frspdag</NAME>
      <OUTCOME>0</OUTCOME>
      <OUTCOME>1</OUTCOME>
      <OUTCOME>2</OUTCOME>
      <OUTCOME>3</OUTCOME>
      <OUTCOME>4</OUTCOME>
      <OUTCOME>5</OUTCOME>
      <OUTCOME>6</OUTCOME>
      <OUTCOME>7</OUTCOME>
      <PROPERTY>weight = None</PROPERTY>
    </VARIABLE>
    <VARIABLE TYPE="nature">
      <NAME>jordinf</NAME>
      <OUTCOME>0</OUTCOME>
      <OUTCOME>1</OUTCOME>
      <OUTCOME>2</OUTCOME>
      <OUTCOME>3</OUTCOME>
      <OUTCOME>4</OUTCOME>
      <OUTCOME>5</OUTCOME>
      <OUTCOME>6</OUTCOME>
      <OUTCOME>7</OUTCOME>
      <PROPERTY>weight = None</PROPERTY>
    </VARIABLE>
    <VARIABLE TYPE="nature">
      <NAME>jordn</NAME>
      <OUTCOME>0</OUTCOME>
      <OUTCOME>1</OUTCOME>
      <OUTCOME>2</OUTCOME>
      <OUTCOME>3</OUTCOME>
      <OUTCOME>4</OUTCOME>
      <OUTCOME>5</OUTCOME>
      <OUTCOME>6</OUTCOME>
      <OUTCOME>7</OUTCOME>
      <OUTCOME>8</OUTCOME>
      <PROPERTY>weight = None</PROPERTY>
    </VARIABLE>
    <VARIABLE TYPE="nature">
      <NAME>jordtype</NAME>
      <OUTCOME>0</OUTCOME>
      <OUTCOME>1</OUTCOME>
      <OUTCOME>2</OUTCOME>
      <OUTCOME>3</OUTCOME>
      <OUTCOME>4</OUTCOME>
      <OUTCOME>5</OUTCOME>
      <OUTCOME>6</OUTCOME>
      <OUTCOME>7</OUTCOME>
      <OUTCOME>8</OUTCOME>
      <PROPERTY>weight = None</PROPERTY>
    </VARIABLE>
    <VARIABLE TYPE="nature">
      <NAME>keraks</NAME>
      <OUTCOME>0</OUTCOME>
      <OUTCOME>1</OUTCOME>
      <OUTCOME>2</OUTCOME>
      <OUTCOME>3</OUTCOME>
      <OUTCOME>4</OUTCOME>
      <OUTCOME>5</OUTCOME>
      <OUTCOME>6</OUTCOME>
      <PROPERTY>weight = None</PROPERTY>
    </VARIABLE>
    <VARIABLE TYPE="nature">
      <NAME>komm</NAME>
      <OUTCOME>0</OUTCOME>
      <OUTCOME>1</OUTCOME>
      <OUTCOME>2</OUTCOME>
      <OUTCOME>3</OUTCOME>
      <OUTCOME>4</OUTCOME>
      <PROPERTY>weight = None</PROPERTY>
    </VARIABLE>
    <VARIABLE TYPE="nature">
      <NAME>ksort</NAME>
      <OUTCOME>0</OUTCOME>
      <OUTCOME>1</OUTCOME>
      <OUTCOME>2</OUTCOME>
      <OUTCOME>3</OUTCOME>
      <OUTCOME>4</OUTCOME>
      <PROPERTY>weight = None</PROPERTY>
    </VARIABLE>
    <VARIABLE TYPE="nature">
      <NAME>markgrm</NAME>
      <OUTCOME>0</OUTCOME>
      <OUTCOME>1</OUTCOME>
      <OUTCOME>2</OUTCOME>
      <OUTCOME>3</OUTCOME>
      <OUTCOME>4</OUTCOME>
      <OUTCOME>5</OUTCOME>
      <OUTCOME>6</OUTCOME>
      <OUTCOME>7</OUTCOME>
      <OUTCOME>8</OUTCOME>
      <OUTCOME>9</OUTCOME>
      <PROPERTY>weight = None</PROPERTY>
    </VARIABLE>
    <VARIABLE TYPE="nature">
      <NAME>mod_nmin</NAME>
      <OUTCOME>0</OUTCOME>
      <OUTCOME>1</OUTCOME>
      <OUTCOME>2</OUTCOME>
      <OUTCOME>3</OUTCOME>
      <OUTCOME>4</OUTCOME>
      <OUTCOME>5</OUTCOME>
      <PROPERTY>weight = None</PROPERTY>
    </VARIABLE>
    <VARIABLE TYPE="nature">
      <NAME>nedbarea</NAME>
      <OUTCOME>0</OUTCOME>
      <OUTCOME>1</OUTCOME>
      <OUTCOME>2</OUTCOME>
      <PROPERTY>weight = None</PROPERTY>
    </VARIABLE>
    <VARIABLE TYPE="nature">
      <NAME>ngodn</NAME>
      <OUTCOME>0</OUTCOME>
      <OUTCOME>1</OUTCOME>
      <OUTCOME>2</OUTCOME>
      <OUTCOME>3</OUTCOME>
      <OUTCOME>4</OUTCOME>
      <OUTCOME>5</OUTCOME>
      <OUTCOME>6</OUTCOME>
      <PROPERTY>weight = None</PROPERTY>
    </VARIABLE>
    <VARIABLE TYPE="nature">
      <NAME>ngodnn</NAME>
      <OUTCOME>0</OUTCOME>
      <OUTCOME>1</OUTCOME>
      <OUTCOME>2</OUTCOME>
      <OUTCOME>3</OUTCOME>
      <OUTCOME>4</OUTCOME>
      <OUTCOME>5</OUTCOME>
      <OUTCOME>6</OUTCOME>
      <OUTCOME>7</OUTCOME>
      <OUTCOME>8</OUTCOME>
      <PROPERTY>weight = None</PROPERTY>
    </VARIABLE>
    <VARIABLE TYPE="nature">
      <NAME>ngodnt</NAME>
      <OUTCOME>0</OUTCOME>
      <OUTCOME>1</OUTCOME>
      <OUTCOME>2</OUTCOME>
      <OUTCOME>3</OUTCOME>
      <OUTCOME>4</OUTCOME>
      <OUTCOME>5</OUTCOME>
      <OUTCOME>6</OUTCOME>
      <OUTCOME>7</OUTCOME>
      <PROPERTY>weight = None</PROPERTY>
    </VARIABLE>
    <VARIABLE TYPE="nature">
      <NAME>ngtilg</NAME>
      <OUTCOME>0</OUTCOME>
      <OUTCOME>1</OUTCOME>
      <OUTCOME>2</OUTCOME>
      <OUTCOME>3</OUTCOME>
      <OUTCOME>4</OUTCOME>
      <OUTCOME>5</OUTCOME>
      <OUTCOME>6</OUTCOME>
      <OUTCOME>7</OUTCOME>
      <OUTCOME>8</OUTCOME>
      <PROPERTY>weight = None</PROPERTY>
    </VARIABLE>
    <VARIABLE TYPE="nature">
      <NAME>nmin</NAME>
      <OUTCOME>0</OUTCOME>
      <OUTCOME>1</OUTCOME>
      <OUTCOME>2</OUTCOME>
      <OUTCOME>3</OUTCOME>
      <OUTCOME>4</OUTCOME>
      <PROPERTY>weight = None</PROPERTY>
    </VARIABLE>
    <VARIABLE TYPE="nature">
      <NAME>nopt</NAME>
      <OUTCOME>0</OUTCOME>
      <OUTCOME>1</OUTCOME>
      <OUTCOME>2</OUTCOME>
      <OUTCOME>3</OUTCOME>
      <OUTCOME>4</OUTCOME>
      <PROPERTY>weight = None</PROPERTY>
    </VARIABLE>
    <VARIABLE TYPE="nature">
      <NAME>nplac</NAME>
      <OUTCOME>0</OUTCOME>
      <OUTCOME>1</OUTCOME>
      <OUTCOME>2</OUTCOME>
      <PROPERTY>weight = None</PROPERTY>
    </VARIABLE>
    <VARIABLE TYPE="nature">
      <NAME>nprot</NAME>
      <OUTCOME>0</OUTCOME>
      <OUTCOME>1</OUTCOME>
      <OUTCOME>2</OUTCOME>
      <OUTCOME>3</OUTCOME>
      <OUTCOME>4</OUTCOME>
      <OUTCOME>5</OUTCOME>
      <PROPERTY>weight = None</PROPERTY>
    </VARIABLE>
    <VARIABLE TYPE="nature">
      <NAME>ntilg</NAME>
      <OUTCOME>0</OUTCOME>
      <OUTCOME>1</OUTCOME>
      <OUTCOME>2</OUTCOME>
      <OUTCOME>3</OUTCOME>
      <OUTCOME>4</OUTCOME>
      <OUTCOME>5</OUTCOME>
      <OUTCOME>6</OUTCOME>
      <OUTCOME>7</OUTCOME>
      <OUTCOME>8</OUTCOME>
      <OUTCOME>9</OUTCOME>
      <PROPERTY>weight = None</PROPERTY>
    </VARIABLE>
    <VARIABLE TYPE="nature">
      <NAME>partigerm</NAME>
      <OUTCOME>0</OUTCOME>
      <OUTCOME>1</OUTCOME>
      <OUTCOME>2</OUTCOME>
      <OUTCOME>3</OUTCOME>
      <OUTCOME>4</OUTCOME>
      <OUTCOME>5</OUTCOME>
      <OUTCOME>6</OUTCOME>
      <OUTCOME>7</OUTCOME>
      <OUTCOME>8</OUTCOME>
      <PROPERTY>weight = None</PROPERTY>
    </VARIABLE>
    <VARIABLE TYPE="nature">
      <NAME>pesticid</NAME>
      <OUTCOME>0</OUTCOME>
      <PROPERTY>weight = None</PROPERTY>
    </VARIABLE>
    <VARIABLE TYPE="nature">
      <NAME>potnmin</NAME>
      <OUTCOME>0</OUTCOME>
      <OUTCOME>1</OUTCOME>
      <OUTCOME>2</OUTCOME>
      <OUTCOME>3</OUTCOME>
      <OUTCOME>4</OUTCOME>
      <OUTCOME>5</OUTCOME>
      <OUTCOME>6</OUTCOME>
      <OUTCOME>7</OUTCOME>
      <PROPERTY>weight = None</PROPERTY>
    </VARIABLE>
    <VARIABLE TYPE="nature">
      <NAME>protein</NAME>
      <OUTCOME>0</OUTCOME>
      <OUTCOME>1</OUTCOME>
      <OUTCOME>2</OUTCOME>
      <OUTCOME>3</OUTCOME>
      <OUTCOME>4</OUTCOME>
      <OUTCOME>5</OUTCOME>
      <OUTCOME>6</OUTCOME>
      <OUTCOME>7</OUTCOME>
      <PROPERTY>weight = None</PROPERTY>
    </VARIABLE>
    <VARIABLE TYPE="nature">
      <NAME>rokap</NAME>
      <OUTCOME>0</OUTCOME>
      <OUTCOME>1</OUTCOME>
      <OUTCOME>2</OUTCOME>
      <OUTCOME>3</OUTCOME>
      <OUTCOME>4</OUTCOME>
      <OUTCOME>5</OUTCOME>
      <OUTCOME>6</OUTCOME>
      <PROPERTY>weight = None</PROPERTY>
    </VARIABLE>
    <VARIABLE TYPE="nature">
      <NAME>s2225</NAME>
      <OUTCOME>0</OUTCOME>
      <OUTCOME>1</OUTCOME>
      <OUTCOME>2</OUTCOME>
      <PROPERTY>weight = None</PROPERTY>
    </VARIABLE>
    <VARIABLE TYPE="nature">
      <NAME>s2528</NAME>
      <OUTCOME>0</OUTCOME>
      <OUTCOME>1</OUTCOME>
      <OUTCOME>2</OUTCOME>
      <OUTCOME>3</OUTCOME>
      <OUTCOME>4</OUTCOME>
      <OUTCOME>5</OUTCOME>
      <OUTCOME>6</OUTCOME>
      <PROPERTY>weight = None</PROPERTY>
    </VARIABLE>
    <VARIABLE TYPE="nature">
      <NAME>saakern</NAME>
      <OUTCOME>0</OUTCOME>
      <OUTCOME>1</OUTCOME>
      <OUTCOME>2</OUTCOME>
      <OUTCOME>3</OUTCOME>
      <OUTCOME>4</OUTCOME>
      <OUTCOME>5</OUTCOME>
      <OUTCOME>6</OUTCOME>
      <PROPERTY>weight = None</PROPERTY>
    </VARIABLE>
    <VARIABLE TYPE="nature">
      <NAME>saamng</NAME>
      <OUTCOME>0</OUTCOME>
      <OUTCOME>1</OUTCOME>
      <OUTCOME>2</OUTCOME>
      <OUTCOME>3</OUTCOME>
      <OUTCOME>4</OUTCOME>
      <OUTCOME>5</OUTCOME>
      <OUTCOME>6</OUTCOME>
      <OUTCOME>7</OUTCOME>
      <OUTCOME>8</OUTCOME>
      <OUTCOME>9</OUTCOME>
      <PROPERTY>weight = None</PROPERTY>
    </VARIABLE>
    <VARIABLE TYPE="nature">
      <NAME>saatid</NAME>
      <OUTCOME>0</OUTCOME>
      <OUTCOME>1</OUTCOME>
      <OUTCOME>2</OUTCOME>
      <OUTCOME>3</OUTCOME>
      <OUTCOME>4</OUTCOME>
      <PROPERTY>weight = None</PROPERTY>
    </VARIABLE>
    <VARIABLE TYPE="nature">
      <NAME>slt22</NAME>
      <OUTCOME>0</OUTCOME>
      <OUTCOME>1</OUTCOME>
      <OUTCOME>2</OUTCOME>
      <OUTCOME>3</OUTCOME>
      <PROPERTY>weight = None</PROPERTY>
    </VARIABLE>
    <VARIABLE TYPE="nature">
      <NAME>sort</NAME>
      <OUTCOME>0</OUTCOME>
      <OUTCOME>1</OUTCOME>
      <OUTCOME>2</OUTCOME>
      <OUTCOME>3</OUTCOME>
      <OUTCOME>4</OUTCOME>
      <OUTCOME>5</OUTCOME>
      <OUTCOME>6</OUTCOME>
      <OUTCOME>7</OUTCOME>
      <OUTCOME>8</OUTCOME>
      <OUTCOME>9</OUTCOME>
      <OUTCOME>10</OUTCOME>
      <OUTCOME>11</OUTCOME>
      <OUTCOME>12</OUTCOME>
      <OUTCOME>13</OUTCOME>
      <OUTCOME>14</OUTCOME>
      <OUTCOME>15</OUTCOME>
      <OUTCOME>16</OUTCOME>
      <OUTCOME>17</OUTCOME>
      <OUTCOME>18</OUTCOME>
      <OUTCOME>19</OUTCOME>
      <OUTCOME>20</OUTCOME>
      <OUTCOME>21</OUTCOME>
      <OUTCOME>22</OUTCOME>
      <OUTCOME>23</OUTCOME>
      <OUTCOME>24</OUTCOME>
      <OUTCOME>25</OUTCOME>
      <OUTCOME>26</OUTCOME>
      <OUTCOME>27</OUTCOME>
      <OUTCOME>28</OUTCOME>
      <OUTCOME>29</OUTCOME>
      <OUTCOME>30</OUTCOME>
      <OUTCOME>31</OUTCOME>
      <OUTCOME>32</OUTCOME>
      <OUTCOME>33</OUTCOME>
      <OUTCOME>34</OUTCOME>
      <OUTCOME>35</OUTCOME>
      <OUTCOME>36</OUTCOME>
      <OUTCOME>37</OUTCOME>
      <OUTCOME>38</OUTCOME>
      <OUTCOME>39</OUTCOME>
      <OUTCOME>40</OUTCOME>
      <OUTCOME>41</OUTCOME>
      <OUTCOME>42</OUTCOME>
      <OUTCOME>43</OUTCOME>
      <OUTCOME>44</OUTCOME>
      <OUTCOME>45</OUTCOME>
      <OUTCOME>46</OUTCOME>
      <OUTCOME>47</OUTCOME>
      <OUTCOME>48</OUTCOME>
      <OUTCOME>49</OUTCOME>
      <OUTCOME>50</OUTCOME>
      <OUTCOME>51</OUTCOME>
      <OUTCOME>52</OUTCOME>
      <OUTCOME>53</OUTCOME>
      <OUTCOME>54</OUTCOME>
      <OUTCOME>55</OUTCOME>
      <OUTCOME>56</OUTCOME>
      <OUTCOME>57</OUTCOME>
      <OUTCOME>58</OUTCOME>
      <OUTCOME>59</OUTCOME>
      <OUTCOME>60</OUTCOME>
      <OUTCOME>61</OUTCOME>
      <OUTCOME>62</OUTCOME>
      <OUTCOME>63</OUTCOME>
      <OUTCOME>64</OUTCOME>
      <OUTCOME>65</OUTCOME>
      <OUTCOME>66</OUTCOME>
      <PROPERTY>weight = None</PROPERTY>
    </VARIABLE>
    <VARIABLE TYPE="nature">
      <NAME>sorttkv</NAME>
      <OUTCOME>0</OUTCOME>
      <OUTCOME>1</OUTCOME>
      <OUTCOME>2</OUTCOME>
      <OUTCOME>3</OUTCOME>
      <OUTCOME>4</OUTCOME>
      <OUTCOME>5</OUTCOME>
      <OUTCOME>6</OUTCOME>
      <OUTCOME>7</OUTCOME>
      <OUTCOME>8</OUTCOME>
      <PROPERTY>weight = None</PROPERTY>
    </VARIABLE>
    <VARIABLE TYPE="nature">
      <NAME>spndx</NAME>
      <OUTCOME>0</OUTCOME>
      <PROPERTY>weight = None</PROPERTY>
    </VARIABLE>
    <VARIABLE TYPE="nature">
      <NAME>srtprot</NAME>
      <OUTCOME>0</OUTCOME>
      <OUTCOME>1</OUTCOME>
      <OUTCOME>2</OUTCOME>
      <OUTCOME>3</OUTCOME>
      <OUTCOME>4</OUTCOME>
      <OUTCOME>5</OUTCOME>
      <OUTCOME>6</OUTCOME>
      <OUTCOME>7</OUTCOME>
      <PROPERTY>weight = None</PROPERTY>
    </VARIABLE>
    <VARIABLE TYPE="nature">
      <NAME>srtsize</NAME>
      <OUTCOME>0</OUTCOME>
      <OUTCOME>1</OUTCOME>
      <OUTCOME>2</OUTCOME>
      <OUTCOME>3</OUTCOME>
      <OUTCOME>4</OUTCOME>
      <OUTCOME>5</OUTCOME>
      <OUTCOME>6</OUTCOME>
      <PROPERTY>weight = None</PROPERTY>
    </VARIABLE>
    <VARIABLE TYPE="nature">
      <NAME>tkv</NAME>
      <OUTCOME>0</OUTCOME>
      <OUTCOME>1</OUTCOME>
      <OUTCOME>2</OUTCOME>
      <OUTCOME>3</OUTCOME>
      <OUTCOME>4</OUTCOME>
      <OUTCOME>5</OUTCOME>
      <OUTCOME>6</OUTCOME>
      <PROPERTY>weight = None</PROPERTY>
    </VARIABLE>
    <VARIABLE TYPE="nature">
      <NAME>tkvs</NAME>
      <OUTCOME>0</OUTCOME>
      <OUTCOME>1</OUTCOME>
      <OUTCOME>2</OUTCOME>
      <OUTCOME>3</OUTCOME>
      <OUTCOME>4</OUTCOME>
      <OUTCOME>5</OUTCOME>
      <OUTCOME>6</OUTCOME>
      <OUTCOME>7</OUTCOME>
      <OUTCOME>8</OUTCOME>
      <PROPERTY>weight = None</PROPERTY>
    </VARIABLE>
    <VARIABLE TYPE="nature">
      <NAME>udb</NAME>
      <OUTCOME>0</OUTCOME>
      <OUTCOME>1</OUTCOME>
      <OUTCOME>2</OUTCOME>
      <OUTCOME>3</OUTCOME>
      <OUTCOME>4</OUTCOME>
      <OUTCOME>5</OUTCOME>
      <OUTCOME>6</OUTCOME>
      <OUTCOME>7</OUTCOME>
      <OUTCOME>8</OUTCOME>
      <PROPERTY>weight = None</PROPERTY>
    </VARIABLE>
    <DEFINITION>
      <FOR>aar_mod</FOR>
      <TABLE>0.08010801080108011 0.09198919891989199 0.09000900090009002 0.11971197119711972 0.09198919891989199 0.07614761476147615 0.10585058505850586 0.09594959495949595 0.08604860486048606 0.08010801080108011 0.0820882088208821 </TABLE>
    </DEFINITION>
    <DEFINITION>
      <FOR>aks_m2</FOR>
      <GIVEN>dgv1059</GIVEN>
      <GIVEN>sort</GIVEN>
      <TABLE>0.125 0.125 0.125 0.125 0.125 0.125 0.125 0.125 0.0015356265356265353 0.9892506142506141 0.0015356265356265353 0.0015356265356265353 0.0015356265356265353 0.0015356265356265353 0.0015356265356265353 0.0015356265356265353 0.0007725587144622994 0.0007725587144622994 0.49768232385661326 0.0007725587144622994 0.49768232385661326 0.0007725587144622994 0.0007725587144622994 0.0007725587144622994 0.125 0.125 0.125 0.125 0.125 0.125 0.125 0.125 0.125 0.125 0.125 0.125 0.125 0.125 0.125 0.125 0.332473162675475 0.6644302229562348 0.0005161023947151118 0.0005161023947151118 0.0005161023947151118 0.0005161023947151118 0.0005161023947151118 0.0005161023947151118 0.0005161023947151117 0.3324731626754749 0.3324731626754749 0.0005161023947151117 0.3324731626754749 0.0005161023947151117 0.0005161023947151117 0.0005161023947151117 0.49768232385661326 0.0007725587144622994 0.0007725587144622994 0.49768232385661326 0.0007725587144622994 0.0007725587144622994 0.0007725587144622994 0.0007725587144622994 0.125 0.125 0.125 0.125 0.125 0.125 0.125 0.125 0.125 0.125 0.125 0.125 0.125 0.125 0.125 0.125 0.0015356265356265353 0.9892506142506141 0.0015356265356265353 0.0015356265356265353 0.0015356265356265353 0.0015356265356265353 0.0015356265356265353 0.0015356265356265353 0.0015356265356265353 0.0015356265356265353 0.0015356265356265353 0.0015356265356265353 0.9892506142506141 0.0015356265356265353 0.0015356265356265353 0.0015356265356265353 0.9892506142506141 0.0015356265356265353 0.0015356265356265353 0.0015356265356265353 0.0015356265356265353 0.0015356265356265353 0.0015356265356265353 0.0015356265356265353 0.9892506142506141 0.0015356265356265353 0.0015356265356265353 0.0015356265356265353 0.0015356265356265353 0.0015356265356265353 0.0015356265356265353 0.0015356265356265353 0.0015356265356265353 0.0015356265356265353 0.0015356265356265353 0.0015356265356265353 0.9892506142506141 0.0015356265356265353 0.0015356265356265353 0.0015356265356265353 0.49768232385661326 0.0007725587144622994 0.49768232385661326 0.0007725587144622994 0.0007725587144622994 0.0007725587144622994 0.0007725587144622994 0.0007725587144622994 0.0015356265356265358 0.0015356265356265358 0.0015356265356265358 0.0015356265356265358 0.0015356265356265358 0.0015356265356265358 0.0015356265356265358 0.9892506142506142 0.0015356265356265353 0.9892506142506141 0.0015356265356265353 0.0015356265356265353 0.0015356265356265353 0.0015356265356265353 0.0015356265356265353 0.0015356265356265353 0.125 0.125 0.125 0.125 0.125 0.125 0.125 0.125 0.3324731626754749 0.3324731626754749 0.0005161023947151117 0.3324731626754749 0.0005161023947151117 0.0005161023947151117 0.0005161023947151117 0.0005161023947151117 0.0007725587144622994 0.49768232385661326 0.0007725587144622994 0.49768232385661326 0.0007725587144622994 0.0007725587144622994 0.0007725587144622994 0.0007725587144622994 0.125 0.125 0.125 0.125 0.125 0.125 0.125 0.125 0.0015356265356265358 0.0015356265356265358 0.0015356265356265358 0.0015356265356265358 0.0015356265356265358 0.0015356265356265358 0.0015356265356265358 0.9892506142506142 0.9892506142506141 0.0015356265356265353 0.0015356265356265353 0.0015356265356265353 0.0015356265356265353 0.0015356265356265353 0.0015356265356265353 0.0015356265356265353 0.125 0.125 0.125 0.125 0.125 0.125 0.125 0.125 0.0007725587144622994 0.49768232385661326 0.0007725587144622994 0.49768232385661326 0.0007725587144622994 0.0007725587144622994 0.0007725587144622994 0.0007725587144622994 0.125 0.125 0.125 0.125 0.125 0.125 0.125 0.125 0.9892506142506141 0.0015356265356265353 0.0015356265356265353 0.0015356265356265353 0.0015356265356265353 0.0015356265356265353 0.0015356265356265353 0.0015356265356265353 0.0007725587144622998 0.9945920889987646 0.0007725587144622998 0.0007725587144622998 0.0007725587144622998 0.0007725587144622998 0.0007725587144622998 0.0007725587144622998 0.0015356265356265353 0.0015356265356265353 0.9892506142506141 0.0015356265356265353 0.0015356265356265353 0.0015356265356265353 0.0015356265356265353 0.0015356265356265353 0.332473162675475 0.6644302229562348 0.0005161023947151118 0.0005161023947151118 0.0005161023947151118 0.0005161023947151118 0.0005161023947151118 0.0005161023947151118 0.0015356265356265358 0.0015356265356265358 0.0015356265356265358 0.0015356265356265358 0.0015356265356265358 0.0015356265356265358 0.0015356265356265358 0.9892506142506142 0.125 0.125 0.125 0.125 0.125 0.125 0.125 0.125 0.0015356265356265353 0.0015356265356265353 0.0015356265356265353 0.9892506142506141 0.0015356265356265353 0.0015356265356265353 0.0015356265356265353 0.0015356265356265353 0.125 0.125 0.125 0.125 0.125 0.125 0.125 0.125 0.49768232385661304 0.0007725587144622991 0.0007725587144622991 0.0007725587144622991 0.0007725587144622991 0.0007725587144622991 0.0007725587144622991 0.49768232385661304 0.125 0.125 0.125 0.125 0.125 0.125 0.125 0.125 0.0015356265356265358 0.0015356265356265358 0.0015356265356265358 0.0015356265356265358 0.0015356265356265358 0.0015356265356265358 0.0015356265356265358 0.9892506142506142 0.0007725587144622994 0.49768232385661326 0.49768232385661326 0.0007725587144622994 0.0007725587144622994 0.0007725587144622994 0.0007725587144622994 0.0007725587144622994 0.125 0.125 0.125 0.125 0.125 0.125 0.125 0.125 0.0015356265356265353 0.0015356265356265353 0.0015356265356265353 0.9892506142506141 0.0015356265356265353 0.0015356265356265353 0.0015356265356265353 0.0015356265356265353 0.49768232385661326 0.0007725587144622994 0.0007725587144622994 0.49768232385661326 0.0007725587144622994 0.0007725587144622994 0.0007725587144622994 0.0007725587144622994 0.4976823238566134 0.4976823238566134 0.0007725587144622996 0.0007725587144622996 0.0007725587144622996 0.0007725587144622996 0.0007725587144622996 0.0007725587144622996 0.0007725587144622994 0.49768232385661326 0.49768232385661326 0.0007725587144622994 0.0007725587144622994 0.0007725587144622994 0.0007725587144622994 0.0007725587144622994 0.0015356265356265353 0.0015356265356265353 0.9892506142506141 0.0015356265356265353 0.0015356265356265353 0.0015356265356265353 0.0015356265356265353 0.0015356265356265353 0.0007725587144622994 0.49768232385661326 0.0007725587144622994 0.0007725587144622994 0.49768232385661326 0.0007725587144622994 0.0007725587144622994 0.0007725587144622994 0.0015356265356265358 0.0015356265356265358 0.0015356265356265358 0.0015356265356265358 0.0015356265356265358 0.0015356265356265358 0.0015356265356265358 0.9892506142506142 0.9892506142506141 0.0015356265356265353 0.0015356265356265353 0.0015356265356265353 0.0015356265356265353 0.0015356265356265353 0.0015356265356265353 0.0015356265356265353 0.49768232385661326 0.0007725587144622994 0.49768232385661326 0.0007725587144622994 0.0007725587144622994 0.0007725587144622994 0.0007725587144622994 0.0007725587144622994 0.0007725587144622998 0.9945920889987646 0.0007725587144622998 0.0007725587144622998 0.0007725587144622998 0.0007725587144622998 0.0007725587144622998 0.0007725587144622998 0.9892506142506141 0.0015356265356265353 0.0015356265356265353 0.0015356265356265353 0.0015356265356265353 0.0015356265356265353 0.0015356265356265353 0.0015356265356265353 0.0015356265356265353 0.0015356265356265353 0.9892506142506141 0.0015356265356265353 0.0015356265356265353 0.0015356265356265353 0.0015356265356265353 0.0015356265356265353 0.125 0.125 0.125 0.125 0.125 0.125 0.125 0.125 0.125 0.125 0.125 0.125 0.125 0.125 0.125 0.125 0.125 0.125 0.125 0.125 0.125 0.125 0.125 0.125 0.125 0.125 0.125 0.125 0.125 0.125 0.125 0.125 0.0003874767513949164 0.24961252324860514 0.24961252324860514 0.0003874767513949164 0.24961252324860514 0.0003874767513949164 0.0003874767513949164 0.24961252324860514 0.125 0.125 0.125 0.125 0.125 0.125 0.125 0.125 0.0015356265356265353 0.9892506142506141 0.0015356265356265353 0.0015356265356265353 0.0015356265356265353 0.0015356265356265353 0.0015356265356265353 0.0015356265356265353 0.125 0.125 0.125 0.125 0.125 0.125 0.125 0.125 0.125 0.125 0.125 0.125 0.125 0.125 0.125 0.125 0.125 0.125 0.125 0.125 0.125 0.125 0.125 0.125 0.0015356265356265353 0.0015356265356265353 0.0015356265356265353 0.0015356265356265353 0.9892506142506141 0.0015356265356265353 0.0015356265356265353 0.0015356265356265353 0.0015356265356265353 0.9892506142506141 0.0015356265356265353 0.0015356265356265353 0.0015356265356265353 0.0015356265356265353 0.0015356265356265353 0.0015356265356265353 0.0015356265356265353 0.9892506142506141 0.0015356265356265353 0.0015356265356265353 0.0015356265356265353 0.0015356265356265353 0.0015356265356265353 0.0015356265356265353 0.0015356265356265353 0.9892506142506141 0.0015356265356265353 0.0015356265356265353 0.0015356265356265353 0.0015356265356265353 0.0015356265356265353 0.0015356265356265353 0.0007725587144622994 0.49768232385661326 0.49768232385661326 0.0007725587144622994 0.0007725587144622994 0.0007725587144622994 0.0007725587144622994 0.0007725587144622994 0.0015356265356265353 0.0015356265356265353 0.0015356265356265353 0.0015356265356265353 0.9892506142506141 0.0015356265356265353 0.0015356265356265353 0.0015356265356265353 0.0015356265356265353 0.9892506142506141 0.0015356265356265353 0.0015356265356265353 0.0015356265356265353 0.0015356265356265353 0.0015356265356265353 0.0015356265356265353 0.125 0.125 0.125 0.125 0.125 0.125 0.125 0.125 0.125 0.125 0.125 0.125 0.125 0.125 0.125 0.125 0.0007725587144622996 0.0007725587144622996 0.9945920889987644 0.0007725587144622996 0.0007725587144622996 0.0007725587144622996 0.0007725587144622996 0.0007725587144622996 0.0015356265356265353 0.0015356265356265353 0.0015356265356265353 0.0015356265356265353 0.9892506142506141 0.0015356265356265353 0.0015356265356265353 0.0015356265356265353 0.0015356265356265353 0.9892506142506141 0.0015356265356265353 0.0015356265356265353 0.0015356265356265353 0.0015356265356265353 0.0015356265356265353 0.0015356265356265353 0.4976823238566134 0.4976823238566134 0.0007725587144622996 0.0007725587144622996 0.0007725587144622996 0.0007725587144622996 0.0007725587144622996 0.0007725587144622996 0.0007725587144622991 0.49768232385661304 0.0007725587144622991 0.0007725587144622991 0.0007725587144622991 0.0007725587144622991 0.0007725587144622991 0.49768232385661304 0.49768232385661326 0.0007725587144622994 0.0007725587144622994 0.49768232385661326 0.0007725587144622994 0.0007725587144622994 0.0007725587144622994 0.0007725587144622994 0.0005161023947151117 0.0005161023947151117 0.3324731626754749 0.3324731626754749 0.3324731626754749 0.0005161023947151117 0.0005161023947151117 0.0005161023947151117 0.0015356265356265353 0.0015356265356265353 0.9892506142506141 0.0015356265356265353 0.0015356265356265353 0.0015356265356265353 0.0015356265356265353 0.0015356265356265353 0.125 0.125 0.125 0.125 0.125 0.125 0.125 0.125 0.125 0.125 0.125 0.125 0.125 0.125 0.125 0.125 0.0015356265356265353 0.0015356265356265353 0.0015356265356265353 0.0015356265356265353 0.9892506142506141 0.0015356265356265353 0.0015356265356265353 0.0015356265356265353 0.0015356265356265353 0.9892506142506141 0.0015356265356265353 0.0015356265356265353 0.0015356265356265353 0.0015356265356265353 0.0015356265356265353 0.0015356265356265353 0.0015356265356265353 0.9892506142506141 0.0015356265356265353 0.0015356265356265353 0.0015356265356265353 0.0015356265356265353 0.0015356265356265353 0.0015356265356265353 0.9892506142506141 0.0015356265356265353 0.0015356265356265353 0.0015356265356265353 0.0015356265356265353 0.0015356265356265353 0.0015356265356265353 0.0015356265356265353 0.125 0.125 0.125 0.125 0.125 0.125 0.125 0.125 0.0007725587144622996 0.0007725587144622996 0.0007725587144622996 0.9945920889987644 0.0007725587144622996 0.0007725587144622996 0.0007725587144622996 0.0007725587144622996 0.0015356265356265353 0.0015356265356265353 0.0015356265356265353 0.9892506142506141 0.0015356265356265353 0.0015356265356265353 0.0015356265356265353 0.0015356265356265353 0.125 0.125 0.125 0.125 0.125 0.125 0.125 0.125 0.0015356265356265353 0.9892506142506141 0.0015356265356265353 0.0015356265356265353 0.0015356265356265353 0.0015356265356265353 0.0015356265356265353 0.0015356265356265353 0.0015356265356265353 0.9892506142506141 0.0015356265356265353 0.0015356265356265353 0.0015356265356265353 0.0015356265356265353 0.0015356265356265353 0.0015356265356265353 0.0007725587144622994 0.49768232385661326 0.0007725587144622994 0.49768232385661326 0.0007725587144622994 0.0007725587144622994 0.0007725587144622994 0.0007725587144622994 0.0015356265356265353 0.9892506142506141 0.0015356265356265353 0.0015356265356265353 0.0015356265356265353 0.0015356265356265353 0.0015356265356265353 0.0015356265356265353 0.0007725587144622991 0.0007725587144622991 0.0007725587144622991 0.49768232385661304 0.0007725587144622991 0.0007725587144622991 0.0007725587144622991 0.49768232385661304 0.0007725587144622992 0.49768232385661315 0.0007725587144622992 0.0007725587144622992 0.0007725587144622992 0.49768232385661315 0.0007725587144622992 0.0007725587144622992 0.125 0.125 0.125 0.125 0.125 0.125 0.125 0.125 0.0007725587144622994 0.49768232385661326 0.0007725587144622994 0.49768232385661326 0.0007725587144622994 0.0007725587144622994 0.0007725587144622994 0.0007725587144622994 0.125 0.125 0.125 0.125 0.125 0.125 0.125 0.125 0.125 0.125 0.125 0.125 0.125 0.125 0.125 0.125 0.125 0.125 0.125 0.125 0.125 0.125 0.125 0.125 0.125 0.125 0.125 0.125 0.125 0.125 0.125 0.125 0.0007725587144622994 0.0007725587144622994 0.49768232385661326 0.0007725587144622994 0.49768232385661326 0.0007725587144622994 0.0007725587144622994 0.0007725587144622994 0.125 0.125 0.125 0.125 0.125 0.125 0.125 0.125 0.125 0.125 0.125 0.125 0.125 0.125 0.125 0.125 0.0015356265356265353 0.9892506142506141 0.0015356265356265353 0.0015356265356265353 0.0015356265356265353 0.0015356265356265353 0.0015356265356265353 0.0015356265356265353 0.125 0.125 0.125 0.125 0.125 0.125 0.125 0.125 0.49768232385661326 0.0007725587144622994 0.0007725587144622994 0.49768232385661326 0.0007725587144622994 0.0007725587144622994 0.0007725587144622994 0.0007725587144622994 0.0015356265356265353 0.9892506142506141 0.0015356265356265353 0.0015356265356265353 0.0015356265356265353 0.0015356265356265353 0.0015356265356265353 0.0015356265356265353 0.19981389578163775 0.19981389578163775 0.19981389578163775 0.399317617866005 0.0003101736972704715 0.0003101736972704715 0.0003101736972704715 0.0003101736972704715 0.9892506142506141 0.0015356265356265353 0.0015356265356265353 0.0015356265356265353 0.0015356265356265353 0.0015356265356265353 0.0015356265356265353 0.0015356265356265353 0.3324731626754749 0.3324731626754749 0.0005161023947151117 0.0005161023947151117 0.3324731626754749 0.0005161023947151117 0.0005161023947151117 0.0005161023947151117 0.9892506142506141 0.0015356265356265353 0.0015356265356265353 0.0015356265356265353 0.0015356265356265353 0.0015356265356265353 0.0015356265356265353 0.0015356265356265353 0.125 0.125 0.125 0.125 0.125 0.125 0.125 0.125 0.0015356265356265353 0.0015356265356265353 0.0015356265356265353 0.9892506142506141 0.0015356265356265353 0.0015356265356265353 0.0015356265356265353 0.0015356265356265353 0.0003874767513949165 0.4988375697458154 0.0003874767513949165 0.2496125232486052 0.2496125232486052 0.0003874767513949165 0.0003874767513949165 0.0003874767513949165 0.125 0.125 0.125 0.125 0.125 0.125 0.125 0.125 0.125 0.125 0.125 0.125 0.125 0.125 0.125 0.125 0.3324731626754749 0.3324731626754749 0.3324731626754749 0.0005161023947151117 0.0005161023947151117 0.0005161023947151117 0.0005161023947151117 0.0005161023947151117 0.49768232385661326 0.0007725587144622994 0.49768232385661326 0.0007725587144622994 0.0007725587144622994 0.0007725587144622994 0.0007725587144622994 0.0007725587144622994 0.0005161023947151117 0.0005161023947151117 0.0005161023947151117 0.0005161023947151117 0.9963872832369943 0.0005161023947151117 0.0005161023947151117 0.0005161023947151117 0.0007725587144622998 0.9945920889987646 0.0007725587144622998 0.0007725587144622998 0.0007725587144622998 0.0007725587144622998 0.0007725587144622998 0.0007725587144622998 0.125 0.125 0.125 0.125 0.125 0.125 0.125 0.125 0.0015356265356265353 0.0015356265356265353 0.9892506142506141 0.0015356265356265353 0.0015356265356265353 0.0015356265356265353 0.0015356265356265353 0.0015356265356265353 0.125 0.125 0.125 0.125 0.125 0.125 0.125 0.125 0.0007725587144622994 0.49768232385661326 0.49768232385661326 0.0007725587144622994 0.0007725587144622994 0.0007725587144622994 0.0007725587144622994 0.0007725587144622994 0.125 0.125 0.125 0.125 0.125 0.125 0.125 0.125 0.9892506142506141 0.0015356265356265353 0.0015356265356265353 0.0015356265356265353 0.0015356265356265353 0.0015356265356265353 0.0015356265356265353 0.0015356265356265353 0.0003874767513949164 0.0003874767513949164 0.0003874767513949164 0.7480626162430255 0.24961252324860514 0.0003874767513949164 0.0003874767513949164 0.0003874767513949164 0.9892506142506141 0.0015356265356265353 0.0015356265356265353 0.0015356265356265353 0.0015356265356265353 0.0015356265356265353 0.0015356265356265353 0.0015356265356265353 0.125 0.125 0.125 0.125 0.125 0.125 0.125 0.125 0.0005161023947151118 0.6644302229562348 0.0005161023947151118 0.0005161023947151118 0.332473162675475 0.0005161023947151118 0.0005161023947151118 0.0005161023947151118 0.125 0.125 0.125 0.125 0.125 0.125 0.125 0.125 0.0015356265356265353 0.0015356265356265353 0.9892506142506141 0.0015356265356265353 0.0015356265356265353 0.0015356265356265353 0.0015356265356265353 0.0015356265356265353 0.0015356265356265353 0.0015356265356265353 0.0015356265356265353 0.9892506142506141 0.0015356265356265353 0.0015356265356265353 0.0015356265356265353 0.0015356265356265353 0.0005161023947151117 0.3324731626754749 0.3324731626754749 0.3324731626754749 0.0005161023947151117 0.0005161023947151117 0.0005161023947151117 0.0005161023947151117 0.125 0.125 0.125 0.125 0.125 0.125 0.125 0.125 0.0003874767513949164 0.0003874767513949164 0.24961252324860514 0.24961252324860514 0.24961252324860514 0.24961252324860514 0.0003874767513949164 0.0003874767513949164 0.0007725587144622992 0.0007725587144622992 0.0007725587144622992 0.49768232385661315 0.0007725587144622992 0.49768232385661315 0.0007725587144622992 0.0007725587144622992 0.0003101736972704715 0.0003101736972704715 0.399317617866005 0.19981389578163775 0.0003101736972704715 0.19981389578163775 0.0003101736972704715 0.19981389578163775 0.39931761786600506 0.19981389578163777 0.19981389578163777 0.00031017369727047157 0.19981389578163777 0.00031017369727047157 0.00031017369727047157 0.00031017369727047157 0.0007725587144622994 0.49768232385661326 0.49768232385661326 0.0007725587144622994 0.0007725587144622994 0.0007725587144622994 0.0007725587144622994 0.0007725587144622994 0.0007725587144622996 0.0007725587144622996 0.0007725587144622996 0.9945920889987644 0.0007725587144622996 0.0007725587144622996 0.0007725587144622996 0.0007725587144622996 0.0007725587144622996 0.0007725587144622996 0.0007725587144622996 0.9945920889987644 0.0007725587144622996 0.0007725587144622996 0.0007725587144622996 0.0007725587144622996 0.0005161023947151117 0.0005161023947151117 0.3324731626754749 0.0005161023947151117 0.6644302229562346 0.0005161023947151117 0.0005161023947151117 0.0005161023947151117 0.0007725587144622998 0.9945920889987646 0.0007725587144622998 0.0007725587144622998 0.0007725587144622998 0.0007725587144622998 0.0007725587144622998 0.0007725587144622998 0.0007725587144622994 0.49768232385661326 0.49768232385661326 0.0007725587144622994 0.0007725587144622994 0.0007725587144622994 0.0007725587144622994 0.0007725587144622994 0.0005161023947151118 0.9963872832369947 0.0005161023947151118 0.0005161023947151118 0.0005161023947151118 0.0005161023947151118 0.0005161023947151118 0.0005161023947151118 0.0005161023947151117 0.0005161023947151117 0.3324731626754749 0.6644302229562346 0.0005161023947151117 0.0005161023947151117 0.0005161023947151117 0.0005161023947151117 0.0005161023947151117 0.0005161023947151117 0.3324731626754749 0.0005161023947151117 0.6644302229562346 0.0005161023947151117 0.0005161023947151117 0.0005161023947151117 0.0002585850227554821 0.16658047165908155 0.4992242449317337 0.16658047165908155 0.16658047165908155 0.0002585850227554821 0.0002585850227554821 0.0002585850227554821 0.0015356265356265353 0.0015356265356265353 0.9892506142506141 0.0015356265356265353 0.0015356265356265353 0.0015356265356265353 0.0015356265356265353 0.0015356265356265353 0.19981389578163777 0.00031017369727047157 0.39931761786600506 0.39931761786600506 0.00031017369727047157 0.00031017369727047157 0.00031017369727047157 0.00031017369727047157 0.00031017369727047157 0.00031017369727047157 0.39931761786600506 0.39931761786600506 0.19981389578163777 0.00031017369727047157 0.00031017369727047157 0.00031017369727047157 0.0007725587144622994 0.0007725587144622994 0.49768232385661326 0.49768232385661326 0.0007725587144622994 0.0007725587144622994 0.0007725587144622994 0.0007725587144622994 0.0007725587144622994 0.49768232385661326 0.49768232385661326 0.0007725587144622994 0.0007725587144622994 0.0007725587144622994 0.0007725587144622994 0.0007725587144622994 0.0007725587144622991 0.0007725587144622991 0.49768232385661304 0.0007725587144622991 0.0007725587144622991 0.0007725587144622991 0.0007725587144622991 0.49768232385661304 0.0007725587144622991 0.0007725587144622991 0.49768232385661304 0.0007725587144622991 0.0007725587144622991 0.0007725587144622991 0.49768232385661304 0.0007725587144622991 0.0007725587144622996 0.0007725587144622996 0.9945920889987644 0.0007725587144622996 0.0007725587144622996 0.0007725587144622996 0.0007725587144622996 0.0007725587144622996 0.0015356265356265353 0.9892506142506141 0.0015356265356265353 0.0015356265356265353 0.0015356265356265353 0.0015356265356265353 0.0015356265356265353 0.0015356265356265353 0.0007725587144622994 0.49768232385661326 0.0007725587144622994 0.49768232385661326 0.0007725587144622994 0.0007725587144622994 0.0007725587144622994 0.0007725587144622994 0.3324731626754749 0.3324731626754749 0.0005161023947151117 0.3324731626754749 0.0005161023947151117 0.0005161023947151117 0.0005161023947151117 0.0005161023947151117 0.0007725587144622994 0.49768232385661326 0.0007725587144622994 0.49768232385661326 0.0007725587144622994 0.0007725587144622994 0.0007725587144622994 0.0007725587144622994 0.0005161023947151117 0.0005161023947151117 0.3324731626754749 0.3324731626754749 0.3324731626754749 0.0005161023947151117 0.0005161023947151117 0.0005161023947151117 0.0005161023947151117 0.0005161023947151117 0.3324731626754749 0.3324731626754749 0.3324731626754749 0.0005161023947151117 0.0005161023947151117 0.0005161023947151117 0.00031017369727047157 0.39931761786600506 0.19981389578163777 0.00031017369727047157 0.19981389578163777 0.19981389578163777 0.00031017369727047157 0.00031017369727047157 0.0015356265356265353 0.9892506142506141 0.0015356265356265353 0.0015356265356265353 0.0015356265356265353 0.0015356265356265353 0.0015356265356265353 0.0015356265356265353 0.0005161023947151117 0.0005161023947151117 0.3324731626754749 0.0005161023947151117 0.3324731626754749 0.3324731626754749 0.0005161023947151117 0.0005161023947151117 0.0015356265356265353 0.0015356265356265353 0.9892506142506141 0.0015356265356265353 0.0015356265356265353 0.0015356265356265353 0.0015356265356265353 0.0015356265356265353 0.0005161023947151117 0.0005161023947151117 0.0005161023947151117 0.3324731626754749 0.3324731626754749 0.0005161023947151117 0.3324731626754749 0.0005161023947151117 0.0007725587144622994 0.49768232385661326 0.0007725587144622994 0.49768232385661326 0.0007725587144622994 0.0007725587144622994 0.0007725587144622994 0.0007725587144622994 0.0007725587144622998 0.9945920889987646 0.0007725587144622998 0.0007725587144622998 0.0007725587144622998 0.0007725587144622998 0.0007725587144622998 0.0007725587144622998 0.0007725587144622994 0.49768232385661326 0.0007725587144622994 0.49768232385661326 0.0007725587144622994 0.0007725587144622994 0.0007725587144622994 0.0007725587144622994 0.0005161023947151117 0.0005161023947151117 0.3324731626754749 0.6644302229562346 0.0005161023947151117 0.0005161023947151117 0.0005161023947151117 0.0005161023947151117 0.49768232385661326 0.0007725587144622994 0.0007725587144622994 0.49768232385661326 0.0007725587144622994 0.0007725587144622994 0.0007725587144622994 0.0007725587144622994 0.0007725587144622994 0.0007725587144622994 0.49768232385661326 0.49768232385661326 0.0007725587144622994 0.0007725587144622994 0.0007725587144622994 0.0007725587144622994 0.0015356265356265353 0.0015356265356265353 0.0015356265356265353 0.9892506142506141 0.0015356265356265353 0.0015356265356265353 0.0015356265356265353 0.0015356265356265353 0.0003101736972704715 0.19981389578163775 0.19981389578163775 0.399317617866005 0.19981389578163775 0.0003101736972704715 0.0003101736972704715 0.0003101736972704715 0.3324731626754749 0.0005161023947151117 0.0005161023947151117 0.3324731626754749 0.3324731626754749 0.0005161023947151117 0.0005161023947151117 0.0005161023947151117 0.0015356265356265353 0.0015356265356265353 0.9892506142506141 0.0015356265356265353 0.0015356265356265353 0.0015356265356265353 0.0015356265356265353 0.0015356265356265353 0.3324731626754749 0.3324731626754749 0.0005161023947151117 0.0005161023947151117 0.0005161023947151117 0.0005161023947151117 0.0005161023947151117 0.3324731626754749 0.49768232385661326 0.0007725587144622994 0.49768232385661326 0.0007725587144622994 0.0007725587144622994 0.0007725587144622994 0.0007725587144622994 0.0007725587144622994 0.33247316267547494 0.0005161023947151117 0.6644302229562347 0.0005161023947151117 0.0005161023947151117 0.0005161023947151117 0.0005161023947151117 0.0005161023947151117 0.0003874767513949164 0.24961252324860514 0.24961252324860514 0.24961252324860514 0.24961252324860514 0.0003874767513949164 0.0003874767513949164 0.0003874767513949164 0.0005161023947151117 0.3324731626754749 0.0005161023947151117 0.6644302229562346 0.0005161023947151117 0.0005161023947151117 0.0005161023947151117 0.0005161023947151117 0.125 0.125 0.125 0.125 0.125 0.125 0.125 0.125 0.0015356265356265353 0.0015356265356265353 0.0015356265356265353 0.9892506142506141 0.0015356265356265353 0.0015356265356265353 0.0015356265356265353 0.0015356265356265353 0.0015356265356265353 0.0015356265356265353 0.0015356265356265353 0.0015356265356265353 0.9892506142506141 0.0015356265356265353 0.0015356265356265353 0.0015356265356265353 0.0005161023947151117 0.0005161023947151117 0.6644302229562346 0.3324731626754749 0.0005161023947151117 0.0005161023947151117 0.0005161023947151117 0.0005161023947151117 0.0015356265356265353 0.0015356265356265353 0.0015356265356265353 0.9892506142506141 0.0015356265356265353 0.0015356265356265353 0.0015356265356265353 0.0015356265356265353 0.0007725587144622994 0.0007725587144622994 0.49768232385661326 0.49768232385661326 0.0007725587144622994 0.0007725587144622994 0.0007725587144622994 0.0007725587144622994 0.0003101736972704715 0.19981389578163775 0.399317617866005 0.19981389578163775 0.0003101736972704715 0.0003101736972704715 0.19981389578163775 0.0003101736972704715 0.0015356265356265353 0.0015356265356265353 0.0015356265356265353 0.9892506142506141 0.0015356265356265353 0.0015356265356265353 0.0015356265356265353 0.0015356265356265353 0.0015356265356265353 0.0015356265356265353 0.9892506142506141 0.0015356265356265353 0.0015356265356265353 0.0015356265356265353 0.0015356265356265353 0.0015356265356265353 0.24961252324860514 0.24961252324860514 0.24961252324860514 0.24961252324860514 0.0003874767513949164 0.0003874767513949164 0.0003874767513949164 0.0003874767513949164 0.0003874767513949164 0.24961252324860514 0.24961252324860514 0.4988375697458153 0.0003874767513949164 0.0003874767513949164 0.0003874767513949164 0.0003874767513949164 0.0007725587144622994 0.0007725587144622994 0.0007725587144622994 0.0007725587144622994 0.9945920889987642 0.0007725587144622994 0.0007725587144622994 0.0007725587144622994 0.0005161023947151117 0.0005161023947151117 0.3324731626754749 0.0005161023947151117 0.3324731626754749 0.3324731626754749 0.0005161023947151117 0.0005161023947151117 0.0003874767513949164 0.24961252324860514 0.24961252324860514 0.24961252324860514 0.24961252324860514 0.0003874767513949164 0.0003874767513949164 0.0003874767513949164 0.0003874767513949164 0.24961252324860514 0.0003874767513949164 0.0003874767513949164 0.7480626162430255 0.0003874767513949164 0.0003874767513949164 0.0003874767513949164 0.0001725089704664643 0.0001725089704664643 0.2220880485785261 0.2220880485785261 0.5549613579906156 0.0001725089704664643 0.0001725089704664643 0.0001725089704664643 0.4976823238566134 0.4976823238566134 0.0007725587144622996 0.0007725587144622996 0.0007725587144622996 0.0007725587144622996 0.0007725587144622996 0.0007725587144622996 0.0015356265356265353 0.0015356265356265353 0.0015356265356265353 0.0015356265356265353 0.9892506142506141 0.0015356265356265353 0.0015356265356265353 0.0015356265356265353 0.49768232385661326 0.0007725587144622994 0.0007725587144622994 0.0007725587144622994 0.49768232385661326 0.0007725587144622994 0.0007725587144622994 0.0007725587144622994 0.0007725587144622992 0.0007725587144622992 0.0007725587144622992 0.0007725587144622992 0.49768232385661315 0.49768232385661315 0.0007725587144622992 0.0007725587144622992 0.0007725587144622996 0.0007725587144622996 0.0007725587144622996 0.9945920889987644 0.0007725587144622996 0.0007725587144622996 0.0007725587144622996 0.0007725587144622996 0.0007725587144622992 0.0007725587144622992 0.49768232385661315 0.0007725587144622992 0.0007725587144622992 0.49768232385661315 0.0007725587144622992 0.0007725587144622992 0.0007725587144622994 0.0007725587144622994 0.49768232385661326 0.0007725587144622994 0.49768232385661326 0.0007725587144622994 0.0007725587144622994 0.0007725587144622994 0.0007725587144622992 0.0007725587144622992 0.0007725587144622992 0.0007725587144622992 0.49768232385661315 0.49768232385661315 0.0007725587144622992 0.0007725587144622992 0.0015356265356265353 0.0015356265356265353 0.0015356265356265353 0.9892506142506141 0.0015356265356265353 0.0015356265356265353 0.0015356265356265353 0.0015356265356265353 0.0015356265356265353 0.0015356265356265353 0.0015356265356265353 0.0015356265356265353 0.9892506142506141 0.0015356265356265353 0.0015356265356265353 0.0015356265356265353 0.0015356265356265353 0.0015356265356265353 0.0015356265356265353 0.0015356265356265353 0.9892506142506141 0.0015356265356265353 0.0015356265356265353 0.0015356265356265353 0.0015356265356265353 0.0015356265356265353 0.9892506142506141 0.0015356265356265353 0.0015356265356265353 0.0015356265356265353 0.0015356265356265353 0.0015356265356265353 0.0003101736972704715 0.0003101736972704715 0.0003101736972704715 0.19981389578163775 0.5988213399503722 0.19981389578163775 0.0003101736972704715 0.0003101736972704715 0.0015356265356265353 0.9892506142506141 0.0015356265356265353 0.0015356265356265353 0.0015356265356265353 0.0015356265356265353 0.0015356265356265353 0.0015356265356265353 0.24961252324860514 0.0003874767513949164 0.4988375697458153 0.0003874767513949164 0.24961252324860514 0.0003874767513949164 0.0003874767513949164 0.0003874767513949164 0.00031017369727047157 0.39931761786600506 0.19981389578163777 0.00031017369727047157 0.19981389578163777 0.19981389578163777 0.00031017369727047157 0.00031017369727047157 0.0015356265356265353 0.0015356265356265353 0.9892506142506141 0.0015356265356265353 0.0015356265356265353 0.0015356265356265353 0.0015356265356265353 0.0015356265356265353 0.0015356265356265353 0.0015356265356265353 0.0015356265356265353 0.9892506142506141 0.0015356265356265353 0.0015356265356265353 0.0015356265356265353 0.0015356265356265353 0.0005161023947151117 0.0005161023947151117 0.0005161023947151117 0.6644302229562346 0.3324731626754749 0.0005161023947151117 0.0005161023947151117 0.0005161023947151117 0.0015356265356265353 0.0015356265356265353 0.0015356265356265353 0.0015356265356265353 0.9892506142506141 0.0015356265356265353 0.0015356265356265353 0.0015356265356265353 0.125 0.125 0.125 0.125 0.125 0.125 0.125 0.125 0.0007725587144622994 0.0007725587144622994 0.0007725587144622994 0.0007725587144622994 0.9945920889987642 0.0007725587144622994 0.0007725587144622994 0.0007725587144622994 0.125 0.125 0.125 0.125 0.125 0.125 0.125 0.125 0.0007725587144622992 0.0007725587144622992 0.0007725587144622992 0.0007725587144622992 0.49768232385661315 0.49768232385661315 0.0007725587144622992 0.0007725587144622992 0.0003874767513949164 0.0003874767513949164 0.7480626162430255 0.0003874767513949164 0.24961252324860514 0.0003874767513949164 0.0003874767513949164 0.0003874767513949164 0.0007725587144622996 0.0007725587144622996 0.0007725587144622996 0.9945920889987644 0.0007725587144622996 0.0007725587144622996 0.0007725587144622996 0.0007725587144622996 0.0003874767513949164 0.0003874767513949164 0.24961252324860514 0.0003874767513949164 0.24961252324860514 0.4988375697458153 0.0003874767513949164 0.0003874767513949164 0.4976823238566134 0.4976823238566134 0.0007725587144622996 0.0007725587144622996 0.0007725587144622996 0.0007725587144622996 0.0007725587144622996 0.0007725587144622996 0.125 0.125 0.125 0.125 0.125 0.125 0.125 0.125 0.0005161023947151117 0.0005161023947151117 0.0005161023947151117 0.3324731626754749 0.6644302229562346 0.0005161023947151117 0.0005161023947151117 0.0005161023947151117 0.0007725587144622994 0.0007725587144622994 0.0007725587144622994 0.0007725587144622994 0.9945920889987642 0.0007725587144622994 0.0007725587144622994 0.0007725587144622994 0.125 0.125 0.125 0.125 0.125 0.125 0.125 0.125 0.0015356265356265358 0.0015356265356265358 0.0015356265356265358 0.0015356265356265358 0.0015356265356265358 0.9892506142506142 0.0015356265356265358 0.0015356265356265358 0.0005161023947151117 0.0005161023947151117 0.3324731626754749 0.0005161023947151117 0.3324731626754749 0.3324731626754749 0.0005161023947151117 0.0005161023947151117 0.125 0.125 0.125 0.125 0.125 0.125 0.125 0.125 0.125 0.125 0.125 0.125 0.125 0.125 0.125 0.125 0.00031017369727047157 0.00031017369727047157 0.39931761786600506 0.5988213399503723 0.00031017369727047157 0.00031017369727047157 0.00031017369727047157 0.00031017369727047157 0.125 0.125 0.125 0.125 0.125 0.125 0.125 0.125 0.0007725587144622994 0.0007725587144622994 0.0007725587144622994 0.0007725587144622994 0.0007725587144622994 0.9945920889987642 0.0007725587144622994 0.0007725587144622994 0.0007725587144622991 0.0007725587144622991 0.0007725587144622991 0.0007725587144622991 0.49768232385661304 0.0007725587144622991 0.49768232385661304 0.0007725587144622991 0.0005161023947151117 0.0005161023947151117 0.0005161023947151117 0.3324731626754749 0.6644302229562346 0.0005161023947151117 0.0005161023947151117 0.0005161023947151117 0.0007725587144622994 0.49768232385661326 0.0007725587144622994 0.0007725587144622994 0.49768232385661326 0.0007725587144622994 0.0007725587144622994 0.0007725587144622994 0.0003874767513949164 0.24961252324860514 0.24961252324860514 0.24961252324860514 0.24961252324860514 0.0003874767513949164 0.0003874767513949164 0.0003874767513949164 0.0007725587144622996 0.0007725587144622996 0.9945920889987644 0.0007725587144622996 0.0007725587144622996 0.0007725587144622996 0.0007725587144622996 0.0007725587144622996 0.0015356265356265353 0.0015356265356265353 0.0015356265356265353 0.0015356265356265353 0.9892506142506141 0.0015356265356265353 0.0015356265356265353 0.0015356265356265353 0.49768232385661326 0.0007725587144622994 0.49768232385661326 0.0007725587144622994 0.0007725587144622994 0.0007725587144622994 0.0007725587144622994 0.0007725587144622994 0.0015356265356265358 0.0015356265356265358 0.0015356265356265358 0.0015356265356265358 0.0015356265356265358 0.9892506142506142 0.0015356265356265358 0.0015356265356265358 0.125 0.125 0.125 0.125 0.125 0.125 0.125 0.125 0.00025858502275548205 0.00025858502275548205 0.16658047165908152 0.49922424493173356 0.33290235829540754 0.00025858502275548205 0.00025858502275548205 0.00025858502275548205 0.0007725587144622994 0.49768232385661326 0.0007725587144622994 0.0007725587144622994 0.49768232385661326 0.0007725587144622994 0.0007725587144622994 0.0007725587144622994 0.125 0.125 0.125 0.125 0.125 0.125 0.125 0.125 0.19981389578163775 0.0003101736972704715 0.0003101736972704715 0.5988213399503722 0.0003101736972704715 0.0003101736972704715 0.19981389578163775 0.0003101736972704715 0.0007725587144622994 0.49768232385661326 0.0007725587144622994 0.49768232385661326 0.0007725587144622994 0.0007725587144622994 0.0007725587144622994 0.0007725587144622994 0.0015356265356265353 0.0015356265356265353 0.0015356265356265353 0.0015356265356265353 0.9892506142506141 0.0015356265356265353 0.0015356265356265353 0.0015356265356265353 0.0003874767513949164 0.0003874767513949164 0.24961252324860514 0.24961252324860514 0.24961252324860514 0.0003874767513949164 0.24961252324860514 0.0003874767513949164 0.125 0.125 0.125 0.125 0.125 0.125 0.125 0.125 0.125 0.125 0.125 0.125 0.125 0.125 0.125 0.125 0.0003874767513949164 0.0003874767513949164 0.0003874767513949164 0.24961252324860514 0.4988375697458153 0.24961252324860514 0.0003874767513949164 0.0003874767513949164 0.0007725587144622996 0.0007725587144622996 0.9945920889987644 0.0007725587144622996 0.0007725587144622996 0.0007725587144622996 0.0007725587144622996 0.0007725587144622996 0.0007725587144622994 0.0007725587144622994 0.0007725587144622994 0.49768232385661326 0.49768232385661326 0.0007725587144622994 0.0007725587144622994 0.0007725587144622994 0.125 0.125 0.125 0.125 0.125 0.125 0.125 0.125 0.0015356265356265353 0.0015356265356265353 0.0015356265356265353 0.9892506142506141 0.0015356265356265353 0.0015356265356265353 0.0015356265356265353 0.0015356265356265353 0.0007725587144622992 0.0007725587144622992 0.49768232385661315 0.0007725587144622992 0.0007725587144622992 0.49768232385661315 0.0007725587144622992 0.0007725587144622992 0.0007725587144622994 0.0007725587144622994 0.49768232385661326 0.0007725587144622994 0.49768232385661326 0.0007725587144622994 0.0007725587144622994 0.0007725587144622994 0.0005161023947151117 0.3324731626754749 0.3324731626754749 0.0005161023947151117 0.3324731626754749 0.0005161023947151117 0.0005161023947151117 0.0005161023947151117 0.0007725587144622992 0.0007725587144622992 0.0007725587144622992 0.0007725587144622992 0.49768232385661315 0.49768232385661315 0.0007725587144622992 0.0007725587144622992 0.125 0.125 0.125 0.125 0.125 0.125 0.125 0.125 0.0007725587144622994 0.0007725587144622994 0.49768232385661326 0.0007725587144622994 0.49768232385661326 0.0007725587144622994 0.0007725587144622994 0.0007725587144622994 0.125 0.125 0.125 0.125 0.125 0.125 0.125 0.125 0.125 0.125 0.125 0.125 0.125 0.125 0.125 0.125 0.125 0.125 0.125 0.125 0.125 0.125 0.125 0.125 0.125 0.125 0.125 0.125 0.125 0.125 0.125 0.125 0.125 0.125 0.125 0.125 0.125 0.125 0.125 0.125 0.125 0.125 0.125 0.125 0.125 0.125 0.125 0.125 0.125 0.125 0.125 0.125 0.125 0.125 0.125 0.125 0.125 0.125 0.125 0.125 0.125 0.125 0.125 0.125 0.125 0.125 0.125 0.125 0.125 0.125 0.125 0.125 0.0015356265356265353 0.0015356265356265353 0.9892506142506141 0.0015356265356265353 0.0015356265356265353 0.0015356265356265353 0.0015356265356265353 0.0015356265356265353 0.125 0.125 0.125 0.125 0.125 0.125 0.125 0.125 0.0007725587144622991 0.0007725587144622991 0.49768232385661304 0.0007725587144622991 0.0007725587144622991 0.0007725587144622991 0.0007725587144622991 0.49768232385661304 0.125 0.125 0.125 0.125 0.125 0.125 0.125 0.125 0.125 0.125 0.125 0.125 0.125 0.125 0.125 0.125 0.125 0.125 0.125 0.125 0.125 0.125 0.125 0.125 0.125 0.125 0.125 0.125 0.125 0.125 0.125 0.125 0.125 0.125 0.125 0.125 0.125 0.125 0.125 0.125 0.125 0.125 0.125 0.125 0.125 0.125 0.125 0.125 0.125 0.125 0.125 0.125 0.125 0.125 0.125 0.125 0.0015356265356265353 0.9892506142506141 0.0015356265356265353 0.0015356265356265353 0.0015356265356265353 0.0015356265356265353 0.0015356265356265353 0.0015356265356265353 0.125 0.125 0.125 0.125 0.125 0.125 0.125 0.125 0.125 0.125 0.125 0.125 0.125 0.125 0.125 0.125 0.0015356265356265353 0.9892506142506141 0.0015356265356265353 0.0015356265356265353 0.0015356265356265353 0.0015356265356265353 0.0015356265356265353 0.0015356265356265353 0.125 0.125 0.125 0.125 0.125 0.125 0.125 0.125 0.125 0.125 0.125 0.125 0.125 0.125 0.125 0.125 0.125 0.125 0.125 0.125 0.125 0.125 0.125 0.125 0.125 0.125 0.125 0.125 0.125 0.125 0.125 0.125 0.125 0.125 0.125 0.125 0.125 0.125 0.125 0.125 0.0015356265356265353 0.9892506142506141 0.0015356265356265353 0.0015356265356265353 0.0015356265356265353 0.0015356265356265353 0.0015356265356265353 0.0015356265356265353 0.125 0.125 0.125 0.125 0.125 0.125 0.125 0.125 0.9892506142506141 0.0015356265356265353 0.0015356265356265353 0.0015356265356265353 0.0015356265356265353 0.0015356265356265353 0.0015356265356265353 0.0015356265356265353 0.125 0.125 0.125 0.125 0.125 0.125 0.125 0.125 0.125 0.125 0.125 0.125 0.125 0.125 0.125 0.125 0.125 0.125 0.125 0.125 0.125 0.125 0.125 0.125 0.0015356265356265358 0.0015356265356265358 0.0015356265356265358 0.0015356265356265358 0.0015356265356265358 0.0015356265356265358 0.0015356265356265358 0.9892506142506142 0.125 0.125 0.125 0.125 0.125 0.125 0.125 0.125 0.125 0.125 0.125 0.125 0.125 0.125 0.125 0.125 0.125 0.125 0.125 0.125 0.125 0.125 0.125 0.125 0.125 0.125 0.125 0.125 0.125 0.125 0.125 0.125 0.0007725587144622991 0.49768232385661304 0.0007725587144622991 0.0007725587144622991 0.0007725587144622991 0.0007725587144622991 0.0007725587144622991 0.49768232385661304 0.125 0.125 0.125 0.125 0.125 0.125 0.125 0.125 0.125 0.125 0.125 0.125 0.125 0.125 0.125 0.125 0.9892506142506141 0.0015356265356265353 0.0015356265356265353 0.0015356265356265353 0.0015356265356265353 0.0015356265356265353 0.0015356265356265353 0.0015356265356265353 0.125 0.125 0.125 0.125 0.125 0.125 0.125 0.125 0.0015356265356265353 0.9892506142506141 0.0015356265356265353 0.0015356265356265353 0.0015356265356265353 0.0015356265356265353 0.0015356265356265353 0.0015356265356265353 0.125 0.125 0.125 0.125 0.125 0.125 0.125 0.125 0.0015356265356265358 0.0015356265356265358 0.0015356265356265358 0.0015356265356265358 0.0015356265356265358 0.0015356265356265358 0.0015356265356265358 0.9892506142506142 0.9892506142506141 0.0015356265356265353 0.0015356265356265353 0.0015356265356265353 0.0015356265356265353 0.0015356265356265353 0.0015356265356265353 0.0015356265356265353 0.125 0.125 0.125 0.125 0.125 0.125 0.125 0.125 0.125 0.125 0.125 0.125 0.125 0.125 0.125 0.125 0.125 0.125 0.125 0.125 0.125 0.125 0.125 0.125 0.125 0.125 0.125 0.125 0.125 0.125 0.125 0.125 0.0015356265356265353 0.9892506142506141 0.0015356265356265353 0.0015356265356265353 0.0015356265356265353 0.0015356265356265353 0.0015356265356265353 0.0015356265356265353 0.125 0.125 0.125 0.125 0.125 0.125 0.125 0.125 0.9892506142506141 0.0015356265356265353 0.0015356265356265353 0.0015356265356265353 0.0015356265356265353 0.0015356265356265353 0.0015356265356265353 0.0015356265356265353 0.125 0.125 0.125 0.125 0.125 0.125 0.125 0.125 0.125 0.125 0.125 0.125 0.125 0.125 0.125 0.125 0.125 0.125 0.125 0.125 0.125 0.125 0.125 0.125 0.0015356265356265353 0.9892506142506141 0.0015356265356265353 0.0015356265356265353 0.0015356265356265353 0.0015356265356265353 0.0015356265356265353 0.0015356265356265353 0.125 0.125 0.125 0.125 0.125 0.125 0.125 0.125 0.125 0.125 0.125 0.125 0.125 0.125 0.125 0.125 0.9892506142506141 0.0015356265356265353 0.0015356265356265353 0.0015356265356265353 0.0015356265356265353 0.0015356265356265353 0.0015356265356265353 0.0015356265356265353 0.9892506142506141 0.0015356265356265353 0.0015356265356265353 0.0015356265356265353 0.0015356265356265353 0.0015356265356265353 0.0015356265356265353 0.0015356265356265353 0.0015356265356265353 0.9892506142506141 0.0015356265356265353 0.0015356265356265353 0.0015356265356265353 0.0015356265356265353 0.0015356265356265353 0.0015356265356265353 0.125 0.125 0.125 0.125 0.125 0.125 0.125 0.125 0.125 0.125 0.125 0.125 0.125 0.125 0.125 0.125 0.125 0.125 0.125 0.125 0.125 0.125 0.125 0.125 0.125 0.125 0.125 0.125 0.125 0.125 0.125 0.125 0.0015356265356265353 0.0015356265356265353 0.9892506142506141 0.0015356265356265353 0.0015356265356265353 0.0015356265356265353 0.0015356265356265353 0.0015356265356265353 0.0007725587144622992 0.0007725587144622992 0.0007725587144622992 0.0007725587144622992 0.0007725587144622992 0.49768232385661315 0.49768232385661315 0.0007725587144622992 0.0015356265356265358 0.0015356265356265358 0.0015356265356265358 0.0015356265356265358 0.0015356265356265358 0.9892506142506142 0.0015356265356265358 0.0015356265356265358 0.125 0.125 0.125 0.125 0.125 0.125 0.125 0.125 0.125 0.125 0.125 0.125 0.125 0.125 0.125 0.125 0.125 0.125 0.125 0.125 0.125 0.125 0.125 0.125 0.125 0.125 0.125 0.125 0.125 0.125 0.125 0.125 0.0015356265356265353 0.0015356265356265353 0.0015356265356265353 0.9892506142506141 0.0015356265356265353 0.0015356265356265353 0.0015356265356265353 0.0015356265356265353 0.125 0.125 0.125 0.125 0.125 0.125 0.125 0.125 0.125 0.125 0.125 0.125 0.125 0.125 0.125 0.125 0.0015356265356265358 0.0015356265356265358 0.0015356265356265358 0.0015356265356265358 0.0015356265356265358 0.0015356265356265358 0.9892506142506142 0.0015356265356265358 0.125 0.125 0.125 0.125 0.125 0.125 0.125 0.125 0.125 0.125 0.125 0.125 0.125 0.125 0.125 0.125 0.125 0.125 0.125 0.125 0.125 0.125 0.125 0.125 0.125 0.125 0.125 0.125 0.125 0.125 0.125 0.125 0.125 0.125 0.125 0.125 0.125 0.125 0.125 0.125 0.125 0.125 0.125 0.125 0.125 0.125 0.125 0.125 0.125 0.125 0.125 0.125 0.125 0.125 0.125 0.125 0.125 0.125 0.125 0.125 0.125 0.125 0.125 0.125 0.125 0.125 0.125 0.125 0.125 0.125 0.125 0.125 0.125 0.125 0.125 0.125 0.125 0.125 0.125 0.125 0.0007725587144622992 0.0007725587144622992 0.0007725587144622992 0.0007725587144622992 0.0007725587144622992 0.49768232385661315 0.49768232385661315 0.0007725587144622992 0.0015356265356265353 0.0015356265356265353 0.0015356265356265353 0.0015356265356265353 0.9892506142506141 0.0015356265356265353 0.0015356265356265353 0.0015356265356265353 0.125 0.125 0.125 0.125 0.125 0.125 0.125 0.125 0.0015356265356265358 0.0015356265356265358 0.0015356265356265358 0.0015356265356265358 0.0015356265356265358 0.9892506142506142 0.0015356265356265358 0.0015356265356265358 0.125 0.125 0.125 0.125 0.125 0.125 0.125 0.125 0.0007725587144622992 0.0007725587144622992 0.0007725587144622992 0.0007725587144622992 0.49768232385661315 0.49768232385661315 0.0007725587144622992 0.0007725587144622992 0.125 0.125 0.125 0.125 0.125 0.125 0.125 0.125 0.125 0.125 0.125 0.125 0.125 0.125 0.125 0.125 0.125 0.125 0.125 0.125 0.125 0.125 0.125 0.125 0.125 0.125 0.125 0.125 0.125 0.125 0.125 0.125 0.125 0.125 0.125 0.125 0.125 0.125 0.125 0.125 0.125 0.125 0.125 0.125 0.125 0.125 0.125 0.125 0.0015356265356265358 0.0015356265356265358 0.0015356265356265358 0.0015356265356265358 0.0015356265356265358 0.0015356265356265358 0.9892506142506142 0.0015356265356265358 0.0007725587144622992 0.0007725587144622992 0.0007725587144622992 0.0007725587144622992 0.49768232385661315 0.49768232385661315 0.0007725587144622992 0.0007725587144622992 0.125 0.125 0.125 0.125 0.125 0.125 0.125 0.125 0.125 0.125 0.125 0.125 0.125 0.125 0.125 0.125 0.125 0.125 0.125 0.125 0.125 0.125 0.125 0.125 0.125 0.125 0.125 0.125 0.125 0.125 0.125 0.125 0.125 0.125 0.125 0.125 0.125 0.125 0.125 0.125 0.9892506142506141 0.0015356265356265353 0.0015356265356265353 0.0015356265356265353 0.0015356265356265353 0.0015356265356265353 0.0015356265356265353 0.0015356265356265353 0.125 0.125 0.125 0.125 0.125 0.125 0.125 0.125 0.0015356265356265353 0.9892506142506141 0.0015356265356265353 0.0015356265356265353 0.0015356265356265353 0.0015356265356265353 0.0015356265356265353 0.0015356265356265353 0.125 0.125 0.125 0.125 0.125 0.125 0.125 0.125 0.125 0.125 0.125 0.125 0.125 0.125 0.125 0.125 0.125 0.125 0.125 0.125 0.125 0.125 0.125 0.125 0.125 0.125 0.125 0.125 0.125 0.125 0.125 0.125 0.125 0.125 0.125 0.125 0.125 0.125 0.125 0.125 0.125 0.125 0.125 0.125 0.125 0.125 0.125 0.125 0.125 0.125 0.125 0.125 0.125 0.125 0.125 0.125 0.125 0.125 0.125 0.125 0.125 0.125 0.125 0.125 0.0015356265356265358 0.0015356265356265358 0.0015356265356265358 0.0015356265356265358 0.0015356265356265358 0.9892506142506142 0.0015356265356265358 0.0015356265356265358 0.125 0.125 0.125 0.125 0.125 0.125 0.125 0.125 0.125 0.125 0.125 0.125 0.125 0.125 0.125 0.125 0.125 0.125 0.125 0.125 0.125 0.125 0.125 0.125 0.125 0.125 0.125 0.125 0.125 0.125 0.125 0.125 0.0015356265356265353 0.0015356265356265353 0.0015356265356265353 0.9892506142506141 0.0015356265356265353 0.0015356265356265353 0.0015356265356265353 0.0015356265356265353 0.0007725587144622994 0.0007725587144622994 0.0007725587144622994 0.0007725587144622994 0.0007725587144622994 0.9945920889987642 0.0007725587144622994 0.0007725587144622994 0.125 0.125 0.125 0.125 0.125 0.125 0.125 0.125 0.125 0.125 0.125 0.125 0.125 0.125 0.125 0.125 0.125 0.125 0.125 0.125 0.125 0.125 0.125 0.125 0.125 0.125 0.125 0.125 0.125 0.125 0.125 0.125 0.125 0.125 0.125 0.125 0.125 0.125 0.125 0.125 0.0015356265356265358 0.0015356265356265358 0.0015356265356265358 0.0015356265356265358 0.0015356265356265358 0.0015356265356265358 0.9892506142506142 0.0015356265356265358 0.125 0.125 0.125 0.125 0.125 0.125 0.125 0.125 0.125 0.125 0.125 0.125 0.125 0.125 0.125 0.125 </TABLE>
    </DEFINITION>
    <DEFINITION>
      <FOR>aks_vgt</FOR>
      <GIVEN>s2528</GIVEN>
      <GIVEN>sort</GIVEN>
      <TABLE>0.00058913632614587 0.00058913632614587 0.00058913632614587 0.00058913632614587 0.49793802285848937 0.49793802285848937 0.00058913632614587 0.00058913632614587 0.00058913632614587 0.0011720581340834502 0.0011720581340834502 0.0011720581340834502 0.0011720581340834502 0.0011720581340834502 0.9906235349273322 0.0011720581340834502 0.0011720581340834502 0.0011720581340834502 0.00029535117254415503 0.00029535117254415503 0.00029535117254415503 0.00029535117254415503 0.2496308110343199 0.7483017307578713 0.00029535117254415503 0.00029535117254415503 0.00029535117254415503 0.1111111111111111 0.1111111111111111 0.1111111111111111 0.1111111111111111 0.1111111111111111 0.1111111111111111 0.1111111111111111 0.1111111111111111 0.1111111111111111 0.0003934529430280138 0.0003934529430280138 0.0003934529430280138 0.0003934529430280138 0.0003934529430280138 0.9968523764557757 0.0003934529430280138 0.0003934529430280138 0.0003934529430280138 0.00019707540104844118 0.00019707540104844118 0.00019707540104844118 0.33293918253123655 0.33293918253123655 0.00019707540104844118 0.33293918253123655 0.00019707540104844118 0.00019707540104844118 0.00019707540104844113 0.00019707540104844113 0.00019707540104844113 0.00019707540104844113 0.33293918253123644 0.49931023609633046 0.16656812896614245 0.00019707540104844113 0.00019707540104844113 0.0005891363261458702 0.0005891363261458702 0.0005891363261458702 0.0005891363261458702 0.0005891363261458702 0.4979380228584895 0.4979380228584895 0.0005891363261458702 0.0005891363261458702 0.0005891363261458702 0.0005891363261458702 0.0005891363261458702 0.0005891363261458702 0.0005891363261458702 0.4979380228584895 0.4979380228584895 0.0005891363261458702 0.0005891363261458702 0.00039345294302801383 0.00039345294302801383 0.00039345294302801383 0.3325464274472773 0.3325464274472773 0.3325464274472773 0.00039345294302801383 0.00039345294302801383 0.00039345294302801383 0.19981087470449174 0.00023640661938534278 0.00023640661938534278 0.19981087470449174 0.00023640661938534278 0.00023640661938534278 0.39938534278959814 0.19981087470449174 0.00023640661938534278 0.0002364066193853428 0.0002364066193853428 0.0002364066193853428 0.3993853427895982 0.0002364066193853428 0.5989598108747046 0.0002364066193853428 0.0002364066193853428 0.0002364066193853428 0.000295351172544155 0.000295351172544155 0.000295351172544155 0.000295351172544155 0.000295351172544155 0.49896627089609547 0.000295351172544155 0.49896627089609547 0.000295351172544155 0.0003934529430280138 0.0003934529430280138 0.0003934529430280138 0.3325464274472773 0.0003934529430280138 0.6646994019515265 0.0003934529430280138 0.0003934529430280138 0.0003934529430280138 0.0003934529430280138 0.0003934529430280138 0.0003934529430280138 0.0003934529430280138 0.0003934529430280138 0.6646994019515265 0.3325464274472773 0.0003934529430280138 0.0003934529430280138 0.000295351172544155 0.000295351172544155 0.000295351172544155 0.000295351172544155 0.24963081103431983 0.24963081103431983 0.49896627089609547 0.000295351172544155 0.000295351172544155 0.0005891363261458702 0.0005891363261458702 0.0005891363261458702 0.0005891363261458702 0.0005891363261458702 0.0005891363261458702 0.0005891363261458702 0.9952869093908331 0.0005891363261458702 0.000295351172544155 0.000295351172544155 0.000295351172544155 0.24963081103431983 0.000295351172544155 0.24963081103431983 0.000295351172544155 0.49896627089609547 0.000295351172544155 0.0003934529430280138 0.0003934529430280138 0.0003934529430280138 0.0003934529430280138 0.0003934529430280138 0.9968523764557757 0.0003934529430280138 0.0003934529430280138 0.0003934529430280138 0.00019707540104844113 0.00019707540104844113 0.00019707540104844113 0.00019707540104844113 0.33293918253123644 0.49931023609633046 0.16656812896614245 0.00019707540104844113 0.00019707540104844113 0.000295351172544155 0.000295351172544155 0.000295351172544155 0.000295351172544155 0.24963081103431983 0.49896627089609547 0.000295351172544155 0.24963081103431983 0.000295351172544155 0.1111111111111111 0.1111111111111111 0.1111111111111111 0.1111111111111111 0.1111111111111111 0.1111111111111111 0.1111111111111111 0.1111111111111111 0.1111111111111111 0.0003934529430280138 0.0003934529430280138 0.0003934529430280138 0.0003934529430280138 0.3325464274472773 0.3325464274472773 0.0003934529430280138 0.3325464274472773 0.0003934529430280138 0.00029535117254415514 0.00029535117254415514 0.00029535117254415514 0.00029535117254415514 0.00029535117254415514 0.9976371906196471 0.00029535117254415514 0.00029535117254415514 0.00029535117254415514 0.0002364066193853428 0.0002364066193853428 0.0002364066193853428 0.19981087470449177 0.19981087470449177 0.19981087470449177 0.3993853427895982 0.0002364066193853428 0.0002364066193853428 0.0005891363261458702 0.0005891363261458702 0.0005891363261458702 0.0005891363261458702 0.4979380228584895 0.0005891363261458702 0.4979380228584895 0.0005891363261458702 0.0005891363261458702 0.0005891363261458702 0.0005891363261458702 0.0005891363261458702 0.0005891363261458702 0.4979380228584895 0.0005891363261458702 0.4979380228584895 0.0005891363261458702 0.0005891363261458702 0.0005891363261458702 0.0005891363261458702 0.0005891363261458702 0.0005891363261458702 0.0005891363261458702 0.0005891363261458702 0.9952869093908331 0.0005891363261458702 0.0005891363261458702 0.00023640661938534278 0.00023640661938534278 0.00023640661938534278 0.00023640661938534278 0.19981087470449174 0.39938534278959814 0.19981087470449174 0.19981087470449174 0.00023640661938534278 0.00016896458502297922 0.00016896458502297922 0.14280886726142206 0.14280886726142206 0.2854487699378211 0.14280886726142206 0.2854487699378211 0.00016896458502297922 0.00016896458502297922 0.00023640661938534278 0.00023640661938534278 0.00023640661938534278 0.00023640661938534278 0.00023640661938534278 0.5989598108747045 0.39938534278959814 0.00023640661938534278 0.00023640661938534278 0.0011720581340834502 0.0011720581340834502 0.0011720581340834502 0.0011720581340834502 0.0011720581340834502 0.0011720581340834502 0.9906235349273322 0.0011720581340834502 0.0011720581340834502 0.0011720581340834502 0.0011720581340834502 0.0011720581340834502 0.0011720581340834502 0.9906235349273322 0.0011720581340834502 0.0011720581340834502 0.0011720581340834502 0.0011720581340834502 0.0011720581340834502 0.0011720581340834502 0.0011720581340834502 0.0011720581340834502 0.9906235349273322 0.0011720581340834502 0.0011720581340834502 0.0011720581340834502 0.0011720581340834502 0.0005891363261458702 0.0005891363261458702 0.0005891363261458702 0.4979380228584895 0.0005891363261458702 0.0005891363261458702 0.4979380228584895 0.0005891363261458702 0.0005891363261458702 0.00023640661938534278 0.00023640661938534278 0.00023640661938534278 0.00023640661938534278 0.39938534278959814 0.39938534278959814 0.00023640661938534278 0.19981087470449174 0.00023640661938534278 0.0011720581340834502 0.0011720581340834502 0.0011720581340834502 0.0011720581340834502 0.9906235349273322 0.0011720581340834502 0.0011720581340834502 0.0011720581340834502 0.0011720581340834502 0.000295351172544155 0.000295351172544155 0.000295351172544155 0.000295351172544155 0.24963081103431983 0.24963081103431983 0.49896627089609547 0.000295351172544155 0.000295351172544155 0.000295351172544155 0.000295351172544155 0.000295351172544155 0.000295351172544155 0.24963081103431983 0.49896627089609547 0.24963081103431983 0.000295351172544155 0.000295351172544155 0.00023640661938534286 0.00023640661938534286 0.00023640661938534286 0.1998108747044918 0.1998108747044918 0.5989598108747047 0.00023640661938534286 0.00023640661938534286 0.00023640661938534286 0.00058913632614587 0.00058913632614587 0.00058913632614587 0.00058913632614587 0.49793802285848937 0.49793802285848937 0.00058913632614587 0.00058913632614587 0.00058913632614587 0.00013146132407845614 0.00013146132407845614 0.11111111111111113 0.11111111111111113 0.3330704106851765 0.2220907608981438 0.2220907608981438 0.00013146132407845614 0.00013146132407845614 0.00023640661938534286 0.00023640661938534286 0.00023640661938534286 0.00023640661938534286 0.1998108747044918 0.7985342789598111 0.00023640661938534286 0.00023640661938534286 0.00023640661938534286 0.00023640661938534278 0.00023640661938534278 0.00023640661938534278 0.00023640661938534278 0.19981087470449174 0.5989598108747045 0.19981087470449174 0.00023640661938534278 0.00023640661938534278 0.000295351172544155 0.000295351172544155 0.000295351172544155 0.000295351172544155 0.49896627089609547 0.24963081103431983 0.000295351172544155 0.24963081103431983 0.000295351172544155 0.000295351172544155 0.000295351172544155 0.000295351172544155 0.000295351172544155 0.24963081103431983 0.49896627089609547 0.000295351172544155 0.24963081103431983 0.000295351172544155 0.0003934529430280138 0.0003934529430280138 0.0003934529430280138 0.0003934529430280138 0.3325464274472773 0.3325464274472773 0.3325464274472773 0.0003934529430280138 0.0003934529430280138 0.09092865134693177 0.09092865134693177 0.09092865134693177 0.09092865134693177 0.3633918581633532 0.27257078922454603 0.00010758240812462347 0.00010758240812462347 0.00010758240812462347 0.00029535117254415503 0.00029535117254415503 0.00029535117254415503 0.00029535117254415503 0.2496308110343199 0.7483017307578713 0.00029535117254415503 0.00029535117254415503 0.00029535117254415503 0.00023640661938534286 0.00023640661938534286 0.00023640661938534286 0.1998108747044918 0.1998108747044918 0.39938534278959825 0.00023640661938534286 0.1998108747044918 0.00023640661938534286 0.00039345294302801383 0.00039345294302801383 0.00039345294302801383 0.00039345294302801383 0.00039345294302801383 0.3325464274472773 0.3325464274472773 0.3325464274472773 0.00039345294302801383 0.00023640661938534278 0.19981087470449174 0.00023640661938534278 0.19981087470449174 0.00023640661938534278 0.19981087470449174 0.19981087470449174 0.19981087470449174 0.00023640661938534278 0.0003934529430280138 0.0003934529430280138 0.0003934529430280138 0.0003934529430280138 0.3325464274472773 0.6646994019515265 0.0003934529430280138 0.0003934529430280138 0.0003934529430280138 0.0003934529430280138 0.0003934529430280138 0.3325464274472773 0.0003934529430280138 0.0003934529430280138 0.3325464274472773 0.0003934529430280138 0.3325464274472773 0.0003934529430280138 0.0011720581340834502 0.0011720581340834502 0.0011720581340834502 0.0011720581340834502 0.0011720581340834502 0.0011720581340834502 0.0011720581340834502 0.9906235349273322 0.0011720581340834502 0.00058913632614587 0.00058913632614587 0.00058913632614587 0.00058913632614587 0.49793802285848937 0.49793802285848937 0.00058913632614587 0.00058913632614587 0.00058913632614587 0.00016896458502297916 0.00016896458502297916 0.00016896458502297916 0.142808867261422 0.142808867261422 0.142808867261422 0.28544876993782103 0.28544876993782103 0.00016896458502297916 0.0011720581340834502 0.0011720581340834502 0.0011720581340834502 0.0011720581340834502 0.0011720581340834502 0.9906235349273322 0.0011720581340834502 0.0011720581340834502 0.0011720581340834502 0.000295351172544155 0.000295351172544155 0.000295351172544155 0.24963081103431983 0.000295351172544155 0.49896627089609547 0.24963081103431983 0.000295351172544155 0.000295351172544155 0.0005891363261458702 0.0005891363261458702 0.0005891363261458702 0.0005891363261458702 0.0005891363261458702 0.4979380228584895 0.4979380228584895 0.0005891363261458702 0.0005891363261458702 0.0003934529430280138 0.0003934529430280138 0.0003934529430280138 0.0003934529430280138 0.0003934529430280138 0.6646994019515265 0.3325464274472773 0.0003934529430280138 0.0003934529430280138 0.0011720581340834502 0.0011720581340834502 0.0011720581340834502 0.0011720581340834502 0.0011720581340834502 0.9906235349273322 0.0011720581340834502 0.0011720581340834502 0.0011720581340834502 0.000295351172544155 0.24963081103431983 0.000295351172544155 0.000295351172544155 0.24963081103431983 0.000295351172544155 0.49896627089609547 0.000295351172544155 0.000295351172544155 0.00016896458502297916 0.00016896458502297916 0.00016896458502297916 0.00016896458502297916 0.28544876993782103 0.42808867261422007 0.28544876993782103 0.00016896458502297916 0.00016896458502297916 0.0003934529430280138 0.0003934529430280138 0.0003934529430280138 0.0003934529430280138 0.3325464274472773 0.3325464274472773 0.3325464274472773 0.0003934529430280138 0.0003934529430280138 0.00016896458502297922 0.00016896458502297922 0.00016896458502297922 0.14280886726142206 0.4280886726142202 0.4280886726142202 0.00016896458502297922 0.00016896458502297922 0.00016896458502297922 0.00029535117254415503 0.00029535117254415503 0.00029535117254415503 0.2496308110343199 0.00029535117254415503 0.7483017307578713 0.00029535117254415503 0.00029535117254415503 0.00029535117254415503 0.1111111111111111 0.1111111111111111 0.1111111111111111 0.1111111111111111 0.1111111111111111 0.1111111111111111 0.1111111111111111 0.1111111111111111 0.1111111111111111 0.0003934529430280138 0.3325464274472773 0.0003934529430280138 0.0003934529430280138 0.3325464274472773 0.3325464274472773 0.0003934529430280138 0.0003934529430280138 0.0003934529430280138 0.1111111111111111 0.1111111111111111 0.1111111111111111 0.1111111111111111 0.1111111111111111 0.1111111111111111 0.1111111111111111 0.1111111111111111 0.1111111111111111 0.1111111111111111 0.1111111111111111 0.1111111111111111 0.1111111111111111 0.1111111111111111 0.1111111111111111 0.1111111111111111 0.1111111111111111 0.1111111111111111 0.49793802285848937 0.49793802285848937 0.00058913632614587 0.00058913632614587 0.00058913632614587 0.00058913632614587 0.00058913632614587 0.00058913632614587 0.00058913632614587 0.00117205813408345 0.990623534927332 0.00117205813408345 0.00117205813408345 0.00117205813408345 0.00117205813408345 0.00117205813408345 0.00117205813408345 0.00117205813408345 0.1111111111111111 0.1111111111111111 0.1111111111111111 0.1111111111111111 0.1111111111111111 0.1111111111111111 0.1111111111111111 0.1111111111111111 0.1111111111111111 0.1111111111111111 0.1111111111111111 0.1111111111111111 0.1111111111111111 0.1111111111111111 0.1111111111111111 0.1111111111111111 0.1111111111111111 0.1111111111111111 0.00058913632614587 0.00058913632614587 0.9952869093908329 0.00058913632614587 0.00058913632614587 0.00058913632614587 0.00058913632614587 0.00058913632614587 0.00058913632614587 0.00029535117254415514 0.4989662708960957 0.00029535117254415514 0.24963081103431994 0.24963081103431994 0.00029535117254415514 0.00029535117254415514 0.00029535117254415514 0.00029535117254415514 0.1111111111111111 0.1111111111111111 0.1111111111111111 0.1111111111111111 0.1111111111111111 0.1111111111111111 0.1111111111111111 0.1111111111111111 0.1111111111111111 0.0005891363261458702 0.0005891363261458702 0.0005891363261458702 0.4979380228584895 0.4979380228584895 0.0005891363261458702 0.0005891363261458702 0.0005891363261458702 0.0005891363261458702 0.0011720581340834502 0.0011720581340834502 0.0011720581340834502 0.9906235349273322 0.0011720581340834502 0.0011720581340834502 0.0011720581340834502 0.0011720581340834502 0.0011720581340834502 0.00058913632614587 0.00058913632614587 0.00058913632614587 0.00058913632614587 0.49793802285848937 0.49793802285848937 0.00058913632614587 0.00058913632614587 0.00058913632614587 0.1111111111111111 0.1111111111111111 0.1111111111111111 0.1111111111111111 0.1111111111111111 0.1111111111111111 0.1111111111111111 0.1111111111111111 0.1111111111111111 0.1111111111111111 0.1111111111111111 0.1111111111111111 0.1111111111111111 0.1111111111111111 0.1111111111111111 0.1111111111111111 0.1111111111111111 0.1111111111111111 0.1111111111111111 0.1111111111111111 0.1111111111111111 0.1111111111111111 0.1111111111111111 0.1111111111111111 0.1111111111111111 0.1111111111111111 0.1111111111111111 0.1111111111111111 0.1111111111111111 0.1111111111111111 0.1111111111111111 0.1111111111111111 0.1111111111111111 0.1111111111111111 0.1111111111111111 0.1111111111111111 0.1111111111111111 0.1111111111111111 0.1111111111111111 0.1111111111111111 0.1111111111111111 0.1111111111111111 0.1111111111111111 0.1111111111111111 0.1111111111111111 0.00058913632614587 0.00058913632614587 0.00058913632614587 0.00058913632614587 0.49793802285848937 0.49793802285848937 0.00058913632614587 0.00058913632614587 0.00058913632614587 0.1111111111111111 0.1111111111111111 0.1111111111111111 0.1111111111111111 0.1111111111111111 0.1111111111111111 0.1111111111111111 0.1111111111111111 0.1111111111111111 0.1111111111111111 0.1111111111111111 0.1111111111111111 0.1111111111111111 0.1111111111111111 0.1111111111111111 0.1111111111111111 0.1111111111111111 0.1111111111111111 0.49793802285848937 0.00058913632614587 0.49793802285848937 0.00058913632614587 0.00058913632614587 0.00058913632614587 0.00058913632614587 0.00058913632614587 0.00058913632614587 0.0011720581340834502 0.0011720581340834502 0.0011720581340834502 0.0011720581340834502 0.9906235349273322 0.0011720581340834502 0.0011720581340834502 0.0011720581340834502 0.0011720581340834502 0.1111111111111111 0.1111111111111111 0.1111111111111111 0.1111111111111111 0.1111111111111111 0.1111111111111111 0.1111111111111111 0.1111111111111111 0.1111111111111111 0.1111111111111111 0.1111111111111111 0.1111111111111111 0.1111111111111111 0.1111111111111111 0.1111111111111111 0.1111111111111111 0.1111111111111111 0.1111111111111111 0.0011720581340834502 0.0011720581340834502 0.0011720581340834502 0.9906235349273322 0.0011720581340834502 0.0011720581340834502 0.0011720581340834502 0.0011720581340834502 0.0011720581340834502 0.0011720581340834504 0.0011720581340834504 0.0011720581340834504 0.0011720581340834504 0.0011720581340834504 0.0011720581340834504 0.0011720581340834504 0.0011720581340834504 0.9906235349273325 0.0003934529430280138 0.0003934529430280138 0.0003934529430280138 0.0003934529430280138 0.6646994019515265 0.3325464274472773 0.0003934529430280138 0.0003934529430280138 0.0003934529430280138 0.1111111111111111 0.1111111111111111 0.1111111111111111 0.1111111111111111 0.1111111111111111 0.1111111111111111 0.1111111111111111 0.1111111111111111 0.1111111111111111 0.0011720581340834502 0.0011720581340834502 0.0011720581340834502 0.9906235349273322 0.0011720581340834502 0.0011720581340834502 0.0011720581340834502 0.0011720581340834502 0.0011720581340834502 0.0011720581340834502 0.0011720581340834502 0.0011720581340834502 0.0011720581340834502 0.9906235349273322 0.0011720581340834502 0.0011720581340834502 0.0011720581340834502 0.0011720581340834502 0.00058913632614587 0.49793802285848937 0.00058913632614587 0.00058913632614587 0.00058913632614587 0.49793802285848937 0.00058913632614587 0.00058913632614587 0.00058913632614587 0.1111111111111111 0.1111111111111111 0.1111111111111111 0.1111111111111111 0.1111111111111111 0.1111111111111111 0.1111111111111111 0.1111111111111111 0.1111111111111111 0.1111111111111111 0.1111111111111111 0.1111111111111111 0.1111111111111111 0.1111111111111111 0.1111111111111111 0.1111111111111111 0.1111111111111111 0.1111111111111111 0.0003934529430280138 0.3325464274472773 0.0003934529430280138 0.3325464274472773 0.3325464274472773 0.0003934529430280138 0.0003934529430280138 0.0003934529430280138 0.0003934529430280138 0.1111111111111111 0.1111111111111111 0.1111111111111111 0.1111111111111111 0.1111111111111111 0.1111111111111111 0.1111111111111111 0.1111111111111111 0.1111111111111111 0.0011720581340834502 0.0011720581340834502 0.0011720581340834502 0.9906235349273322 0.0011720581340834502 0.0011720581340834502 0.0011720581340834502 0.0011720581340834502 0.0011720581340834502 0.00058913632614587 0.49793802285848937 0.00058913632614587 0.00058913632614587 0.00058913632614587 0.49793802285848937 0.00058913632614587 0.00058913632614587 0.00058913632614587 0.0011720581340834502 0.0011720581340834502 0.0011720581340834502 0.9906235349273322 0.0011720581340834502 0.0011720581340834502 0.0011720581340834502 0.0011720581340834502 0.0011720581340834502 0.0011720581340834502 0.0011720581340834502 0.0011720581340834502 0.0011720581340834502 0.9906235349273322 0.0011720581340834502 0.0011720581340834502 0.0011720581340834502 0.0011720581340834502 0.0011720581340834502 0.0011720581340834502 0.0011720581340834502 0.9906235349273322 0.0011720581340834502 0.0011720581340834502 0.0011720581340834502 0.0011720581340834502 0.0011720581340834502 0.1111111111111111 0.1111111111111111 0.1111111111111111 0.1111111111111111 0.1111111111111111 0.1111111111111111 0.1111111111111111 0.1111111111111111 0.1111111111111111 0.1111111111111111 0.1111111111111111 0.1111111111111111 0.1111111111111111 0.1111111111111111 0.1111111111111111 0.1111111111111111 0.1111111111111111 0.1111111111111111 0.1111111111111111 0.1111111111111111 0.1111111111111111 0.1111111111111111 0.1111111111111111 0.1111111111111111 0.1111111111111111 0.1111111111111111 0.1111111111111111 0.1111111111111111 0.1111111111111111 0.1111111111111111 0.1111111111111111 0.1111111111111111 0.1111111111111111 0.1111111111111111 0.1111111111111111 0.1111111111111111 0.990623534927332 0.00117205813408345 0.00117205813408345 0.00117205813408345 0.00117205813408345 0.00117205813408345 0.00117205813408345 0.00117205813408345 0.00117205813408345 0.0011720581340834502 0.0011720581340834502 0.0011720581340834502 0.0011720581340834502 0.0011720581340834502 0.9906235349273322 0.0011720581340834502 0.0011720581340834502 0.0011720581340834502 0.0005891363261458702 0.0005891363261458702 0.0005891363261458702 0.4979380228584895 0.4979380228584895 0.0005891363261458702 0.0005891363261458702 0.0005891363261458702 0.0005891363261458702 0.1111111111111111 0.1111111111111111 0.1111111111111111 0.1111111111111111 0.1111111111111111 0.1111111111111111 0.1111111111111111 0.1111111111111111 0.1111111111111111 0.00117205813408345 0.00117205813408345 0.990623534927332 0.00117205813408345 0.00117205813408345 0.00117205813408345 0.00117205813408345 0.00117205813408345 0.00117205813408345 0.1111111111111111 0.1111111111111111 0.1111111111111111 0.1111111111111111 0.1111111111111111 0.1111111111111111 0.1111111111111111 0.1111111111111111 0.1111111111111111 0.0011720581340834502 0.0011720581340834502 0.0011720581340834502 0.9906235349273322 0.0011720581340834502 0.0011720581340834502 0.0011720581340834502 0.0011720581340834502 0.0011720581340834502 0.0003934529430280138 0.0003934529430280138 0.0003934529430280138 0.0003934529430280138 0.9968523764557757 0.0003934529430280138 0.0003934529430280138 0.0003934529430280138 0.0003934529430280138 0.00117205813408345 0.00117205813408345 0.990623534927332 0.00117205813408345 0.00117205813408345 0.00117205813408345 0.00117205813408345 0.00117205813408345 0.00117205813408345 0.1111111111111111 0.1111111111111111 0.1111111111111111 0.1111111111111111 0.1111111111111111 0.1111111111111111 0.1111111111111111 0.1111111111111111 0.1111111111111111 0.1111111111111111 0.1111111111111111 0.1111111111111111 0.1111111111111111 0.1111111111111111 0.1111111111111111 0.1111111111111111 0.1111111111111111 0.1111111111111111 0.1111111111111111 0.1111111111111111 0.1111111111111111 0.1111111111111111 0.1111111111111111 0.1111111111111111 0.1111111111111111 0.1111111111111111 0.1111111111111111 0.0011720581340834502 0.0011720581340834502 0.0011720581340834502 0.0011720581340834502 0.9906235349273322 0.0011720581340834502 0.0011720581340834502 0.0011720581340834502 0.0011720581340834502 0.0011720581340834502 0.0011720581340834502 0.0011720581340834502 0.0011720581340834502 0.9906235349273322 0.0011720581340834502 0.0011720581340834502 0.0011720581340834502 0.0011720581340834502 0.1111111111111111 0.1111111111111111 0.1111111111111111 0.1111111111111111 0.1111111111111111 0.1111111111111111 0.1111111111111111 0.1111111111111111 0.1111111111111111 0.00058913632614587 0.00058913632614587 0.00058913632614587 0.00058913632614587 0.9952869093908329 0.00058913632614587 0.00058913632614587 0.00058913632614587 0.00058913632614587 0.0011720581340834502 0.0011720581340834502 0.0011720581340834502 0.0011720581340834502 0.0011720581340834502 0.9906235349273322 0.0011720581340834502 0.0011720581340834502 0.0011720581340834502 0.0011720581340834502 0.0011720581340834502 0.0011720581340834502 0.0011720581340834502 0.9906235349273322 0.0011720581340834502 0.0011720581340834502 0.0011720581340834502 0.0011720581340834502 0.00058913632614587 0.00058913632614587 0.00058913632614587 0.49793802285848937 0.00058913632614587 0.49793802285848937 0.00058913632614587 0.00058913632614587 0.00058913632614587 0.1111111111111111 0.1111111111111111 0.1111111111111111 0.1111111111111111 0.1111111111111111 0.1111111111111111 0.1111111111111111 0.1111111111111111 0.1111111111111111 0.1111111111111111 0.1111111111111111 0.1111111111111111 0.1111111111111111 0.1111111111111111 0.1111111111111111 0.1111111111111111 0.1111111111111111 0.1111111111111111 0.00117205813408345 0.00117205813408345 0.990623534927332 0.00117205813408345 0.00117205813408345 0.00117205813408345 0.00117205813408345 0.00117205813408345 0.00117205813408345 0.1111111111111111 0.1111111111111111 0.1111111111111111 0.1111111111111111 0.1111111111111111 0.1111111111111111 0.1111111111111111 0.1111111111111111 0.1111111111111111 0.1111111111111111 0.1111111111111111 0.1111111111111111 0.1111111111111111 0.1111111111111111 0.1111111111111111 0.1111111111111111 0.1111111111111111 0.1111111111111111 0.0011720581340834502 0.0011720581340834502 0.0011720581340834502 0.0011720581340834502 0.9906235349273322 0.0011720581340834502 0.0011720581340834502 0.0011720581340834502 0.0011720581340834502 0.0011720581340834502 0.0011720581340834502 0.0011720581340834502 0.9906235349273322 0.0011720581340834502 0.0011720581340834502 0.0011720581340834502 0.0011720581340834502 0.0011720581340834502 0.49793802285848937 0.00058913632614587 0.49793802285848937 0.00058913632614587 0.00058913632614587 0.00058913632614587 0.00058913632614587 0.00058913632614587 0.00058913632614587 0.1111111111111111 0.1111111111111111 0.1111111111111111 0.1111111111111111 0.1111111111111111 0.1111111111111111 0.1111111111111111 0.1111111111111111 0.1111111111111111 0.00058913632614587 0.49793802285848937 0.00058913632614587 0.49793802285848937 0.00058913632614587 0.00058913632614587 0.00058913632614587 0.00058913632614587 0.00058913632614587 0.1111111111111111 0.1111111111111111 0.1111111111111111 0.1111111111111111 0.1111111111111111 0.1111111111111111 0.1111111111111111 0.1111111111111111 0.1111111111111111 0.1111111111111111 0.1111111111111111 0.1111111111111111 0.1111111111111111 0.1111111111111111 0.1111111111111111 0.1111111111111111 0.1111111111111111 0.1111111111111111 0.1111111111111111 0.1111111111111111 0.1111111111111111 0.1111111111111111 0.1111111111111111 0.1111111111111111 0.1111111111111111 0.1111111111111111 0.1111111111111111 0.9952869093908329 0.00058913632614587 0.00058913632614587 0.00058913632614587 0.00058913632614587 0.00058913632614587 0.00058913632614587 0.00058913632614587 0.00058913632614587 0.1111111111111111 0.1111111111111111 0.1111111111111111 0.1111111111111111 0.1111111111111111 0.1111111111111111 0.1111111111111111 0.1111111111111111 0.1111111111111111 0.0011720581340834502 0.0011720581340834502 0.0011720581340834502 0.0011720581340834502 0.9906235349273322 0.0011720581340834502 0.0011720581340834502 0.0011720581340834502 0.0011720581340834502 0.00058913632614587 0.00058913632614587 0.49793802285848937 0.00058913632614587 0.00058913632614587 0.49793802285848937 0.00058913632614587 0.00058913632614587 0.00058913632614587 0.00029535117254415514 0.00029535117254415514 0.24963081103431994 0.24963081103431994 0.4989662708960957 0.00029535117254415514 0.00029535117254415514 0.00029535117254415514 0.00029535117254415514 0.1111111111111111 0.1111111111111111 0.1111111111111111 0.1111111111111111 0.1111111111111111 0.1111111111111111 0.1111111111111111 0.1111111111111111 0.1111111111111111 0.0011720581340834502 0.0011720581340834502 0.0011720581340834502 0.0011720581340834502 0.9906235349273322 0.0011720581340834502 0.0011720581340834502 0.0011720581340834502 0.0011720581340834502 0.00117205813408345 0.00117205813408345 0.990623534927332 0.00117205813408345 0.00117205813408345 0.00117205813408345 0.00117205813408345 0.00117205813408345 0.00117205813408345 0.1111111111111111 0.1111111111111111 0.1111111111111111 0.1111111111111111 0.1111111111111111 0.1111111111111111 0.1111111111111111 0.1111111111111111 0.1111111111111111 0.1111111111111111 0.1111111111111111 0.1111111111111111 0.1111111111111111 0.1111111111111111 0.1111111111111111 0.1111111111111111 0.1111111111111111 0.1111111111111111 0.1111111111111111 0.1111111111111111 0.1111111111111111 0.1111111111111111 0.1111111111111111 0.1111111111111111 0.1111111111111111 0.1111111111111111 0.1111111111111111 0.00029535117254415514 0.4989662708960957 0.24963081103431994 0.00029535117254415514 0.24963081103431994 0.00029535117254415514 0.00029535117254415514 0.00029535117254415514 0.00029535117254415514 0.0005891363261458702 0.0005891363261458702 0.0005891363261458702 0.0005891363261458702 0.4979380228584895 0.0005891363261458702 0.4979380228584895 0.0005891363261458702 0.0005891363261458702 0.1111111111111111 0.1111111111111111 0.1111111111111111 0.1111111111111111 0.1111111111111111 0.1111111111111111 0.1111111111111111 0.1111111111111111 0.1111111111111111 0.0011720581340834502 0.0011720581340834502 0.0011720581340834502 0.9906235349273322 0.0011720581340834502 0.0011720581340834502 0.0011720581340834502 0.0011720581340834502 0.0011720581340834502 0.00058913632614587 0.00058913632614587 0.00058913632614587 0.00058913632614587 0.9952869093908329 0.00058913632614587 0.00058913632614587 0.00058913632614587 0.00058913632614587 0.1111111111111111 0.1111111111111111 0.1111111111111111 0.1111111111111111 0.1111111111111111 0.1111111111111111 0.1111111111111111 0.1111111111111111 0.1111111111111111 0.1111111111111111 0.1111111111111111 0.1111111111111111 0.1111111111111111 0.1111111111111111 0.1111111111111111 0.1111111111111111 0.1111111111111111 0.1111111111111111 0.1111111111111111 0.1111111111111111 0.1111111111111111 0.1111111111111111 0.1111111111111111 0.1111111111111111 0.1111111111111111 0.1111111111111111 0.1111111111111111 0.0011720581340834502 0.0011720581340834502 0.0011720581340834502 0.0011720581340834502 0.9906235349273322 0.0011720581340834502 0.0011720581340834502 0.0011720581340834502 0.0011720581340834502 0.0011720581340834502 0.0011720581340834502 0.0011720581340834502 0.0011720581340834502 0.9906235349273322 0.0011720581340834502 0.0011720581340834502 0.0011720581340834502 0.0011720581340834502 0.00058913632614587 0.00058913632614587 0.9952869093908329 0.00058913632614587 0.00058913632614587 0.00058913632614587 0.00058913632614587 0.00058913632614587 0.00058913632614587 0.1111111111111111 0.1111111111111111 0.1111111111111111 0.1111111111111111 0.1111111111111111 0.1111111111111111 0.1111111111111111 0.1111111111111111 0.1111111111111111 0.00117205813408345 0.990623534927332 0.00117205813408345 0.00117205813408345 0.00117205813408345 0.00117205813408345 0.00117205813408345 0.00117205813408345 0.00117205813408345 0.0003934529430280138 0.0003934529430280138 0.3325464274472773 0.3325464274472773 0.3325464274472773 0.0003934529430280138 0.0003934529430280138 0.0003934529430280138 0.0003934529430280138 0.0011720581340834502 0.0011720581340834502 0.0011720581340834502 0.0011720581340834502 0.0011720581340834502 0.9906235349273322 0.0011720581340834502 0.0011720581340834502 0.0011720581340834502 0.1111111111111111 0.1111111111111111 0.1111111111111111 0.1111111111111111 0.1111111111111111 0.1111111111111111 0.1111111111111111 0.1111111111111111 0.1111111111111111 0.1111111111111111 0.1111111111111111 0.1111111111111111 0.1111111111111111 0.1111111111111111 0.1111111111111111 0.1111111111111111 0.1111111111111111 0.1111111111111111 0.1111111111111111 0.1111111111111111 0.1111111111111111 0.1111111111111111 0.1111111111111111 0.1111111111111111 0.1111111111111111 0.1111111111111111 0.1111111111111111 0.0011720581340834502 0.0011720581340834502 0.0011720581340834502 0.9906235349273322 0.0011720581340834502 0.0011720581340834502 0.0011720581340834502 0.0011720581340834502 0.0011720581340834502 0.0005891363261458702 0.0005891363261458702 0.0005891363261458702 0.4979380228584895 0.4979380228584895 0.0005891363261458702 0.0005891363261458702 0.0005891363261458702 0.0005891363261458702 0.00117205813408345 0.990623534927332 0.00117205813408345 0.00117205813408345 0.00117205813408345 0.00117205813408345 0.00117205813408345 0.00117205813408345 0.00117205813408345 0.0011720581340834502 0.0011720581340834502 0.0011720581340834502 0.0011720581340834502 0.9906235349273322 0.0011720581340834502 0.0011720581340834502 0.0011720581340834502 0.0011720581340834502 0.1111111111111111 0.1111111111111111 0.1111111111111111 0.1111111111111111 0.1111111111111111 0.1111111111111111 0.1111111111111111 0.1111111111111111 0.1111111111111111 0.1111111111111111 0.1111111111111111 0.1111111111111111 0.1111111111111111 0.1111111111111111 0.1111111111111111 0.1111111111111111 0.1111111111111111 0.1111111111111111 0.1111111111111111 0.1111111111111111 0.1111111111111111 0.1111111111111111 0.1111111111111111 0.1111111111111111 0.1111111111111111 0.1111111111111111 0.1111111111111111 0.00117205813408345 0.00117205813408345 0.990623534927332 0.00117205813408345 0.00117205813408345 0.00117205813408345 0.00117205813408345 0.00117205813408345 0.00117205813408345 0.1111111111111111 0.1111111111111111 0.1111111111111111 0.1111111111111111 0.1111111111111111 0.1111111111111111 0.1111111111111111 0.1111111111111111 0.1111111111111111 0.1111111111111111 0.1111111111111111 0.1111111111111111 0.1111111111111111 