<?xml version='1.0' encoding='utf-8'?>
<BIF VERSION="0.3">
  <NETWORK>
    <NAME>UNTITLED</NAME>
    <VARIABLE TYPE="nature">
      <NAME>AMCINInScen</NAME>
      <OUTCOME>0</OUTCOME>
      <OUTCOME>1</OUTCOME>
      <OUTCOME>2</OUTCOME>
      <PROPERTY>weight = None</PROPERTY>
    </VARIABLE>
    <VARIABLE TYPE="nature">
      <NAME>AMDewptCalPl</NAME>
      <OUTCOME>0</OUTCOME>
      <OUTCOME>1</OUTCOME>
      <OUTCOME>2</OUTCOME>
      <PROPERTY>weight = None</PROPERTY>
    </VARIABLE>
    <VARIABLE TYPE="nature">
      <NAME>AMInsWliScen</NAME>
      <OUTCOME>0</OUTCOME>
      <OUTCOME>1</OUTCOME>
      <OUTCOME>2</OUTCOME>
      <PROPERTY>weight = None</PROPERTY>
    </VARIABLE>
    <VARIABLE TYPE="nature">
      <NAME>AMInstabMt</NAME>
      <OUTCOME>0</OUTCOME>
      <OUTCOME>1</OUTCOME>
      <OUTCOME>2</OUTCOME>
      <PROPERTY>weight = None</PROPERTY>
    </VARIABLE>
    <VARIABLE TYPE="nature">
      <NAME>AreaMeso_ALS</NAME>
      <OUTCOME>0</OUTCOME>
      <OUTCOME>1</OUTCOME>
      <OUTCOME>2</OUTCOME>
      <OUTCOME>3</OUTCOME>
      <PROPERTY>weight = None</PROPERTY>
    </VARIABLE>
    <VARIABLE TYPE="nature">
      <NAME>AreaMoDryAir</NAME>
      <OUTCOME>0</OUTCOME>
      <OUTCOME>1</OUTCOME>
      <OUTCOME>2</OUTCOME>
      <OUTCOME>3</OUTCOME>
      <PROPERTY>weight = None</PROPERTY>
    </VARIABLE>
    <VARIABLE TYPE="nature">
      <NAME>Boundaries</NAME>
      <OUTCOME>0</OUTCOME>
      <OUTCOME>1</OUTCOME>
      <OUTCOME>2</OUTCOME>
      <PROPERTY>weight = None</PROPERTY>
    </VARIABLE>
    <VARIABLE TYPE="nature">
      <NAME>CapChange</NAME>
      <OUTCOME>0</OUTCOME>
      <OUTCOME>1</OUTCOME>
      <OUTCOME>2</OUTCOME>
      <PROPERTY>weight = None</PROPERTY>
    </VARIABLE>
    <VARIABLE TYPE="nature">
      <NAME>CapInScen</NAME>
      <OUTCOME>0</OUTCOME>
      <OUTCOME>1</OUTCOME>
      <OUTCOME>2</OUTCOME>
      <PROPERTY>weight = None</PROPERTY>
    </VARIABLE>
    <VARIABLE TYPE="nature">
      <NAME>CldShadeConv</NAME>
      <OUTCOME>0</OUTCOME>
      <OUTCOME>1</OUTCOME>
      <OUTCOME>2</OUTCOME>
      <PROPERTY>weight = None</PROPERTY>
    </VARIABLE>
    <VARIABLE TYPE="nature">
      <NAME>CldShadeOth</NAME>
      <OUTCOME>0</OUTCOME>
      <OUTCOME>1</OUTCOME>
      <OUTCOME>2</OUTCOME>
      <PROPERTY>weight = None</PROPERTY>
    </VARIABLE>
    <VARIABLE TYPE="nature">
      <NAME>CombClouds</NAME>
      <OUTCOME>0</OUTCOME>
      <OUTCOME>1</OUTCOME>
      <OUTCOME>2</OUTCOME>
      <PROPERTY>weight = None</PROPERTY>
    </VARIABLE>
    <VARIABLE TYPE="nature">
      <NAME>CombMoisture</NAME>
      <OUTCOME>0</OUTCOME>
      <OUTCOME>1</OUTCOME>
      <OUTCOME>2</OUTCOME>
      <OUTCOME>3</OUTCOME>
      <PROPERTY>weight = None</PROPERTY>
    </VARIABLE>
    <VARIABLE TYPE="nature">
      <NAME>CombVerMo</NAME>
      <OUTCOME>0</OUTCOME>
      <OUTCOME>1</OUTCOME>
      <OUTCOME>2</OUTCOME>
      <OUTCOME>3</OUTCOME>
      <PROPERTY>weight = None</PROPERTY>
    </VARIABLE>
    <VARIABLE TYPE="nature">
      <NAME>CompPlFcst</NAME>
      <OUTCOME>0</OUTCOME>
      <OUTCOME>1</OUTCOME>
      <OUTCOME>2</OUTCOME>
      <PROPERTY>weight = None</PROPERTY>
    </VARIABLE>
    <VARIABLE TYPE="nature">
      <NAME>CurPropConv</NAME>
      <OUTCOME>0</OUTCOME>
      <OUTCOME>1</OUTCOME>
      <OUTCOME>2</OUTCOME>
      <OUTCOME>3</OUTCOME>
      <PROPERTY>weight = None</PROPERTY>
    </VARIABLE>
    <VARIABLE TYPE="nature">
      <NAME>Date</NAME>
      <OUTCOME>0</OUTCOME>
      <OUTCOME>1</OUTCOME>
      <OUTCOME>2</OUTCOME>
      <OUTCOME>3</OUTCOME>
      <OUTCOME>4</OUTCOME>
      <OUTCOME>5</OUTCOME>
      <PROPERTY>weight = None</PROPERTY>
    </VARIABLE>
    <VARIABLE TYPE="nature">
      <NAME>Dewpoints</NAME>
      <OUTCOME>0</OUTCOME>
      <OUTCOME>1</OUTCOME>
      <OUTCOME>2</OUTCOME>
      <OUTCOME>3</OUTCOME>
      <OUTCOME>4</OUTCOME>
      <OUTCOME>5</OUTCOME>
      <OUTCOME>6</OUTCOME>
      <PROPERTY>weight = None</PROPERTY>
    </VARIABLE>
    <VARIABLE TYPE="nature">
      <NAME>IRCloudCover</NAME>
      <OUTCOME>0</OUTCOME>
      <OUTCOME>1</OUTCOME>
      <OUTCOME>2</OUTCOME>
      <PROPERTY>weight = None</PROPERTY>
    </VARIABLE>
    <VARIABLE TYPE="nature">
      <NAME>InsChange</NAME>
      <OUTCOME>0</OUTCOME>
      <OUTCOME>1</OUTCOME>
      <OUTCOME>2</OUTCOME>
      <PROPERTY>weight = None</PROPERTY>
    </VARIABLE>
    <VARIABLE TYPE="nature">
      <NAME>InsInMt</NAME>
      <OUTCOME>0</OUTCOME>
      <OUTCOME>1</OUTCOME>
      <OUTCOME>2</OUTCOME>
      <PROPERTY>weight = None</PROPERTY>
    </VARIABLE>
    <VARIABLE TYPE="nature">
      <NAME>InsSclInScen</NAME>
      <OUTCOME>0</OUTCOME>
      <OUTCOME>1</OUTCOME>
      <OUTCOME>2</OUTCOME>
      <PROPERTY>weight = None</PROPERTY>
    </VARIABLE>
    <VARIABLE TYPE="nature">
      <NAME>LIfr12ZDENSd</NAME>
      <OUTCOME>0</OUTCOME>
      <OUTCOME>1</OUTCOME>
      <OUTCOME>2</OUTCOME>
      <OUTCOME>3</OUTCOME>
      <PROPERTY>weight = None</PROPERTY>
    </VARIABLE>
    <VARIABLE TYPE="nature">
      <NAME>LLIW</NAME>
      <OUTCOME>0</OUTCOME>
      <OUTCOME>1</OUTCOME>
      <OUTCOME>2</OUTCOME>
      <OUTCOME>3</OUTCOME>
      <PROPERTY>weight = None</PROPERTY>
    </VARIABLE>
    <VARIABLE TYPE="nature">
      <NAME>LatestCIN</NAME>
      <OUTCOME>0</OUTCOME>
      <OUTCOME>1</OUTCOME>
      <OUTCOME>2</OUTCOME>
      <OUTCOME>3</OUTCOME>
      <PROPERTY>weight = None</PROPERTY>
    </VARIABLE>
    <VARIABLE TYPE="nature">
      <NAME>LoLevMoistAd</NAME>
      <OUTCOME>0</OUTCOME>
      <OUTCOME>1</OUTCOME>
      <OUTCOME>2</OUTCOME>
      <OUTCOME>3</OUTCOME>
      <PROPERTY>weight = None</PROPERTY>
    </VARIABLE>
    <VARIABLE TYPE="nature">
      <NAME>LowLLapse</NAME>
      <OUTCOME>0</OUTCOME>
      <OUTCOME>1</OUTCOME>
      <OUTCOME>2</OUTCOME>
      <OUTCOME>3</OUTCOME>
      <PROPERTY>weight = None</PROPERTY>
    </VARIABLE>
    <VARIABLE TYPE="nature">
      <NAME>MeanRH</NAME>
      <OUTCOME>0</OUTCOME>
      <OUTCOME>1</OUTCOME>
      <OUTCOME>2</OUTCOME>
      <PROPERTY>weight = None</PROPERTY>
    </VARIABLE>
    <VARIABLE TYPE="nature">
      <NAME>MidLLapse</NAME>
      <OUTCOME>0</OUTCOME>
      <OUTCOME>1</OUTCOME>
      <OUTCOME>2</OUTCOME>
      <PROPERTY>weight = None</PROPERTY>
    </VARIABLE>
    <VARIABLE TYPE="nature">
      <NAME>MorningBound</NAME>
      <OUTCOME>0</OUTCOME>
      <OUTCOME>1</OUTCOME>
      <OUTCOME>2</OUTCOME>
      <PROPERTY>weight = None</PROPERTY>
    </VARIABLE>
    <VARIABLE TYPE="nature">
      <NAME>MorningCIN</NAME>
      <OUTCOME>0</OUTCOME>
      <OUTCOME>1</OUTCOME>
      <OUTCOME>2</OUTCOME>
      <OUTCOME>3</OUTCOME>
      <PROPERTY>weight = None</PROPERTY>
    </VARIABLE>
    <VARIABLE TYPE="nature">
      <NAME>MountainFcst</NAME>
      <OUTCOME>0</OUTCOME>
      <OUTCOME>1</OUTCOME>
      <OUTCOME>2</OUTCOME>
      <PROPERTY>weight = None</PROPERTY>
    </VARIABLE>
    <VARIABLE TYPE="nature">
      <NAME>MvmtFeatures</NAME>
      <OUTCOME>0</OUTCOME>
      <OUTCOME>1</OUTCOME>
      <OUTCOME>2</OUTCOME>
      <OUTCOME>3</OUTCOME>
      <PROPERTY>weight = None</PROPERTY>
    </VARIABLE>
    <VARIABLE TYPE="nature">
      <NAME>N0_7muVerMo</NAME>
      <OUTCOME>0</OUTCOME>
      <OUTCOME>1</OUTCOME>
      <OUTCOME>2</OUTCOME>
      <OUTCOME>3</OUTCOME>
      <PROPERTY>weight = None</PROPERTY>
    </VARIABLE>
    <VARIABLE TYPE="nature">
      <NAME>N34StarFcst</NAME>
      <OUTCOME>0</OUTCOME>
      <OUTCOME>1</OUTCOME>
      <OUTCOME>2</OUTCOME>
      <PROPERTY>weight = None</PROPERTY>
    </VARIABLE>
    <VARIABLE TYPE="nature">
      <NAME>OutflowFrMt</NAME>
      <OUTCOME>0</OUTCOME>
      <OUTCOME>1</OUTCOME>
      <OUTCOME>2</OUTCOME>
      <PROPERTY>weight = None</PROPERTY>
    </VARIABLE>
    <VARIABLE TYPE="nature">
      <NAME>PlainsFcst</NAME>
      <OUTCOME>0</OUTCOME>
      <OUTCOME>1</OUTCOME>
      <OUTCOME>2</OUTCOME>
      <PROPERTY>weight = None</PROPERTY>
    </VARIABLE>
    <VARIABLE TYPE="nature">
      <NAME>QGVertMotion</NAME>
      <OUTCOME>0</OUTCOME>
      <OUTCOME>1</OUTCOME>
      <OUTCOME>2</OUTCOME>
      <OUTCOME>3</OUTCOME>
      <PROPERTY>weight = None</PROPERTY>
    </VARIABLE>
    <VARIABLE TYPE="nature">
      <NAME>R5Fcst</NAME>
      <OUTCOME>0</OUTCOME>
      <OUTCOME>1</OUTCOME>
      <OUTCOME>2</OUTCOME>
      <PROPERTY>weight = None</PROPERTY>
    </VARIABLE>
    <VARIABLE TYPE="nature">
      <NAME>RHRatio</NAME>
      <OUTCOME>0</OUTCOME>
      <OUTCOME>1</OUTCOME>
      <OUTCOME>2</OUTCOME>
      <PROPERTY>weight = None</PROPERTY>
    </VARIABLE>
    <VARIABLE TYPE="nature">
      <NAME>RaoContMoist</NAME>
      <OUTCOME>0</OUTCOME>
      <OUTCOME>1</OUTCOME>
      <OUTCOME>2</OUTCOME>
      <OUTCOME>3</OUTCOME>
      <PROPERTY>weight = None</PROPERTY>
    </VARIABLE>
    <VARIABLE TYPE="nature">
      <NAME>SatContMoist</NAME>
      <OUTCOME>0</OUTCOME>
      <OUTCOME>1</OUTCOME>
      <OUTCOME>2</OUTCOME>
      <OUTCOME>3</OUTCOME>
      <PROPERTY>weight = None</PROPERTY>
    </VARIABLE>
    <VARIABLE TYPE="nature">
      <NAME>ScenRel3_4</NAME>
      <OUTCOME>0</OUTCOME>
      <OUTCOME>1</OUTCOME>
      <OUTCOME>2</OUTCOME>
      <OUTCOME>3</OUTCOME>
      <OUTCOME>4</OUTCOME>
      <PROPERTY>weight = None</PROPERTY>
    </VARIABLE>
    <VARIABLE TYPE="nature">
      <NAME>ScenRelAMCIN</NAME>
      <OUTCOME>0</OUTCOME>
      <OUTCOME>1</OUTCOME>
      <PROPERTY>weight = None</PROPERTY>
    </VARIABLE>
    <VARIABLE TYPE="nature">
      <NAME>ScenRelAMIns</NAME>
      <OUTCOME>0</OUTCOME>
      <OUTCOME>1</OUTCOME>
      <OUTCOME>2</OUTCOME>
      <OUTCOME>3</OUTCOME>
      <OUTCOME>4</OUTCOME>
      <OUTCOME>5</OUTCOME>
      <PROPERTY>weight = None</PROPERTY>
    </VARIABLE>
    <VARIABLE TYPE="nature">
      <NAME>Scenario</NAME>
      <OUTCOME>0</OUTCOME>
      <OUTCOME>1</OUTCOME>
      <OUTCOME>2</OUTCOME>
      <OUTCOME>3</OUTCOME>
      <OUTCOME>4</OUTCOME>
      <OUTCOME>5</OUTCOME>
      <OUTCOME>6</OUTCOME>
      <OUTCOME>7</OUTCOME>
      <OUTCOME>8</OUTCOME>
      <OUTCOME>9</OUTCOME>
      <OUTCOME>10</OUTCOME>
      <PROPERTY>weight = None</PROPERTY>
    </VARIABLE>
    <VARIABLE TYPE="nature">
      <NAME>ScnRelPlFcst</NAME>
      <OUTCOME>0</OUTCOME>
      <OUTCOME>1</OUTCOME>
      <OUTCOME>2</OUTCOME>
      <OUTCOME>3</OUTCOME>
      <OUTCOME>4</OUTCOME>
      <OUTCOME>5</OUTCOME>
      <OUTCOME>6</OUTCOME>
      <OUTCOME>7</OUTCOME>
      <OUTCOME>8</OUTCOME>
      <OUTCOME>9</OUTCOME>
      <OUTCOME>10</OUTCOME>
      <PROPERTY>weight = None</PROPERTY>
    </VARIABLE>
    <VARIABLE TYPE="nature">
      <NAME>SfcWndShfDis</NAME>
      <OUTCOME>0</OUTCOME>
      <OUTCOME>1</OUTCOME>
      <OUTCOME>2</OUTCOME>
      <OUTCOME>3</OUTCOME>
      <OUTCOME>4</OUTCOME>
      <OUTCOME>5</OUTCOME>
      <OUTCOME>6</OUTCOME>
      <PROPERTY>weight = None</PROPERTY>
    </VARIABLE>
    <VARIABLE TYPE="nature">
      <NAME>SubjVertMo</NAME>
      <OUTCOME>0</OUTCOME>
      <OUTCOME>1</OUTCOME>
      <OUTCOME>2</OUTCOME>
      <OUTCOME>3</OUTCOME>
      <PROPERTY>weight = None</PROPERTY>
    </VARIABLE>
    <VARIABLE TYPE="nature">
      <NAME>SynForcng</NAME>
      <OUTCOME>0</OUTCOME>
      <OUTCOME>1</OUTCOME>
      <OUTCOME>2</OUTCOME>
      <OUTCOME>3</OUTCOME>
      <OUTCOME>4</OUTCOME>
      <PROPERTY>weight = None</PROPERTY>
    </VARIABLE>
    <VARIABLE TYPE="nature">
      <NAME>TempDis</NAME>
      <OUTCOME>0</OUTCOME>
      <OUTCOME>1</OUTCOME>
      <OUTCOME>2</OUTCOME>
      <OUTCOME>3</OUTCOME>
      <PROPERTY>weight = None</PROPERTY>
    </VARIABLE>
    <VARIABLE TYPE="nature">
      <NAME>VISCloudCov</NAME>
      <OUTCOME>0</OUTCOME>
      <OUTCOME>1</OUTCOME>
      <OUTCOME>2</OUTCOME>
      <PROPERTY>weight = None</PROPERTY>
    </VARIABLE>
    <VARIABLE TYPE="nature">
      <NAME>WindAloft</NAME>
      <OUTCOME>0</OUTCOME>
      <OUTCOME>1</OUTCOME>
      <OUTCOME>2</OUTCOME>
      <OUTCOME>3</OUTCOME>
      <PROPERTY>weight = None</PROPERTY>
    </VARIABLE>
    <VARIABLE TYPE="nature">
      <NAME>WindFieldMt</NAME>
      <OUTCOME>0</OUTCOME>
      <OUTCOME>1</OUTCOME>
      <PROPERTY>weight = None</PROPERTY>
    </VARIABLE>
    <VARIABLE TYPE="nature">
      <NAME>WindFieldPln</NAME>
      <OUTCOME>0</OUTCOME>
      <OUTCOME>1</OUTCOME>
      <OUTCOME>2</OUTCOME>
      <OUTCOME>3</OUTCOME>
      <OUTCOME>4</OUTCOME>
      <OUTCOME>5</OUTCOME>
      <PROPERTY>weight = None</PROPERTY>
    </VARIABLE>
    <VARIABLE TYPE="nature">
      <NAME>WndHodograph</NAME>
      <OUTCOME>0</OUTCOME>
      <OUTCOME>1</OUTCOME>
      <OUTCOME>2</OUTCOME>
      <OUTCOME>3</OUTCOME>
      <PROPERTY>weight = None</PROPERTY>
    </VARIABLE>
    <DEFINITION>
      <FOR>AMCINInScen</FOR>
      <GIVEN>CapChange</GIVEN>
      <GIVEN>CapInScen</GIVEN>
      <TABLE>0.5608614232209738 0.004681647940074906 0.4344569288389513 0.36735601512119187 0.5174560818323326 0.11518790304647543 0.011185682326621923 0.011185682326621923 0.9776286353467561 0.40815518606492474 0.5898653998416469 0.001979414093428345 0.0033944331296673455 0.9932111337406654 0.0033944331296673455 0.4905226103438939 0.11765502301651773 0.39182236663958847 0.9784717293588833 0.007570380884788265 0.013957889756328364 0.03306994439566871 0.9654667837284167 0.0014632718759145446 0.06685768863419293 0.0023877745940783187 0.9307545367717288 </TABLE>
    </DEFINITION>
    <DEFINITION>
      <FOR>AMDewptCalPl</FOR>
      <GIVEN>AMInsWliScen</GIVEN>
      <GIVEN>LIfr12ZDENSd</GIVEN>
      <TABLE>0.5157041540020263 0.22391084093211752 0.26038500506585616 0.007541478129713424 0.2790346907993967 0.7134238310708899 0.2699809356210588 0.3333333333333333 0.39668573104560784 0.13134956417192667 0.25037571385632706 0.6182747219717464 0.23872098116513357 0.28602715724923344 0.47525186158563293 0.02564102564102564 0.21025641025641023 0.7641025641025642 0.15176029962546816 0.1841198501872659 0.6641198501872659 0.054880294659300194 0.22725598526703503 0.7178637200736648 0.5320910973084886 0.4575569358178054 0.010351966873706004 0.3957358294331773 0.18980759230369215 0.4144565782631305 0.5239202014332752 0.25895797017238037 0.21712182839434438 0.6268445522538912 0.2557105316353345 0.11744491611077422 </TABLE>
    </DEFINITION>
    <DEFINITION>
      <FOR>AMInsWliScen</FOR>
      <GIVEN>LIfr12ZDENSd</GIVEN>
      <GIVEN>ScenRelAMIns</GIVEN>
      <TABLE>0.15265579255541617 0.724801338352154 0.12254286909242997 0.12634756360500218 0.7783527382492454 0.0952996981457525 0.33333333333333337 0.33333333333333337 0.33333333333333337 0.45951629863301785 0.5352260778128286 0.005257623554153523 0.7394247038917089 0.2521150592216582 0.008460236886632826 0.3567937438905181 0.28641251221896386 0.3567937438905181 0.23648103309120255 0.12025827280064567 0.6432606941081517 0.2151649433776465 0.10881339241752833 0.6760216642048252 0.3333333333333333 0.021645021645021644 0.645021645021645 0.009633911368015413 0.009633911368015413 0.9807321772639691 0.4917491749174917 0.0165016501650165 0.4917491749174917 0.294592413236481 0.004035512510088781 0.7013720742534301 0.279494238809014 0.49974508004486595 0.22076068114612013 0.3578181323539414 0.33823029313745495 0.3039515745086037 0.6212510711225365 0.37446443873179097 0.004284490145672665 0.5390024170511976 0.25422983959569323 0.2067677433531092 0.25053902544200085 0.3126347563605002 0.4368262181974989 0.39374868890287396 0.24271029997902244 0.3635410111181036 0.2562932927859436 0.3657712451427606 0.3779354620712958 0.27141782220788996 0.29463613887993123 0.4339460389121789 0.45229244114002476 0.18463444857496902 0.3630731102850062 0.5441237975742368 0.09242994562944376 0.3634462567963196 0.004284490145672664 0.12767780634104542 0.8680377035132818 0.3935591802593058 0.002091175240485153 0.6043496445002091 </TABLE>
    </DEFINITION>
    <DEFINITION>
      <FOR>AMInstabMt</FOR>
      <GIVEN>CldShadeConv</GIVEN>
      <GIVEN>OutflowFrMt</GIVEN>
      <TABLE>0.47078671639140474 0.4899662582134612 0.039247025395134076 0.5715307582260372 0.37839771101573677 0.050071530758226034 0.49675745784695197 0.39169909208819714 0.11154345006485084 0.39625039720368604 0.507785192246584 0.0959644105497299 0.38603094939355914 0.38603094939355914 0.22793810121288166 0.2782031648800409 0.4711587544665645 0.2506380806533946 0.251621271076524 0.4617380025940337 0.28664072632944226 0.19777341191879502 0.42763588736083824 0.37459070072036676 0.09346597887496931 0.11667894866126259 0.7898550724637682 </TABLE>
    </DEFINITION>
    <DEFINITION>
      <FOR>AreaMeso_ALS</FOR>
      <TABLE>0.1843283582089552 0.43507462686567167 0.12164179104477611 0.258955223880597 </TABLE>
    </DEFINITION>
    <DEFINITION>
      <FOR>AreaMoDryAir</FOR>
      <GIVEN>CombMoisture</GIVEN>
      <GIVEN>CombVerMo</GIVEN>
      <TABLE>0.9943267776096822 0.0018910741301059002 0.0018910741301059002 0.0018910741301059002 0.795311268715524 0.20271867612293143 0.0009850275807722615 0.0009850275807722615 0.25 0.4469230769230769 0.0038461538461538464 0.29923076923076924 0.5630904183535762 0.41194331983805665 0.0016869095816464238 0.02327935222672065 0.44837691614066727 0.4628043282236249 0.001127141568981064 0.08769161406672678 0.08464862833521232 0.7941563322059376 0.012495302517850432 0.10869973694099963 0.001846381093057607 0.23818316100443132 0.12001477104874446 0.6399556868537666 0.022511848341232227 0.5966486120514557 0.011679079214624239 0.3691604603926879 0.003351206434316354 0.04624664879356569 0.04624664879356569 0.9041554959785523 0.0010656436487638534 0.0010656436487638534 0.7103580562659847 0.28751065643648765 0.0035014005602240898 0.0035014005602240898 0.9894957983193278 0.0035014005602240898 0.001846381093057607 0.001846381093057607 0.8526587887740029 0.14364844903988183 0.040499390986601706 0.4497563946406821 0.040499390986601706 0.4692448233861145 0.0006603275224511358 0.14434759640781827 0.22041732699418912 0.6345747490755415 0.0020938023450586263 0.028894472361809045 0.8061139028475712 0.16289782244556114 0.0009850275807722615 0.1144602048857368 0.2657604412923562 0.6187943262411347 </TABLE>
    </DEFINITION>
    <DEFINITION>
      <FOR>Boundaries</FOR>
      <GIVEN>MorningBound</GIVEN>
      <GIVEN>OutflowFrMt</GIVEN>
      <TABLE>0.7593333333333334 0.23733333333333337 0.0033333333333333335 0.6829573934837093 0.27694235588972427 0.040100250626566414 0.5149847094801223 0.30030581039755355 0.18470948012232416 0.6461166515563614 0.35237231792082196 0.0015110305228165607 0.2447582370560548 0.6837826272999572 0.07145913564398802 0.19911041339612767 0.5735217163788592 0.22736787022501304 0.4510548523206751 0.5478902953586497 0.0010548523206751054 0.12964515227717238 0.627549594858899 0.24280525286392843 0.030840258541089564 0.3250230840258541 0.6441366574330563 </TABLE>
    </DEFINITION>
    <DEFINITION>
      <FOR>CapChange</FOR>
      <GIVEN>CompPlFcst</GIVEN>
      <TABLE>0.9950099800399202 0.0024950099800399206 0.0024950099800399206 0.0013175230566534917 0.9973649538866931 0.0013175230566534917 0.0015403573629081948 0.0015403573629081948 0.9969192852741837 </TABLE>
    </DEFINITION>
    <DEFINITION>
      <FOR>CapInScen</FOR>
      <GIVEN>CompPlFcst</GIVEN>
      <GIVEN>MorningCIN</GIVEN>
      <TABLE>0.14722023383440708 0.8344070627535195 0.01837270341207349 0.2830640335128665 0.5631358467983243 0.15380011968880908 0.3676680972818312 0.2646638054363376 0.3676680972818312 0.05292096219931273 0.9436426116838489 0.0034364261168384888 0.2720733263719689 0.1384151293653556 0.5895115442626755 0.12154512154512156 0.025641025641025644 0.8528138528138529 0.003523608174770966 0.003523608174770966 0.992952783650458 0.30528284244974285 0.32211313697989713 0.37260402057035996 0.5380514460882314 0.3557243769159003 0.10622417699586832 0.46085724406659584 0.09103790294013463 0.4481048529932696 0.00715307582260372 0.00715307582260372 0.9856938483547926 0.14956610515569171 0.8295048494129659 0.020929045431342524 </TABLE>
    </DEFINITION>
    <DEFINITION>
      <FOR>CldShadeConv</FOR>
      <GIVEN>OutflowFrMt</GIVEN>
      <TABLE>0.5896952560477537 0.3295633050581213 0.08074143889412505 0.4164432529043789 0.35612153708668454 0.22743521000893654 0.07091611479028699 0.18018763796909495 0.7488962472406181 </TABLE>
    </DEFINITION>
    <DEFINITION>
      <FOR>CldShadeOth</FOR>
      <GIVEN>CombClouds</GIVEN>
      <GIVEN>CombVerMo</GIVEN>
      <TABLE>0.9968223705115984 0.0015888147442008264 0.0015888147442008264 0.9337491337491338 0.0006930006930006931 0.06555786555786557 0.39944903581267216 0.26060606060606056 0.33994490358126717 0.6009031893875247 0.021732994637313013 0.3773638159751623 0.00392156862745098 0.48392156862745095 0.512156862745098 0.002123142250530786 0.7664543524416136 0.23142250530785566 0.00546448087431694 0.9890710382513661 0.00546448087431694 0.022589531680440776 0.8953168044077136 0.08209366391184575 0.4027592345349355 0.06631063640409436 0.5309301290609701 0.08248257980878303 0.059147625992545784 0.8583697941986712 0.002992220227408738 0.7354877318970677 0.2615200478755237 0.0730491149339317 0.1987035651957118 0.7282473198703565 </TABLE>
    </DEFINITION>
    <DEFINITION>
      <FOR>CombClouds</FOR>
      <GIVEN>CompPlFcst</GIVEN>
      <TABLE>0.5503992015968063 0.1057884231536926 0.343812375249501 0.36653491436100133 0.22898550724637684 0.4044795783926219 0.44239063462723355 0.15680837954405424 0.40080098582871226 </TABLE>
    </DEFINITION>
    <DEFINITION>
      <FOR>CombMoisture</FOR>
      <TABLE>0.186318407960199 0.36840796019900496 0.16044776119402984 0.2848258706467662 </TABLE>
    </DEFINITION>
    <DEFINITION>
      <FOR>CombVerMo</FOR>
      <GIVEN>AreaMeso_ALS</GIVEN>
      <TABLE>0.9949392712550608 0.0016869095816464238 0.0016869095816464238 0.0016869095816464238 0.000714694110920526 0.9978559176672385 0.000714694110920526 0.000714694110920526 0.002556237218813906 0.002556237218813906 0.9923312883435583 0.002556237218813906 0.0012007684918347744 0.0012007684918347744 0.0012007684918347744 0.9963976945244957 </TABLE>
    </DEFINITION>
    <DEFINITION>
      <FOR>CompPlFcst</FOR>
      <GIVEN>AreaMeso_ALS</GIVEN>
      <TABLE>0.0832208726945569 0.6122357174988754 0.3045434098065677 0.2319420621307414 0.3988946064417762 0.36916333142748237 0.3878663940013633 0.24880708929788686 0.36332651670074984 0.2244636567403138 0.3973743195645213 0.37816202369516494 </TABLE>
    </DEFINITION>
    <DEFINITION>
      <FOR>CurPropConv</FOR>
      <GIVEN>LatestCIN</GIVEN>
      <TABLE>0.2096439169139466 0.25949554896142435 0.12893175074183977 0.4019287833827893 0.1061525129982669 0.34878682842287695 0.0645580589254766 0.48050259965337955 0.02464788732394366 0.13732394366197184 0.005868544600938967 0.8321596244131455 0.277831715210356 0.23122977346278317 0.38398058252427186 0.106957928802589 </TABLE>
    </DEFINITION>
    <DEFINITION>
      <FOR>Date</FOR>
      <GIVEN>ScenRelAMIns</GIVEN>
      <GIVEN>Scenario</GIVEN>
      <TABLE>0.06361598206421651 0.23800944831451679 0.1270317879734166 0.06361598206421651 0.1270317879734166 0.38069501161021696 0.059761931668361766 0.13434663050438844 0.22384826910762043 0.1418051003879911 0.1418051003879911 0.2984329679436471 0.16666666666666666 0.16666666666666666 0.16666666666666666 0.16666666666666666 0.16666666666666666 0.16666666666666666 0.16666666666666666 0.16666666666666666 0.16666666666666666 0.16666666666666666 0.16666666666666666 0.16666666666666666 0.16666666666666666 0.16666666666666666 0.16666666666666666 0.16666666666666666 0.16666666666666666 0.16666666666666666 0.16666666666666666 0.16666666666666666 0.16666666666666666 0.16666666666666666 0.16666666666666666 0.16666666666666666 0.16666666666666666 0.16666666666666666 0.16666666666666666 0.16666666666666666 0.16666666666666666 0.16666666666666666 0.16666666666666666 0.16666666666666666 0.16666666666666666 0.16666666666666666 0.16666666666666666 0.16666666666666666 0.08459461379947417 0.23935905634903717 0.12680309813117316 0.09866410857670717 0.09866410857670717 0.35191501456690116 0.16666666666666666 0.16666666666666666 0.16666666666666666 0.16666666666666666 0.16666666666666666 0.16666666666666666 0.16666666666666666 0.16666666666666666 0.16666666666666666 0.16666666666666666 0.16666666666666666 0.16666666666666666 0.16666666666666666 0.16666666666666666 0.16666666666666666 0.16666666666666666 0.16666666666666666 0.16666666666666666 0.16666666666666666 0.16666666666666666 0.16666666666666666 0.16666666666666666 0.16666666666666666 0.16666666666666666 0.08169833668057057 0.17346413306555433 0.25503372985220657 0.08169833668057057 0.14287553427055974 0.2652299294505381 0.07701015589624166 0.2563231774370916 0.23070703150268448 0.06420208292903809 0.20509088556827734 0.16666666666666663 0.08338113265267103 0.15909525448357614 0.3256663225115674 0.09852395701885204 0.15909525448357614 0.17423807884975717 0.16666666666666666 0.16666666666666666 0.16666666666666666 0.16666666666666666 0.16666666666666666 0.16666666666666666 0.16666666666666666 0.16666666666666666 0.16666666666666666 0.16666666666666666 0.16666666666666666 0.16666666666666666 0.16666666666666666 0.16666666666666666 0.16666666666666666 0.16666666666666666 0.16666666666666666 0.16666666666666666 0.16666666666666666 0.16666666666666666 0.16666666666666666 0.16666666666666666 0.16666666666666666 0.16666666666666666 0.09418224992579399 0.25874146631047784 0.3292668447610566 0.10593647966755712 0.14119916889284653 0.07067379044226772 0.16666666666666666 0.16666666666666666 0.16666666666666666 0.16666666666666666 0.16666666666666666 0.16666666666666666 0.16666666666666666 0.16666666666666666 0.16666666666666666 0.16666666666666666 0.16666666666666666 0.16666666666666666 0.16666666666666666 0.16666666666666666 0.16666666666666666 0.16666666666666666 0.16666666666666666 0.16666666666666666 0.16666666666666666 0.16666666666666666 0.16666666666666666 0.16666666666666666 0.16666666666666666 0.16666666666666666 0.16666666666666666 0.16666666666666666 0.16666666666666666 0.16666666666666666 0.16666666666666666 0.16666666666666666 0.16666666666666666 0.16666666666666666 0.16666666666666666 0.16666666666666666 0.16666666666666666 0.16666666666666666 0.09108260803176056 0.21201710184761033 0.4538860894793098 0.09108260803176056 0.12131623148572301 0.030615361123835696 0.16666666666666666 0.16666666666666666 0.16666666666666666 0.16666666666666666 0.16666666666666666 0.16666666666666666 0.16666666666666666 0.16666666666666666 0.16666666666666666 0.16666666666666666 0.16666666666666666 0.16666666666666666 0.16666666666666666 0.16666666666666666 0.16666666666666666 0.16666666666666666 0.16666666666666666 0.16666666666666666 0.16666666666666666 0.16666666666666666 0.16666666666666666 0.16666666666666666 0.16666666666666666 0.16666666666666666 0.16666666666666666 0.16666666666666666 0.16666666666666666 0.16666666666666666 0.16666666666666666 0.16666666666666666 0.16666666666666666 0.16666666666666666 0.16666666666666666 0.16666666666666666 0.16666666666666666 0.16666666666666666 0.16666666666666666 0.16666666666666666 0.16666666666666666 0.16666666666666666 0.16666666666666666 0.16666666666666666 0.16666666666666666 0.16666666666666666 0.16666666666666666 0.16666666666666666 0.16666666666666666 0.16666666666666666 0.16666666666666666 0.16666666666666666 0.16666666666666666 0.16666666666666666 0.16666666666666666 0.16666666666666666 0.16666666666666666 0.16666666666666666 0.16666666666666666 0.16666666666666666 0.16666666666666666 0.16666666666666666 0.16666666666666666 0.16666666666666666 0.16666666666666666 0.16666666666666666 0.16666666666666666 0.16666666666666666 0.0690292825131619 0.3360962450506896 0.14656485228212154 0.16379497889744593 0.120719662359135 0.16379497889744593 0.16666666666666666 0.16666666666666666 0.16666666666666666 0.16666666666666666 0.16666666666666666 0.16666666666666666 0.16666666666666666 0.16666666666666666 0.16666666666666666 0.16666666666666666 0.16666666666666666 0.16666666666666666 0.16666666666666666 0.16666666666666666 0.16666666666666666 0.16666666666666666 0.16666666666666666 0.16666666666666666 0.16666666666666666 0.16666666666666666 0.16666666666666666 0.16666666666666666 0.16666666666666666 0.16666666666666666 0.16666666666666666 0.16666666666666666 0.16666666666666666 0.16666666666666666 0.16666666666666666 0.16666666666666666 0.16666666666666666 0.16666666666666666 0.16666666666666666 0.16666666666666666 0.16666666666666666 0.16666666666666666 0.16666666666666666 0.16666666666666666 0.16666666666666666 0.16666666666666666 0.16666666666666666 0.16666666666666666 0.16666666666666666 0.16666666666666666 0.16666666666666666 0.16666666666666666 0.16666666666666666 0.16666666666666666 0.16666666666666666 0.16666666666666666 0.16666666666666666 0.16666666666666666 0.16666666666666666 0.16666666666666666 0.16666666666666666 0.16666666666666666 0.16666666666666666 0.16666666666666666 0.16666666666666666 0.16666666666666666 0.16666666666666666 0.16666666666666666 0.16666666666666666 0.16666666666666666 0.16666666666666666 0.16666666666666666 0.10008406893652795 0.18331231609920134 0.150021017234132 0.03350147120638924 0.16666666666666666 0.3664144598570828 0.16666666666666666 0.16666666666666666 0.16666666666666666 0.16666666666666666 0.16666666666666666 0.16666666666666666 0.16666666666666666 0.16666666666666666 0.16666666666666666 0.16666666666666666 0.16666666666666666 0.16666666666666666 0.16666666666666666 0.16666666666666666 0.16666666666666666 0.16666666666666666 0.16666666666666666 0.16666666666666666 0.16666666666666666 0.16666666666666666 0.16666666666666666 0.16666666666666666 0.16666666666666666 0.16666666666666666 0.16666666666666666 0.16666666666666666 0.16666666666666666 0.16666666666666666 0.16666666666666666 0.16666666666666666 0.16666666666666666 0.16666666666666666 0.16666666666666666 0.16666666666666666 0.16666666666666666 0.16666666666666666 0.16666666666666666 0.16666666666666666 0.16666666666666666 0.16666666666666666 0.16666666666666666 0.16666666666666666 0.16666666666666666 0.16666666666666666 0.16666666666666666 0.16666666666666666 0.16666666666666666 0.16666666666666666 0.16666666666666666 0.16666666666666666 0.16666666666666666 0.16666666666666666 0.16666666666666666 0.16666666666666666 0.16666666666666666 0.16666666666666666 0.16666666666666666 0.16666666666666666 0.16666666666666666 0.16666666666666666 0.16666666666666666 0.16666666666666666 0.16666666666666666 0.16666666666666666 0.16666666666666666 0.16666666666666666 0.16666666666666666 0.16666666666666666 0.16666666666666666 0.16666666666666666 0.16666666666666666 0.16666666666666666 0.16666666666666666 0.16666666666666666 0.16666666666666666 0.16666666666666666 0.16666666666666666 0.16666666666666666 0.07697534459328285 0.3152980003882741 0.13847796544360316 0.13079013783731314 0.061599689380702774 0.2768588623568239 </TABLE>
    </DEFINITION>
    <DEFINITION>
      <FOR>Dewpoints</FOR>
      <GIVEN>Scenario</GIVEN>
      <GIVEN>ScnRelPlFcst</GIVEN>
      <TABLE>0.22217020001498236 0.047681474267735405 0.0318188628361675 0.23803281144655028 0.07940669713087121 0.17458236572027863 0.20630758858341447 0.14285714285714288 0.14285714285714288 0.14285714285714288 0.14285714285714288 0.14285714285714288 0.14285714285714288 0.14285714285714288 0.14285714285714288 0.14285714285714288 0.14285714285714288 0.14285714285714288 0.14285714285714288 0.14285714285714288 0.14285714285714288 0.14285714285714288 0.14285714285714288 0.14285714285714288 0.14285714285714288 0.14285714285714288 0.14285714285714288 0.14285714285714288 0.14285714285714288 0.14285714285714288 0.14285714285714288 0.14285714285714288 0.14285714285714288 0.14285714285714288 0.14285714285714288 0.14285714285714288 0.14285714285714288 0.14285714285714288 0.14285714285714288 0.14285714285714288 0.14285714285714288 0.14285714285714288 0.14285714285714288 0.14285714285714288 0.14285714285714288 0.14285714285714288 0.14285714285714288 0.14285714285714288 0.14285714285714288 0.14285714285714288 0.14285714285714288 0.14285714285714288 0.14285714285714288 0.14285714285714288 0.14285714285714288 0.14285714285714288 0.14285714285714288 0.14285714285714288 0.14285714285714288 0.14285714285714288 0.14285714285714288 0.14285714285714288 0.14285714285714288 0.14285714285714288 0.14285714285714288 0.14285714285714288 0.14285714285714288 0.14285714285714288 0.14285714285714288 0.14285714285714288 0.14285714285714288 0.14285714285714288 0.14285714285714288 0.14285714285714288 0.14285714285714288 0.14285714285714288 0.14285714285714288 0.14285714285714288 0.14285714285714288 0.14285714285714288 0.14285714285714288 0.14285714285714288 0.14285714285714288 0.14285714285714288 0.23131600503818273 0.097029057630821 0.06718751376251839 0.3059198647089393 0.13433098746619926 0.13433098746619926 0.029885583927140125 0.14285714285714288 0.14285714285714288 0.14285714285714288 0.14285714285714288 0.14285714285714288 0.14285714285714288 0.14285714285714288 0.14285714285714288 0.14285714285714288 0.14285714285714288 0.14285714285714288 0.14285714285714288 0.14285714285714288 0.14285714285714288 0.14285714285714288 0.14285714285714288 0.14285714285714288 0.14285714285714288 0.14285714285714288 0.14285714285714288 0.14285714285714288 0.14285714285714288 0.14285714285714288 0.14285714285714288 0.14285714285714288 0.14285714285714288 0.14285714285714288 0.14285714285714288 0.14285714285714288 0.14285714285714288 0.14285714285714288 0.14285714285714288 0.14285714285714288 0.14285714285714288 0.14285714285714288 0.14285714285714288 0.14285714285714288 0.14285714285714288 0.14285714285714288 0.14285714285714288 0.14285714285714288 0.14285714285714288 0.14285714285714288 0.14285714285714288 0.14285714285714288 0.14285714285714288 0.14285714285714288 0.14285714285714288 0.14285714285714288 0.14285714285714288 0.14285714285714288 0.14285714285714288 0.14285714285714288 0.14285714285714288 0.14285714285714288 0.14285714285714288 0.14285714285714288 0.14285714285714288 0.14285714285714288 0.14285714285714288 0.14285714285714288 0.14285714285714288 0.14285714285714288 0.14285714285714288 0.14285714285714288 0.14285714285714288 0.14285714285714288 0.14285714285714288 0.14285714285714288 0.14285714285714288 0.14285714285714288 0.14285714285714288 0.14285714285714288 0.14285714285714288 0.14285714285714288 0.14285714285714288 0.14285714285714288 0.020459772883274524 0.1632567045194542 0.5304488144410592 0.0408593345455859 0.10205801953252006 6.021122096313868e-05 0.14285714285714282 0.14285714285714288 0.14285714285714288 0.14285714285714288 0.14285714285714288 0.14285714285714288 0.14285714285714288 0.14285714285714288 0.14285714285714288 0.14285714285714288 0.14285714285714288 0.14285714285714288 0.14285714285714288 0.14285714285714288 0.14285714285714288 0.14285714285714288 0.14285714285714288 0.14285714285714288 0.14285714285714288 0.14285714285714288 0.14285714285714288 0.14285714285714288 0.14285714285714288 0.14285714285714288 0.14285714285714288 0.14285714285714288 0.14285714285714288 0.14285714285714288 0.14285714285714288 0.14285714285714288 0.14285714285714288 0.14285714285714288 0.14285714285714288 0.14285714285714288 0.14285714285714288 0.14285714285714288 0.14285714285714288 0.14285714285714288 0.14285714285714288 0.14285714285714288 0.14285714285714288 0.14285714285714288 0.14285714285714288 0.14285714285714288 0.14285714285714288 0.14285714285714288 0.14285714285714288 0.14285714285714288 0.14285714285714288 0.14285714285714288 0.14285714285714288 0.14285714285714288 0.14285714285714288 0.14285714285714288 0.14285714285714288 0.14285714285714288 0.14285714285714288 0.14285714285714288 0.14285714285714288 0.14285714285714288 0.14285714285714288 0.14285714285714288 0.14285714285714288 0.14285714285714288 0.14285714285714288 0.14285714285714288 0.14285714285714288 0.14285714285714288 0.14285714285714288 0.14285714285714288 0.14285714285714288 0.14285714285714288 0.14285714285714288 0.14285714285714288 0.14285714285714288 0.14285714285714288 0.14285714285714288 0.14285714285714288 0.03851681517677493 0.20509523305245 0.10258543743664995 0.41011482428405016 0.06414426408072493 0.12821288634059996 0.051330539628749935 0.14285714285714288 0.14285714285714288 0.14285714285714288 0.14285714285714288 0.14285714285714288 0.14285714285714288 0.14285714285714288 0.14285714285714288 0.14285714285714288 0.14285714285714288 0.14285714285714288 0.14285714285714288 0.14285714285714288 0.14285714285714288 0.14285714285714288 0.14285714285714288 0.14285714285714288 0.14285714285714288 0.14285714285714288 0.14285714285714288 0.14285714285714288 0.14285714285714288 0.14285714285714288 0.14285714285714288 0.14285714285714288 0.14285714285714288 0.14285714285714288 0.14285714285714288 0.14285714285714288 0.14285714285714288 0.14285714285714288 0.14285714285714288 0.14285714285714288 0.14285714285714288 0.14285714285714288 0.14285714285714288 0.14285714285714288 0.14285714285714288 0.14285714285714288 0.14285714285714288 0.14285714285714288 0.14285714285714288 0.14285714285714288 0.14285714285714288 0.14285714285714288 0.14285714285714288 0.14285714285714288 0.14285714285714288 0.14285714285714288 0.14285714285714288 0.14285714285714288 0.14285714285714288 0.14285714285714288 0.14285714285714288 0.14285714285714288 0.14285714285714288 0.14285714285714288 0.14285714285714288 0.14285714285714288 0.14285714285714288 0.14285714285714288 0.14285714285714288 0.14285714285714288 0.14285714285714288 0.14285714285714288 0.14285714285714288 0.14285714285714288 0.14285714285714288 0.14285714285714288 0.14285714285714288 0.14285714285714288 0.14285714285714288 0.14285714285714288 0.14285714285714288 0.14285714285714288 0.14285714285714288 0.14285714285714288 0.10607212153184487 0.24996646965727518 0.14393905524906336 0.09092534804495747 0.17423260222283815 0.18937937570972554 0.04548502758429527 0.14285714285714288 0.14285714285714288 0.14285714285714288 0.14285714285714288 0.14285714285714288 0.14285714285714288 0.14285714285714288 0.14285714285714288 0.14285714285714288 0.14285714285714288 0.14285714285714288 0.14285714285714288 0.14285714285714288 0.14285714285714288 0.14285714285714288 0.14285714285714288 0.14285714285714288 0.14285714285714288 0.14285714285714288 0.14285714285714288 0.14285714285714288 0.14285714285714288 0.14285714285714288 0.14285714285714288 0.14285714285714288 0.14285714285714288 0.14285714285714288 0.14285714285714288 0.14285714285714288 0.14285714285714288 0.14285714285714288 0.14285714285714288 0.14285714285714288 0.14285714285714288 0.14285714285714288 0.14285714285714288 0.14285714285714288 0.14285714285714288 0.14285714285714288 0.14285714285714288 0.14285714285714288 0.14285714285714288 0.14285714285714288 0.14285714285714288 0.14285714285714288 0.14285714285714288 0.14285714285714288 0.14285714285714288 0.14285714285714288 0.14285714285714288 0.14285714285714288 0.14285714285714288 0.14285714285714288 0.14285714285714288 0.14285714285714288 0.14285714285714288 0.14285714285714288 0.14285714285714288 0.14285714285714288 0.14285714285714288 0.14285714285714288 0.14285714285714288 0.14285714285714288 0.14285714285714288 0.14285714285714288 0.14285714285714288 0.14285714285714288 0.14285714285714288 0.14285714285714288 0.14285714285714288 0.14285714285714288 0.14285714285714288 0.14285714285714288 0.14285714285714288 0.14285714285714288 0.14285714285714288 0.14285714285714288 0.9686629028800109 0.00017866075895090391 0.00017866075895090391 0.00017866075895090391 0.00017866075895090391 0.00017866075895090391 0.030443793325234027 0.14285714285714288 0.14285714285714288 0.14285714285714288 0.14285714285714288 0.14285714285714288 0.14285714285714288 0.14285714285714288 0.14285714285714288 0.14285714285714288 0.14285714285714288 0.14285714285714288 0.14285714285714288 0.14285714285714288 0.14285714285714288 0.14285714285714288 0.14285714285714288 0.14285714285714288 0.14285714285714288 0.14285714285714288 0.14285714285714288 0.14285714285714288 0.14285714285714288 0.14285714285714288 0.14285714285714288 0.14285714285714288 0.14285714285714288 0.14285714285714288 0.14285714285714288 0.14285714285714288 0.14285714285714288 0.14285714285714288 0.14285714285714288 0.14285714285714288 0.14285714285714288 0.14285714285714288 0.14285714285714288 0.14285714285714288 0.14285714285714288 0.14285714285714288 0.14285714285714288 0.14285714285714288 0.14285714285714288 0.14285714285714288 0.14285714285714288 0.14285714285714288 0.14285714285714288 0.14285714285714288 0.14285714285714288 0.14285714285714288 0.14285714285714288 0.14285714285714288 0.14285714285714288 0.14285714285714288 0.14285714285714288 0.14285714285714288 0.14285714285714288 0.14285714285714288 0.14285714285714288 0.14285714285714288 0.14285714285714288 0.14285714285714288 0.14285714285714288 0.14285714285714288 0.14285714285714288 0.14285714285714288 0.14285714285714288 0.14285714285714288 0.14285714285714288 0.14285714285714288 0.14285714285714288 0.14285714285714288 0.14285714285714288 0.14285714285714288 0.14285714285714288 0.14285714285714288 0.14285714285714288 0.14285714285714288 5.087142755400001e-05 0.26719708608462966 0.5084904412587625 0.017286111082849203 0.017286111082849203 0.17240326798050604 0.017286111082849203 0.14285714285714288 0.14285714285714288 0.14285714285714288 0.14285714285714288 0.14285714285714288 0.14285714285714288 0.14285714285714288 0.14285714285714288 0.14285714285714288 0.14285714285714288 0.14285714285714288 0.14285714285714288 0.14285714285714288 0.14285714285714288 0.14285714285714288 0.14285714285714288 0.14285714285714288 0.14285714285714288 0.14285714285714288 0.14285714285714288 0.14285714285714288 0.14285714285714288 0.14285714285714288 0.14285714285714288 0.14285714285714288 0.14285714285714288 0.14285714285714288 0.14285714285714288 0.14285714285714288 0.14285714285714288 0.14285714285714288 0.14285714285714288 0.14285714285714288 0.14285714285714288 0.14285714285714288 0.14285714285714288 0.14285714285714288 0.14285714285714288 0.14285714285714288 0.14285714285714288 0.14285714285714288 0.14285714285714288 0.14285714285714288 0.14285714285714288 0.14285714285714288 0.14285714285714288 0.14285714285714288 0.14285714285714288 0.14285714285714288 0.14285714285714288 0.14285714285714288 0.14285714285714288 0.14285714285714288 0.14285714285714288 0.14285714285714288 0.14285714285714288 0.14285714285714288 0.14285714285714288 0.14285714285714288 0.14285714285714288 0.14285714285714288 0.14285714285714288 0.14285714285714288 0.14285714285714288 0.14285714285714288 0.14285714285714288 0.14285714285714288 0.14285714285714288 0.14285714285714288 0.14285714285714288 0.14285714285714288 0.14285714285714288 0.14285714285714288 0.14285714285714288 0.14285714285714288 0.14285714285714288 0.14285714285714288 0.1499950840625307 0.01675351489529053 9.83187493855078e-05 0.5996853800019664 0.033408711041195555 0.0833742994789106 0.11668469177072066 0.14285714285714288 0.14285714285714288 0.14285714285714288 0.14285714285714288 0.14285714285714288 0.14285714285714288 0.14285714285714288 0.14285714285714288 0.14285714285714288 0.14285714285714288 0.14285714285714288 0.14285714285714288 0.14285714285714288 0.14285714285714288 0.14285714285714288 0.14285714285714288 0.14285714285714288 0.14285714285714288 0.14285714285714288 0.14285714285714288 0.14285714285714288 0.14285714285714288 0.14285714285714288 0.14285714285714288 0.14285714285714288 0.14285714285714288 0.14285714285714288 0.14285714285714288 0.14285714285714288 0.14285714285714288 0.14285714285714288 0.14285714285714288 0.14285714285714288 0.14285714285714288 0.14285714285714288 0.14285714285714288 0.14285714285714288 0.14285714285714288 0.14285714285714288 0.14285714285714288 0.14285714285714288 0.14285714285714288 0.14285714285714288 0.14285714285714288 0.14285714285714288 0.14285714285714288 0.14285714285714288 0.14285714285714288 0.14285714285714288 0.14285714285714288 0.14285714285714288 0.14285714285714288 0.14285714285714288 0.14285714285714288 0.14285714285714288 0.14285714285714288 0.14285714285714288 0.14285714285714288 0.14285714285714288 0.14285714285714288 0.14285714285714288 0.14285714285714288 0.14285714285714288 0.14285714285714288 0.14285714285714288 0.14285714285714288 0.14285714285714288 0.14285714285714288 0.14285714285714288 0.14285714285714288 0.14285714285714288 0.14285714285714288 0.14285714285714288 0.14285714285714288 0.14285714285714288 0.14285714285714288 0.14285714285714288 0.028235724257129557 0.014159409692215647 8.309512730173502e-05 0.3097620155554078 8.309512730173502e-05 0.6335172505484278 0.014159409692215647 0.14285714285714288 0.14285714285714288 0.14285714285714288 0.14285714285714288 0.14285714285714288 0.14285714285714288 0.14285714285714288 0.14285714285714288 0.14285714285714288 0.14285714285714288 0.14285714285714288 0.14285714285714288 0.14285714285714288 0.14285714285714288 0.14285714285714288 0.14285714285714288 0.14285714285714288 0.14285714285714288 0.14285714285714288 0.14285714285714288 0.14285714285714288 0.14285714285714288 0.14285714285714288 0.14285714285714288 0.14285714285714288 0.14285714285714288 0.14285714285714288 0.14285714285714288 0.14285714285714288 0.14285714285714288 0.14285714285714288 0.14285714285714288 0.14285714285714288 0.14285714285714288 0.14285714285714288 0.14285714285714288 0.14285714285714288 0.14285714285714288 0.14285714285714288 0.14285714285714288 0.14285714285714288 0.14285714285714288 0.14285714285714288 0.14285714285714288 0.14285714285714288 0.14285714285714288 0.14285714285714288 0.14285714285714288 0.14285714285714288 0.14285714285714288 0.14285714285714288 0.14285714285714288 0.14285714285714288 0.14285714285714288 0.14285714285714288 0.14285714285714288 0.14285714285714288 0.14285714285714288 0.14285714285714288 0.14285714285714288 0.14285714285714288 0.14285714285714288 0.14285714285714288 0.14285714285714288 0.14285714285714288 0.14285714285714288 0.14285714285714288 0.14285714285714288 0.14285714285714288 0.14285714285714288 0.14285714285714288 0.14285714285714288 0.14285714285714288 0.14285714285714288 0.14285714285714288 0.14285714285714288 0.14285714285714288 0.023587394141329994 0.42339303068166034 0.11765930862140771 0.3293211162015826 0.023587394141329994 0.08238234069137856 6.941552131056503e-05 0.14285714285714288 0.14285714285714288 0.14285714285714288 0.14285714285714288 0.14285714285714288 0.14285714285714288 0.14285714285714288 0.14285714285714288 0.14285714285714288 0.14285714285714288 0.14285714285714288 0.14285714285714288 0.14285714285714288 0.14285714285714288 0.14285714285714288 0.14285714285714288 0.14285714285714288 0.14285714285714288 0.14285714285714288 0.14285714285714288 0.14285714285714288 0.14285714285714288 0.14285714285714288 0.14285714285714288 0.14285714285714288 0.14285714285714288 0.14285714285714288 0.14285714285714288 0.14285714285714288 0.14285714285714288 0.14285714285714288 0.14285714285714288 0.14285714285714288 0.14285714285714288 0.14285714285714288 0.14285714285714288 0.14285714285714288 0.14285714285714288 0.14285714285714288 0.14285714285714288 0.14285714285714288 0.14285714285714288 0.14285714285714288 0.14285714285714288 0.14285714285714288 0.14285714285714288 0.14285714285714288 0.14285714285714288 0.14285714285714288 0.14285714285714288 0.14285714285714288 0.14285714285714288 0.14285714285714288 0.14285714285714288 0.14285714285714288 0.14285714285714288 0.14285714285714288 0.14285714285714288 0.14285714285714288 0.14285714285714288 0.14285714285714288 0.14285714285714288 0.14285714285714288 0.14285714285714288 0.14285714285714288 0.14285714285714288 0.14285714285714288 0.14285714285714288 0.14285714285714288 0.14285714285714288 0.14285714285714288 0.14285714285714288 0.14285714285714288 0.14285714285714288 0.14285714285714288 0.14285714285714288 0.14285714285714288 0.08463389168822916 0.07694402832629715 0.08463389168822916 0.05387443824050116 0.18460211539334515 0.10770348177402515 0.40760815288937313 </TABLE>
    </DEFINITION>
    <DEFINITION>
      <FOR>IRCloudCover</FOR>
      <GIVEN>CombClouds</GIVEN>
      <GIVEN>VISCloudCov</GIVEN>
      <TABLE>0.4620606060606061 0.12824242424242424 0.4096969696969697 0.463768115942029 0.07246376811594203 0.463768115942029 0.7093056755978104 0.009219245174301352 0.28147507922788817 0.01937984496124031 0.3333333333333333 0.6472868217054264 0.4195211786372008 0.16095764272559857 0.4195211786372008 0.10795770728992765 0.5286588759042848 0.36338341680578745 0.028921568627450978 0.26715686274509803 0.7039215686274509 0.19239373601789708 0.011185682326621923 0.7964205816554809 0.28437190900098913 0.12413452027695351 0.5914935707220574 </TABLE>
    </DEFINITION>
    <DEFINITION>
      <FOR>InsChange</FOR>
      <GIVEN>CompPlFcst</GIVEN>
      <GIVEN>LoLevMoistAd</GIVEN>
      <TABLE>0.8734607218683652 0.017409766454352445 0.1091295116772824 0.3151721528566024 0.1653424139235717 0.519485433219826 0.09134045077105575 0.8173190984578884 0.09134045077105575 0.31678160919540227 0.28367816091954023 0.39954022988505744 0.5253333333333333 0.07487179487179488 0.3997948717948718 0.16990399642777407 0.2663540968966287 0.5637419066755972 0.0028105677346824064 0.9336706014614954 0.06351883080382238 0.06350382999752904 0.8463059056090932 0.09019026439337782 0.6972940826642878 0.09782931906036278 0.2048765982753494 0.21971352269968442 0.21971352269968442 0.5605729546006313 0.002701242571582929 0.8779038357644517 0.11939492166396545 0.0901122980005478 0.4450835387565051 0.46480416324294715 </TABLE>
    </DEFINITION>
    <DEFINITION>
      <FOR>InsInMt</FOR>
      <GIVEN>AMInstabMt</GIVEN>
      <GIVEN>OutflowFrMt</GIVEN>
      <TABLE>0.9975562072336265 0.0012218963831867055 0.0012218963831867055 0.9868933758413034 0.011335458731845553 0.0017711654268508675 0.9621077560686797 0.034931912374185914 0.002960331557134399 0.9234033524294504 0.07553575217483556 0.0010608953957139825 0.5656795747911921 0.43242217160212604 0.0018982536066818525 0.5733333333333333 0.4119540229885057 0.014712643678160919 0.5510752688172043 0.4422043010752688 0.006720430107526881 0.17581543357199683 0.8202068416865553 0.003977724741447892 0.008418949771689497 0.1625285388127854 0.8290525114155252 </TABLE>
    </DEFINITION>
    <DEFINITION>
      <FOR>InsSclInScen</FOR>
      <GIVEN>AMInsWliScen</GIVEN>
      <GIVEN>InsChange</GIVEN>
      <TABLE>0.42654392021480625 0.5715381664748753 0.0019179133103183735 0.4370498415442236 0.0014405070584845867 0.5615096513972919 0.6551101480678945 0.22607439508847957 0.11881545684362584 0.0017543859649122803 0.9964912280701753 0.0017543859649122803 0.38711819389110225 0.39608233731739706 0.21679946879150067 0.10825929582099374 0.8900954261270154 0.001645278051990786 0.36715520481022174 0.2453964674934236 0.3874483276963548 0.0015620118712902217 0.0015620118712902217 0.9968759762574196 0.07035460992907801 0.0014184397163120564 0.9282269503546099 </TABLE>
    </DEFINITION>
    <DEFINITION>
      <FOR>LIfr12ZDENSd</FOR>
      <TABLE>0.10373134328358209 0.07686567164179105 0.5156716417910447 0.3037313432835821 </TABLE>
    </DEFINITION>
    <DEFINITION>
      <FOR>LLIW</FOR>
      <GIVEN>CurPropConv</GIVEN>
      <GIVEN>LatestCIN</GIVEN>
      <TABLE>0.5444090587402689 0.2613234253361642 0.012208067940552018 0.18205944798301485 0.5928571428571429 0.39693877551020407 0.00510204081632653 0.00510204081632653 0.8214285714285714 0.05952380952380952 0.05952380952380952 0.05952380952380952 0.5318870122306348 0.16846243447874198 0.010046592894583576 0.2896039603960396 0.4855631789594054 0.10134362492853059 0.01901086335048599 0.39408233276157806 0.45869565217391306 0.20031055900621117 0.041304347826086954 0.2996894409937888 0.42094017094017094 0.2841880341880342 0.010683760683760684 0.2841880341880342 0.14643107067879635 0.0008747375787263821 0.0904478656403079 0.7622463261021694 0.31444188722669736 0.682681242807825 0.0014384349827387803 0.0014384349827387803 0.33053691275167785 0.6526845637583892 0.008389261744966443 0.008389261744966443 0.25 0.25 0.25 0.25 0.587126000842815 0.3578803202697008 0.0005267593763168984 0.0544669195111673 0.2071797711332595 0.00636766334440753 0.3193983019564415 0.46705426356589147 0.2463931469792606 0.07326420198376916 0.26082055906221824 0.41952209197475204 0.3177009873060649 0.04689703808180536 0.09203102961918194 0.5433709449929478 0.0018910741301059002 0.0018910741301059002 0.8732980332829047 0.1229198184568835 </TABLE>
    </DEFINITION>
    <DEFINITION>
      <FOR>LatestCIN</FOR>
      <TABLE>0.4191542288557214 0.1435323383084577 0.05298507462686567 0.3843283582089552 </TABLE>
    </DEFINITION>
    <DEFINITION>
      <FOR>LoLevMoistAd</FOR>
      <TABLE>0.2927860696517413 0.3106965174129353 0.1236318407960199 0.2728855721393035 </TABLE>
    </DEFINITION>
    <DEFINITION>
      <FOR>LowLLapse</FOR>
      <GIVEN>ScenRelAMIns</GIVEN>
      <GIVEN>Scenario</GIVEN>
      <TABLE>0.04786211866442469 0.253963487869325 0.41250300264232526 0.28567139082392506 0.07472595773533734 0.34323087354503334 0.24627076505819867 0.3357724036614307 0.25 0.25 0.25 0.25 0.25 0.25 0.25 0.25 0.25 0.25 0.25 0.25 0.25 0.25 0.25 0.25 0.25 0.25 0.25 0.25 0.25 0.25 0.25 0.25 0.21130888936260925 0.32386484758047324 0.11282242592197826 0.35200383713493927 0.25 0.25 0.25 0.25 0.25 0.25 0.25 0.25 0.25 0.25 0.25 0.25 0.25 0.25 0.25 0.25 0.336667696585818 0.1531361038158505 0.03078170863587209 0.47941449096245947 0.3972928391228411 0.15393945274597323 0.06428294197554822 0.3844847661556375 0.43171389239417235 0.19700011471836643 0.0682861076058277 0.3029998852816336 0.25 0.25 0.25 0.25 0.25 0.25 0.25 0.25 0.25 0.25 0.25 0.25 0.25 0.25 0.25 0.25 0.18829029385574356 0.23530721282279607 0.11776491540516475 0.4586375779162956 0.25 0.25 0.25 0.25 0.25 0.25 0.25 0.25 0.25 0.25 0.25 0.25 0.25 0.25 0.25 0.25 0.25 0.25 0.25 0.25 0.25 0.25 0.25 0.25 0.0005726065048098947 0.36337608795235915 0.2726752175904718 0.36337608795235915 0.25 0.25 0.25 0.25 0.25 0.25 0.25 0.25 0.25 0.25 0.25 0.25 0.25 0.25 0.25 0.25 0.25 0.25 0.25 0.25 0.25 0.25 0.25 0.25 0.25 0.25 0.25 0.25 0.25 0.25 0.25 0.25 0.25 0.25 0.25 0.25 0.25 0.25 0.25 0.25 0.25 0.25 0.25 0.25 0.8013640516903799 0.03462341730844537 0.00016316407779663232 0.16384936692337818 0.25 0.25 0.25 0.25 0.25 0.25 0.25 0.25 0.25 0.25 0.25 0.25 0.25 0.25 0.25 0.25 0.25 0.25 0.25 0.25 0.25 0.25 0.25 0.25 0.25 0.25 0.25 0.25 0.25 0.25 0.25 0.25 0.25 0.25 0.25 0.25 0.25 0.25 0.25 0.25 0.25 0.25 0.25 0.25 0.0003152585119798235 0.3332282471626734 0.6328499369482976 0.033606557377049186 0.25 0.25 0.25 0.25 0.25 0.25 0.25 0.25 0.25 0.25 0.25 0.25 0.25 0.25 0.25 0.25 0.25 0.25 0.25 0.25 0.25 0.25 0.25 0.25 0.25 0.25 0.25 0.25 0.25 0.25 0.25 0.25 0.25 0.25 0.25 0.25 0.25 0.25 0.25 0.25 0.25 0.25 0.25 0.25 0.25 0.25 0.25 0.25 0.25 0.25 0.25 0.25 0.10777518928363426 0.430663948747816 0.1154630168899243 0.3460978450786255 </TABLE>
    </DEFINITION>
    <DEFINITION>
      <FOR>MeanRH</FOR>
      <GIVEN>Scenario</GIVEN>
      <TABLE>0.34909264565425024 0.223018147086915 0.4278892072588348 0.41762452107279696 0.19450078882127567 0.38787469010592746 0.48907356109572175 0.46875961834410584 0.04216682056017236 0.43530320587099264 0.44804943993820007 0.11664735419080727 0.6428734843285289 0.31068405399222143 0.04644246167924959 0.004528985507246377 0.004528985507246377 0.9909420289855072 0.04423627374447046 0.9544626593806921 0.0013010668748373666 0.5318295739348371 0.03558897243107769 0.43258145363408523 0.3519932145886345 0.46395250212044103 0.18405428329092452 0.4932624113475177 0.4464539007092198 0.06028368794326241 0.3921022067363531 0.3461091753774681 0.26178861788617885 </TABLE>
    </DEFINITION>
    <DEFINITION>
      <FOR>MidLLapse</FOR>
      <GIVEN>Scenario</GIVEN>
      <GIVEN>ScnRelPlFcst</GIVEN>
      <TABLE>0.222295053312358 0.2381576647439259 0.5395472819437162 0.3333333333333333 0.3333333333333333 0.3333333333333333 0.3333333333333333 0.3333333333333333 0.3333333333333333 0.3333333333333333 0.3333333333333333 0.3333333333333333 0.3333333333333333 0.3333333333333333 0.3333333333333333 0.3333333333333333 0.3333333333333333 0.3333333333333333 0.3333333333333333 0.3333333333333333 0.3333333333333333 0.3333333333333333 0.3333333333333333 0.3333333333333333 0.3333333333333333 0.3333333333333333 0.3333333333333333 0.3333333333333333 0.3333333333333333 0.3333333333333333 0.3333333333333333 0.3333333333333333 0.3333333333333333 0.3333333333333333 0.3333333333333333 0.3333333333333333 0.20153318124833017 0.3208993567215406 0.4775674620301293 0.3333333333333333 0.3333333333333333 0.3333333333333333 0.3333333333333333 0.3333333333333333 0.3333333333333333 0.3333333333333333 0.3333333333333333 0.3333333333333333 0.3333333333333333 0.3333333333333333 0.3333333333333333 0.3333333333333333 0.3333333333333333 0.3333333333333333 0.3333333333333333 0.3333333333333333 0.3333333333333333 0.3333333333333333 0.3333333333333333 0.3333333333333333 0.3333333333333333 0.3333333333333333 0.3333333333333333 0.3333333333333333 0.3333333333333333 0.3333333333333333 0.3333333333333333 0.3333333333333333 0.3333333333333333 0.3333333333333333 0.3333333333333333 0.3333333333333333 0.39793194526398606 0.1939363286408722 0.40813172609514176 0.3333333333333333 0.3333333333333333 0.3333333333333333 0.3333333333333333 0.3333333333333333 0.3333333333333333 0.3333333333333333 0.3333333333333333 0.3333333333333333 0.3333333333333333 0.3333333333333333 0.3333333333333333 0.3333333333333333 0.3333333333333333 0.3333333333333333 0.3333333333333333 0.3333333333333333 0.3333333333333333 0.3333333333333333 0.3333333333333333 0.3333333333333333 0.3333333333333333 0.3333333333333333 0.3333333333333333 0.3333333333333333 0.3333333333333333 0.3333333333333333 0.3333333333333333 0.3333333333333333 0.3333333333333333 0.3333333333333333 0.3333333333333333 0.3333333333333333 0.4358431289491334 0.16675491545765825 0.3974019555932084 0.3333333333333333 0.3333333333333333 0.3333333333333333 0.3333333333333333 0.3333333333333333 0.3333333333333333 0.3333333333333333 0.3333333333333333 0.3333333333333333 0.3333333333333333 0.3333333333333333 0.3333333333333333 0.3333333333333333 0.3333333333333333 0.3333333333333333 0.3333333333333333 0.3333333333333333 0.3333333333333333 0.3333333333333333 0.3333333333333333 0.3333333333333333 0.3333333333333333 0.3333333333333333 0.3333333333333333 0.3333333333333333 0.3333333333333333 0.3333333333333333 0.3333333333333333 0.3333333333333333 0.3333333333333333 0.3333333333333333 0.3333333333333333 0.3333333333333333 0.02282447685214162 0.6514155765579688 0.32575994658988966 0.3333333333333333 0.3333333333333333 0.3333333333333333 0.3333333333333333 0.3333333333333333 0.3333333333333333 0.3333333333333333 0.3333333333333333 0.3333333333333333 0.3333333333333333 0.3333333333333333 0.3333333333333333 0.3333333333333333 0.3333333333333333 0.3333333333333333 0.3333333333333333 0.3333333333333333 0.3333333333333333 0.3333333333333333 0.3333333333333333 0.3333333333333333 0.3333333333333333 0.3333333333333333 0.3333333333333333 0.3333333333333333 0.3333333333333333 0.3333333333333333 0.3333333333333333 0.3333333333333333 0.3333333333333333 0.3333333333333333 0.3333333333333333 0.3333333333333333 0.00041687510421877606 0.8781057195264299 0.12147740536935132 0.3333333333333333 0.3333333333333333 0.3333333333333333 0.3333333333333333 0.3333333333333333 0.3333333333333333 0.3333333333333333 0.3333333333333333 0.3333333333333333 0.3333333333333333 0.3333333333333333 0.3333333333333333 0.3333333333333333 0.3333333333333333 0.3333333333333333 0.3333333333333333 0.3333333333333333 0.3333333333333333 0.3333333333333333 0.3333333333333333 0.3333333333333333 0.3333333333333333 0.3333333333333333 0.3333333333333333 0.3333333333333333 0.3333333333333333 0.3333333333333333 0.3333333333333333 0.3333333333333333 0.3333333333333333 0.3333333333333333 0.3333333333333333 0.3333333333333333 0.827410203451796 0.00011869999762600006 0.1724710965505781 0.3333333333333333 0.3333333333333333 0.3333333333333333 0.3333333333333333 0.3333333333333333 0.3333333333333333 0.3333333333333333 0.3333333333333333 0.3333333333333333 0.3333333333333333 0.3333333333333333 0.3333333333333333 0.3333333333333333 0.3333333333333333 0.3333333333333333 0.3333333333333333 0.3333333333333333 0.3333333333333333 0.3333333333333333 0.3333333333333333 0.3333333333333333 0.3333333333333333 0.3333333333333333 0.3333333333333333 0.3333333333333333 0.3333333333333333 0.3333333333333333 0.3333333333333333 0.3333333333333333 0.3333333333333333 0.3333333333333333 0.3333333333333333 0.3333333333333333 0.26671254874971323 0.4665749025005735 0.26671254874971323 0.3333333333333333 0.3333333333333333 0.3333333333333333 0.3333333333333333 0.3333333333333333 0.3333333333333333 0.3333333333333333 0.3333333333333333 0.3333333333333333 0.3333333333333333 0.3333333333333333 0.3333333333333333 0.3333333333333333 0.3333333333333333 0.3333333333333333 0.3333333333333333 0.3333333333333333 0.3333333333333333 0.3333333333333333 0.3333333333333333 0.3333333333333333 0.3333333333333333 0.3333333333333333 0.3333333333333333 0.3333333333333333 0.3333333333333333 0.3333333333333333 0.3333333333333333 0.3333333333333333 0.3333333333333333 0.3333333333333333 0.3333333333333333 0.3333333333333333 0.5069412129672716 0.281720179928649 0.21133860710407942 0.3333333333333333 0.3333333333333333 0.3333333333333333 0.3333333333333333 0.3333333333333333 0.3333333333333333 0.3333333333333333 0.3333333333333333 0.3333333333333333 0.3333333333333333 0.3333333333333333 0.3333333333333333 0.3333333333333333 0.3333333333333333 0.3333333333333333 0.3333333333333333 0.3333333333333333 0.3333333333333333 0.3333333333333333 0.3333333333333333 0.3333333333333333 0.3333333333333333 0.3333333333333333 0.3333333333333333 0.3333333333333333 0.3333333333333333 0.3333333333333333 0.3333333333333333 0.3333333333333333 0.3333333333333333 0.3333333333333333 0.3333333333333333 0.3333333333333333 0.28237771298995795 0.3176546809199871 0.39996760609005505 0.3333333333333333 0.3333333333333333 0.3333333333333333 0.3333333333333333 0.3333333333333333 0.3333333333333333 0.3333333333333333 0.3333333333333333 0.3333333333333333 0.3333333333333333 0.3333333333333333 0.3333333333333333 0.3333333333333333 0.3333333333333333 0.3333333333333333 0.3333333333333333 0.3333333333333333 0.3333333333333333 0.3333333333333333 0.3333333333333333 0.3333333333333333 0.3333333333333333 0.3333333333333333 0.3333333333333333 0.3333333333333333 0.3333333333333333 0.3333333333333333 0.3333333333333333 0.3333333333333333 0.3333333333333333 0.3333333333333333 0.3333333333333333 0.3333333333333333 0.1154538714119267 0.6306747166613706 0.25387141192670265 </TABLE>
    </DEFINITION>
    <DEFINITION>
      <FOR>MorningBound</FOR>
      <TABLE>0.1449419568822554 0.348922056384743 0.5061359867330016 </TABLE>
    </DEFINITION>
    <DEFINITION>
      <FOR>MorningCIN</FOR>
      <TABLE>0.5614427860696517 0.20721393034825872 0.07786069651741294 0.15348258706467663 </TABLE>
    </DEFINITION>
    <DEFINITION>
      <FOR>MountainFcst</FOR>
      <GIVEN>N34StarFcst</GIVEN>
      <GIVEN>R5Fcst</GIVEN>
      <TABLE>0.45914461640872023 0.0008320852055250456 0.5400232983857547 0.004456327985739751 0.9910873440285206 0.004456327985739751 0.3333333333333333 0.3333333333333333 0.3333333333333333 0.3333333333333333 0.3333333333333333 0.3333333333333333 0.3890539871223378 0.1750866765725607 0.4358593363051016 0.3333333333333333 0.3333333333333333 0.3333333333333333 0.9981715121594441 0.0009142439202779301 0.0009142439202779301 0.0014405070584845863 0.9971189858830307 0.0014405070584845863 0.0007162297665090961 0.0007162297665090961 0.9985675404669818 </TABLE>
    </DEFINITION>
    <DEFINITION>
      <FOR>MvmtFeatures</FOR>
      <GIVEN>Scenario</GIVEN>
      <GIVEN>ScnRelPlFcst</GIVEN>
      <TABLE>0.42845437860513896 0.00016386995280545362 0.2381030414263241 0.3332787100157315 0.25 0.25 0.25 0.25 0.25 0.25 0.25 0.25 0.25 0.25 0.25 0.25 0.25 0.25 0.25 0.25 0.25 0.25 0.25 0.25 0.25 0.25 0.25 0.25 0.25 0.25 0.25 0.25 0.25 0.25 0.25 0.25 0.25 0.25 0.25 0.25 0.25 0.25 0.25 0.25 0.25 0.25 0.25 0.25 0.08214131574079783 0.8057987545471361 0.05976015783957088 0.052299771872495224 0.25 0.25 0.25 0.25 0.25 0.25 0.25 0.25 0.25 0.25 0.25 0.25 0.25 0.25 0.25 0.25 0.25 0.25 0.25 0.25 0.25 0.25 0.25 0.25 0.25 0.25 0.25 0.25 0.25 0.25 0.25 0.25 0.25 0.25 0.25 0.25 0.25 0.25 0.25 0.25 0.25 0.25 0.25 0.25 0.2856992329090449 0.3060987945713563 0.26529967124673354 0.1429023012728652 0.25 0.25 0.25 0.25 0.25 0.25 0.25 0.25 0.25 0.25 0.25 0.25 0.25 0.25 0.25 0.25 0.25 0.25 0.25 0.25 0.25 0.25 0.25 0.25 0.25 0.25 0.25 0.25 0.25 0.25 0.25 0.25 0.25 0.25 0.25 0.25 0.25 0.25 0.25 0.25 0.25 0.25 0.25 0.25 0.4357990045536376 0.06420099544636239 0.32047548448586255 0.17952451551413748 0.25 0.25 0.25 0.25 0.25 0.25 0.25 0.25 0.25 0.25 0.25 0.25 0.25 0.25 0.25 0.25 0.25 0.25 0.25 0.25 0.25 0.25 0.25 0.25 0.25 0.25 0.25 0.25 0.25 0.25 0.25 0.25 0.25 0.25 0.25 0.25 0.25 0.25 0.25 0.25 0.25 0.25 0.25 0.25 0.015225010953245292 0.628669337172185 0.3030137072041059 0.0530919446704638 0.25 0.25 0.25 0.25 0.25 0.25 0.25 0.25 0.25 0.25 0.25 0.25 0.25 0.25 0.25 0.25 0.25 0.25 0.25 0.25 0.25 0.25 0.25 0.25 0.25 0.25 0.25 0.25 0.25 0.25 0.25 0.25 0.25 0.25 0.25 0.25 0.25 0.25 0.25 0.25 0.25 0.25 0.25 0.25 0.030577788894447226 0.9385317658829416 0.0003126563281640821 0.030577788894447226 0.25 0.25 0.25 0.25 0.25 0.25 0.25 0.25 0.25 0.25 0.25 0.25 0.25 0.25 0.25 0.25 0.25 0.25 0.25 0.25 0.25 0.25 0.25 0.25 0.25 0.25 0.25 0.25 0.25 0.25 0.25 0.25 0.25 0.25 0.25 0.25 0.25 0.25 0.25 0.25 0.25 0.25 0.25 0.25 0.19829428103411437 0.5774695534506089 0.10350046292999075 0.12073570258528596 0.25 0.25 0.25 0.25 0.25 0.25 0.25 0.25 0.25 0.25 0.25 0.25 0.25 0.25 0.25 0.25 0.25 0.25 0.25 0.25 0.25 0.25 0.25 0.25 0.25 0.25 0.25 0.25 0.25 0.25 0.25 0.25 0.25 0.25 0.25 0.25 0.25 0.25 0.25 0.25 0.25 0.25 0.25 0.25 0.5497935306262904 0.2999655884377151 0.15006882312456987 0.0001720578114246387 0.25 0.25 0.25 0.25 0.25 0.25 0.25 0.25 0.25 0.25 0.25 0.25 0.25 0.25 0.25 0.25 0.25 0.25 0.25 0.25 0.25 0.25 0.25 0.25 0.25 0.25 0.25 0.25 0.25 0.25 0.25 0.25 0.25 0.25 0.25 0.25 0.25 0.25 0.25 0.25 0.25 0.25 0.25 0.25 0.08460330386226153 0.5350453699395068 0.169061191251745 0.21129013494648677 0.25 0.25 0.25 0.25 0.25 0.25 0.25 0.25 0.25 0.25 0.25 0.25 0.25 0.25 0.25 0.25 0.25 0.25 0.25 0.25 0.25 0.25 0.25 0.25 0.25 0.25 0.25 0.25 0.25 0.25 0.25 0.25 0.25 0.25 0.25 0.25 0.25 0.25 0.25 0.25 0.25 0.25 0.25 0.25 0.00012147716229348883 0.9290816326530613 0.02363945578231293 0.04715743440233237 0.25 0.25 0.25 0.25 0.25 0.25 0.25 0.25 0.25 0.25 0.25 0.25 0.25 0.25 0.25 0.25 0.25 0.25 0.25 0.25 0.25 0.25 0.25 0.25 0.25 0.25 0.25 0.25 0.25 0.25 0.25 0.25 0.25 0.25 0.25 0.25 0.25 0.25 0.25 0.25 0.25 0.25 0.25 0.25 0.376882745471878 0.08466793771846204 0.03852875754687004 0.49992055926279 </TABLE>
    </DEFINITION>
    <DEFINITION>
      <FOR>N0_7muVerMo</FOR>
      <GIVEN>AreaMeso_ALS</GIVEN>
      <TABLE>0.5684885290148448 0.15823211875843454 0.06106612685560054 0.2122132253711201 0.30946255002858775 0.36435105774728416 0.10820468839336764 0.21798170383076043 0.0598159509202454 0.1497955010224949 0.5669734151329243 0.22341513292433537 0.08957732949087416 0.170268972142171 0.3854466858789625 0.3547070124879923 </TABLE>
    </DEFINITION>
    <DEFINITION>
      <FOR>N34StarFcst</FOR>
      <GIVEN>AMInstabMt</GIVEN>
      <GIVEN>R5Fcst</GIVEN>
      <TABLE>0.3997455470737914 0.001272264631043257 0.5989821882951655 0.17710876050989968 0.35286140493626256 0.4700298345538379 0.005065856129685916 0.005065856129685916 0.9898682877406281 0.4874360684901045 0.00111185234600845 0.511452079163887 0.129174543163201 0.37586641461877757 0.49495904221802145 0.002701242571582928 0.002701242571582928 0.9945975148568342 0.7325505544683626 0.0016307893020221784 0.2658186562296151 0.03333333333333333 0.8723163841807909 0.09435028248587571 0.001198178768272226 0.001198178768272226 0.9976036424634555 </TABLE>
    </DEFINITION>
    <DEFINITION>
      <FOR>OutflowFrMt</FOR>
      <TABLE>0.35190713101160864 0.2474295190713101 0.4006633499170813 </TABLE>
    </DEFINITION>
    <DEFINITION>
      <FOR>PlainsFcst</FOR>
      <GIVEN>N34StarFcst</GIVEN>
      <TABLE>0.8635600335852226 0.020990764063811927 0.1154492023509656 0.07669616519174043 0.8598820058997051 0.06342182890855459 0.019596758997550406 0.007725645374034295 0.9726775956284154 </TABLE>
    </DEFINITION>
    <DEFINITION>
      <FOR>QGVertMotion</FOR>
      <GIVEN>AreaMeso_ALS</GIVEN>
      <GIVEN>CombVerMo</GIVEN>
      <TABLE>0.47787385554425227 0.29340454391319093 0.06553068836893862 0.16319091217361817 0.25 0.25 0.25 0.25 0.25 0.25 0.25 0.25 0.25 0.25 0.25 0.25 0.25 0.25 0.25 0.25 0.21103710070190518 0.5937902879243662 0.07581292078498783 0.11935969058874087 0.25 0.25 0.25 0.25 0.25 0.25 0.25 0.25 0.25 0.25 0.25 0.25 0.25 0.25 0.25 0.25 0.041859866048428646 0.3468572900566718 0.4292890262751159 0.18199381761978362 0.25 0.25 0.25 0.25 0.25 0.25 0.25 0.25 0.25 0.25 0.25 0.25 0.25 0.25 0.25 0.25 0.09285369968667148 0.5131959508315257 0.15069896360568813 0.24325138587611472 </TABLE>
    </DEFINITION>
    <DEFINITION>
      <FOR>R5Fcst</FOR>
      <GIVEN>AMInstabMt</GIVEN>
      <GIVEN>CldShadeConv</GIVEN>
      <TABLE>0.4674006908462867 0.4207685664939551 0.1118307426597582 0.4493554327808471 0.41952117863720073 0.1311233885819521 0.4335719968178202 0.47653142402545745 0.08989657915672235 0.4535081330420005 0.407623209516873 0.13886865744112648 0.4796747967479675 0.31504065040650403 0.20528455284552846 0.4987238386932108 0.20929045431342522 0.29198570699336396 0.494407158836689 0.3131991051454138 0.19239373601789708 0.5284005979073244 0.26606875934230195 0.2055306427503737 0.29595791805094135 0.17635658914728683 0.5276854928017719 </TABLE>
    </DEFINITION>
    <DEFINITION>
      <FOR>RHRatio</FOR>
      <GIVEN>Scenario</GIVEN>
      <GIVEN>ScnRelPlFcst</GIVEN>
      <TABLE>0.5078220590805803 0.047806327565111 0.44437161335430875 0.3333333333333333 0.3333333333333333 0.3333333333333333 0.3333333333333333 0.3333333333333333 0.3333333333333333 0.3333333333333333 0.3333333333333333 0.3333333333333333 0.3333333333333333 0.3333333333333333 0.3333333333333333 0.3333333333333333 0.3333333333333333 0.3333333333333333 0.3333333333333333 0.3333333333333333 0.3333333333333333 0.3333333333333333 0.3333333333333333 0.3333333333333333 0.3333333333333333 0.3333333333333333 0.3333333333333333 0.3333333333333333 0.3333333333333333 0.3333333333333333 0.3333333333333333 0.3333333333333333 0.3333333333333333 0.3333333333333333 0.3333333333333333 0.3333333333333333 0.5447109357338101 0.08216700577511972 0.37312205849107016 0.3333333333333333 0.3333333333333333 0.3333333333333333 0.3333333333333333 0.3333333333333333 0.3333333333333333 0.3333333333333333 0.3333333333333333 0.3333333333333333 0.3333333333333333 0.3333333333333333 0.3333333333333333 0.3333333333333333 0.3333333333333333 0.3333333333333333 0.3333333333333333 0.3333333333333333 0.3333333333333333 0.3333333333333333 0.3333333333333333 0.3333333333333333 0.3333333333333333 0.3333333333333333 0.3333333333333333 0.3333333333333333 0.3333333333333333 0.3333333333333333 0.3333333333333333 0.3333333333333333 0.3333333333333333 0.3333333333333333 0.3333333333333333 0.3333333333333333 0.09193852032931524 0.3367332602770519 0.5713282193936329 0.3333333333333333 0.3333333333333333 0.3333333333333333 0.3333333333333333 0.3333333333333333 0.3333333333333333 0.3333333333333333 0.3333333333333333 0.3333333333333333 0.3333333333333333 0.3333333333333333 0.3333333333333333 0.3333333333333333 0.3333333333333333 0.3333333333333333 0.3333333333333333 0.3333333333333333 0.3333333333333333 0.3333333333333333 0.3333333333333333 0.3333333333333333 0.3333333333333333 0.3333333333333333 0.3333333333333333 0.3333333333333333 0.3333333333333333 0.3333333333333333 0.3333333333333333 0.3333333333333333 0.3333333333333333 0.3333333333333333 0.3333333333333333 0.3333333333333333 0.5127254756609835 0.15394119100568324 0.33333333333333337 0.3333333333333333 0.3333333333333333 0.3333333333333333 0.3333333333333333 0.3333333333333333 0.3333333333333333 0.3333333333333333 0.3333333333333333 0.3333333333333333 0.3333333333333333 0.3333333333333333 0.3333333333333333 0.3333333333333333 0.3333333333333333 0.3333333333333333 0.3333333333333333 0.3333333333333333 0.3333333333333333 0.3333333333333333 0.3333333333333333 0.3333333333333333 0.3333333333333333 0.3333333333333333 0.3333333333333333 0.3333333333333333 0.3333333333333333 0.3333333333333333 0.3333333333333333 0.3333333333333333 0.3333333333333333 0.3333333333333333 0.3333333333333333 0.3333333333333333 0.04554463708247272 0.8256034716571738 0.12885189126035343 0.3333333333333333 0.3333333333333333 0.3333333333333333 0.3333333333333333 0.3333333333333333 0.3333333333333333 0.3333333333333333 0.3333333333333333 0.3333333333333333 0.3333333333333333 0.3333333333333333 0.3333333333333333 0.3333333333333333 0.3333333333333333 0.3333333333333333 0.3333333333333333 0.3333333333333333 0.3333333333333333 0.3333333333333333 0.3333333333333333 0.3333333333333333 0.3333333333333333 0.3333333333333333 0.3333333333333333 0.3333333333333333 0.3333333333333333 0.3333333333333333 0.3333333333333333 0.3333333333333333 0.3333333333333333 0.3333333333333333 0.3333333333333333 0.3333333333333333 0.00041687510421877606 0.00041687510421877606 0.9991662497915623 0.3333333333333333 0.3333333333333333 0.3333333333333333 0.3333333333333333 0.3333333333333333 0.3333333333333333 0.3333333333333333 0.3333333333333333 0.3333333333333333 0.3333333333333333 0.3333333333333333 0.3333333333333333 0.3333333333333333 0.3333333333333333 0.3333333333333333 0.3333333333333333 0.3333333333333333 0.3333333333333333 0.3333333333333333 0.3333333333333333 0.3333333333333333 0.3333333333333333 0.3333333333333333 0.3333333333333333 0.3333333333333333 0.3333333333333333 0.3333333333333333 0.3333333333333333 0.3333333333333333 0.3333333333333333 0.3333333333333333 0.3333333333333333 0.3333333333333333 0.00011869999762600006 0.5344111293117775 0.4654701706905966 0.3333333333333333 0.3333333333333333 0.3333333333333333 0.3333333333333333 0.3333333333333333 0.3333333333333333 0.3333333333333333 0.3333333333333333 0.3333333333333333 0.3333333333333333 0.3333333333333333 0.3333333333333333 0.3333333333333333 0.3333333333333333 0.3333333333333333 0.3333333333333333 0.3333333333333333 0.3333333333333333 0.3333333333333333 0.3333333333333333 0.3333333333333333 0.3333333333333333 0.3333333333333333 0.3333333333333333 0.3333333333333333 0.3333333333333333 0.3333333333333333 0.3333333333333333 0.3333333333333333 0.3333333333333333 0.3333333333333333 0.3333333333333333 0.3333333333333333 0.7497132369809589 0.00022941041523285162 0.25005735260380824 0.3333333333333333 0.3333333333333333 0.3333333333333333 0.3333333333333333 0.3333333333333333 0.3333333333333333 0.3333333333333333 0.3333333333333333 0.3333333333333333 0.3333333333333333 0.3333333333333333 0.3333333333333333 0.3333333333333333 0.3333333333333333 0.3333333333333333 0.3333333333333333 0.3333333333333333 0.3333333333333333 0.3333333333333333 0.3333333333333333 0.3333333333333333 0.3333333333333333 0.3333333333333333 0.3333333333333333 0.3333333333333333 0.3333333333333333 0.3333333333333333 0.3333333333333333 0.3333333333333333 0.3333333333333333 0.3333333333333333 0.3333333333333333 0.3333333333333333 0.760314875135722 0.09872809058476811 0.14095703427950987 0.3333333333333333 0.3333333333333333 0.3333333333333333 0.3333333333333333 0.3333333333333333 0.3333333333333333 0.3333333333333333 0.3333333333333333 0.3333333333333333 0.3333333333333333 0.3333333333333333 0.3333333333333333 0.3333333333333333 0.3333333333333333 0.3333333333333333 0.3333333333333333 0.3333333333333333 0.3333333333333333 0.3333333333333333 0.3333333333333333 0.3333333333333333 0.3333333333333333 0.3333333333333333 0.3333333333333333 0.3333333333333333 0.3333333333333333 0.3333333333333333 0.3333333333333333 0.3333333333333333 0.3333333333333333 0.3333333333333333 0.3333333333333333 0.3333333333333333 0.29413670229996763 0.47052154195011336 0.23534175574991906 0.3333333333333333 0.3333333333333333 0.3333333333333333 0.3333333333333333 0.3333333333333333 0.3333333333333333 0.3333333333333333 0.3333333333333333 0.3333333333333333 0.3333333333333333 0.3333333333333333 0.3333333333333333 0.3333333333333333 0.3333333333333333 0.3333333333333333 0.3333333333333333 0.3333333333333333 0.3333333333333333 0.3333333333333333 0.3333333333333333 0.3333333333333333 0.3333333333333333 0.3333333333333333 0.3333333333333333 0.3333333333333333 0.3333333333333333 0.3333333333333333 0.3333333333333333 0.3333333333333333 0.3333333333333333 0.3333333333333333 0.3333333333333333 0.3333333333333333 0.4538078593369346 0.1769727783073827 0.36921936235568265 </TABLE>
    </DEFINITION>
    <DEFINITION>
      <FOR>RaoContMoist</FOR>
      <GIVEN>CombMoisture</GIVEN>
      <TABLE>0.46628838451268356 0.2953938584779706 0.12983978638184246 0.10847797062750333 0.17099932478055369 0.5653274814314653 0.08457123565158677 0.17910195813639432 0.1569767441860465 0.2562015503875969 0.3802325581395349 0.2065891472868217 0.1687772925764192 0.4237991266375546 0.14432314410480349 0.2631004366812227 </TABLE>
    </DEFINITION>
    <DEFINITION>
      <FOR>SatContMoist</FOR>
      <GIVEN>CombMoisture</GIVEN>
      <GIVEN>RaoContMoist</GIVEN>
      <TABLE>0.20705082319255547 0.5391911238367931 0.05816034359341446 0.19559770937723694 0.4172316384180791 0.3268361581920904 0.0014124293785310734 0.25451977401129944 0.4967866323907455 0.4967866323907455 0.003213367609254499 0.003213367609254499 0.693076923076923 0.25 0.0038461538461538464 0.05307692307692308 0.14338598223099705 0.47507403751233956 0.11179664363277395 0.26974333662388944 0.09114661092863541 0.6787847118542849 0.06248133771275007 0.16758733950432966 0.09830339321357286 0.8967065868263473 0.00249500998003992 0.00249500998003992 0.15197926484448634 0.7099434495758719 0.061498586239396795 0.07657869934024505 0.43765432098765433 0.0030864197530864196 0.2006172839506173 0.358641975308642 0.6312405446293494 0.0018910741301059002 0.26815431164901665 0.098714069591528 0.1806829765545362 0.1643730886850153 0.27854230377166156 0.37640163098878693 0.3025328330206379 0.0924015009380863 0.5426829268292683 0.0623827392120075 0.31209573091849935 0.20860284605433377 0.2706985769728331 0.20860284605433377 0.22320968572900568 0.22320968572900568 0.27266872746007215 0.28091190108191655 0.2923600605143722 0.36497730711043874 0.05030257186081694 0.2923600605143722 0.18692946058091287 0.3462655601659751 0.17365145228215767 0.29315352697095437 </TABLE>
    </DEFINITION>
    <DEFINITION>
      <FOR>ScenRel3_4</FOR>
      <GIVEN>Scenario</GIVEN>
      <GIVEN>ScnRelPlFcst</GIVEN>
      <TABLE>0.9994756161510224 0.00013109596224436285 0.00013109596224436285 0.00013109596224436285 0.00013109596224436285 0.2 0.2 0.2 0.2 0.2 0.2 0.2 0.2 0.2 0.2 0.2 0.2 0.2 0.2 0.2 0.2 0.2 0.2 0.2 0.2 0.2 0.2 0.2 0.2 0.2 0.2 0.2 0.2 0.2 0.2 0.2 0.2 0.2 0.2 0.2 0.2 0.2 0.2 0.2 0.2 0.2 0.2 0.2 0.2 0.2 0.2 0.2 0.2 0.2 0.2 0.2 0.2 0.2 0.2 0.2 6.165608237252608e-05 0.9997533756705103 6.165608237252608e-05 6.165608237252608e-05 6.165608237252608e-05 0.2 0.2 0.2 0.2 0.2 0.2 0.2 0.2 0.2 0.2 0.2 0.2 0.2 0.2 0.2 0.2 0.2 0.2 0.2 0.2 0.2 0.2 0.2 0.2 0.2 0.2 0.2 0.2 0.2 0.2 0.2 0.2 0.2 0.2 0.2 0.2 0.2 0.2 0.2 0.2 0.2 0.2 0.2 0.2 0.2 0.2 0.2 0.2 0.2 0.2 0.2 0.2 0.2 0.2 0.2 0.9996628171626064 8.429570934839416e-05 8.429570934839416e-05 8.429570934839416e-05 8.429570934839416e-05 0.2 0.2 0.2 0.2 0.2 0.2 0.2 0.2 0.2 0.2 0.2 0.2 0.2 0.2 0.2 0.2 0.2 0.2 0.2 0.2 0.2 0.2 0.2 0.2 0.2 0.2 0.2 0.2 0.2 0.2 0.2 0.2 0.2 0.2 0.2 0.2 0.2 0.2 0.2 0.2 0.2 0.2 0.2 0.2 0.2 0.2 0.2 0.2 0.2 0.2 0.2 0.2 0.2 0.2 0.2 0.00010589854918987609 0.00010589854918987609 0.9995764058032404 0.00010589854918987609 0.00010589854918987609 0.2 0.2 0.2 0.2 0.2 0.2 0.2 0.2 0.2 0.2 0.2 0.2 0.2 0.2 0.2 0.2 0.2 0.2 0.2 0.2 0.2 0.2 0.2 0.2 0.2 0.2 0.2 0.2 0.2 0.2 0.2 0.2 0.2 0.2 0.2 0.2 0.2 0.2 0.2 0.2 0.2 0.2 0.2 0.2 0.2 0.2 0.2 0.2 0.2 0.2 0.2 0.2 0.2 0.2 0.2 0.9997496401076551 6.258997308631161e-05 6.258997308631161e-05 6.258997308631161e-05 6.258997308631161e-05 0.2 0.2 0.2 0.2 0.2 0.2 0.2 0.2 0.2 0.2 0.2 0.2 0.2 0.2 0.2 0.2 0.2 0.2 0.2 0.2 0.2 0.2 0.2 0.2 0.2 0.2 0.2 0.2 0.2 0.2 0.2 0.2 0.2 0.2 0.2 0.2 0.2 0.2 0.2 0.2 0.2 0.2 0.2 0.2 0.2 0.2 0.2 0.2 0.2 0.2 0.2 0.2 0.2 0.2 0.2 0.9989994997498748 0.00025012506253126556 0.00025012506253126556 0.00025012506253126556 0.00025012506253126556 0.2 0.2 0.2 0.2 0.2 0.2 0.2 0.2 0.2 0.2 0.2 0.2 0.2 0.2 0.2 0.2 0.2 0.2 0.2 0.2 0.2 0.2 0.2 0.2 0.2 0.2 0.2 0.2 0.2 0.2 0.2 0.2 0.2 0.2 0.2 0.2 0.2 0.2 0.2 0.2 0.2 0.2 0.2 0.2 0.2 0.2 0.2 0.2 0.2 0.2 0.2 0.2 0.2 0.2 0.2 7.121999857560003e-05 7.121999857560003e-05 7.121999857560003e-05 0.9997151200056975 7.121999857560003e-05 0.2 0.2 0.2 0.2 0.2 0.2 0.2 0.2 0.2 0.2 0.2 0.2 0.2 0.2 0.2 0.2 0.2 0.2 0.2 0.2 0.2 0.2 0.2 0.2 0.2 0.2 0.2 0.2 0.2 0.2 0.2 0.2 0.2 0.2 0.2 0.2 0.2 0.2 0.2 0.2 0.2 0.2 0.2 0.2 0.2 0.2 0.2 0.2 0.2 0.2 0.2 0.2 0.2 0.2 0.2 0.00013764624913971095 0.00013764624913971095 0.00013764624913971095 0.00013764624913971095 0.9994494150034412 0.2 0.2 0.2 0.2 0.2 0.2 0.2 0.2 0.2 0.2 0.2 0.2 0.2 0.2 0.2 0.2 0.2 0.2 0.2 0.2 0.2 0.2 0.2 0.2 0.2 0.2 0.2 0.2 0.2 0.2 0.2 0.2 0.2 0.2 0.2 0.2 0.2 0.2 0.2 0.2 0.2 0.2 0.2 0.2 0.2 0.2 0.2 0.2 0.2 0.2 0.2 0.2 0.2 0.2 0.2 0.00011633317822242903 0.00011633317822242903 0.00011633317822242903 0.00011633317822242903 0.9995346672871102 0.2 0.2 0.2 0.2 0.2 0.2 0.2 0.2 0.2 0.2 0.2 0.2 0.2 0.2 0.2 0.2 0.2 0.2 0.2 0.2 0.2 0.2 0.2 0.2 0.2 0.2 0.2 0.2 0.2 0.2 0.2 0.2 0.2 0.2 0.2 0.2 0.2 0.2 0.2 0.2 0.2 0.2 0.2 0.2 0.2 0.2 0.2 0.2 0.2 0.2 0.2 0.2 0.2 0.2 0.2 9.718172983479105e-05 9.718172983479105e-05 9.718172983479105e-05 0.9996112730806608 9.718172983479105e-05 0.2 0.2 0.2 0.2 0.2 0.2 0.2 0.2 0.2 0.2 0.2 0.2 0.2 0.2 0.2 0.2 0.2 0.2 0.2 0.2 0.2 0.2 0.2 0.2 0.2 0.2 0.2 0.2 0.2 0.2 0.2 0.2 0.2 0.2 0.2 0.2 0.2 0.2 0.2 0.2 0.2 0.2 0.2 0.2 0.2 0.2 0.2 0.2 0.2 0.2 0.2 0.2 0.2 0.2 0.2 0.9997457896409283 6.355258976803308e-05 6.355258976803308e-05 6.355258976803308e-05 6.355258976803308e-05 </TABLE>
    </DEFINITION>
    <DEFINITION>
      <FOR>ScenRelAMCIN</FOR>
      <GIVEN>Scenario</GIVEN>
      <TABLE>0.9964183381088826 0.0035816618911174783 0.9983096686950643 0.0016903313049357676 0.0023084025854108953 0.997691597414589 0.0028968713789107757 0.9971031286210892 0.0017158544955387784 0.9982841455044613 0.006793478260869565 0.9932065217391305 0.0019516003122560497 0.998048399687744 0.0037593984962406013 0.9962406015037594 0.003180661577608142 0.9968193384223918 0.002659574468085106 0.9973404255319148 0.0017421602787456448 0.9982578397212544 </TABLE>
    </DEFINITION>
    <DEFINITION>
      <FOR>ScenRelAMIns</FOR>
      <GIVEN>Scenario</GIVEN>
      <GIVEN>ScnRelPlFcst</GIVEN>
      <TABLE>0.9994537668239819 0.00010924663520363575 0.00010924663520363575 0.00010924663520363575 0.00010924663520363575 0.00010924663520363575 0.16666666666666666 0.16666666666666666 0.16666666666666666 0.16666666666666666 0.16666666666666666 0.16666666666666666 0.16666666666666666 0.16666666666666666 0.16666666666666666 0.16666666666666666 0.16666666666666666 0.16666666666666666 0.16666666666666666 0.16666666666666666 0.16666666666666666 0.16666666666666666 0.16666666666666666 0.16666666666666666 0.16666666666666666 0.16666666666666666 0.16666666666666666 0.16666666666666666 0.16666666666666666 0.16666666666666666 0.16666666666666666 0.16666666666666666 0.16666666666666666 0.16666666666666666 0.16666666666666666 0.16666666666666666 0.16666666666666666 0.16666666666666666 0.16666666666666666 0.16666666666666666 0.16666666666666666 0.16666666666666666 0.16666666666666666 0.16666666666666666 0.16666666666666666 0.16666666666666666 0.16666666666666666 0.16666666666666666 0.16666666666666666 0.16666666666666666 0.16666666666666666 0.16666666666666666 0.16666666666666666 0.16666666666666666 0.16666666666666666 0.16666666666666666 0.16666666666666666 0.16666666666666666 0.16666666666666666 0.16666666666666666 0.16666666666666666 0.16666666666666666 0.16666666666666666 0.16666666666666666 0.16666666666666666 0.16666666666666666 0.16666666666666666 0.16666666666666666 0.16666666666666666 0.16666666666666666 0.16666666666666666 0.16666666666666666 0.9997430996567812 5.138006864377171e-05 5.138006864377171e-05 5.138006864377171e-05 5.138006864377171e-05 5.138006864377171e-05 0.16666666666666666 0.16666666666666666 0.16666666666666666 0.16666666666666666 0.16666666666666666 0.16666666666666666 0.16666666666666666 0.16666666666666666 0.16666666666666666 0.16666666666666666 0.16666666666666666 0.16666666666666666 0.16666666666666666 0.16666666666666666 0.16666666666666666 0.16666666666666666 0.16666666666666666 0.16666666666666666 0.16666666666666666 0.16666666666666666 0.16666666666666666 0.16666666666666666 0.16666666666666666 0.16666666666666666 0.16666666666666666 0.16666666666666666 0.16666666666666666 0.16666666666666666 0.16666666666666666 0.16666666666666666 0.16666666666666666 0.16666666666666666 0.16666666666666666 0.16666666666666666 0.16666666666666666 0.16666666666666666 0.16666666666666666 0.16666666666666666 0.16666666666666666 0.16666666666666666 0.16666666666666666 0.16666666666666666 0.16666666666666666 0.16666666666666666 0.16666666666666666 0.16666666666666666 0.16666666666666666 0.16666666666666666 0.16666666666666666 0.16666666666666666 0.16666666666666666 0.16666666666666666 0.16666666666666666 0.16666666666666666 0.16666666666666666 0.16666666666666666 0.16666666666666666 0.16666666666666666 0.16666666666666666 0.16666666666666666 0.16666666666666666 0.16666666666666666 0.16666666666666666 0.16666666666666666 0.16666666666666666 0.16666666666666666 7.024642445699515e-05 0.9996487678777151 7.024642445699515e-05 7.024642445699515e-05 7.024642445699515e-05 7.024642445699515e-05 0.16666666666666666 0.16666666666666666 0.16666666666666666 0.16666666666666666 0.16666666666666666 0.16666666666666666 0.16666666666666666 0.16666666666666666 0.16666666666666666 0.16666666666666666 0.16666666666666666 0.16666666666666666 0.16666666666666666 0.16666666666666666 0.16666666666666666 0.16666666666666666 0.16666666666666666 0.16666666666666666 0.16666666666666666 0.16666666666666666 0.16666666666666666 0.16666666666666666 0.16666666666666666 0.16666666666666666 0.16666666666666666 0.16666666666666666 0.16666666666666666 0.16666666666666666 0.16666666666666666 0.16666666666666666 0.16666666666666666 0.16666666666666666 0.16666666666666666 0.16666666666666666 0.16666666666666666 0.16666666666666666 0.16666666666666666 0.16666666666666666 0.16666666666666666 0.16666666666666666 0.16666666666666666 0.16666666666666666 0.16666666666666666 0.16666666666666666 0.16666666666666666 0.16666666666666666 0.16666666666666666 0.16666666666666666 0.16666666666666666 0.16666666666666666 0.16666666666666666 0.16666666666666666 0.16666666666666666 0.16666666666666666 0.16666666666666666 0.16666666666666666 0.16666666666666666 0.16666666666666666 0.16666666666666666 0.16666666666666666 0.16666666666666666 0.16666666666666666 0.16666666666666666 0.16666666666666666 0.16666666666666666 0.16666666666666666 8.824879099156343e-05 0.9995587560450423 8.824879099156343e-05 8.824879099156343e-05 8.824879099156343e-05 8.824879099156343e-05 0.16666666666666666 0.16666666666666666 0.16666666666666666 0.16666666666666666 0.16666666666666666 0.16666666666666666 0.16666666666666666 0.16666666666666666 0.16666666666666666 0.16666666666666666 0.16666666666666666 0.16666666666666666 0.16666666666666666 0.16666666666666666 0.16666666666666666 0.16666666666666666 0.16666666666666666 0.16666666666666666 0.16666666666666666 0.16666666666666666 0.16666666666666666 0.16666666666666666 0.16666666666666666 0.16666666666666666 0.16666666666666666 0.16666666666666666 0.16666666666666666 0.16666666666666666 0.16666666666666666 0.16666666666666666 0.16666666666666666 0.16666666666666666 0.16666666666666666 0.16666666666666666 0.16666666666666666 0.16666666666666666 0.16666666666666666 0.16666666666666666 0.16666666666666666 0.16666666666666666 0.16666666666666666 0.16666666666666666 0.16666666666666666 0.16666666666666666 0.16666666666666666 0.16666666666666666 0.16666666666666666 0.16666666666666666 0.16666666666666666 0.16666666666666666 0.16666666666666666 0.16666666666666666 0.16666666666666666 0.16666666666666666 0.16666666666666666 0.16666666666666666 0.16666666666666666 0.16666666666666666 0.16666666666666666 0.16666666666666666 0.16666666666666666 0.16666666666666666 0.16666666666666666 0.16666666666666666 0.16666666666666666 0.16666666666666666 5.215831090525965e-05 0.9997392084454737 5.215831090525965e-05 5.215831090525965e-05 5.215831090525965e-05 5.215831090525965e-05 0.16666666666666666 0.16666666666666666 0.16666666666666666 0.16666666666666666 0.16666666666666666 0.16666666666666666 0.16666666666666666 0.16666666666666666 0.16666666666666666 0.16666666666666666 0.16666666666666666 0.16666666666666666 0.16666666666666666 0.16666666666666666 0.16666666666666666 0.16666666666666666 0.16666666666666666 0.16666666666666666 0.16666666666666666 0.16666666666666666 0.16666666666666666 0.16666666666666666 0.16666666666666666 0.16666666666666666 0.16666666666666666 0.16666666666666666 0.16666666666666666 0.16666666666666666 0.16666666666666666 0.16666666666666666 0.16666666666666666 0.16666666666666666 0.16666666666666666 0.16666666666666666 0.16666666666666666 0.16666666666666666 0.16666666666666666 0.16666666666666666 0.16666666666666666 0.16666666666666666 0.16666666666666666 0.16666666666666666 0.16666666666666666 0.16666666666666666 0.16666666666666666 0.16666666666666666 0.16666666666666666 0.16666666666666666 0.16666666666666666 0.16666666666666666 0.16666666666666666 0.16666666666666666 0.16666666666666666 0.16666666666666666 0.16666666666666666 0.16666666666666666 0.16666666666666666 0.16666666666666666 0.16666666666666666 0.16666666666666666 0.16666666666666666 0.16666666666666666 0.16666666666666666 0.16666666666666666 0.16666666666666666 0.16666666666666666 0.00020843755210938808 0.00020843755210938808 0.9989578122394532 0.00020843755210938808 0.00020843755210938808 0.00020843755210938808 0.16666666666666666 0.16666666666666666 0.16666666666666666 0.16666666666666666 0.16666666666666666 0.16666666666666666 0.16666666666666666 0.16666666666666666 0.16666666666666666 0.16666666666666666 0.16666666666666666 0.16666666666666666 0.16666666666666666 0.16666666666666666 0.16666666666666666 0.16666666666666666 0.16666666666666666 0.16666666666666666 0.16666666666666666 0.16666666666666666 0.16666666666666666 0.16666666666666666 0.16666666666666666 0.16666666666666666 0.16666666666666666 0.16666666666666666 0.16666666666666666 0.16666666666666666 0.16666666666666666 0.16666666666666666 0.16666666666666666 0.16666666666666666 0.16666666666666666 0.16666666666666666 0.16666666666666666 0.16666666666666666 0.16666666666666666 0.16666666666666666 0.16666666666666666 0.16666666666666666 0.16666666666666666 0.16666666666666666 0.16666666666666666 0.16666666666666666 0.16666666666666666 0.16666666666666666 0.16666666666666666 0.16666666666666666 0.16666666666666666 0.16666666666666666 0.16666666666666666 0.16666666666666666 0.16666666666666666 0.16666666666666666 0.16666666666666666 0.16666666666666666 0.16666666666666666 0.16666666666666666 0.16666666666666666 0.16666666666666666 0.16666666666666666 0.16666666666666666 0.16666666666666666 0.16666666666666666 0.16666666666666666 0.16666666666666666 5.934999881300003e-05 5.934999881300003e-05 5.934999881300003e-05 0.9997032500059351 5.934999881300003e-05 5.934999881300003e-05 0.16666666666666666 0.16666666666666666 0.16666666666666666 0.16666666666666666 0.16666666666666666 0.16666666666666666 0.16666666666666666 0.16666666666666666 0.16666666666666666 0.16666666666666666 0.16666666666666666 0.16666666666666666 0.16666666666666666 0.16666666666666666 0.16666666666666666 0.16666666666666666 0.16666666666666666 0.16666666666666666 0.16666666666666666 0.16666666666666666 0.16666666666666666 0.16666666666666666 0.16666666666666666 0.16666666666666666 0.16666666666666666 0.16666666666666666 0.16666666666666666 0.16666666666666666 0.16666666666666666 0.16666666666666666 0.16666666666666666 0.16666666666666666 0.16666666666666666 0.16666666666666666 0.16666666666666666 0.16666666666666666 0.16666666666666666 0.16666666666666666 0.16666666666666666 0.16666666666666666 0.16666666666666666 0.16666666666666666 0.16666666666666666 0.16666666666666666 0.16666666666666666 0.16666666666666666 0.16666666666666666 0.16666666666666666 0.16666666666666666 0.16666666666666666 0.16666666666666666 0.16666666666666666 0.16666666666666666 0.16666666666666666 0.16666666666666666 0.16666666666666666 0.16666666666666666 0.16666666666666666 0.16666666666666666 0.16666666666666666 0.16666666666666666 0.16666666666666666 0.16666666666666666 0.16666666666666666 0.16666666666666666 0.16666666666666666 0.0001147052076164258 0.0001147052076164258 0.0001147052076164258 0.0001147052076164258 0.9994264739619179 0.0001147052076164258 0.16666666666666666 0.16666666666666666 0.16666666666666666 0.16666666666666666 0.16666666666666666 0.16666666666666666 0.16666666666666666 0.16666666666666666 0.16666666666666666 0.16666666666666666 0.16666666666666666 0.16666666666666666 0.16666666666666666 0.16666666666666666 0.16666666666666666 0.16666666666666666 0.16666666666666666 0.16666666666666666 0.16666666666666666 0.16666666666666666 0.16666666666666666 0.16666666666666666 0.16666666666666666 0.16666666666666666 0.16666666666666666 0.16666666666666666 0.16666666666666666 0.16666666666666666 0.16666666666666666 0.16666666666666666 0.16666666666666666 0.16666666666666666 0.16666666666666666 0.16666666666666666 0.16666666666666666 0.16666666666666666 0.16666666666666666 0.16666666666666666 0.16666666666666666 0.16666666666666666 0.16666666666666666 0.16666666666666666 0.16666666666666666 0.16666666666666666 0.16666666666666666 0.16666666666666666 0.16666666666666666 0.16666666666666666 0.16666666666666666 0.16666666666666666 0.16666666666666666 0.16666666666666666 0.16666666666666666 0.16666666666666666 0.16666666666666666 0.16666666666666666 0.16666666666666666 0.16666666666666666 0.16666666666666666 0.16666666666666666 0.16666666666666666 0.16666666666666666 0.16666666666666666 0.16666666666666666 0.16666666666666666 0.16666666666666666 0.9995152784240733 9.694431518535755e-05 9.694431518535755e-05 9.694431518535755e-05 9.694431518535755e-05 9.694431518535755e-05 0.16666666666666666 0.16666666666666666 0.16666666666666666 0.16666666666666666 0.16666666666666666 0.16666666666666666 0.16666666666666666 0.16666666666666666 0.16666666666666666 0.16666666666666666 0.16666666666666666 0.16666666666666666 0.16666666666666666 0.16666666666666666 0.16666666666666666 0.16666666666666666 0.16666666666666666 0.16666666666666666 0.16666666666666666 0.16666666666666666 0.16666666666666666 0.16666666666666666 0.16666666666666666 0.16666666666666666 0.16666666666666666 0.16666666666666666 0.16666666666666666 0.16666666666666666 0.16666666666666666 0.16666666666666666 0.16666666666666666 0.16666666666666666 0.16666666666666666 0.16666666666666666 0.16666666666666666 0.16666666666666666 0.16666666666666666 0.16666666666666666 0.16666666666666666 0.16666666666666666 0.16666666666666666 0.16666666666666666 0.16666666666666666 0.16666666666666666 0.16666666666666666 0.16666666666666666 0.16666666666666666 0.16666666666666666 0.16666666666666666 0.16666666666666666 0.16666666666666666 0.16666666666666666 0.16666666666666666 0.16666666666666666 0.16666666666666666 0.16666666666666666 0.16666666666666666 0.16666666666666666 0.16666666666666666 0.16666666666666666 0.16666666666666666 0.16666666666666666 0.16666666666666666 0.16666666666666666 0.16666666666666666 0.16666666666666666 8.09847748623259e-05 0.9995950761256884 8.09847748623259e-05 8.09847748623259e-05 8.09847748623259e-05 8.09847748623259e-05 0.16666666666666666 0.16666666666666666 0.16666666666666666 0.16666666666666666 0.16666666666666666 0.16666666666666666 0.16666666666666666 0.16666666666666666 0.16666666666666666 0.16666666666666666 0.16666666666666666 0.16666666666666666 0.16666666666666666 0.16666666666666666 0.16666666666666666 0.16666666666666666 0.16666666666666666 0.16666666666666666 0.16666666666666666 0.16666666666666666 0.16666666666666666 0.16666666666666666 0.16666666666666666 0.16666666666666666 0.16666666666666666 0.16666666666666666 0.16666666666666666 0.16666666666666666 0.16666666666666666 0.16666666666666666 0.16666666666666666 0.16666666666666666 0.16666666666666666 0.16666666666666666 0.16666666666666666 0.16666666666666666 0.16666666666666666 0.16666666666666666 0.16666666666666666 0.16666666666666666 0.16666666666666666 0.16666666666666666 0.16666666666666666 0.16666666666666666 0.16666666666666666 0.16666666666666666 0.16666666666666666 0.16666666666666666 0.16666666666666666 0.16666666666666666 0.16666666666666666 0.16666666666666666 0.16666666666666666 0.16666666666666666 0.16666666666666666 0.16666666666666666 0.16666666666666666 0.16666666666666666 0.16666666666666666 0.16666666666666666 0.16666666666666666 0.16666666666666666 0.16666666666666666 0.16666666666666666 0.16666666666666666 0.16666666666666666 5.296049147336088e-05 5.296049147336088e-05 5.296049147336088e-05 5.296049147336088e-05 5.296049147336088e-05 0.9997351975426333 </TABLE>
    </DEFINITION>
    <DEFINITION>
      <FOR>Scenario</FOR>
      <TABLE>0.06313885119855267 0.13378561736770692 0.09796472184531883 0.07806422433288103 0.13179556761646313 0.033288104929895965 0.11587516960651287 0.060153776571687 0.0710990502035278 0.08502939846223426 0.12980551786521935 </TABLE>
    </DEFINITION>
    <DEFINITION>
      <FOR>ScnRelPlFcst</FOR>
      <GIVEN>Scenario</GIVEN>
