<?xml version='1.0' encoding='utf-8'?>
<BIF VERSION="0.3">
  <NETWORK>
    <NAME>UNTITLED</NAME>
    <VARIABLE TYPE="nature">
      <NAME>AMCINInScen</NAME>
      <OUTCOME>0</OUTCOME>
      <OUTCOME>1</OUTCOME>
      <OUTCOME>2</OUTCOME>
      <PROPERTY>weight = None</PROPERTY>
    </VARIABLE>
    <VARIABLE TYPE="nature">
      <NAME>AMDewptCalPl</NAME>
      <OUTCOME>0</OUTCOME>
      <OUTCOME>1</OUTCOME>
      <OUTCOME>2</OUTCOME>
      <PROPERTY>weight = None</PROPERTY>
    </VARIABLE>
    <VARIABLE TYPE="nature">
      <NAME>AMInsWliScen</NAME>
      <OUTCOME>0</OUTCOME>
      <OUTCOME>1</OUTCOME>
      <OUTCOME>2</OUTCOME>
      <PROPERTY>weight = None</PROPERTY>
    </VARIABLE>
    <VARIABLE TYPE="nature">
      <NAME>AMInstabMt</NAME>
      <OUTCOME>0</OUTCOME>
      <OUTCOME>1</OUTCOME>
      <OUTCOME>2</OUTCOME>
      <PROPERTY>weight = None</PROPERTY>
    </VARIABLE>
    <VARIABLE TYPE="nature">
      <NAME>AreaMeso_ALS</NAME>
      <OUTCOME>0</OUTCOME>
      <OUTCOME>1</OUTCOME>
      <OUTCOME>2</OUTCOME>
      <OUTCOME>3</OUTCOME>
      <PROPERTY>weight = None</PROPERTY>
    </VARIABLE>
    <VARIABLE TYPE="nature">
      <NAME>AreaMoDryAir</NAME>
      <OUTCOME>0</OUTCOME>
      <OUTCOME>1</OUTCOME>
      <OUTCOME>2</OUTCOME>
      <OUTCOME>3</OUTCOME>
      <PROPERTY>weight = None</PROPERTY>
    </VARIABLE>
    <VARIABLE TYPE="nature">
      <NAME>Boundaries</NAME>
      <OUTCOME>0</OUTCOME>
      <OUTCOME>1</OUTCOME>
      <OUTCOME>2</OUTCOME>
      <PROPERTY>weight = None</PROPERTY>
    </VARIABLE>
    <VARIABLE TYPE="nature">
      <NAME>CapChange</NAME>
      <OUTCOME>0</OUTCOME>
      <OUTCOME>1</OUTCOME>
      <OUTCOME>2</OUTCOME>
      <PROPERTY>weight = None</PROPERTY>
    </VARIABLE>
    <VARIABLE TYPE="nature">
      <NAME>CapInScen</NAME>
      <OUTCOME>0</OUTCOME>
      <OUTCOME>1</OUTCOME>
      <OUTCOME>2</OUTCOME>
      <PROPERTY>weight = None</PROPERTY>
    </VARIABLE>
    <VARIABLE TYPE="nature">
      <NAME>CldShadeConv</NAME>
      <OUTCOME>0</OUTCOME>
      <OUTCOME>1</OUTCOME>
      <OUTCOME>2</OUTCOME>
      <PROPERTY>weight = None</PROPERTY>
    </VARIABLE>
    <VARIABLE TYPE="nature">
      <NAME>CldShadeOth</NAME>
      <OUTCOME>0</OUTCOME>
      <OUTCOME>1</OUTCOME>
      <OUTCOME>2</OUTCOME>
      <PROPERTY>weight = None</PROPERTY>
    </VARIABLE>
    <VARIABLE TYPE="nature">
      <NAME>CombClouds</NAME>
      <OUTCOME>0</OUTCOME>
      <OUTCOME>1</OUTCOME>
      <OUTCOME>2</OUTCOME>
      <PROPERTY>weight = None</PROPERTY>
    </VARIABLE>
    <VARIABLE TYPE="nature">
      <NAME>CombMoisture</NAME>
      <OUTCOME>0</OUTCOME>
      <OUTCOME>1</OUTCOME>
      <OUTCOME>2</OUTCOME>
      <OUTCOME>3</OUTCOME>
      <PROPERTY>weight = None</PROPERTY>
    </VARIABLE>
    <VARIABLE TYPE="nature">
      <NAME>CombVerMo</NAME>
      <OUTCOME>0</OUTCOME>
      <OUTCOME>1</OUTCOME>
      <OUTCOME>2</OUTCOME>
      <OUTCOME>3</OUTCOME>
      <PROPERTY>weight = None</PROPERTY>
    </VARIABLE>
    <VARIABLE TYPE="nature">
      <NAME>CompPlFcst</NAME>
      <OUTCOME>0</OUTCOME>
      <OUTCOME>1</OUTCOME>
      <OUTCOME>2</OUTCOME>
      <PROPERTY>weight = None</PROPERTY>
    </VARIABLE>
    <VARIABLE TYPE="nature">
      <NAME>CurPropConv</NAME>
      <OUTCOME>0</OUTCOME>
      <OUTCOME>1</OUTCOME>
      <OUTCOME>2</OUTCOME>
      <OUTCOME>3</OUTCOME>
      <PROPERTY>weight = None</PROPERTY>
    </VARIABLE>
    <VARIABLE TYPE="nature">
      <NAME>Date</NAME>
      <OUTCOME>0</OUTCOME>
      <OUTCOME>1</OUTCOME>
      <OUTCOME>2</OUTCOME>
      <OUTCOME>3</OUTCOME>
      <OUTCOME>4</OUTCOME>
      <OUTCOME>5</OUTCOME>
      <PROPERTY>weight = None</PROPERTY>
    </VARIABLE>
    <VARIABLE TYPE="nature">
      <NAME>Dewpoints</NAME>
      <OUTCOME>0</OUTCOME>
      <OUTCOME>1</OUTCOME>
      <OUTCOME>2</OUTCOME>
      <OUTCOME>3</OUTCOME>
      <OUTCOME>4</OUTCOME>
      <OUTCOME>5</OUTCOME>
      <OUTCOME>6</OUTCOME>
      <PROPERTY>weight = None</PROPERTY>
    </VARIABLE>
    <VARIABLE TYPE="nature">
      <NAME>IRCloudCover</NAME>
      <OUTCOME>0</OUTCOME>
      <OUTCOME>1</OUTCOME>
      <OUTCOME>2</OUTCOME>
      <PROPERTY>weight = None</PROPERTY>
    </VARIABLE>
    <VARIABLE TYPE="nature">
      <NAME>InsChange</NAME>
      <OUTCOME>0</OUTCOME>
      <OUTCOME>1</OUTCOME>
      <OUTCOME>2</OUTCOME>
      <PROPERTY>weight = None</PROPERTY>
    </VARIABLE>
    <VARIABLE TYPE="nature">
      <NAME>InsInMt</NAME>
      <OUTCOME>0</OUTCOME>
      <OUTCOME>1</OUTCOME>
      <OUTCOME>2</OUTCOME>
      <PROPERTY>weight = None</PROPERTY>
    </VARIABLE>
    <VARIABLE TYPE="nature">
      <NAME>InsSclInScen</NAME>
      <OUTCOME>0</OUTCOME>
      <OUTCOME>1</OUTCOME>
      <OUTCOME>2</OUTCOME>
      <PROPERTY>weight = None</PROPERTY>
    </VARIABLE>
    <VARIABLE TYPE="nature">
      <NAME>LIfr12ZDENSd</NAME>
      <OUTCOME>0</OUTCOME>
      <OUTCOME>1</OUTCOME>
      <OUTCOME>2</OUTCOME>
      <OUTCOME>3</OUTCOME>
      <PROPERTY>weight = None</PROPERTY>
    </VARIABLE>
    <VARIABLE TYPE="nature">
      <NAME>LLIW</NAME>
      <OUTCOME>0</OUTCOME>
      <OUTCOME>1</OUTCOME>
      <OUTCOME>2</OUTCOME>
      <OUTCOME>3</OUTCOME>
      <PROPERTY>weight = None</PROPERTY>
    </VARIABLE>
    <VARIABLE TYPE="nature">
      <NAME>LatestCIN</NAME>
      <OUTCOME>0</OUTCOME>
      <OUTCOME>1</OUTCOME>
      <OUTCOME>2</OUTCOME>
      <OUTCOME>3</OUTCOME>
      <PROPERTY>weight = None</PROPERTY>
    </VARIABLE>
    <VARIABLE TYPE="nature">
      <NAME>LoLevMoistAd</NAME>
      <OUTCOME>0</OUTCOME>
      <OUTCOME>1</OUTCOME>
      <OUTCOME>2</OUTCOME>
      <OUTCOME>3</OUTCOME>
      <PROPERTY>weight = None</PROPERTY>
    </VARIABLE>
    <VARIABLE TYPE="nature">
      <NAME>LowLLapse</NAME>
      <OUTCOME>0</OUTCOME>
      <OUTCOME>1</OUTCOME>
      <OUTCOME>2</OUTCOME>
      <OUTCOME>3</OUTCOME>
      <PROPERTY>weight = None</PROPERTY>
    </VARIABLE>
    <VARIABLE TYPE="nature">
      <NAME>MeanRH</NAME>
      <OUTCOME>0</OUTCOME>
      <OUTCOME>1</OUTCOME>
      <OUTCOME>2</OUTCOME>
      <PROPERTY>weight = None</PROPERTY>
    </VARIABLE>
    <VARIABLE TYPE="nature">
      <NAME>MidLLapse</NAME>
      <OUTCOME>0</OUTCOME>
      <OUTCOME>1</OUTCOME>
      <OUTCOME>2</OUTCOME>
      <PROPERTY>weight = None</PROPERTY>
    </VARIABLE>
    <VARIABLE TYPE="nature">
      <NAME>MorningBound</NAME>
      <OUTCOME>0</OUTCOME>
      <OUTCOME>1</OUTCOME>
      <OUTCOME>2</OUTCOME>
      <PROPERTY>weight = None</PROPERTY>
    </VARIABLE>
    <VARIABLE TYPE="nature">
      <NAME>MorningCIN</NAME>
      <OUTCOME>0</OUTCOME>
      <OUTCOME>1</OUTCOME>
      <OUTCOME>2</OUTCOME>
      <OUTCOME>3</OUTCOME>
      <PROPERTY>weight = None</PROPERTY>
    </VARIABLE>
    <VARIABLE TYPE="nature">
      <NAME>MountainFcst</NAME>
      <OUTCOME>0</OUTCOME>
      <OUTCOME>1</OUTCOME>
      <OUTCOME>2</OUTCOME>
      <PROPERTY>weight = None</PROPERTY>
    </VARIABLE>
    <VARIABLE TYPE="nature">
      <NAME>MvmtFeatures</NAME>
      <OUTCOME>0</OUTCOME>
      <OUTCOME>1</OUTCOME>
      <OUTCOME>2</OUTCOME>
      <OUTCOME>3</OUTCOME>
      <PROPERTY>weight = None</PROPERTY>
    </VARIABLE>
    <VARIABLE TYPE="nature">
      <NAME>N0_7muVerMo</NAME>
      <OUTCOME>0</OUTCOME>
      <OUTCOME>1</OUTCOME>
      <OUTCOME>2</OUTCOME>
      <OUTCOME>3</OUTCOME>
      <PROPERTY>weight = None</PROPERTY>
    </VARIABLE>
    <VARIABLE TYPE="nature">
      <NAME>N34StarFcst</NAME>
      <OUTCOME>0</OUTCOME>
      <OUTCOME>1</OUTCOME>
      <OUTCOME>2</OUTCOME>
      <PROPERTY>weight = None</PROPERTY>
    </VARIABLE>
    <VARIABLE TYPE="nature">
      <NAME>OutflowFrMt</NAME>
      <OUTCOME>0</OUTCOME>
      <OUTCOME>1</OUTCOME>
      <OUTCOME>2</OUTCOME>
      <PROPERTY>weight = None</PROPERTY>
    </VARIABLE>
    <VARIABLE TYPE="nature">
      <NAME>PlainsFcst</NAME>
      <OUTCOME>0</OUTCOME>
      <OUTCOME>1</OUTCOME>
      <OUTCOME>2</OUTCOME>
      <PROPERTY>weight = None</PROPERTY>
    </VARIABLE>
    <VARIABLE TYPE="nature">
      <NAME>QGVertMotion</NAME>
      <OUTCOME>0</OUTCOME>
      <OUTCOME>1</OUTCOME>
      <OUTCOME>2</OUTCOME>
      <OUTCOME>3</OUTCOME>
      <PROPERTY>weight = None</PROPERTY>
    </VARIABLE>
    <VARIABLE TYPE="nature">
      <NAME>R5Fcst</NAME>
      <OUTCOME>0</OUTCOME>
      <OUTCOME>1</OUTCOME>
      <OUTCOME>2</OUTCOME>
      <PROPERTY>weight = None</PROPERTY>
    </VARIABLE>
    <VARIABLE TYPE="nature">
      <NAME>RHRatio</NAME>
      <OUTCOME>0</OUTCOME>
      <OUTCOME>1</OUTCOME>
      <OUTCOME>2</OUTCOME>
      <PROPERTY>weight = None</PROPERTY>
    </VARIABLE>
    <VARIABLE TYPE="nature">
      <NAME>RaoContMoist</NAME>
      <OUTCOME>0</OUTCOME>
      <OUTCOME>1</OUTCOME>
      <OUTCOME>2</OUTCOME>
      <OUTCOME>3</OUTCOME>
      <PROPERTY>weight = None</PROPERTY>
    </VARIABLE>
    <VARIABLE TYPE="nature">
      <NAME>SatContMoist</NAME>
      <OUTCOME>0</OUTCOME>
      <OUTCOME>1</OUTCOME>
      <OUTCOME>2</OUTCOME>
      <OUTCOME>3</OUTCOME>
      <PROPERTY>weight = None</PROPERTY>
    </VARIABLE>
    <VARIABLE TYPE="nature">
      <NAME>ScenRel3_4</NAME>
      <OUTCOME>0</OUTCOME>
      <OUTCOME>1</OUTCOME>
      <OUTCOME>2</OUTCOME>
      <OUTCOME>3</OUTCOME>
      <OUTCOME>4</OUTCOME>
      <PROPERTY>weight = None</PROPERTY>
    </VARIABLE>
    <VARIABLE TYPE="nature">
      <NAME>ScenRelAMCIN</NAME>
      <OUTCOME>0</OUTCOME>
      <OUTCOME>1</OUTCOME>
      <PROPERTY>weight = None</PROPERTY>
    </VARIABLE>
    <VARIABLE TYPE="nature">
      <NAME>ScenRelAMIns</NAME>
      <OUTCOME>0</OUTCOME>
      <OUTCOME>1</OUTCOME>
      <OUTCOME>2</OUTCOME>
      <OUTCOME>3</OUTCOME>
      <OUTCOME>4</OUTCOME>
      <OUTCOME>5</OUTCOME>
      <PROPERTY>weight = None</PROPERTY>
    </VARIABLE>
    <VARIABLE TYPE="nature">
      <NAME>Scenario</NAME>
      <OUTCOME>0</OUTCOME>
      <OUTCOME>1</OUTCOME>
      <OUTCOME>2</OUTCOME>
      <OUTCOME>3</OUTCOME>
      <OUTCOME>4</OUTCOME>
      <OUTCOME>5</OUTCOME>
      <OUTCOME>6</OUTCOME>
      <OUTCOME>7</OUTCOME>
      <OUTCOME>8</OUTCOME>
      <OUTCOME>9</OUTCOME>
      <OUTCOME>10</OUTCOME>
      <PROPERTY>weight = None</PROPERTY>
    </VARIABLE>
    <VARIABLE TYPE="nature">
      <NAME>ScnRelPlFcst</NAME>
      <OUTCOME>0</OUTCOME>
      <OUTCOME>1</OUTCOME>
      <OUTCOME>2</OUTCOME>
      <OUTCOME>3</OUTCOME>
      <OUTCOME>4</OUTCOME>
      <OUTCOME>5</OUTCOME>
      <OUTCOME>6</OUTCOME>
      <OUTCOME>7</OUTCOME>
      <OUTCOME>8</OUTCOME>
      <OUTCOME>9</OUTCOME>
      <OUTCOME>10</OUTCOME>
      <PROPERTY>weight = None</PROPERTY>
    </VARIABLE>
    <VARIABLE TYPE="nature">
      <NAME>SfcWndShfDis</NAME>
      <OUTCOME>0</OUTCOME>
      <OUTCOME>1</OUTCOME>
      <OUTCOME>2</OUTCOME>
      <OUTCOME>3</OUTCOME>
      <OUTCOME>4</OUTCOME>
      <OUTCOME>5</OUTCOME>
      <OUTCOME>6</OUTCOME>
      <PROPERTY>weight = None</PROPERTY>
    </VARIABLE>
    <VARIABLE TYPE="nature">
      <NAME>SubjVertMo</NAME>
      <OUTCOME>0</OUTCOME>
      <OUTCOME>1</OUTCOME>
      <OUTCOME>2</OUTCOME>
      <OUTCOME>3</OUTCOME>
      <PROPERTY>weight = None</PROPERTY>
    </VARIABLE>
    <VARIABLE TYPE="nature">
      <NAME>SynForcng</NAME>
      <OUTCOME>0</OUTCOME>
      <OUTCOME>1</OUTCOME>
      <OUTCOME>2</OUTCOME>
      <OUTCOME>3</OUTCOME>
      <OUTCOME>4</OUTCOME>
      <PROPERTY>weight = None</PROPERTY>
    </VARIABLE>
    <VARIABLE TYPE="nature">
      <NAME>TempDis</NAME>
      <OUTCOME>0</OUTCOME>
      <OUTCOME>1</OUTCOME>
      <OUTCOME>2</OUTCOME>
      <OUTCOME>3</OUTCOME>
      <PROPERTY>weight = None</PROPERTY>
    </VARIABLE>
    <VARIABLE TYPE="nature">
      <NAME>VISCloudCov</NAME>
      <OUTCOME>0</OUTCOME>
      <OUTCOME>1</OUTCOME>
      <OUTCOME>2</OUTCOME>
      <PROPERTY>weight = None</PROPERTY>
    </VARIABLE>
    <VARIABLE TYPE="nature">
      <NAME>WindAloft</NAME>
      <OUTCOME>0</OUTCOME>
      <OUTCOME>1</OUTCOME>
      <OUTCOME>2</OUTCOME>
      <OUTCOME>3</OUTCOME>
      <PROPERTY>weight = None</PROPERTY>
    </VARIABLE>
    <VARIABLE TYPE="nature">
      <NAME>WindFieldMt</NAME>
      <OUTCOME>0</OUTCOME>
      <OUTCOME>1</OUTCOME>
      <PROPERTY>weight = None</PROPERTY>
    </VARIABLE>
    <VARIABLE TYPE="nature">
      <NAME>WindFieldPln</NAME>
      <OUTCOME>0</OUTCOME>
      <OUTCOME>1</OUTCOME>
      <OUTCOME>2</OUTCOME>
      <OUTCOME>3</OUTCOME>
      <OUTCOME>4</OUTCOME>
      <OUTCOME>5</OUTCOME>
      <PROPERTY>weight = None</PROPERTY>
    </VARIABLE>
    <VARIABLE TYPE="nature">
      <NAME>WndHodograph</NAME>
      <OUTCOME>0</OUTCOME>
      <OUTCOME>1</OUTCOME>
      <OUTCOME>2</OUTCOME>
      <OUTCOME>3</OUTCOME>
      <PROPERTY>weight = None</PROPERTY>
    </VARIABLE>
    <DEFINITION>
      <FOR>AMCINInScen</FOR>
      <GIVEN>ScenRelAMCIN</GIVEN>
      <TABLE>0.2698412698412698 0.5555555555555556 0.17460317460317462 0.45292778812331885 0.2989861369749638 0.24808607490171738 </TABLE>
    </DEFINITION>
    <DEFINITION>
      <FOR>AMDewptCalPl</FOR>
      <TABLE>0.3131011608623549 0.25538971807628524 0.4315091210613599 </TABLE>
    </DEFINITION>
    <DEFINITION>
      <FOR>AMInsWliScen</FOR>
      <GIVEN>AMDewptCalPl</GIVEN>
      <TABLE>0.24646892655367236 0.15112994350282488 0.6024011299435028 0.3800865800865801 0.27489177489177485 0.345021645021645 0.3517806815270305 0.48782987445554704 0.1603894440174225 </TABLE>
    </DEFINITION>
    <DEFINITION>
      <FOR>AMInstabMt</FOR>
      <GIVEN>MountainFcst</GIVEN>
      <TABLE>0.42499236174763216 0.435991445157348 0.1390161930950199 0.5316384180790961 0.4146892655367232 0.053672316384180796 0.13393303348325838 0.2531234382808596 0.612943528235882 </TABLE>
    </DEFINITION>
    <DEFINITION>
      <FOR>AreaMeso_ALS</FOR>
      <GIVEN>CombVerMo</GIVEN>
      <TABLE>0.9949392712550608 0.0016869095816464238 0.0016869095816464238 0.0016869095816464238 0.000714694110920526 0.9978559176672385 0.000714694110920526 0.000714694110920526 0.002556237218813906 0.002556237218813906 0.9923312883435583 0.002556237218813906 0.0012007684918347744 0.0012007684918347744 0.0012007684918347744 0.9963976945244957 </TABLE>
    </DEFINITION>
    <DEFINITION>
      <FOR>AreaMoDryAir</FOR>
      <GIVEN>AreaMeso_ALS</GIVEN>
      <GIVEN>CombVerMo</GIVEN>
      <TABLE>0.4019159036961682 0.30425567989148866 0.016700576466598848 0.2771278399457443 0.25 0.25 0.25 0.25 0.25 0.25 0.25 0.25 0.25 0.25 0.25 0.25 0.25 0.25 0.25 0.25 0.17665807190946856 0.37834837415843003 0.18353387766795587 0.2614596762641455 0.25 0.25 0.25 0.25 0.25 0.25 0.25 0.25 0.25 0.25 0.25 0.25 0.25 0.25 0.25 0.25 0.041859866048428646 0.16550747037609478 0.47050489438433796 0.3221277691911386 0.25 0.25 0.25 0.25 0.25 0.25 0.25 0.25 0.25 0.25 0.25 0.25 0.25 0.25 0.25 0.25 0.10827910339840925 0.3203784044348036 0.2239696312364425 0.34737286093034464 </TABLE>
    </DEFINITION>
    <DEFINITION>
      <FOR>Boundaries</FOR>
      <GIVEN>CldShadeConv</GIVEN>
      <GIVEN>MorningBound</GIVEN>
      <TABLE>0.6626016260162602 0.26747967479674795 0.06991869918699187 0.510863350485992 0.43367638650657514 0.055460263007432814 0.3152125279642058 0.5628635346756152 0.12192393736017897 0.7342879872712809 0.21877486077963407 0.046937151949085126 0.4112554112554112 0.5281385281385281 0.0606060606060606 0.2623409669211196 0.4821882951653944 0.25547073791348596 0.5449515905947442 0.32088520055325037 0.13416320885200553 0.2005464480874317 0.6062841530054645 0.19316939890710383 0.06167979002624671 0.41094863142107235 0.5273715785526809 </TABLE>
    </DEFINITION>
    <DEFINITION>
      <FOR>CapChange</FOR>
      <GIVEN>CompPlFcst</GIVEN>
      <TABLE>0.9950099800399202 0.0024950099800399206 0.0024950099800399206 0.0013175230566534917 0.9973649538866931 0.0013175230566534917 0.0015403573629081948 0.0015403573629081948 0.9969192852741837 </TABLE>
    </DEFINITION>
    <DEFINITION>
      <FOR>CapInScen</FOR>
      <GIVEN>AMCINInScen</GIVEN>
      <GIVEN>CapChange</GIVEN>
      <TABLE>0.2655141843971631 0.7322695035460992 0.0022163120567375884 0.2212921227731273 0.0010731916720326251 0.7776346855548402 0.9423558897243107 0.02574618364092048 0.03189792663476874 0.0021394950791613176 0.9957210098416772 0.0021394950791613176 0.38984824699110415 0.3827838827838828 0.2273678702250131 0.009592326139088727 0.9889088729016786 0.0014988009592326137 0.3269908386187456 0.36504580690627203 0.3079633544749824 0.0017217630853994489 0.0017217630853994489 0.9965564738292011 0.029309488325881768 0.0024838549428713363 0.968206656731247 </TABLE>
    </DEFINITION>
    <DEFINITION>
      <FOR>CldShadeConv</FOR>
      <GIVEN>AMInstabMt</GIVEN>
      <GIVEN>MountainFcst</GIVEN>
      <TABLE>0.531751737359214 0.3117661155044332 0.15648214713635275 0.5660644704215373 0.29826425788168615 0.13567127169677648 0.5068407960199005 0.3557213930348259 0.13743781094527363 0.43634664797944406 0.38589114692828774 0.17776220509226814 0.6030881017257038 0.30881017257039056 0.08810172570390554 0.3037183283974992 0.3659098387627509 0.3303718328397499 0.14212454212454212 0.4981684981684982 0.3597069597069597 0.39649122807017545 0.3017543859649123 0.3017543859649123 0.019024323957059382 0.07772795216741406 0.9032477238755267 </TABLE>
    </DEFINITION>
    <DEFINITION>
      <FOR>CldShadeOth</FOR>
      <GIVEN>CombClouds</GIVEN>
      <GIVEN>CombVerMo</GIVEN>
      <TABLE>0.9968223705115984 0.0015888147442008264 0.0015888147442008264 0.9337491337491338 0.0006930006930006931 0.06555786555786557 0.39944903581267216 0.26060606060606056 0.33994490358126717 0.6009031893875247 0.021732994637313013 0.3773638159751623 0.00392156862745098 0.48392156862745095 0.512156862745098 0.002123142250530786 0.7664543524416136 0.23142250530785566 0.00546448087431694 0.9890710382513661 0.00546448087431694 0.022589531680440776 0.8953168044077136 0.08209366391184575 0.4027592345349355 0.06631063640409436 0.5309301290609701 0.08248257980878303 0.059147625992545784 0.8583697941986712 0.002992220227408738 0.7354877318970677 0.2615200478755237 0.0730491149339317 0.1987035651957118 0.7282473198703565 </TABLE>
    </DEFINITION>
    <DEFINITION>
      <FOR>CombClouds</FOR>
      <GIVEN>IRCloudCover</GIVEN>
      <TABLE>0.6250371691941718 0.13261968480523345 0.24234314600059473 0.26564774381368267 0.3573508005822416 0.37700145560407566 0.3396007428040854 0.15157845868152275 0.5088207985143919 </TABLE>
    </DEFINITION>
    <DEFINITION>
      <FOR>CombMoisture</FOR>
      <GIVEN>AreaMoDryAir</GIVEN>
      <GIVEN>CombVerMo</GIVEN>
      <TABLE>0.5527754415475189 0.4182085786375105 0.0010513036164844407 0.027964676198486124 0.8158852061438965 0.1820937752627324 0.0010105092966855296 0.0010105092966855296 0.9558823529411765 0.014705882352941176 0.014705882352941176 0.014705882352941176 0.9210816777041942 0.07339955849889625 0.0027593818984547464 0.0027593818984547464 0.0013873473917869034 0.5696448390677026 0.019145394006659266 0.4098224195338513 0.09725897920604915 0.798960302457467 0.0004725897920604915 0.10330812854442344 0.4469230769230769 0.49615384615384617 0.0038461538461538464 0.05307692307692308 0.2289947486871718 0.6611027756939235 0.0009377344336084021 0.10896474118529632 0.02358490566037736 0.02358490566037736 0.32547169811320753 0.6273584905660378 0.0009727626459143969 0.025875486381322955 0.648443579766537 0.3247081712062257 0.0013631406761177754 0.0886041439476554 0.3852235550708833 0.5248091603053435 0.0013397642015005359 0.018488745980707395 0.6187031082529475 0.36146838156484457 0.0015225334957369061 0.11845310596833131 0.4107795371498173 0.4692448233861145 0.000683433570256971 0.1581465281574631 0.18439037725533078 0.6567796610169492 0.15461049284578696 0.68879173290938 0.001987281399046105 0.15461049284578696 0.01193771626297578 0.3773356401384083 0.06730103806228374 0.5434256055363322 </TABLE>
    </DEFINITION>
    <DEFINITION>
      <FOR>CombVerMo</FOR>
      <GIVEN>SubjVertMo</GIVEN>
      <TABLE>0.4610199296600234 0.3578546307151231 0.053048065650644786 0.12807737397420868 0.12111111111111111 0.5379012345679013 0.09345679012345678 0.24753086419753087 0.08630470016207456 0.2354132901134522 0.3002431118314425 0.3780388978930308 0.09380952380952381 0.3985714285714286 0.1319047619047619 0.3757142857142857 </TABLE>
    </DEFINITION>
    <DEFINITION>
      <FOR>CompPlFcst</FOR>
      <GIVEN>AreaMeso_ALS</GIVEN>
      <GIVEN>CombVerMo</GIVEN>
      <TABLE>0.08194868316943596 0.6136543461060247 0.30439697072453936 0.33333333333333337 0.33333333333333337 0.33333333333333337 0.33333333333333337 0.33333333333333337 0.33333333333333337 0.33333333333333337 0.33333333333333337 0.33333333333333337 0.33333333333333337 0.33333333333333337 0.33333333333333337 0.23172420379124292 0.3990354772477677 0.36924031896098936 0.33333333333333337 0.33333333333333337 0.33333333333333337 0.33333333333333337 0.33333333333333337 0.33333333333333337 0.33333333333333337 0.33333333333333337 0.33333333333333337 0.33333333333333337 0.33333333333333337 0.33333333333333337 0.3882878241456294 0.24815387257427443 0.36355830328009614 0.33333333333333337 0.33333333333333337 0.33333333333333337 0.33333333333333337 0.33333333333333337 0.33333333333333337 0.33333333333333337 0.33333333333333337 0.33333333333333337 0.33333333333333337 0.33333333333333337 0.33333333333333337 0.22407005704185748 0.39760584879890737 0.3783240941592352 </TABLE>
    </DEFINITION>
    <DEFINITION>
      <FOR>CurPropConv</FOR>
      <TABLE>0.21119402985074626 0.25497512437810943 0.21119402985074626 0.322636815920398 </TABLE>
    </DEFINITION>
    <DEFINITION>
      <FOR>Date</FOR>
      <GIVEN>ScenRelAMIns</GIVEN>
      <GIVEN>Scenario</GIVEN>
      <TABLE>0.06361598206421651 0.23800944831451679 0.1270317879734166 0.06361598206421651 0.1270317879734166 0.38069501161021696 0.059761931668361766 0.13434663050438844 0.22384826910762043 0.1418051003879911 0.1418051003879911 0.2984329679436471 0.16666666666666666 0.16666666666666666 0.16666666666666666 0.16666666666666666 0.16666666666666666 0.16666666666666666 0.16666666666666666 0.16666666666666666 0.16666666666666666 0.16666666666666666 0.16666666666666666 0.16666666666666666 0.16666666666666666 0.16666666666666666 0.16666666666666666 0.16666666666666666 0.16666666666666666 0.16666666666666666 0.16666666666666666 0.16666666666666666 0.16666666666666666 0.16666666666666666 0.16666666666666666 0.16666666666666666 0.16666666666666666 0.16666666666666666 0.16666666666666666 0.16666666666666666 0.16666666666666666 0.16666666666666666 0.16666666666666666 0.16666666666666666 0.16666666666666666 0.16666666666666666 0.16666666666666666 0.16666666666666666 0.08459461379947417 0.23935905634903717 0.12680309813117316 0.09866410857670717 0.09866410857670717 0.35191501456690116 0.16666666666666666 0.16666666666666666 0.16666666666666666 0.16666666666666666 0.16666666666666666 0.16666666666666666 0.16666666666666666 0.16666666666666666 0.16666666666666666 0.16666666666666666 0.16666666666666666 0.16666666666666666 0.16666666666666666 0.16666666666666666 0.16666666666666666 0.16666666666666666 0.16666666666666666 0.16666666666666666 0.16666666666666666 0.16666666666666666 0.16666666666666666 0.16666666666666666 0.16666666666666666 0.16666666666666666 0.08169833668057057 0.17346413306555433 0.25503372985220657 0.08169833668057057 0.14287553427055974 0.2652299294505381 0.07701015589624166 0.2563231774370916 0.23070703150268448 0.06420208292903809 0.20509088556827734 0.16666666666666663 0.08338113265267103 0.15909525448357614 0.3256663225115674 0.09852395701885204 0.15909525448357614 0.17423807884975717 0.16666666666666666 0.16666666666666666 0.16666666666666666 0.16666666666666666 0.16666666666666666 0.16666666666666666 0.16666666666666666 0.16666666666666666 0.16666666666666666 0.16666666666666666 0.16666666666666666 0.16666666666666666 0.16666666666666666 0.16666666666666666 0.16666666666666666 0.16666666666666666 0.16666666666666666 0.16666666666666666 0.16666666666666666 0.16666666666666666 0.16666666666666666 0.16666666666666666 0.16666666666666666 0.16666666666666666 0.09418224992579399 0.25874146631047784 0.3292668447610566 0.10593647966755712 0.14119916889284653 0.07067379044226772 0.16666666666666666 0.16666666666666666 0.16666666666666666 0.16666666666666666 0.16666666666666666 0.16666666666666666 0.16666666666666666 0.16666666666666666 0.16666666666666666 0.16666666666666666 0.16666666666666666 0.16666666666666666 0.16666666666666666 0.16666666666666666 0.16666666666666666 0.16666666666666666 0.16666666666666666 0.16666666666666666 0.16666666666666666 0.16666666666666666 0.16666666666666666 0.16666666666666666 0.16666666666666666 0.16666666666666666 0.16666666666666666 0.16666666666666666 0.16666666666666666 0.16666666666666666 0.16666666666666666 0.16666666666666666 0.16666666666666666 0.16666666666666666 0.16666666666666666 0.16666666666666666 0.16666666666666666 0.16666666666666666 0.09108260803176056 0.21201710184761033 0.4538860894793098 0.09108260803176056 0.12131623148572301 0.030615361123835696 0.16666666666666666 0.16666666666666666 0.16666666666666666 0.16666666666666666 0.16666666666666666 0.16666666666666666 0.16666666666666666 0.16666666666666666 0.16666666666666666 0.16666666666666666 0.16666666666666666 0.16666666666666666 0.16666666666666666 0.16666666666666666 0.16666666666666666 0.16666666666666666 0.16666666666666666 0.16666666666666666 0.16666666666666666 0.16666666666666666 0.16666666666666666 0.16666666666666666 0.16666666666666666 0.16666666666666666 0.16666666666666666 0.16666666666666666 0.16666666666666666 0.16666666666666666 0.16666666666666666 0.16666666666666666 0.16666666666666666 0.16666666666666666 0.16666666666666666 0.16666666666666666 0.16666666666666666 0.16666666666666666 0.16666666666666666 0.16666666666666666 0.16666666666666666 0.16666666666666666 0.16666666666666666 0.16666666666666666 0.16666666666666666 0.16666666666666666 0.16666666666666666 0.16666666666666666 0.16666666666666666 0.16666666666666666 0.16666666666666666 0.16666666666666666 0.16666666666666666 0.16666666666666666 0.16666666666666666 0.16666666666666666 0.16666666666666666 0.16666666666666666 0.16666666666666666 0.16666666666666666 0.16666666666666666 0.16666666666666666 0.16666666666666666 0.16666666666666666 0.16666666666666666 0.16666666666666666 0.16666666666666666 0.16666666666666666 0.0690292825131619 0.3360962450506896 0.14656485228212154 0.16379497889744593 0.120719662359135 0.16379497889744593 0.16666666666666666 0.16666666666666666 0.16666666666666666 0.16666666666666666 0.16666666666666666 0.16666666666666666 0.16666666666666666 0.16666666666666666 0.16666666666666666 0.16666666666666666 0.16666666666666666 0.16666666666666666 0.16666666666666666 0.16666666666666666 0.16666666666666666 0.16666666666666666 0.16666666666666666 0.16666666666666666 0.16666666666666666 0.16666666666666666 0.16666666666666666 0.16666666666666666 0.16666666666666666 0.16666666666666666 0.16666666666666666 0.16666666666666666 0.16666666666666666 0.16666666666666666 0.16666666666666666 0.16666666666666666 0.16666666666666666 0.16666666666666666 0.16666666666666666 0.16666666666666666 0.16666666666666666 0.16666666666666666 0.16666666666666666 0.16666666666666666 0.16666666666666666 0.16666666666666666 0.16666666666666666 0.16666666666666666 0.16666666666666666 0.16666666666666666 0.16666666666666666 0.16666666666666666 0.16666666666666666 0.16666666666666666 0.16666666666666666 0.16666666666666666 0.16666666666666666 0.16666666666666666 0.16666666666666666 0.16666666666666666 0.16666666666666666 0.16666666666666666 0.16666666666666666 0.16666666666666666 0.16666666666666666 0.16666666666666666 0.16666666666666666 0.16666666666666666 0.16666666666666666 0.16666666666666666 0.16666666666666666 0.16666666666666666 0.10008406893652795 0.18331231609920134 0.150021017234132 0.03350147120638924 0.16666666666666666 0.3664144598570828 0.16666666666666666 0.16666666666666666 0.16666666666666666 0.16666666666666666 0.16666666666666666 0.16666666666666666 0.16666666666666666 0.16666666666666666 0.16666666666666666 0.16666666666666666 0.16666666666666666 0.16666666666666666 0.16666666666666666 0.16666666666666666 0.16666666666666666 0.16666666666666666 0.16666666666666666 0.16666666666666666 0.16666666666666666 0.16666666666666666 0.16666666666666666 0.16666666666666666 0.16666666666666666 0.16666666666666666 0.16666666666666666 0.16666666666666666 0.16666666666666666 0.16666666666666666 0.16666666666666666 0.16666666666666666 0.16666666666666666 0.16666666666666666 0.16666666666666666 0.16666666666666666 0.16666666666666666 0.16666666666666666 0.16666666666666666 0.16666666666666666 0.16666666666666666 0.16666666666666666 0.16666666666666666 0.16666666666666666 0.16666666666666666 0.16666666666666666 0.16666666666666666 0.16666666666666666 0.16666666666666666 0.16666666666666666 0.16666666666666666 0.16666666666666666 0.16666666666666666 0.16666666666666666 0.16666666666666666 0.16666666666666666 0.16666666666666666 0.16666666666666666 0.16666666666666666 0.16666666666666666 0.16666666666666666 0.16666666666666666 0.16666666666666666 0.16666666666666666 0.16666666666666666 0.16666666666666666 0.16666666666666666 0.16666666666666666 0.16666666666666666 0.16666666666666666 0.16666666666666666 0.16666666666666666 0.16666666666666666 0.16666666666666666 0.16666666666666666 0.16666666666666666 0.16666666666666666 0.16666666666666666 0.16666666666666666 0.16666666666666666 0.07697534459328285 0.3152980003882741 0.13847796544360316 0.13079013783731314 0.061599689380702774 0.2768588623568239 </TABLE>
    </DEFINITION>
    <DEFINITION>
      <FOR>Dewpoints</FOR>
      <GIVEN>Scenario</GIVEN>
      <GIVEN>ScnRelPlFcst</GIVEN>
      <TABLE>0.22217020001498236 0.047681474267735405 0.0318188628361675 0.23803281144655028 0.07940669713087121 0.17458236572027863 0.20630758858341447 0.14285714285714288 0.14285714285714288 0.14285714285714288 0.14285714285714288 0.14285714285714288 0.14285714285714288 0.14285714285714288 0.14285714285714288 0.14285714285714288 0.14285714285714288 0.14285714285714288 0.14285714285714288 0.14285714285714288 0.14285714285714288 0.14285714285714288 0.14285714285714288 0.14285714285714288 0.14285714285714288 0.14285714285714288 0.14285714285714288 0.14285714285714288 0.14285714285714288 0.14285714285714288 0.14285714285714288 0.14285714285714288 0.14285714285714288 0.14285714285714288 0.14285714285714288 0.14285714285714288 0.14285714285714288 0.14285714285714288 0.14285714285714288 0.14285714285714288 0.14285714285714288 0.14285714285714288 0.14285714285714288 0.14285714285714288 0.14285714285714288 0.14285714285714288 0.14285714285714288 0.14285714285714288 0.14285714285714288 0.14285714285714288 0.14285714285714288 0.14285714285714288 0.14285714285714288 0.14285714285714288 0.14285714285714288 0.14285714285714288 0.14285714285714288 0.14285714285714288 0.14285714285714288 0.14285714285714288 0.14285714285714288 0.14285714285714288 0.14285714285714288 0.14285714285714288 0.14285714285714288 0.14285714285714288 0.14285714285714288 0.14285714285714288 0.14285714285714288 0.14285714285714288 0.14285714285714288 0.14285714285714288 0.14285714285714288 0.14285714285714288 0.14285714285714288 0.14285714285714288 0.14285714285714288 0.14285714285714288 0.14285714285714288 0.14285714285714288 0.14285714285714288 0.14285714285714288 0.14285714285714288 0.14285714285714288 0.23131600503818273 0.097029057630821 0.06718751376251839 0.3059198647089393 0.13433098746619926 0.13433098746619926 0.029885583927140125 0.14285714285714288 0.14285714285714288 0.14285714285714288 0.14285714285714288 0.14285714285714288 0.14285714285714288 0.14285714285714288 0.14285714285714288 0.14285714285714288 0.14285714285714288 0.14285714285714288 0.14285714285714288 0.14285714285714288 0.14285714285714288 0.14285714285714288 0.14285714285714288 0.14285714285714288 0.14285714285714288 0.14285714285714288 0.14285714285714288 0.14285714285714288 0.14285714285714288 0.14285714285714288 0.14285714285714288 0.14285714285714288 0.14285714285714288 0.14285714285714288 0.14285714285714288 0.14285714285714288 0.14285714285714288 0.14285714285714288 0.14285714285714288 0.14285714285714288 0.14285714285714288 0.14285714285714288 0.14285714285714288 0.14285714285714288 0.14285714285714288 0.14285714285714288 0.14285714285714288 0.14285714285714288 0.14285714285714288 0.14285714285714288 0.14285714285714288 0.14285714285714288 0.14285714285714288 0.14285714285714288 0.14285714285714288 0.14285714285714288 0.14285714285714288 0.14285714285714288 0.14285714285714288 0.14285714285714288 0.14285714285714288 0.14285714285714288 0.14285714285714288 0.14285714285714288 0.14285714285714288 0.14285714285714288 0.14285714285714288 0.14285714285714288 0.14285714285714288 0.14285714285714288 0.14285714285714288 0.14285714285714288 0.14285714285714288 0.14285714285714288 0.14285714285714288 0.14285714285714288 0.14285714285714288 0.14285714285714288 0.14285714285714288 0.14285714285714288 0.14285714285714288 0.14285714285714288 0.14285714285714288 0.14285714285714288 0.020459772883274524 0.1632567045194542 0.5304488144410592 0.0408593345455859 0.10205801953252006 6.021122096313868e-05 0.14285714285714282 0.14285714285714288 0.14285714285714288 0.14285714285714288 0.14285714285714288 0.14285714285714288 0.14285714285714288 0.14285714285714288 0.14285714285714288 0.14285714285714288 0.14285714285714288 0.14285714285714288 0.14285714285714288 0.14285714285714288 0.14285714285714288 0.14285714285714288 0.14285714285714288 0.14285714285714288 0.14285714285714288 0.14285714285714288 0.14285714285714288 0.14285714285714288 0.14285714285714288 0.14285714285714288 0.14285714285714288 0.14285714285714288 0.14285714285714288 0.14285714285714288 0.14285714285714288 0.14285714285714288 0.14285714285714288 0.14285714285714288 0.14285714285714288 0.14285714285714288 0.14285714285714288 0.14285714285714288 0.14285714285714288 0.14285714285714288 0.14285714285714288 0.14285714285714288 0.14285714285714288 0.14285714285714288 0.14285714285714288 0.14285714285714288 0.14285714285714288 0.14285714285714288 0.14285714285714288 0.14285714285714288 0.14285714285714288 0.14285714285714288 0.14285714285714288 0.14285714285714288 0.14285714285714288 0.14285714285714288 0.14285714285714288 0.14285714285714288 0.14285714285714288 0.14285714285714288 0.14285714285714288 0.14285714285714288 0.14285714285714288 0.14285714285714288 0.14285714285714288 0.14285714285714288 0.14285714285714288 0.14285714285714288 0.14285714285714288 0.14285714285714288 0.14285714285714288 0.14285714285714288 0.14285714285714288 0.14285714285714288 0.14285714285714288 0.14285714285714288 0.14285714285714288 0.14285714285714288 0.14285714285714288 0.14285714285714288 0.03851681517677493 0.20509523305245 0.10258543743664995 0.41011482428405016 0.06414426408072493 0.12821288634059996 0.051330539628749935 0.14285714285714288 0.14285714285714288 0.14285714285714288 0.14285714285714288 0.14285714285714288 0.14285714285714288 0.14285714285714288 0.14285714285714288 0.14285714285714288 0.14285714285714288 0.14285714285714288 0.14285714285714288 0.14285714285714288 0.14285714285714288 0.14285714285714288 0.14285714285714288 0.14285714285714288 0.14285714285714288 0.14285714285714288 0.14285714285714288 0.14285714285714288 0.14285714285714288 0.14285714285714288 0.14285714285714288 0.14285714285714288 0.14285714285714288 0.14285714285714288 0.14285714285714288 0.14285714285714288 0.14285714285714288 0.14285714285714288 0.14285714285714288 0.14285714285714288 0.14285714285714288 0.14285714285714288 0.14285714285714288 0.14285714285714288 0.14285714285714288 0.14285714285714288 0.14285714285714288 0.14285714285714288 0.14285714285714288 0.14285714285714288 0.14285714285714288 0.14285714285714288 0.14285714285714288 0.14285714285714288 0.14285714285714288 0.14285714285714288 0.14285714285714288 0.14285714285714288 0.14285714285714288 0.14285714285714288 0.14285714285714288 0.14285714285714288 0.14285714285714288 0.14285714285714288 0.14285714285714288 0.14285714285714288 0.14285714285714288 0.14285714285714288 0.14285714285714288 0.14285714285714288 0.14285714285714288 0.14285714285714288 0.14285714285714288 0.14285714285714288 0.14285714285714288 0.14285714285714288 0.14285714285714288 0.14285714285714288 0.14285714285714288 0.14285714285714288 0.14285714285714288 0.14285714285714288 0.14285714285714288 0.14285714285714288 0.10607212153184487 0.24996646965727518 0.14393905524906336 0.09092534804495747 0.17423260222283815 0.18937937570972554 0.04548502758429527 0.14285714285714288 0.14285714285714288 0.14285714285714288 0.14285714285714288 0.14285714285714288 0.14285714285714288 0.14285714285714288 0.14285714285714288 0.14285714285714288 0.14285714285714288 0.14285714285714288 0.14285714285714288 0.14285714285714288 0.14285714285714288 0.14285714285714288 0.14285714285714288 0.14285714285714288 0.14285714285714288 0.14285714285714288 0.14285714285714288 0.14285714285714288 0.14285714285714288 0.14285714285714288 0.14285714285714288 0.14285714285714288 0.14285714285714288 0.14285714285714288 0.14285714285714288 0.14285714285714288 0.14285714285714288 0.14285714285714288 0.14285714285714288 0.14285714285714288 0.14285714285714288 0.14285714285714288 0.14285714285714288 0.14285714285714288 0.14285714285714288 0.14285714285714288 0.14285714285714288 0.14285714285714288 0.14285714285714288 0.14285714285714288 0.14285714285714288 0.14285714285714288 0.14285714285714288 0.14285714285714288 0.14285714285714288 0.14285714285714288 0.14285714285714288 0.14285714285714288 0.14285714285714288 0.14285714285714288 0.14285714285714288 0.14285714285714288 0.14285714285714288 0.14285714285714288 0.14285714285714288 0.14285714285714288 0.14285714285714288 0.14285714285714288 0.14285714285714288 0.14285714285714288 0.14285714285714288 0.14285714285714288 0.14285714285714288 0.14285714285714288 0.14285714285714288 0.14285714285714288 0.14285714285714288 0.14285714285714288 0.14285714285714288 0.14285714285714288 0.14285714285714288 0.14285714285714288 0.14285714285714288 0.14285714285714288 0.9686629028800109 0.00017866075895090391 0.00017866075895090391 0.00017866075895090391 0.00017866075895090391 0.00017866075895090391 0.030443793325234027 0.14285714285714288 0.14285714285714288 0.14285714285714288 0.14285714285714288 0.14285714285714288 0.14285714285714288 0.14285714285714288 0.14285714285714288 0.14285714285714288 0.14285714285714288 0.14285714285714288 0.14285714285714288 0.14285714285714288 0.14285714285714288 0.14285714285714288 0.14285714285714288 0.14285714285714288 0.14285714285714288 0.14285714285714288 0.14285714285714288 0.14285714285714288 0.14285714285714288 0.14285714285714288 0.14285714285714288 0.14285714285714288 0.14285714285714288 0.14285714285714288 0.14285714285714288 0.14285714285714288 0.14285714285714288 0.14285714285714288 0.14285714285714288 0.14285714285714288 0.14285714285714288 0.14285714285714288 0.14285714285714288 0.14285714285714288 0.14285714285714288 0.14285714285714288 0.14285714285714288 0.14285714285714288 0.14285714285714288 0.14285714285714288 0.14285714285714288 0.14285714285714288 0.14285714285714288 0.14285714285714288 0.14285714285714288 0.14285714285714288 0.14285714285714288 0.14285714285714288 0.14285714285714288 0.14285714285714288 0.14285714285714288 0.14285714285714288 0.14285714285714288 0.14285714285714288 0.14285714285714288 0.14285714285714288 0.14285714285714288 0.14285714285714288 0.14285714285714288 0.14285714285714288 0.14285714285714288 0.14285714285714288 0.14285714285714288 0.14285714285714288 0.14285714285714288 0.14285714285714288 0.14285714285714288 0.14285714285714288 0.14285714285714288 0.14285714285714288 0.14285714285714288 0.14285714285714288 0.14285714285714288 0.14285714285714288 5.087142755400001e-05 0.26719708608462966 0.5084904412587625 0.017286111082849203 0.017286111082849203 0.17240326798050604 0.017286111082849203 0.14285714285714288 0.14285714285714288 0.14285714285714288 0.14285714285714288 0.14285714285714288 0.14285714285714288 0.14285714285714288 0.14285714285714288 0.14285714285714288 0.14285714285714288 0.14285714285714288 0.14285714285714288 0.14285714285714288 0.14285714285714288 0.14285714285714288 0.14285714285714288 0.14285714285714288 0.14285714285714288 0.14285714285714288 0.14285714285714288 0.14285714285714288 0.14285714285714288 0.14285714285714288 0.14285714285714288 0.14285714285714288 0.14285714285714288 0.14285714285714288 0.14285714285714288 0.14285714285714288 0.14285714285714288 0.14285714285714288 0.14285714285714288 0.14285714285714288 0.14285714285714288 0.14285714285714288 0.14285714285714288 0.14285714285714288 0.14285714285714288 0.14285714285714288 0.14285714285714288 0.14285714285714288 0.14285714285714288 0.14285714285714288 0.14285714285714288 0.14285714285714288 0.14285714285714288 0.14285714285714288 0.14285714285714288 0.14285714285714288 0.14285714285714288 0.14285714285714288 0.14285714285714288 0.14285714285714288 0.14285714285714288 0.14285714285714288 0.14285714285714288 0.14285714285714288 0.14285714285714288 0.14285714285714288 0.14285714285714288 0.14285714285714288 0.14285714285714288 0.14285714285714288 0.14285714285714288 0.14285714285714288 0.14285714285714288 0.14285714285714288 0.14285714285714288 0.14285714285714288 0.14285714285714288 0.14285714285714288 0.14285714285714288 0.14285714285714288 0.14285714285714288 0.14285714285714288 0.14285714285714288 0.14285714285714288 0.1499950840625307 0.01675351489529053 9.83187493855078e-05 0.5996853800019664 0.033408711041195555 0.0833742994789106 0.11668469177072066 0.14285714285714288 0.14285714285714288 0.14285714285714288 0.14285714285714288 0.14285714285714288 0.14285714285714288 0.14285714285714288 0.14285714285714288 0.14285714285714288 0.14285714285714288 0.14285714285714288 0.14285714285714288 0.14285714285714288 0.14285714285714288 0.14285714285714288 0.14285714285714288 0.14285714285714288 0.14285714285714288 0.14285714285714288 0.14285714285714288 0.14285714285714288 0.14285714285714288 0.14285714285714288 0.14285714285714288 0.14285714285714288 0.14285714285714288 0.14285714285714288 0.14285714285714288 0.14285714285714288 0.14285714285714288 0.14285714285714288 0.14285714285714288 0.14285714285714288 0.14285714285714288 0.14285714285714288 0.14285714285714288 0.14285714285714288 0.14285714285714288 0.14285714285714288 0.14285714285714288 0.14285714285714288 0.14285714285714288 0.14285714285714288 0.14285714285714288 0.14285714285714288 0.14285714285714288 0.14285714285714288 0.14285714285714288 0.14285714285714288 0.14285714285714288 0.14285714285714288 0.14285714285714288 0.14285714285714288 0.14285714285714288 0.14285714285714288 0.14285714285714288 0.14285714285714288 0.14285714285714288 0.14285714285714288 0.14285714285714288 0.14285714285714288 0.14285714285714288 0.14285714285714288 0.14285714285714288 0.14285714285714288 0.14285714285714288 0.14285714285714288 0.14285714285714288 0.14285714285714288 0.14285714285714288 0.14285714285714288 0.14285714285714288 0.14285714285714288 0.14285714285714288 0.14285714285714288 0.14285714285714288 0.14285714285714288 0.028235724257129557 0.014159409692215647 8.309512730173502e-05 0.3097620155554078 8.309512730173502e-05 0.6335172505484278 0.014159409692215647 0.14285714285714288 0.14285714285714288 0.14285714285714288 0.14285714285714288 0.14285714285714288 0.14285714285714288 0.14285714285714288 0.14285714285714288 0.14285714285714288 0.14285714285714288 0.14285714285714288 0.14285714285714288 0.14285714285714288 0.14285714285714288 0.14285714285714288 0.14285714285714288 0.14285714285714288 0.14285714285714288 0.14285714285714288 0.14285714285714288 0.14285714285714288 0.14285714285714288 0.14285714285714288 0.14285714285714288 0.14285714285714288 0.14285714285714288 0.14285714285714288 0.14285714285714288 0.14285714285714288 0.14285714285714288 0.14285714285714288 0.14285714285714288 0.14285714285714288 0.14285714285714288 0.14285714285714288 0.14285714285714288 0.14285714285714288 0.14285714285714288 0.14285714285714288 0.14285714285714288 0.14285714285714288 0.14285714285714288 0.14285714285714288 0.14285714285714288 0.14285714285714288 0.14285714285714288 0.14285714285714288 0.14285714285714288 0.14285714285714288 0.14285714285714288 0.14285714285714288 0.14285714285714288 0.14285714285714288 0.14285714285714288 0.14285714285714288 0.14285714285714288 0.14285714285714288 0.14285714285714288 0.14285714285714288 0.14285714285714288 0.14285714285714288 0.14285714285714288 0.14285714285714288 0.14285714285714288 0.14285714285714288 0.14285714285714288 0.14285714285714288 0.14285714285714288 0.14285714285714288 0.14285714285714288 0.14285714285714288 0.14285714285714288 0.14285714285714288 0.14285714285714288 0.14285714285714288 0.14285714285714288 0.14285714285714288 0.023587394141329994 0.42339303068166034 0.11765930862140771 0.3293211162015826 0.023587394141329994 0.08238234069137856 6.941552131056503e-05 0.14285714285714288 0.14285714285714288 0.14285714285714288 0.14285714285714288 0.14285714285714288 0.14285714285714288 0.14285714285714288 0.14285714285714288 0.14285714285714288 0.14285714285714288 0.14285714285714288 0.14285714285714288 0.14285714285714288 0.14285714285714288 0.14285714285714288 0.14285714285714288 0.14285714285714288 0.14285714285714288 0.14285714285714288 0.14285714285714288 0.14285714285714288 0.14285714285714288 0.14285714285714288 0.14285714285714288 0.14285714285714288 0.14285714285714288 0.14285714285714288 0.14285714285714288 0.14285714285714288 0.14285714285714288 0.14285714285714288 0.14285714285714288 0.14285714285714288 0.14285714285714288 0.14285714285714288 0.14285714285714288 0.14285714285714288 0.14285714285714288 0.14285714285714288 0.14285714285714288 0.14285714285714288 0.14285714285714288 0.14285714285714288 0.14285714285714288 0.14285714285714288 0.14285714285714288 0.14285714285714288 0.14285714285714288 0.14285714285714288 0.14285714285714288 0.14285714285714288 0.14285714285714288 0.14285714285714288 0.14285714285714288 0.14285714285714288 0.14285714285714288 0.14285714285714288 0.14285714285714288 0.14285714285714288 0.14285714285714288 0.14285714285714288 0.14285714285714288 0.14285714285714288 0.14285714285714288 0.14285714285714288 0.14285714285714288 0.14285714285714288 0.14285714285714288 0.14285714285714288 0.14285714285714288 0.14285714285714288 0.14285714285714288 0.14285714285714288 0.14285714285714288 0.14285714285714288 0.14285714285714288 0.14285714285714288 0.08463389168822916 0.07694402832629715 0.08463389168822916 0.05387443824050116 0.18460211539334515 0.10770348177402515 0.40760815288937313 </TABLE>
    </DEFINITION>
    <DEFINITION>
      <FOR>IRCloudCover</FOR>
      <GIVEN>WindFieldMt</GIVEN>
      <TABLE>0.3291094684970081 0.13692361844420978 0.5339669130587822 0.40984634681718407 0.16525556600815303 0.42489808717466293 </TABLE>
    </DEFINITION>
    <DEFINITION>
      <FOR>InsChange</FOR>
      <GIVEN>AMInsWliScen</GIVEN>
      <GIVEN>InsSclInScen</GIVEN>
      <TABLE>0.2502813414359667 0.341435966689174 0.4082826918748594 0.7024988213107025 0.002357378595002357 0.29514380009429514 0.0021901007446342526 0.8537012702584318 0.14410862899693383 0.0033333333333333335 0.7773333333333334 0.21933333333333335 0.42149005639655684 0.17705550608489165 0.4014544375185515 0.007541478129713422 0.984917043740573 0.007541478129713422 0.7943089430894309 0.0040650406504065045 0.20162601626016263 0.984917043740573 0.007541478129713422 0.007541478129713422 0.13757672804910595 0.42580731251668 0.43661595943421405 </TABLE>
    </DEFINITION>
    <DEFINITION>
      <FOR>InsInMt</FOR>
      <GIVEN>AMInstabMt</GIVEN>
      <GIVEN>CldShadeConv</GIVEN>
      <TABLE>0.9978411053540587 0.0010794473229706388 0.0010794473229706388 0.9764272559852669 0.02173112338858195 0.0018416206261510125 0.9705648369132857 0.02545743834526651 0.003977724741447892 0.9582422918184025 0.04054382131585336 0.0012138868657441124 0.6207897793263647 0.3777584204413472 0.001451800232288037 0.5125063808065339 0.4711587544665645 0.016334864726901478 0.6756152125279642 0.3131991051454138 0.011185682326621923 0.16517189835575488 0.8310911808669657 0.003736920777279522 0.023117386489479513 0.17261904761904762 0.804263565891473 </TABLE>
    </DEFINITION>
    <DEFINITION>
      <FOR>InsSclInScen</FOR>
      <GIVEN>AMInsWliScen</GIVEN>
      <TABLE>0.5022041369955917 0.23974228552051546 0.2580535774838929 0.16852039096730706 0.7569935962251433 0.07448601280754973 0.1310322786832854 0.07062959411952702 0.7983381271971877 </TABLE>
    </DEFINITION>
    <DEFINITION>
      <FOR>LIfr12ZDENSd</FOR>
      <GIVEN>AMDewptCalPl</GIVEN>
      <GIVEN>AMInsWliScen</GIVEN>
      <TABLE>0.18230659025787968 0.0017908309455587396 0.6593839541547278 0.15651862464183383 0.3183411214953271 0.0029205607476635513 0.5917056074766355 0.08703271028037383 0.03766119577960141 0.11151817116060962 0.39639507620164127 0.45442555685814773 0.06292710706150342 0.05267653758542142 0.6472095671981777 0.23718678815489752 0.25708661417322837 0.016141732283464567 0.4838582677165354 0.24291338582677166 0.06932245922208283 0.11449184441656213 0.4193851944792974 0.39680050188205773 0.04679533867443555 0.08612527312454481 0.4925345957756737 0.37454479242534594 0.14246323529411767 0.019564075630252104 0.5820640756302521 0.25590861344537813 0.001996805111821086 0.31829073482428116 0.4476837060702875 0.23202875399361023 </TABLE>
    </DEFINITION>
    <DEFINITION>
      <FOR>LLIW</FOR>
      <GIVEN>CurPropConv</GIVEN>
      <GIVEN>LatestCIN</GIVEN>
      <TABLE>0.5444090587402689 0.2613234253361642 0.012208067940552018 0.18205944798301485 0.5928571428571429 0.39693877551020407 0.00510204081632653 0.00510204081632653 0.8214285714285714 0.05952380952380952 0.05952380952380952 0.05952380952380952 0.5318870122306348 0.16846243447874198 0.010046592894583576 0.2896039603960396 0.4855631789594054 0.10134362492853059 0.01901086335048599 0.39408233276157806 0.45869565217391306 0.20031055900621117 0.041304347826086954 0.2996894409937888 0.42094017094017094 0.2841880341880342 0.010683760683760684 0.2841880341880342 0.14643107067879635 0.0008747375787263821 0.0904478656403079 0.7622463261021694 0.31444188722669736 0.682681242807825 0.0014384349827387803 0.0014384349827387803 0.33053691275167785 0.6526845637583892 0.008389261744966443 0.008389261744966443 0.25 0.25 0.25 0.25 0.587126000842815 0.3578803202697008 0.0005267593763168984 0.0544669195111673 0.2071797711332595 0.00636766334440753 0.3193983019564415 0.46705426356589147 0.2463931469792606 0.07326420198376916 0.26082055906221824 0.41952209197475204 0.3177009873060649 0.04689703808180536 0.09203102961918194 0.5433709449929478 0.0018910741301059002 0.0018910741301059002 0.8732980332829047 0.1229198184568835 </TABLE>
    </DEFINITION>
    <DEFINITION>
      <FOR>LatestCIN</FOR>
      <GIVEN>CurPropConv</GIVEN>
      <TABLE>0.4160777385159011 0.07214369846878681 0.006183745583038869 0.5055948174322733 0.4265853658536585 0.19634146341463415 0.02853658536585366 0.34853658536585364 0.25588928150765605 0.04387514723203769 0.0014723203769140165 0.6987632508833922 0.5221665381649961 0.21376252891287587 0.1366615265998458 0.12740940632228218 </TABLE>
    </DEFINITION>
    <DEFINITION>
      <FOR>LoLevMoistAd</FOR>
      <GIVEN>InsChange</GIVEN>
      <TABLE>0.6432926829268292 0.23087583148558757 0.008037694013303768 0.11779379157427937 0.05692379182156135 0.19632899628252792 0.3078531598513012 0.4388940520446097 0.23264223722275795 0.4987945998071359 0.03302796528447444 0.23553519768563164 </TABLE>
    </DEFINITION>
    <DEFINITION>
      <FOR>LowLLapse</FOR>
      <TABLE>0.2718905472636816 0.25 0.15646766169154228 0.32164179104477614 </TABLE>
    </DEFINITION>
    <DEFINITION>
      <FOR>MeanRH</FOR>
      <GIVEN>Scenario</GIVEN>
      <GIVEN>ScnRelPlFcst</GIVEN>
      <TABLE>0.34919594476490123 0.22229505331235794 0.4285090019227408 0.3333333333333333 0.3333333333333333 0.3333333333333333 0.3333333333333333 0.3333333333333333 0.3333333333333333 0.3333333333333333 0.3333333333333333 0.3333333333333333 0.3333333333333333 0.3333333333333333 0.3333333333333333 0.3333333333333333 0.3333333333333333 0.3333333333333333 0.3333333333333333 0.3333333333333333 0.3333333333333333 0.3333333333333333 0.3333333333333333 0.3333333333333333 0.3333333333333333 0.3333333333333333 0.3333333333333333 0.3333333333333333 0.3333333333333333 0.3333333333333333 0.3333333333333333 0.3333333333333333 0.3333333333333333 0.3333333333333333 0.3333333333333333 0.3333333333333333 0.41788437429352404 0.1940727952812545 0.3880428304252215 0.3333333333333333 0.3333333333333333 0.3333333333333333 0.3333333333333333 0.3333333333333333 0.3333333333333333 0.3333333333333333 0.3333333333333333 0.3333333333333333 0.3333333333333333 0.3333333333333333 0.3333333333333333 0.3333333333333333 0.3333333333333333 0.3333333333333333 0.3333333333333333 0.3333333333333333 0.3333333333333333 0.3333333333333333 0.3333333333333333 0.3333333333333333 0.3333333333333333 0.3333333333333333 0.3333333333333333 0.3333333333333333 0.3333333333333333 0.3333333333333333 0.3333333333333333 0.3333333333333333 0.3333333333333333 0.3333333333333333 0.3333333333333333 0.3333333333333333 0.48972997274438734 0.4693304110820759 0.040939616173536766 0.3333333333333333 0.3333333333333333 0.3333333333333333 0.3333333333333333 0.3333333333333333 0.3333333333333333 0.3333333333333333 0.3333333333333333 0.3333333333333333 0.3333333333333333 0.3333333333333333 0.3333333333333333 0.3333333333333333 0.3333333333333333 0.3333333333333333 0.3333333333333333 0.3333333333333333 0.3333333333333333 0.3333333333333333 0.3333333333333333 0.3333333333333333 0.3333333333333333 0.3333333333333333 0.3333333333333333 0.3333333333333333 0.3333333333333333 0.3333333333333333 0.3333333333333333 0.3333333333333333 0.3333333333333333 0.3333333333333333 0.3333333333333333 0.3333333333333333 0.4358431289491334 0.4486568534011084 0.1155000176497582 0.3333333333333333 0.3333333333333333 0.3333333333333333 0.3333333333333333 0.3333333333333333 0.3333333333333333 0.3333333333333333 0.3333333333333333 0.3333333333333333 0.3333333333333333 0.3333333333333333 0.3333333333333333 0.3333333333333333 0.3333333333333333 0.3333333333333333 0.3333333333333333 0.3333333333333333 0.3333333333333333 0.3333333333333333 0.3333333333333333 0.3333333333333333 0.3333333333333333 0.3333333333333333 0.3333333333333333 0.3333333333333333 0.3333333333333333 0.3333333333333333 0.3333333333333333 0.3333333333333333 0.3333333333333333 0.3333333333333333 0.3333333333333333 0.3333333333333333 0.643842189814525 0.31061317310300224 0.04554463708247272 0.3333333333333333 0.3333333333333333 0.3333333333333333 0.3333333333333333 0.3333333333333333 0.3333333333333333 0.3333333333333333 0.3333333333333333 0.3333333333333333 0.3333333333333333 0.3333333333333333 0.3333333333333333 0.3333333333333333 0.3333333333333333 0.3333333333333333 0.3333333333333333 0.3333333333333333 0.3333333333333333 0.3333333333333333 0.3333333333333333 0.3333333333333333 0.3333333333333333 0.3333333333333333 0.3333333333333333 0.3333333333333333 0.3333333333333333 0.3333333333333333 0.3333333333333333 0.3333333333333333 0.3333333333333333 0.3333333333333333 0.3333333333333333 0.3333333333333333 0.00041687510421877606 0.00041687510421877606 0.9991662497915623 0.3333333333333333 0.3333333333333333 0.3333333333333333 0.3333333333333333 0.3333333333333333 0.3333333333333333 0.3333333333333333 0.3333333333333333 0.3333333333333333 0.3333333333333333 0.3333333333333333 0.3333333333333333 0.3333333333333333 0.3333333333333333 0.3333333333333333 0.3333333333333333 0.3333333333333333 0.3333333333333333 0.3333333333333333 0.3333333333333333 0.3333333333333333 0.3333333333333333 0.3333333333333333 0.3333333333333333 0.3333333333333333 0.3333333333333333 0.3333333333333333 0.3333333333333333 0.3333333333333333 0.3333333333333333 0.3333333333333333 0.3333333333333333 0.3333333333333333 0.04320679913586402 0.9566745008665101 0.00011869999762600006 0.3333333333333333 0.3333333333333333 0.3333333333333333 0.3333333333333333 0.3333333333333333 0.3333333333333333 0.3333333333333333 0.3333333333333333 0.3333333333333333 0.3333333333333333 0.3333333333333333 0.3333333333333333 0.3333333333333333 0.3333333333333333 0.3333333333333333 0.3333333333333333 0.3333333333333333 0.3333333333333333 0.3333333333333333 0.3333333333333333 0.3333333333333333 0.3333333333333333 0.3333333333333333 0.3333333333333333 0.3333333333333333 0.3333333333333333 0.3333333333333333 0.3333333333333333 0.3333333333333333 0.3333333333333333 0.3333333333333333 0.3333333333333333 0.3333333333333333 0.5331956870841936 0.033539802707042904 0.43326451020876355 0.3333333333333333 0.3333333333333333 0.3333333333333333 0.3333333333333333 0.3333333333333333 0.3333333333333333 0.3333333333333333 0.3333333333333333 0.3333333333333333 0.3333333333333333 0.3333333333333333 0.3333333333333333 0.3333333333333333 0.3333333333333333 0.3333333333333333 0.3333333333333333 0.3333333333333333 0.3333333333333333 0.3333333333333333 0.3333333333333333 0.3333333333333333 0.3333333333333333 0.3333333333333333 0.3333333333333333 0.3333333333333333 0.3333333333333333 0.3333333333333333 0.3333333333333333 0.3333333333333333 0.3333333333333333 0.3333333333333333 0.3333333333333333 0.3333333333333333 0.3521017527532186 0.4647122692725299 0.1831859779742516 0.3333333333333333 0.3333333333333333 0.3333333333333333 0.3333333333333333 0.3333333333333333 0.3333333333333333 0.3333333333333333 0.3333333333333333 0.3333333333333333 0.3333333333333333 0.3333333333333333 0.3333333333333333 0.3333333333333333 0.3333333333333333 0.3333333333333333 0.3333333333333333 0.3333333333333333 0.3333333333333333 0.3333333333333333 0.3333333333333333 0.3333333333333333 0.3333333333333333 0.3333333333333333 0.3333333333333333 0.3333333333333333 0.3333333333333333 0.3333333333333333 0.3333333333333333 0.3333333333333333 0.3333333333333333 0.3333333333333333 0.3333333333333333 0.3333333333333333 0.49403952057013284 0.44700356333009394 0.05895691609977324 0.3333333333333333 0.3333333333333333 0.3333333333333333 0.3333333333333333 0.3333333333333333 0.3333333333333333 0.3333333333333333 0.3333333333333333 0.3333333333333333 0.3333333333333333 0.3333333333333333 0.3333333333333333 0.3333333333333333 0.3333333333333333 0.3333333333333333 0.3333333333333333 0.3333333333333333 0.3333333333333333 0.3333333333333333 0.3333333333333333 0.3333333333333333 0.3333333333333333 0.3333333333333333 0.3333333333333333 0.3333333333333333 0.3333333333333333 0.3333333333333333 0.3333333333333333 0.3333333333333333 0.3333333333333333 0.3333333333333333 0.3333333333333333 0.3333333333333333 0.39228895244147866 0.3461497722698867 0.26156127528863465 </TABLE>
    </DEFINITION>
    <DEFINITION>
      <FOR>MidLLapse</FOR>
      <GIVEN>Scenario</GIVEN>
      <GIVEN>ScnRelPlFcst</GIVEN>
      <TABLE>0.222295053312358 0.2381576647439259 0.5395472819437162 0.3333333333333333 0.3333333333333333 0.3333333333333333 0.3333333333333333 0.3333333333333333 0.3333333333333333 0.3333333333333333 0.3333333333333333 0.3333333333333333 0.3333333333333333 0.3333333333333333 0.3333333333333333 0.3333333333333333 0.3333333333333333 0.3333333333333333 0.3333333333333333 0.3333333333333333 0.3333333333333333 0.3333333333333333 0.3333333333333333 0.3333333333333333 0.3333333333333333 0.3333333333333333 0.3333333333333333 0.3333333333333333 0.3333333333333333 0.3333333333333333 0.3333333333333333 0.3333333333333333 0.3333333333333333 0.3333333333333333 0.3333333333333333 0.3333333333333333 0.20153318124833017 0.3208993567215406 0.4775674620301293 0.3333333333333333 0.3333333333333333 0.3333333333333333 0.3333333333333333 0.3333333333333333 0.3333333333333333 0.3333333333333333 0.3333333333333333 0.3333333333333333 0.3333333333333333 0.3333333333333333 0.3333333333333333 0.3333333333333333 0.3333333333333333 0.3333333333333333 0.3333333333333333 0.3333333333333333 0.3333333333333333 0.3333333333333333 0.3333333333333333 0.3333333333333333 0.3333333333333333 0.3333333333333333 0.3333333333333333 0.3333333333333333 0.3333333333333333 0.3333333333333333 0.3333333333333333 0.3333333333333333 0.3333333333333333 0.3333333333333333 0.3333333333333333 0.3333333333333333 0.39793194526398606 0.1939363286408722 0.40813172609514176 0.3333333333333333 0.3333333333333333 0.3333333333333333 0.3333333333333333 0.3333333333333333 0.3333333333333333 0.3333333333333333 0.3333333333333333 0.3333333333333333 0.3333333333333333 0.3333333333333333 0.3333333333333333 0.3333333333333333 0.3333333333333333 0.3333333333333333 0.3333333333333333 0.3333333333333333 0.3333333333333333 0.3333333333333333 0.3333333333333333 0.3333333333333333 0.3333333333333333 0.3333333333333333 0.3333333333333333 0.3333333333333333 0.3333333333333333 0.3333333333333333 0.3333333333333333 0.3333333333333333 0.3333333333333333 0.3333333333333333 0.3333333333333333 0.3333333333333333 0.4358431289491334 0.16675491545765825 0.3974019555932084 0.3333333333333333 0.3333333333333333 0.3333333333333333 0.3333333333333333 0.3333333333333333 0.3333333333333333 0.3333333333333333 0.3333333333333333 0.3333333333333333 0.3333333333333333 0.3333333333333333 0.3333333333333333 0.3333333333333333 0.3333333333333333 0.3333333333333333 0.3333333333333333 0.3333333333333333 0.3333333333333333 0.3333333333333333 0.3333333333333333 0.3333333333333333 0.3333333333333333 0.3333333333333333 0.3333333333333333 0.3333333333333333 0.3333333333333333 0.3333333333333333 0.3333333333333333 0.3333333333333333 0.3333333333333333 0.3333333333333333 0.3333333333333333 0.3333333333333333 0.02282447685214162 0.6514155765579688 0.32575994658988966 0.3333333333333333 0.3333333333333333 0.3333333333333333 0.3333333333333333 0.3333333333333333 0.3333333333333333 0.3333333333333333 0.3333333333333333 0.3333333333333333 0.3333333333333333 0.3333333333333333 0.3333333333333333 0.3333333333333333 0.3333333333333333 0.3333333333333333 0.3333333333333333 0.3333333333333333 0.3333333333333333 0.3333333333333333 0.3333333333333333 0.3333333333333333 0.3333333333333333 0.3333333333333333 0.3333333333333333 0.3333333333333333 0.3333333333333333 0.3333333333333333 0.3333333333333333 0.3333333333333333 0.3333333333333333 0.3333333333333333 0.3333333333333333 0.3333333333333333 0.00041687510421877606 0.8781057195264299 0.12147740536935132 0.3333333333333333 0.3333333333333333 0.3333333333333333 0.3333333333333333 0.3333333333333333 0.3333333333333333 0.3333333333333333 0.3333333333333333 0.3333333333333333 0.3333333333333333 0.3333333333333333 0.3333333333333333 0.3333333333333333 0.3333333333333333 0.3333333333333333 0.3333333333333333 0.3333333333333333 0.3333333333333333 0.3333333333333333 0.3333333333333333 0.3333333333333333 0.3333333333333333 0.3333333333333333 0.3333333333333333 0.3333333333333333 0.3333333333333333 0.3333333333333333 0.3333333333333333 0.3333333333333333 0.3333333333333333 0.3333333333333333 0.3333333333333333 0.3333333333333333 0.827410203451796 0.00011869999762600006 0.1724710965505781 0.3333333333333333 0.3333333333333333 0.3333333333333333 0.3333333333333333 0.3333333333333333 0.3333333333333333 0.3333333333333333 0.3333333333333333 0.3333333333333333 0.3333333333333333 0.3333333333333333 0.3333333333333333 0.3333333333333333 0.3333333333333333 0.3333333333333333 0.3333333333333333 0.3333333333333333 0.3333333333333333 0.3333333333333333 0.3333333333333333 0.3333333333333333 0.3333333333333333 0.3333333333333333 0.3333333333333333 0.3333333333333333 0.3333333333333333 0.3333333333333333 0.3333333333333333 0.3333333333333333 0.3333333333333333 0.3333333333333333 0.3333333333333333 0.3333333333333333 0.26671254874971323 0.4665749025005735 0.26671254874971323 0.3333333333333333 0.3333333333333333 0.3333333333333333 0.3333333333333333 0.3333333333333333 0.3333333333333333 0.3333333333333333 0.3333333333333333 0.3333333333333333 0.3333333333333333 0.3333333333333333 0.3333333333333333 0.3333333333333333 0.3333333333333333 0.3333333333333333 0.3333333333333333 0.3333333333333333 0.3333333333333333 0.3333333333333333 0.3333333333333333 0.3333333333333333 0.3333333333333333 0.3333333333333333 0.3333333333333333 0.3333333333333333 0.3333333333333333 0.3333333333333333 0.3333333333333333 0.3333333333333333 0.3333333333333333 0.3333333333333333 0.3333333333333333 0.3333333333333333 0.5069412129672716 0.281720179928649 0.21133860710407942 0.3333333333333333 0.3333333333333333 0.3333333333333333 0.3333333333333333 0.3333333333333333 0.3333333333333333 0.3333333333333333 0.3333333333333333 0.3333333333333333 0.3333333333333333 0.3333333333333333 0.3333333333333333 0.3333333333333333 0.3333333333333333 0.3333333333333333 0.3333333333333333 0.3333333333333333 0.3333333333333333 0.3333333333333333 0.3333333333333333 0.3333333333333333 0.3333333333333333 0.3333333333333333 0.3333333333333333 0.3333333333333333 0.3333333333333333 0.3333333333333333 0.3333333333333333 0.3333333333333333 0.3333333333333333 0.3333333333333333 0.3333333333333333 0.3333333333333333 0.28237771298995795 0.3176546809199871 0.39996760609005505 0.3333333333333333 0.3333333333333333 0.3333333333333333 0.3333333333333333 0.3333333333333333 0.3333333333333333 0.3333333333333333 0.3333333333333333 0.3333333333333333 0.3333333333333333 0.3333333333333333 0.3333333333333333 0.3333333333333333 0.3333333333333333 0.3333333333333333 0.3333333333333333 0.3333333333333333 0.3333333333333333 0.3333333333333333 0.3333333333333333 0.3333333333333333 0.3333333333333333 0.3333333333333333 0.3333333333333333 0.3333333333333333 0.3333333333333333 0.3333333333333333 0.3333333333333333 0.3333333333333333 0.3333333333333333 0.3333333333333333 0.3333333333333333 0.3333333333333333 0.1154538714119267 0.6306747166613706 0.25387141192670265 </TABLE>
    </DEFINITION>
    <DEFINITION>
      <FOR>MorningBound</FOR>
      <TABLE>0.1449419568822554 0.348922056384743 0.5061359867330016 </TABLE>
    </DEFINITION>
    <DEFINITION>
      <FOR>MorningCIN</FOR>
      <GIVEN>AMCINInScen</GIVEN>
      <TABLE>0.7151671974522292 0.2016321656050955 0.005772292993630572 0.07742834394904456 0.606872037914692 0.046682464454976313 0.001184834123222749 0.34526066350710904 0.21910511363636365 0.4577414772727273 0.32137784090909094 0.001775568181818182 </TABLE>
    </DEFINITION>
    <DEFINITION>
      <FOR>MountainFcst</FOR>
      <GIVEN>R5Fcst</GIVEN>
      <TABLE>0.7154789872096059 0.0013051422605063953 0.2832158705298878 0.1831769204031978 0.6117483489746264 0.2050747306221759 0.0021394950791613185 0.0021394950791613185 0.9957210098416774 </TABLE>
    </DEFINITION>
    <DEFINITION>
      <FOR>MvmtFeatures</FOR>
      <GIVEN>Scenario</GIVEN>
      <GIVEN>ScnRelPlFcst</GIVEN>
      <TABLE>0.42845437860513896 0.00016386995280545362 0.2381030414263241 0.3332787100157315 0.25 0.25 0.25 0.25 0.25 0.25 0.25 0.25 0.25 0.25 0.25 0.25 0.25 0.25 0.25 0.25 0.25 0.25 0.25 0.25 0.25 0.25 0.25 0.25 0.25 0.25 0.25 0.25 0.25 0.25 0.25 0.25 0.25 0.25 0.25 0.25 0.25 0.25 0.25 0.25 0.25 0.25 0.25 0.25 0.08214131574079783 0.8057987545471361 0.05976015783957088 0.052299771872495224 0.25 0.25 0.25 0.25 0.25 0.25 0.25 0.25 0.25 0.25 0.25 0.25 0.25 0.25 0.25 0.25 0.25 0.25 0.25 0.25 0.25 0.25 0.25 0.25 0.25 0.25 0.25 0.25 0.25 0.25 0.25 0.25 0.25 0.25 0.25 0.25 0.25 0.25 0.25 0.25 0.25 0.25 0.25 0.25 0.2856992329090449 0.3060987945713563 0.26529967124673354 0.1429023012728652 0.25 0.25 0.25 0.25 0.25 0.25 0.25 0.25 0.25 0.25 0.25 0.25 0.25 0.25 0.25 0.25 0.25 0.25 0.25 0.25 0.25 0.25 0.25 0.25 0.25 0.25 0.25 0.25 0.25 0.25 0.25 0.25 0.25 0.25 0.25 0.25 0.25 0.25 0.25 0.25 0.25 0.25 0.25 0.25 0.4357990045536376 0.06420099544636239 0.32047548448586255 0.17952451551413748 0.25 0.25 0.25 0.25 0.25 0.25 0.25 0.25 0.25 0.25 0.25 0.25 0.25 0.25 0.25 0.25 0.25 0.25 0.25 0.25 0.25 0.25 0.25 0.25 0.25 0.25 0.25 0.25 0.25 0.25 0.25 0.25 0.25 0.25 0.25 0.25 0.25 0.25 0.25 0.25 0.25 0.25 0.25 0.25 0.015225010953245292 0.628669337172185 0.3030137072041059 0.0530919446704638 0.25 0.25 0.25 0.25 0.25 0.25 0.25 0.25 0.25 0.25 0.25 0.25 0.25 0.25 0.25 0.25 0.25 0.25 0.25 0.25 0.25 0.25 0.25 0.25 0.25 0.25 0.25 0.25 0.25 0.25 0.25 0.25 0.25 0.25 0.25 0.25 0.25 0.25 0.25 0.25 0.25 0.25 0.25 0.25 0.030577788894447226 0.9385317658829416 0.0003126563281640821 0.030577788894447226 0.25 0.25 0.25 0.25 0.25 0.25 0.25 0.25 0.25 0.25 0.25 0.25 0.25 0.25 0.25 0.25 0.25 0.25 0.25 0.25 0.25 0.25 0.25 0.25 0.25 0.25 0.25 0.25 0.25 0.25 0.25 0.25 0.25 0.25 0.25 0.25 0.25 0.25 0.25 0.25 0.25 0.25 0.25 0.25 0.19829428103411437 0.5774695534506089 0.10350046292999075 0.12073570258528596 0.25 0.25 0.25 0.25 0.25 0.25 0.25 0.25 0.25 0.25 0.25 0.25 0.25 0.25 0.25 0.25 0.25 0.25 0.25 0.25 0.25 0.25 0.25 0.25 0.25 0.25 0.25 0.25 0.25 0.25 0.25 0.25 0.25 0.25 0.25 0.25 0.25 0.25 0.25 0.25 0.25 0.25 0.25 0.25 0.5497935306262904 0.2999655884377151 0.15006882312456987 0.0001720578114246387 0.25 0.25 0.25 0.25 0.25 0.25 0.25 0.25 0.25 0.25 0.25 0.25 0.25 0.25 0.25 0.25 0.25 0.25 0.25 0.25 0.25 0.25 0.25 0.25 0.25 0.25 0.25 0.25 0.25 0.25 0.25 0.25 0.25 0.25 0.25 0.25 0.25 0.25 0.25 0.25 0.25 0.25 0.25 0.25 0.08460330386226153 0.5350453699395068 0.169061191251745 0.21129013494648677 0.25 0.25 0.25 0.25 0.25 0.25 0.25 0.25 0.25 0.25 0.25 0.25 0.25 0.25 0.25 0.25 0.25 0.25 0.25 0.25 0.25 0.25 0.25 0.25 0.25 0.25 0.25 0.25 0.25 0.25 0.25 0.25 0.25 0.25 0.25 0.25 0.25 0.25 0.25 0.25 0.25 0.25 0.25 0.25 0.00012147716229348883 0.9290816326530613 0.02363945578231293 0.04715743440233237 0.25 0.25 0.25 0.25 0.25 0.25 0.25 0.25 0.25 0.25 0.25 0.25 0.25 0.25 0.25 0.25 0.25 0.25 0.25 0.25 0.25 0.25 0.25 0.25 0.25 0.25 0.25 0.25 0.25 0.25 0.25 0.25 0.25 0.25 0.25 0.25 0.25 0.25 0.25 0.25 0.25 0.25 0.25 0.25 0.376882745471878 0.08466793771846204 0.03852875754687004 0.49992055926279 </TABLE>
    </DEFINITION>
    <DEFINITION>
      <FOR>N0_7muVerMo</FOR>
      <GIVEN>AreaMeso_ALS</GIVEN>
      <GIVEN>CombVerMo</GIVEN>
      <TABLE>0.570108511359783 0.1577653441844693 0.06010512037978976 0.21202102407595796 0.25 0.25 0.25 0.25 0.25 0.25 0.25 0.25 0.25 0.25 0.25 0.25 0.25 0.25 0.25 0.25 0.3095903165735568 0.36459676264145535 0.10790001432459533 0.2179129064603925 0.25 0.25 0.25 0.25 0.25 0.25 0.25 0.25 0.25 0.25 0.25 0.25 0.25 0.25 0.25 0.25 0.05834621329211746 0.14902112313240598 0.5694229778464709 0.22320968572900568 0.25 0.25 0.25 0.25 0.25 0.25 0.25 0.25 0.25 0.25 0.25 0.25 0.25 0.25 0.25 0.25 0.08899734875873705 0.16998071824536032 0.3859363702096891 0.35508556278621356 </TABLE>
    </DEFINITION>
    <DEFINITION>
      <FOR>N34StarFcst</FOR>
      <GIVEN>PlainsFcst</GIVEN>
      <GIVEN>R5Fcst</GIVEN>
      <TABLE>0.9775366457262517 0.0009518370454978107 0.02151151722825052 0.74066091954023 0.21695402298850577 0.04238505747126437 0.03333333333333333 0.03333333333333333 0.9333333333333333 0.7533333333333333 0.03333333333333333 0.21333333333333332 0.009078014184397161 0.9895035460992907 0.0014184397163120564 0.052083333333333336 0.052083333333333336 0.8958333333333334 0.12495894909688013 0.0008210180623973726 0.8742200328407225 0.015885837372105544 0.06677436725901992 0.9173397953688744 0.0007390983000739097 0.0007390983000739097 0.9985218033998522 </TABLE>
    </DEFINITION>
    <DEFINITION>
      <FOR>OutflowFrMt</FOR>
      <GIVEN>InsInMt</GIVEN>
      <GIVEN>WndHodograph</GIVEN>
      <TABLE>0.49400591623851786 0.4659816285224973 0.040012455238984904 0.09756642107613307 0.2502790801518196 0.6521544987720473 0.8457395653010195 0.1325254856703212 0.02173494902865936 0.676496872207328 0.2132260947274352 0.11027703306523683 0.058762350494019754 0.4518980759230369 0.4893395735829433 0.0340814630091438 0.1537822111388196 0.8121363258520364 0.34682405845980885 0.44800449690837546 0.2051714446318156 0.08548479632816983 0.6224899598393574 0.29202524383247275 0.0017271157167530228 0.0017271157167530228 0.996545768566494 0.003274394237066143 0.003274394237066143 0.9934512115258677 0.0026497085320614736 0.0026497085320614736 0.994700582935877 0.003274394237066143 0.003274394237066143 0.9934512115258677 </TABLE>
    </DEFINITION>
    <DEFINITION>
      <FOR>PlainsFcst</FOR>
      <GIVEN>MountainFcst</GIVEN>
      <GIVEN>R5Fcst</GIVEN>
      <TABLE>0.29612063723701815 0.01045847014471604 0.6934208926182659 0.03731815306767869 0.8741302972802024 0.08855154965211892 0.3333333333333333 0.3333333333333333 0.3333333333333333 0.3333333333333333 0.3333333333333333 0.3333333333333333 0.2259469696969697 0.10833333333333335 0.665719696969697 0.3333333333333333 0.3333333333333333 0.3333333333333333 0.8642089093701997 0.01812596006144393 0.11766513056835635 0.0790960451977401 0.8875706214689265 0.03333333333333333 0.020054433462254693 0.012319151983956453 0.967626414553789 </TABLE>
    </DEFINITION>
    <DEFINITION>
      <FOR>QGVertMotion</FOR>
      <GIVEN>AreaMeso_ALS</GIVEN>
      <GIVEN>CombVerMo</GIVEN>
      <TABLE>0.47787385554425227 0.29340454391319093 0.06553068836893862 0.16319091217361817 0.25 0.25 0.25 0.25 0.25 0.25 0.25 0.25 0.25 0.25 0.25 0.25 0.25 0.25 0.25 0.25 0.21103710070190518 0.5937902879243662 0.07581292078498783 0.11935969058874087 0.25 0.25 0.25 0.25 0.25 0.25 0.25 0.25 0.25 0.25 0.25 0.25 0.25 0.25 0.25 0.25 0.041859866048428646 0.3468572900566718 0.4292890262751159 0.18199381761978362 0.25 0.25 0.25 0.25 0.25 0.25 0.25 0.25 0.25 0.25 0.25 0.25 0.25 0.25 0.25 0.25 0.09285369968667148 0.5131959508315257 0.15069896360568813 0.24325138587611472 </TABLE>
    </DEFINITION>
    <DEFINITION>
      <FOR>R5Fcst</FOR>
      <TABLE>0.4235489220563848 0.3180762852404644 0.25837479270315095 </TABLE>
    </DEFINITION>
    <DEFINITION>
      <FOR>RHRatio</FOR>
      <GIVEN>Scenario</GIVEN>
      <GIVEN>ScnRelPlFcst</GIVEN>
      <TABLE>0.5078220590805803 0.047806327565111 0.44437161335430875 0.3333333333333333 0.3333333333333333 0.3333333333333333 0.3333333333333333 0.3333333333333333 0.3333333333333333 0.3333333333333333 0.3333333333333333 0.3333333333333333 0.3333333333333333 0.3333333333333333 0.3333333333333333 0.3333333333333333 0.3333333333333333 0.3333333333333333 0.3333333333333333 0.3333333333333333 0.3333333333333333 0.3333333333333333 0.3333333333333333 0.3333333333333333 0.3333333333333333 0.3333333333333333 0.3333333333333333 0.3333333333333333 0.3333333333333333 0.3333333333333333 0.3333333333333333 0.3333333333333333 0.3333333333333333 0.3333333333333333 0.3333333333333333 0.3333333333333333 0.5447109357338101 0.08216700577511972 0.37312205849107016 0.3333333333333333 0.3333333333333333 0.3333333333333333 0.3333333333333333 0.3333333333333333 0.3333333333333333 0.3333333333333333 0.3333333333333333 0.3333333333333333 0.3333333333333333 0.3333333333333333 0.3333333333333333 0.3333333333333333 0.3333333333333333 0.3333333333333333 0.3333333333333333 0.3333333333333333 0.3333333333333333 0.3333333333333333 0.3333333333333333 0.3333333333333333 0.3333333333333333 0.3333333333333333 0.3333333333333333 0.3333333333333333 0.3333333333333333 0.3333333333333333 0.3333333333333333 0.3333333333333333 0.3333333333333333 0.3333333333333333 0.3333333333333333 0.3333333333333333 0.09193852032931524 0.3367332602770519 0.5713282193936329 0.3333333333333333 0.3333333333333333 0.3333333333333333 0.3333333333333333 0.3333333333333333 0.3333333333333333 0.3333333333333333 0.3333333333333333 0.3333333333333333 0.3333333333333333 0.3333333333333333 0.3333333333333333 0.3333333333333333 0.3333333333333333 0.3333333333333333 0.3333333333333333 0.3333333333333333 0.3333333333333333 0.3333333333333333 0.3333333333333333 0.3333333333333333 0.3333333333333333 0.3333333333333333 0.3333333333333333 0.3333333333333333 0.3333333333333333 0.3333333333333333 0.3333333333333333 0.3333333333333333 0.3333333333333333 0.3333333333333333 0.3333333333333333 0.3333333333333333 0.5127254756609835 0.15394119100568324 0.33333333333333337 0.3333333333333333 0.3333333333333333 0.3333333333333333 0.3333333333333333 0.3333333333333333 0.3333333333333333 0.3333333333333333 0.3333333333333333 0.3333333333333333 0.3333333333333333 0.3333333333333333 0.3333333333333333 0.3333333333333333 0.3333333333333333 0.3333333333333333 0.3333333333333333 0.3333333333333333 0.3333333333333333 0.3333333333333333 0.3333333333333333 0.3333333333333333 0.3333333333333333 0.3333333333333333 0.3333333333333333 0.3333333333333333 0.3333333333333333 0.3333333333333333 0.3333333333333333 0.3333333333333333 0.3333333333333333 0.3333333333333333 0.3333333333333333 0.3333333333333333 0.04554463708247272 0.8256034716571738 0.12885189126035343 0.3333333333333333 0.3333333333333333 0.3333333333333333 0.3333333333333333 0.3333333333333333 0.3333333333333333 0.3333333333333333 0.3333333333333333 0.3333333333333333 0.3333333333333333 0.3333333333333333 0.3333333333333333 0.3333333333333333 0.3333333333333333 0.3333333333333333 0.3333333333333333 0.3333333333333333 0.3333333333333333 0.3333333333333333 0.3333333333333333 0.3333333333333333 0.3333333333333333 0.3333333333333333 0.3333333333333333 0.3333333333333333 0.3333333333333333 0.3333333333333333 0.3333333333333333 0.3333333333333333 0.3333333333333333 0.3333333333333333 0.3333333333333333 0.3333333333333333 0.00041687510421877606 0.00041687510421877606 0.9991662497915623 0.3333333333333333 0.3333333333333333 0.3333333333333333 0.3333333333333333 0.3333333333333333 0.3333333333333333 0.3333333333333333 0.3333333333333333 0.3333333333333333 0.3333333333333333 0.3333333333333333 0.3333333333333333 0.3333333333333333 0.3333333333333333 0.3333333333333333 0.3333333333333333 0.3333333333333333 0.3333333333333333 0.3333333333333333 0.3333333333333333 0.3333333333333333 0.3333333333333333 0.3333333333333333 0.3333333333333333 0.3333333333333333 0.3333333333333333 0.3333333333333333 0.3333333333333333 0.3333333333333333 0.3333333333333333 0.3333333333333333 0.3333333333333333 0.3333333333333333 0.00011869999762600006 0.5344111293117775 0.4654701706905966 0.3333333333333333 0.3333333333333333 0.3333333333333333 0.3333333333333333 0.3333333333333333 0.3333333333333333 0.3333333333333333 0.3333333333333333 0.3333333333333333 0.3333333333333333 0.3333333333333333 0.3333333333333333 0.3333333333333333 0.3333333333333333 0.3333333333333333 0.3333333333333333 0.3333333333333333 0.3333333333333333 0.3333333333333333 0.3333333333333333 0.3333333333333333 0.3333333333333333 0.3333333333333333 0.3333333333333333 0.3333333333333333 0.3333333333333333 0.3333333333333333 0.3333333333333333 0.3333333333333333 0.3333333333333333 0.3333333333333333 0.3333333333333333 0.3333333333333333 0.7497132369809589 0.00022941041523285162 0.25005735260380824 0.3333333333333333 0.3333333333333333 0.3333333333333333 0.3333333333333333 0.3333333333333333 0.3333333333333333 0.3333333333333333 0.3333333333333333 0.3333333333333333 0.3333333333333333 0.3333333333333333 0.3333333333333333 0.3333333333333333 0.3333333333333333 0.3333333333333333 0.3333333333333333 0.3333333333333333 0.3333333333333333 0.3333333333333333 0.3333333333333333 0.3333333333333333 0.3333333333333333 0.3333333333333333 0.3333333333333333 0.3333333333333333 0.3333333333333333 0.3333333333333333 0.3333333333333333 0.3333333333333333 0.3333333333333333 0.3333333333333333 0.3333333333333333 0.3333333333333333 0.760314875135722 0.09872809058476811 0.14095703427950987 0.3333333333333333 0.3333333333333333 0.3333333333333333 0.3333333333333333 0.3333333333333333 0.3333333333333333 0.3333333333333333 0.3333333333333333 0.3333333333333333 0.3333333333333333 0.3333333333333333 0.3333333333333333 0.3333333333333333 0.3333333333333333 0.3333333333333333 0.3333333333333333 0.3333333333333333 0.3333333333333333 0.3333333333333333 0.3333333333333333 0.3333333333333333 0.3333333333333333 0.3333333333333333 0.3333333333333333 0.3333333333333333 0.3333333333333333 0.3333333333333333 0.3333333333333333 0.3333333333333333 0.3333333333333333 0.3333333333333333 0.3333333333333333 0.3333333333333333 0.29413670229996763 0.47052154195011336 0.23534175574991906 0.3333333333333333 0.3333333333333333 0.3333333333333333 0.3333333333333333 0.3333333333333333 0.3333333333333333 0.3333333333333333 0.3333333333333333 0.3333333333333333 0.3333333333333333 0.3333333333333333 0.3333333333333333 0.3333333333333333 0.3333333333333333 0.3333333333333333 0.3333333333333333 0.3333333333333333 0.3333333333333333 0.3333333333333333 0.3333333333333333 0.3333333333333333 0.3333333333333333 0.3333333333333333 0.3333333333333333 0.3333333333333333 0.3333333333333333 0.3333333333333333 0.3333333333333333 0.3333333333333333 0.3333333333333333 0.3333333333333333 0.3333333333333333 0.3333333333333333 0.4538078593369346 0.1769727783073827 0.36921936235568265 </TABLE>
    </DEFINITION>
    <DEFINITION>
      <FOR>RaoContMoist</FOR>
      <TABLE>0.22313432835820896 0.42512437810945275 0.15746268656716417 0.19427860696517413 </TABLE>
    </DEFINITION>
    <DEFINITION>
      <FOR>SatContMoist</FOR>
      <GIVEN>CombMoisture</GIVEN>
      <GIVEN>RaoContMoist</GIVEN>
      <TABLE>0.20705082319255547 0.5391911238367931 0.05816034359341446 0.19559770937723694 0.4172316384180791 0.3268361581920904 0.0014124293785310734 0.25451977401129944 0.4967866323907455 0.4967866323907455 0.003213367609254499 0.003213367609254499 0.693076923076923 0.25 0.0038461538461538464 0.05307692307692308 0.14338598223099705 0.47507403751233956 0.11179664363277395 0.26974333662388944 0.09114661092863541 0.6787847118542849 0.06248133771275007 0.16758733950432966 0.09830339321357286 0.8967065868263473 0.00249500998003992 0.00249500998003992 0.15197926484448634 0.7099434495758719 0.061498586239396795 0.07657869934024505 0.43765432098765433 0.0030864197530864196 0.2006172839506173 0.358641975308642 0.6312405446293494 0.0018910741301059002 0.26815431164901665 0.098714069591528 0.1806829765545362 0.1643730886850153 0.27854230377166156 0.37640163098878693 0.3025328330206379 0.0924015009380863 0.5426829268292683 0.0623827392120075 0.31209573091849935 0.20860284605433377 0.2706985769728331 0.20860284605433377 0.22320968572900568 0.22320968572900568 0.27266872746007215 0.28091190108191655 0.2923600605143722 0.36497730711043874 0.05030257186081694 0.2923600605143722 0.18692946058091287 0.3462655601659751 0.17365145228215767 0.29315352697095437 </TABLE>
    </DEFINITION>
    <DEFINITION>
      <FOR>ScenRel3_4</FOR>
      <GIVEN>Scenario</GIVEN>
      <GIVEN>ScnRelPlFcst</GIVEN>
      <TABLE>0.9994756161510224 0.00013109596224436285 0.00013109596224436285 0.00013109596224436285 0.00013109596224436285 0.2 0.2 0.2 0.2 0.2 0.2 0.2 0.2 0.2 0.2 0.2 0.2 0.2 0.2 0.2 0.2 0.2 0.2 0.2 0.2 0.2 0.2 0.2 0.2 0.2 0.2 0.2 0.2 0.2 0.2 0.2 0.2 0.2 0.2 0.2 0.2 0.2 0.2 0.2 0.2 0.2 0.2 0.2 0.2 0.2 0.2 0.2 0.2 0.2 0.2 0.2 0.2 0.2 0.2 0.2 6.165608237252608e-05 0.9997533756705103 6.165608237252608e-05 6.165608237252608e-05 6.165608237252608e-05 0.2 0.2 0.2 0.2 0.2 0.2 0.2 0.2 0.2 0.2 0.2 0.2 0.2 0.2 0.2 0.2 0.2 0.2 0.2 0.2 0.2 0.2 0.2 0.2 0.2 0.2 0.2 0.2 0.2 0.2 0.2 0.2 0.2 0.2 0.2 0.2 0.2 0.2 0.2 0.2 0.2 0.2 0.2 0.2 0.2 0.2 0.2 0.2 0.2 0.2 0.2 0.2 0.2 0.2 0.2 0.9996628171626064 8.429570934839416e-05 8.429570934839416e-05 8.429570934839416e-05 8.429570934839416e-05 0.2 0.2 0.2 0.2 0.2 0.2 0.2 0.2 0.2 0.2 0.2 0.2 0.2 0.2 0.2 0.2 0.2 0.2 0.2 0.2 0.2 0.2 0.2 0.2 0.2 0.2 0.2 0.2 0.2 0.2 0.2 0.2 0.2 0.2 0.2 0.2 0.2 0.2 0.2 0.2 0.2 0.2 0.2 0.2 0.2 0.2 0.2 0.2 0.2 0.2 0.2 0.2 0.2 0.2 0.2 0.00010589854918987609 0.00010589854918987609 0.9995764058032404 0.00010589854918987609 0.00010589854918987609 0.2 0.2 0.2 0.2 0.2 0.2 0.2 0.2 0.2 0.2 0.2 0.2 0.2 0.2 0.2 0.2 0.2 0.2 0.2 0.2 0.2 0.2 0.2 0.2 0.2 0.2 0.2 0.2 0.2 0.2 0.2 0.2 0.2 0.2 0.2 0.2 0.2 0.2 0.2 0.2 0.2 0.2 0.2 0.2 0.2 0.2 0.2 0.2 0.2 0.2 0.2 0.2 0.2 0.2 0.2 0.9997496401076551 6.258997308631161e-05 6.258997308631161e-05 6.258997308631161e-05 6.258997308631161e-05 0.2 0.2 0.2 0.2 0.2 0.2 0.2 0.2 0.2 0.2 0.2 0.2 0.2 0.2 0.2 0.2 0.2 0.2 0.2 0.2 0.2 0.2 0.2 0.2 0.2 0.2 0.2 0.2 0.2 0.2 0.2 0.2 0.2 0.2 0.2 0.2 0.2 0.2 0.2 0.2 0.2 0.2 0.2 0.2 0.2 0.2 0.2 0.2 0.2 0.2 0.2 0.2 0.2 0.2 0.2 0.9989994997498748 0.00025012506253126556 0.00025012506253126556 0.00025012506253126556 0.00025012506253126556 0.2 0.2 0.2 0.2 0.2 0.2 0.2 0.2 0.2 0.2 0.2 0.2 0.2 0.2 0.2 0.2 0.2 0.2 0.2 0.2 0.2 0.2 0.2 0.2 0.2 0.2 0.2 0.2 0.2 0.2 0.2 0.2 0.2 0.2 0.2 0.2 0.2 0.2 0.2 0.2 0.2 0.2 0.2 0.2 0.2 0.2 0.2 0.2 0.2 0.2 0.2 0.2 0.2 0.2 0.2 7.121999857560003e-05 7.121999857560003e-05 7.121999857560003e-05 0.9997151200056975 7.121999857560003e-05 0.2 0.2 0.2 0.2 0.2 0.2 0.2 0.2 0.2 0.2 0.2 0.2 0.2 0.2 0.2 0.2 0.2 0.2 0.2 0.2 0.2 0.2 0.2 0.2 0.2 0.2 0.2 0.2 0.2 0.2 0.2 0.2 0.2 0.2 0.2 0.2 0.2 0.2 0.2 0.2 0.2 0.2 0.2 0.2 0.2 0.2 0.2 0.2 0.2 0.2 0.2 0.2 0.2 0.2 0.2 0.00013764624913971095 0.00013764624913971095 0.00013764624913971095 0.00013764624913971095 0.9994494150034412 0.2 0.2 0.2 0.2 0.2 0.2 0.2 0.2 0.2 0.2 0.2 0.2 0.2 0.2 0.2 0.2 0.2 0.2 0.2 0.2 0.2 0.2 0.2 0.2 0.2 0.2 0.2 0.2 0.2 0.2 0.2 0.2 0.2 0.2 0.2 0.2 0.2 0.2 0.2 0.2 0.2 0.2 0.2 0.2 0.2 0.2 0.2 0.2 0.2 0.2 0.2 0.2 0.2 0.2 0.2 0.00011633317822242903 0.00011633317822242903 0.00011633317822242903 0.00011633317822242903 0.9995346672871102 0.2 0.2 0.2 0.2 0.2 0.2 0.2 0.2 0.2 0.2 0.2 0.2 0.2 0.2 0.2 0.2 0.2 0.2 0.2 0.2 0.2 0.2 0.2 0.2 0.2 0.2 0.2 0.2 0.2 0.2 0.2 0.2 0.2 0.2 0.2 0.2 0.2 0.2 0.2 0.2 0.2 0.2 0.2 0.2 0.2 0.2 0.2 0.2 0.2 0.2 0.2 0.2 0.2 0.2 0.2 9.718172983479105e-05 9.718172983479105e-05 9.718172983479105e-05 0.9996112730806608 9.718172983479105e-05 0.2 0.2 0.2 0.2 0.2 0.2 0.2 0.2 0.2 0.2 0.2 0.2 0.2 0.2 0.2 0.2 0.2 0.2 0.2 0.2 0.2 0.2 0.2 0.2 0.2 0.2 0.2 0.2 0.2 0.2 0.2 0.2 0.2 0.2 0.2 0.2 0.2 0.2 0.2 0.2 0.2 0.2 0.2 0.2 0.2 0.2 0.2 0.2 0.2 0.2 0.2 0.2 0.2 0.2 0.2 0.9997457896409283 6.355258976803308e-05 6.355258976803308e-05 6.355258976803308e-05 6.355258976803308e-05 </TABLE>
    </DEFINITION>
    <DEFINITION>
      <FOR>ScenRelAMCIN</FOR>
      <GIVEN>ScenRelAMIns</GIVEN>
      <TABLE>0.7343459392436454 0.26565406075635467 0.0010579771476936098 0.9989420228523064 0.012315270935960593 0.9876847290640395 0.0035663338088445075 0.9964336661911555 0.006849315068493151 0.9931506849315069 0.003184713375796179 0.9968152866242039 </TABLE>
    </DEFINITION>
    <DEFINITION>
      <FOR>ScenRelAMIns</FOR>
      <GIVEN>LowLLapse</GIVEN>
      <TABLE>0.10323269289417505 0.5021347971942666 0.0007624275693809088 0.3411100945410186 0.0007624275693809088 0.051997560231777984 0.3391376451077943 0.2913764510779436 0.04859038142620232 0.01674958540630182 0.0804311774461028 0.22371475953565503 0.4273979862215156 0.1730259671436142 0.058558558558558564 0.0013248542660307366 0.2429782723900371 0.09671436142024378 0.27287960814642953 0.483243103892756 0.03776746584171179 0.05942253158030421 0.0068316576437226105 0.13985563289507608 </TABLE>
    </DEFINITION>
    <DEFINITION>
      <FOR>Scenario</FOR>
      <GIVEN>ScenRelAMCIN</GIVEN>
      <GIVEN>ScenRelAMIns</GIVEN>
      <TABLE>0.31931386469166134 0.6789592847001038 0.0001918722898039066 0.0001918722898039066 0.0001918722898039066 0.0001918722898039066 0.0001918722898039066 0.0001918722898039066 0.0001918722898039066 0.0001918722898039066 0.0001918722898039066 0.0909090909090909 0.0909090909090909 0.0909090909090909 0.0909090909090909 0.0909090909090909 0.0909090909090909 0.0909090909090909 0.0909090909090909 0.0909090909090909 0.0909090909090909 0.0909090909090909 0.0909090909090909 0.0909090909090909 0.0909090909090909 0.0909090909090909 0.0909090909090909 0.0909090909090909 0.0909090909090909 0.0909090909090909 0.0909090909090909 0.0909090909090909 0.0909090909090909 0.0909090909090909 0.0909090909090909 0.0909090909090909 0.0909090909090909 0.0909090909090909 0.0909090909090909 0.0909090909090909 0.0909090909090909 0.0909090909090909 0.0909090909090909 0.0909090909090909 0.0909090909090909 0.0909090909090909 0.0909090909090909 0.0909090909090909 0.0909090909090909 0.0909090909090909 0.0909090909090909 0.0909090909090909 0.0909090909090909 0.0909090909090909 0.0909090909090909 0.0909090909090909 0.0909090909090909 0.0909090909090909 0.0909090909090909 0.0909090909090909 0.0909090909090909 0.0909090909090909 0.0909090909090909 0.0909090909090909 0.0909090909090909 0.0909090909090909 0.0005303914288745095 0.0005303914288745095 0.0005303914288745095 0.0005303914288745095 0.0005303914288745095 0.0005303914288745095 0.0005303914288745095 0.0005303914288745095 0.9946960857112551 0.0005303914288745095 0.0005303914288745095 9.628160443665633e-05 9.628160443665633e-05 0.24919604860295388 0.19835936146039934 0.33561841674529663 9.628160443665633e-05 9.628160443665633e-05 9.628160443665633e-05 9.628160443665633e-05 0.21615220196029344 9.628160443665633e-05 0.001133529811834051 0.001133529811834051 0.001133529811834051 0.001133529811834051 0.001133529811834051 0.9886647018816593 0.001133529811834051 0.001133529811834051 0.001133529811834051 0.001133529811834051 0.001133529811834051 0.0003253725515715495 0.0003253725515715495 0.0003253725515715495 0.0003253725515715495 0.0003253725515715495 0.0003253725515715495 0.9967462744842847 0.0003253725515715495 0.0003253725515715495 0.0003253725515715495 0.0003253725515715495 0.0006269592476489028 0.0006269592476489028 0.0006269592476489028 0.0006269592476489028 0.0006269592476489028 0.0006269592476489028 0.0006269592476489028 0.9937304075235109 0.0006269592476489028 0.0006269592476489028 0.0006269592476489028 0.0002904443799012489 0.0002904443799012489 0.0002904443799012489 0.0002904443799012489 0.0002904443799012489 0.0002904443799012489 0.0002904443799012489 0.0002904443799012489 0.0002904443799012489 0.0002904443799012489 0.9970955562009876 </TABLE>
    </DEFINITION>
    <DEFINITION>
      <FOR>ScnRelPlFcst</FOR>
      <GIVEN>ScenRelAMIns</GIVEN>
      <GIVEN>Scenario</GIVEN>
