<?xml version='1.0' encoding='utf-8'?>
<BIF VERSION="0.3">
  <NETWORK>
    <NAME>UNTITLED</NAME>
    <VARIABLE TYPE="nature">
      <NAME>ChHepatitis</NAME>
      <OUTCOME>0</OUTCOME>
      <OUTCOME>1</OUTCOME>
      <OUTCOME>2</OUTCOME>
      <PROPERTY>weight = None</PROPERTY>
    </VARIABLE>
    <VARIABLE TYPE="nature">
      <NAME>Cirrhosis</NAME>
      <OUTCOME>0</OUTCOME>
      <OUTCOME>1</OUTCOME>
      <OUTCOME>2</OUTCOME>
      <PROPERTY>weight = None</PROPERTY>
    </VARIABLE>
    <VARIABLE TYPE="nature">
      <NAME>ESR</NAME>
      <OUTCOME>0</OUTCOME>
      <OUTCOME>1</OUTCOME>
      <OUTCOME>2</OUTCOME>
      <PROPERTY>weight = None</PROPERTY>
    </VARIABLE>
    <VARIABLE TYPE="nature">
      <NAME>Hyperbilirubinemia</NAME>
      <OUTCOME>0</OUTCOME>
      <OUTCOME>1</OUTCOME>
      <PROPERTY>weight = None</PROPERTY>
    </VARIABLE>
    <VARIABLE TYPE="nature">
      <NAME>PBC</NAME>
      <OUTCOME>0</OUTCOME>
      <OUTCOME>1</OUTCOME>
      <PROPERTY>weight = None</PROPERTY>
    </VARIABLE>
    <VARIABLE TYPE="nature">
      <NAME>RHepatitis</NAME>
      <OUTCOME>0</OUTCOME>
      <OUTCOME>1</OUTCOME>
      <PROPERTY>weight = None</PROPERTY>
    </VARIABLE>
    <VARIABLE TYPE="nature">
      <NAME>Steatosis</NAME>
      <OUTCOME>0</OUTCOME>
      <OUTCOME>1</OUTCOME>
      <PROPERTY>weight = None</PROPERTY>
    </VARIABLE>
    <VARIABLE TYPE="nature">
      <NAME>THepatitis</NAME>
      <OUTCOME>0</OUTCOME>
      <OUTCOME>1</OUTCOME>
      <PROPERTY>weight = None</PROPERTY>
    </VARIABLE>
    <VARIABLE TYPE="nature">
      <NAME>age</NAME>
      <OUTCOME>0</OUTCOME>
      <OUTCOME>1</OUTCOME>
      <OUTCOME>2</OUTCOME>
      <OUTCOME>3</OUTCOME>
      <PROPERTY>weight = None</PROPERTY>
    </VARIABLE>
    <VARIABLE TYPE="nature">
      <NAME>albumin</NAME>
      <OUTCOME>0</OUTCOME>
      <OUTCOME>1</OUTCOME>
      <OUTCOME>2</OUTCOME>
      <PROPERTY>weight = None</PROPERTY>
    </VARIABLE>
    <VARIABLE TYPE="nature">
      <NAME>alcohol</NAME>
      <OUTCOME>0</OUTCOME>
      <OUTCOME>1</OUTCOME>
      <PROPERTY>weight = None</PROPERTY>
    </VARIABLE>
    <VARIABLE TYPE="nature">
      <NAME>alcoholism</NAME>
      <OUTCOME>0</OUTCOME>
      <OUTCOME>1</OUTCOME>
      <PROPERTY>weight = None</PROPERTY>
    </VARIABLE>
    <VARIABLE TYPE="nature">
      <NAME>alt</NAME>
      <OUTCOME>0</OUTCOME>
      <OUTCOME>1</OUTCOME>
      <OUTCOME>2</OUTCOME>
      <OUTCOME>3</OUTCOME>
      <PROPERTY>weight = None</PROPERTY>
    </VARIABLE>
    <VARIABLE TYPE="nature">
      <NAME>ama</NAME>
      <OUTCOME>0</OUTCOME>
      <OUTCOME>1</OUTCOME>
      <PROPERTY>weight = None</PROPERTY>
    </VARIABLE>
    <VARIABLE TYPE="nature">
      <NAME>amylase</NAME>
      <OUTCOME>0</OUTCOME>
      <OUTCOME>1</OUTCOME>
      <OUTCOME>2</OUTCOME>
      <PROPERTY>weight = None</PROPERTY>
    </VARIABLE>
    <VARIABLE TYPE="nature">
      <NAME>anorexia</NAME>
      <OUTCOME>0</OUTCOME>
      <OUTCOME>1</OUTCOME>
      <PROPERTY>weight = None</PROPERTY>
    </VARIABLE>
    <VARIABLE TYPE="nature">
      <NAME>ascites</NAME>
      <OUTCOME>0</OUTCOME>
      <OUTCOME>1</OUTCOME>
      <PROPERTY>weight = None</PROPERTY>
    </VARIABLE>
    <VARIABLE TYPE="nature">
      <NAME>ast</NAME>
      <OUTCOME>0</OUTCOME>
      <OUTCOME>1</OUTCOME>
      <OUTCOME>2</OUTCOME>
      <OUTCOME>3</OUTCOME>
      <PROPERTY>weight = None</PROPERTY>
    </VARIABLE>
    <VARIABLE TYPE="nature">
      <NAME>bilirubin</NAME>
      <OUTCOME>0</OUTCOME>
      <OUTCOME>1</OUTCOME>
      <OUTCOME>2</OUTCOME>
      <OUTCOME>3</OUTCOME>
      <PROPERTY>weight = None</PROPERTY>
    </VARIABLE>
    <VARIABLE TYPE="nature">
      <NAME>bleeding</NAME>
      <OUTCOME>0</OUTCOME>
      <OUTCOME>1</OUTCOME>
      <PROPERTY>weight = None</PROPERTY>
    </VARIABLE>
    <VARIABLE TYPE="nature">
      <NAME>carcinoma</NAME>
      <OUTCOME>0</OUTCOME>
      <OUTCOME>1</OUTCOME>
      <PROPERTY>weight = None</PROPERTY>
    </VARIABLE>
    <VARIABLE TYPE="nature">
      <NAME>choledocholithotomy</NAME>
      <OUTCOME>0</OUTCOME>
      <OUTCOME>1</OUTCOME>
      <PROPERTY>weight = None</PROPERTY>
    </VARIABLE>
    <VARIABLE TYPE="nature">
      <NAME>cholesterol</NAME>
      <OUTCOME>0</OUTCOME>
      <OUTCOME>1</OUTCOME>
      <OUTCOME>2</OUTCOME>
      <PROPERTY>weight = None</PROPERTY>
    </VARIABLE>
    <VARIABLE TYPE="nature">
      <NAME>consciousness</NAME>
      <OUTCOME>0</OUTCOME>
      <OUTCOME>1</OUTCOME>
      <PROPERTY>weight = None</PROPERTY>
    </VARIABLE>
    <VARIABLE TYPE="nature">
      <NAME>density</NAME>
      <OUTCOME>0</OUTCOME>
      <OUTCOME>1</OUTCOME>
      <PROPERTY>weight = None</PROPERTY>
    </VARIABLE>
    <VARIABLE TYPE="nature">
      <NAME>diabetes</NAME>
      <OUTCOME>0</OUTCOME>
      <OUTCOME>1</OUTCOME>
      <PROPERTY>weight = None</PROPERTY>
    </VARIABLE>
    <VARIABLE TYPE="nature">
      <NAME>edema</NAME>
      <OUTCOME>0</OUTCOME>
      <OUTCOME>1</OUTCOME>
      <PROPERTY>weight = None</PROPERTY>
    </VARIABLE>
    <VARIABLE TYPE="nature">
      <NAME>edge</NAME>
      <OUTCOME>0</OUTCOME>
      <OUTCOME>1</OUTCOME>
      <PROPERTY>weight = None</PROPERTY>
    </VARIABLE>
    <VARIABLE TYPE="nature">
      <NAME>encephalopathy</NAME>
      <OUTCOME>0</OUTCOME>
      <OUTCOME>1</OUTCOME>
      <PROPERTY>weight = None</PROPERTY>
    </VARIABLE>
    <VARIABLE TYPE="nature">
      <NAME>fat</NAME>
      <OUTCOME>0</OUTCOME>
      <OUTCOME>1</OUTCOME>
      <PROPERTY>weight = None</PROPERTY>
    </VARIABLE>
    <VARIABLE TYPE="nature">
      <NAME>fatigue</NAME>
      <OUTCOME>0</OUTCOME>
      <OUTCOME>1</OUTCOME>
      <PROPERTY>weight = None</PROPERTY>
    </VARIABLE>
    <VARIABLE TYPE="nature">
      <NAME>fibrosis</NAME>
      <OUTCOME>0</OUTCOME>
      <OUTCOME>1</OUTCOME>
      <PROPERTY>weight = None</PROPERTY>
    </VARIABLE>
    <VARIABLE TYPE="nature">
      <NAME>flatulence</NAME>
      <OUTCOME>0</OUTCOME>
      <OUTCOME>1</OUTCOME>
      <PROPERTY>weight = None</PROPERTY>
    </VARIABLE>
    <VARIABLE TYPE="nature">
      <NAME>gallstones</NAME>
      <OUTCOME>0</OUTCOME>
      <OUTCOME>1</OUTCOME>
      <PROPERTY>weight = None</PROPERTY>
    </VARIABLE>
    <VARIABLE TYPE="nature">
      <NAME>ggtp</NAME>
      <OUTCOME>0</OUTCOME>
      <OUTCOME>1</OUTCOME>
      <OUTCOME>2</OUTCOME>
      <OUTCOME>3</OUTCOME>
      <PROPERTY>weight = None</PROPERTY>
    </VARIABLE>
    <VARIABLE TYPE="nature">
      <NAME>hbc_anti</NAME>
      <OUTCOME>0</OUTCOME>
      <OUTCOME>1</OUTCOME>
      <PROPERTY>weight = None</PROPERTY>
    </VARIABLE>
    <VARIABLE TYPE="nature">
      <NAME>hbeag</NAME>
      <OUTCOME>0</OUTCOME>
      <OUTCOME>1</OUTCOME>
      <PROPERTY>weight = None</PROPERTY>
    </VARIABLE>
    <VARIABLE TYPE="nature">
      <NAME>hbsag</NAME>
      <OUTCOME>0</OUTCOME>
      <OUTCOME>1</OUTCOME>
      <PROPERTY>weight = None</PROPERTY>
    </VARIABLE>
    <VARIABLE TYPE="nature">
      <NAME>hbsag_anti</NAME>
      <OUTCOME>0</OUTCOME>
      <OUTCOME>1</OUTCOME>
      <PROPERTY>weight = None</PROPERTY>
    </VARIABLE>
    <VARIABLE TYPE="nature">
      <NAME>hcv_anti</NAME>
      <OUTCOME>0</OUTCOME>
      <PROPERTY>weight = None</PROPERTY>
    </VARIABLE>
    <VARIABLE TYPE="nature">
      <NAME>hepatalgia</NAME>
      <OUTCOME>0</OUTCOME>
      <OUTCOME>1</OUTCOME>
      <PROPERTY>weight = None</PROPERTY>
    </VARIABLE>
    <VARIABLE TYPE="nature">
      <NAME>hepatomegaly</NAME>
      <OUTCOME>0</OUTCOME>
      <OUTCOME>1</OUTCOME>
      <PROPERTY>weight = None</PROPERTY>
    </VARIABLE>
    <VARIABLE TYPE="nature">
      <NAME>hepatotoxic</NAME>
      <OUTCOME>0</OUTCOME>
      <OUTCOME>1</OUTCOME>
      <PROPERTY>weight = None</PROPERTY>
    </VARIABLE>
    <VARIABLE TYPE="nature">
      <NAME>hospital</NAME>
      <OUTCOME>0</OUTCOME>
      <OUTCOME>1</OUTCOME>
      <PROPERTY>weight = None</PROPERTY>
    </VARIABLE>
    <VARIABLE TYPE="nature">
      <NAME>injections</NAME>
      <OUTCOME>0</OUTCOME>
      <OUTCOME>1</OUTCOME>
      <PROPERTY>weight = None</PROPERTY>
    </VARIABLE>
    <VARIABLE TYPE="nature">
      <NAME>inr</NAME>
      <OUTCOME>0</OUTCOME>
      <OUTCOME>1</OUTCOME>
      <OUTCOME>2</OUTCOME>
      <PROPERTY>weight = None</PROPERTY>
    </VARIABLE>
    <VARIABLE TYPE="nature">
      <NAME>irregular_liver</NAME>
      <OUTCOME>0</OUTCOME>
      <OUTCOME>1</OUTCOME>
      <PROPERTY>weight = None</PROPERTY>
    </VARIABLE>
    <VARIABLE TYPE="nature">
      <NAME>itching</NAME>
      <OUTCOME>0</OUTCOME>
      <OUTCOME>1</OUTCOME>
      <PROPERTY>weight = None</PROPERTY>
    </VARIABLE>
    <VARIABLE TYPE="nature">
      <NAME>jaundice</NAME>
      <OUTCOME>0</OUTCOME>
      <OUTCOME>1</OUTCOME>
      <PROPERTY>weight = None</PROPERTY>
    </VARIABLE>
    <VARIABLE TYPE="nature">
      <NAME>joints</NAME>
      <OUTCOME>0</OUTCOME>
      <OUTCOME>1</OUTCOME>
      <PROPERTY>weight = None</PROPERTY>
    </VARIABLE>
    <VARIABLE TYPE="nature">
      <NAME>le_cells</NAME>
      <OUTCOME>0</OUTCOME>
      <OUTCOME>1</OUTCOME>
      <PROPERTY>weight = None</PROPERTY>
    </VARIABLE>
    <VARIABLE TYPE="nature">
      <NAME>nausea</NAME>
      <OUTCOME>0</OUTCOME>
      <OUTCOME>1</OUTCOME>
      <PROPERTY>weight = None</PROPERTY>
    </VARIABLE>
    <VARIABLE TYPE="nature">
      <NAME>obesity</NAME>
      <OUTCOME>0</OUTCOME>
      <OUTCOME>1</OUTCOME>
      <PROPERTY>weight = None</PROPERTY>
    </VARIABLE>
    <VARIABLE TYPE="nature">
      <NAME>pain</NAME>
      <OUTCOME>0</OUTCOME>
      <OUTCOME>1</OUTCOME>
      <PROPERTY>weight = None</PROPERTY>
    </VARIABLE>
    <VARIABLE TYPE="nature">
      <NAME>pain_ruq</NAME>
      <OUTCOME>0</OUTCOME>
      <OUTCOME>1</OUTCOME>
      <PROPERTY>weight = None</PROPERTY>
    </VARIABLE>
    <VARIABLE TYPE="nature">
      <NAME>palms</NAME>
      <OUTCOME>0</OUTCOME>
      <OUTCOME>1</OUTCOME>
      <PROPERTY>weight = None</PROPERTY>
    </VARIABLE>
    <VARIABLE TYPE="nature">
      <NAME>phosphatase</NAME>
      <OUTCOME>0</OUTCOME>
      <OUTCOME>1</OUTCOME>
      <OUTCOME>2</OUTCOME>
      <PROPERTY>weight = None</PROPERTY>
    </VARIABLE>
    <VARIABLE TYPE="nature">
      <NAME>platelet</NAME>
      <OUTCOME>0</OUTCOME>
      <OUTCOME>1</OUTCOME>
      <OUTCOME>2</OUTCOME>
      <OUTCOME>3</OUTCOME>
      <PROPERTY>weight = None</PROPERTY>
    </VARIABLE>
    <VARIABLE TYPE="nature">
      <NAME>pressure_ruq</NAME>
      <OUTCOME>0</OUTCOME>
      <OUTCOME>1</OUTCOME>
      <PROPERTY>weight = None</PROPERTY>
    </VARIABLE>
    <VARIABLE TYPE="nature">
      <NAME>proteins</NAME>
      <OUTCOME>0</OUTCOME>
      <OUTCOME>1</OUTCOME>
      <PROPERTY>weight = None</PROPERTY>
    </VARIABLE>
    <VARIABLE TYPE="nature">
      <NAME>sex</NAME>
      <OUTCOME>0</OUTCOME>
      <OUTCOME>1</OUTCOME>
      <PROPERTY>weight = None</PROPERTY>
    </VARIABLE>
    <VARIABLE TYPE="nature">
      <NAME>skin</NAME>
      <OUTCOME>0</OUTCOME>
      <OUTCOME>1</OUTCOME>
      <PROPERTY>weight = None</PROPERTY>
    </VARIABLE>
    <VARIABLE TYPE="nature">
      <NAME>spiders</NAME>
      <OUTCOME>0</OUTCOME>
      <OUTCOME>1</OUTCOME>
      <PROPERTY>weight = None</PROPERTY>
    </VARIABLE>
    <VARIABLE TYPE="nature">
      <NAME>spleen</NAME>
      <OUTCOME>0</OUTCOME>
      <OUTCOME>1</OUTCOME>
      <PROPERTY>weight = None</PROPERTY>
    </VARIABLE>
    <VARIABLE TYPE="nature">
      <NAME>surgery</NAME>
      <OUTCOME>0</OUTCOME>
      <OUTCOME>1</OUTCOME>
      <PROPERTY>weight = None</PROPERTY>
    </VARIABLE>
    <VARIABLE TYPE="nature">
      <NAME>transfusion</NAME>
      <OUTCOME>0</OUTCOME>
      <OUTCOME>1</OUTCOME>
      <PROPERTY>weight = None</PROPERTY>
    </VARIABLE>
    <VARIABLE TYPE="nature">
      <NAME>triglycerides</NAME>
      <OUTCOME>0</OUTCOME>
      <OUTCOME>1</OUTCOME>
      <OUTCOME>2</OUTCOME>
      <PROPERTY>weight = None</PROPERTY>
    </VARIABLE>
    <VARIABLE TYPE="nature">
      <NAME>upper_pain</NAME>
      <OUTCOME>0</OUTCOME>
      <OUTCOME>1</OUTCOME>
      <PROPERTY>weight = None</PROPERTY>
    </VARIABLE>
    <VARIABLE TYPE="nature">
      <NAME>urea</NAME>
      <OUTCOME>0</OUTCOME>
      <OUTCOME>1</OUTCOME>
      <OUTCOME>2</OUTCOME>
      <PROPERTY>weight = None</PROPERTY>
    </VARIABLE>
    <VARIABLE TYPE="nature">
      <NAME>vh_amn</NAME>
      <OUTCOME>0</OUTCOME>
      <OUTCOME>1</OUTCOME>
      <PROPERTY>weight = None</PROPERTY>
    </VARIABLE>
    <DEFINITION>
      <FOR>ChHepatitis</FOR>
      <GIVEN>injections</GIVEN>
      <GIVEN>vh_amn</GIVEN>
      <TABLE>0.803224744981902 0.1595919710431063 0.03718328397499177 0.5739837398373984 0.24227642276422762 0.18373983739837396 0.9340436326737698 0.06341958396752918 0.0025367833587011676 0.8666666666666667 0.12183908045977013 0.011494252873563218 </TABLE>
    </DEFINITION>
    <DEFINITION>
      <FOR>Cirrhosis</FOR>
      <GIVEN>Steatosis</GIVEN>
      <GIVEN>fibrosis</GIVEN>
      <TABLE>0.9958824630357477 0.0031817331087404077 0.0009358038555118847 0.4863387978142077 0.28961748633879786 0.22404371584699453 0.494949494949495 0.03434343434343434 0.47070707070707074 0.12820512820512822 0.4358974358974359 0.4358974358974359 </TABLE>
    </DEFINITION>
    <DEFINITION>
      <FOR>ESR</FOR>
      <GIVEN>ChHepatitis</GIVEN>
      <GIVEN>PBC</GIVEN>
      <TABLE>0.9079261672095549 0.0479913137893594 0.044082519001085785 0.323034672159286 0.46515619636113975 0.21180913147957436 0.7068741893644617 0.0298313878080415 0.26329442282749677 0.4541387024608501 0.3333333333333333 0.21252796420581654 0.868544600938967 0.10798122065727697 0.023474178403755864 0.2907801418439716 0.6737588652482269 0.03546099290780142 </TABLE>
    </DEFINITION>
    <DEFINITION>
      <FOR>Hyperbilirubinemia</FOR>
      <GIVEN>age</GIVEN>
      <GIVEN>sex</GIVEN>
      <TABLE>0.8646112600536193 0.1353887399463807 0.4650655021834061 0.5349344978165939 0.9651162790697675 0.03488372093023256 0.9502164502164502 0.049783549783549784 0.9973432518597237 0.002656748140276302 0.9066543438077634 0.0933456561922366 0.8687943262411347 0.13120567375886524 0.981203007518797 0.018796992481203006 </TABLE>
    </DEFINITION>
    <DEFINITION>
      <FOR>PBC</FOR>
      <GIVEN>age</GIVEN>
      <GIVEN>sex</GIVEN>
      <TABLE>0.9504021447721179 0.049597855227882036 0.9890829694323144 0.010917030567685589 0.32608695652173914 0.6739130434782609 0.9155844155844156 0.08441558441558442 0.35972369819341127 0.6402763018065888 0.9214417744916821 0.07855822550831792 0.30141843971631205 0.6985815602836879 0.5 0.5 </TABLE>
    </DEFINITION>
    <DEFINITION>
      <FOR>RHepatitis</FOR>
      <TABLE>0.9752475247524752 0.024752475247524754 </TABLE>
    </DEFINITION>
    <DEFINITION>
      <FOR>Steatosis</FOR>
      <GIVEN>alcoholism</GIVEN>
      <GIVEN>obesity</GIVEN>
      <TABLE>0.952638270820089 0.047361729179911 0.8308270676691729 0.16917293233082706 0.7657807308970099 0.23421926910299004 0.19230769230769232 0.8076923076923077 </TABLE>
    </DEFINITION>
    <DEFINITION>
      <FOR>THepatitis</FOR>
      <TABLE>0.9277227722772278 0.07227722772277227 </TABLE>
    </DEFINITION>
    <DEFINITION>
      <FOR>age</FOR>
      <TABLE>0.149009900990099 0.4163366336633663 0.3668316831683168 0.06782178217821783 </TABLE>
    </DEFINITION>
    <DEFINITION>
      <FOR>albumin</FOR>
      <TABLE>0.09834983498349835 0.14587458745874587 0.7557755775577558 </TABLE>
    </DEFINITION>
    <DEFINITION>
      <FOR>alcohol</FOR>
      <TABLE>0.901980198019802 0.09801980198019802 </TABLE>
    </DEFINITION>
    <DEFINITION>
      <FOR>alcoholism</FOR>
      <TABLE>0.8445544554455445 0.15544554455445544 </TABLE>
    </DEFINITION>
    <DEFINITION>
      <FOR>alt</FOR>
      <GIVEN>Steatosis</GIVEN>
      <GIVEN>THepatitis</GIVEN>
      <TABLE>0.18520140105078808 0.320636310566258 0.04276123759486281 0.45140105078809106 0.16472868217054262 0.6298449612403101 0.009689922480620155 0.19573643410852712 0.007763975155279503 0.6040372670807453 0.03260869565217391 0.3555900621118012 0.07352941176470588 0.5441176470588235 0.07352941176470588 0.3088235294117647 </TABLE>
    </DEFINITION>
    <DEFINITION>
      <FOR>ama</FOR>
      <GIVEN>PBC</GIVEN>
      <GIVEN>hepatotoxic</GIVEN>
      <TABLE>0.9870651204281892 0.012934879571810883 0.9462809917355371 0.05371900826446281 0.48344827586206895 0.516551724137931 0.12264150943396226 0.8773584905660378 </TABLE>
    </DEFINITION>
    <DEFINITION>
      <FOR>amylase</FOR>
      <TABLE>0.0132013201320132 0.9518151815181517 0.03498349834983498 </TABLE>
    </DEFINITION>
    <DEFINITION>
      <FOR>anorexia</FOR>
      <GIVEN>RHepatitis</GIVEN>
      <GIVEN>hepatotoxic</GIVEN>
      <TABLE>0.721606648199446 0.278393351800554 0.8636363636363636 0.13636363636363635 0.5487804878048781 0.45121951219512196 0.2777777777777778 0.7222222222222222 </TABLE>
    </DEFINITION>
    <DEFINITION>
      <FOR>ascites</FOR>
      <GIVEN>anorexia</GIVEN>
      <GIVEN>proteins</GIVEN>
      <TABLE>0.8653979238754326 0.13460207612456748 0.1 0.9 0.8985102420856611 0.10148975791433892 0.8076923076923077 0.19230769230769232 </TABLE>
    </DEFINITION>
    <DEFINITION>
      <FOR>ast</FOR>
      <GIVEN>RHepatitis</GIVEN>
      <GIVEN>amylase</GIVEN>
      <TABLE>0.37857142857142856 0.03571428571428571 0.2071428571428571 0.37857142857142856 0.48572188719404047 0.19412912380276692 0.3005498403689252 0.019599148634267472 0.48762376237623767 0.25 0.25 0.012376237623762377 0.25 0.25 0.25 0.25 0.8499999999999999 0.1115384615384615 0.01923076923076923 0.01923076923076923 0.25 0.25 0.25 0.25 </TABLE>
    </DEFINITION>
    <DEFINITION>
      <FOR>bilirubin</FOR>
      <GIVEN>PBC</GIVEN>
      <TABLE>0.02455716586151369 0.8168276972624798 0.1469404186795491 0.011674718196457327 0.16259640102827763 0.4402313624678663 0.35796915167095117 0.03920308483290488 </TABLE>
    </DEFINITION>
    <DEFINITION>
      <FOR>bleeding</FOR>
      <GIVEN>THepatitis</GIVEN>
      <GIVEN>inr</GIVEN>
      <TABLE>0.9023937267849773 0.09760627321502269 0.8413173652694611 0.15868263473053892 0.7171945701357466 0.28280542986425333 0.7041884816753926 0.2958115183246073 0.7727272727272727 0.22727272727272727 0.5 0.5 </TABLE>
    </DEFINITION>
    <DEFINITION>
      <FOR>carcinoma</FOR>
      <GIVEN>Cirrhosis</GIVEN>
      <GIVEN>PBC</GIVEN>
      <TABLE>0.9848137535816618 0.015186246418338108 0.9258064516129033 0.07419354838709678 0.5638297872340425 0.4361702127659574 0.5 0.5 0.7112676056338029 0.2887323943661972 0.26623376623376627 0.7337662337662337 </TABLE>
    </DEFINITION>
    <DEFINITION>
      <FOR>choledocholithotomy</FOR>
      <GIVEN>gallstones</GIVEN>
      <TABLE>0.9522968197879859 0.04770318021201413 0.35093167701863354 0.6490683229813664 </TABLE>
    </DEFINITION>
    <DEFINITION>
      <FOR>cholesterol</FOR>
      <GIVEN>PBC</GIVEN>
      <TABLE>0.8851315083199143 0.10896403650026841 0.005904455179817501 0.55955441302485 0.30762639245929735 0.1328191945158526 </TABLE>
    </DEFINITION>
    <DEFINITION>
      <FOR>consciousness</FOR>
      <GIVEN>encephalopathy</GIVEN>
      <TABLE>0.981025641025641 0.018974358974358976 0.6428571428571429 0.35714285714285715 </TABLE>
    </DEFINITION>
    <DEFINITION>
      <FOR>density</FOR>
      <GIVEN>encephalopathy</GIVEN>
      <GIVEN>surgery</GIVEN>
      <TABLE>0.6498708010335917 0.35012919896640826 0.5506970849176173 0.44930291508238274 0.45121951219512196 0.5487804878048781 0.08620689655172414 0.9137931034482759 </TABLE>
    </DEFINITION>
    <DEFINITION>
      <FOR>diabetes</FOR>
      <TABLE>0.9673267326732673 0.032673267326732675 </TABLE>
    </DEFINITION>
    <DEFINITION>
      <FOR>edema</FOR>
      <GIVEN>surgery</GIVEN>
      <TABLE>0.8361064891846922 0.1638935108153078 0.9156479217603912 0.0843520782396088 </TABLE>
    </DEFINITION>
    <DEFINITION>
      <FOR>edge</FOR>
      <GIVEN>Cirrhosis</GIVEN>
      <GIVEN>encephalopathy</GIVEN>
      <TABLE>0.7806698216235893 0.2193301783764106 0.463855421686747 0.536144578313253 0.4361702127659574 0.5638297872340425 0.5 0.5 0.2480916030534351 0.7519083969465649 0.1470588235294118 0.8529411764705883 </TABLE>
    </DEFINITION>
    <DEFINITION>
      <FOR>encephalopathy</FOR>
      <GIVEN>carcinoma</GIVEN>
      <GIVEN>vh_amn</GIVEN>
      <TABLE>0.9781783681214421 0.021821631878557873 0.9518272425249169 0.04817275747508306 0.9719101123595506 0.028089887640449437 0.6224489795918368 0.37755102040816324 </TABLE>
    </DEFINITION>
    <DEFINITION>
      <FOR>fat</FOR>
      <GIVEN>diabetes</GIVEN>
      <TABLE>0.7599795291709315 0.24002047082906858 0.5606060606060606 0.4393939393939394 </TABLE>
    </DEFINITION>
    <DEFINITION>
      <FOR>fatigue</FOR>
      <GIVEN>THepatitis</GIVEN>
      <GIVEN>diabetes</GIVEN>
      <TABLE>0.43946064942212437 0.5605393505778756 0.7456140350877193 0.2543859649122807 0.2518248175182482 0.7481751824817519 0.2777777777777778 0.7222222222222222 </TABLE>
    </DEFINITION>
    <DEFINITION>
      <FOR>fibrosis</FOR>
      <GIVEN>ChHepatitis</GIVEN>
      <TABLE>0.9980047885075819 0.0019952114924181967 0.7512315270935961 0.24876847290640391 0.9576271186440678 0.04237288135593221 </TABLE>
    </DEFINITION>
    <DEFINITION>
      <FOR>flatulence</FOR>
      <GIVEN>Steatosis</GIVEN>
      <GIVEN>fat</GIVEN>
      <TABLE>0.5447653429602888 0.45523465703971117 0.6356673960612691 0.36433260393873085 0.8065693430656934 0.19343065693430658 0.45121951219512196 0.5487804878048781 </TABLE>
    </DEFINITION>
    <DEFINITION>
      <FOR>gallstones</FOR>
      <TABLE>0.8405940594059406 0.1594059405940594 </TABLE>
    </DEFINITION>
    <DEFINITION>
      <FOR>ggtp</FOR>
      <GIVEN>PBC</GIVEN>
      <GIVEN>carcinoma</GIVEN>
      <TABLE>0.1413951545530493 0.05116959064327485 0.04782790309106098 0.7596073517126148 0.4722222222222222 0.29444444444444445 0.027777777777777776 0.20555555555555555 0.12445255474452555 0.25291970802919705 0.2237226277372263 0.3989051094890511 0.1424731182795699 0.1424731182795699 0.22849462365591397 0.48655913978494625 </TABLE>
    </DEFINITION>
    <DEFINITION>
      <FOR>hbc_anti</FOR>
      <TABLE>0.8821782178217822 0.11782178217821782 </TABLE>
    </DEFINITION>
    <DEFINITION>
      <FOR>hbeag</FOR>
      <TABLE>0.9930693069306931 0.006930693069306931 </TABLE>
    </DEFINITION>
    <DEFINITION>
      <FOR>hbsag</FOR>
      <GIVEN>ChHepatitis</GIVEN>
      <GIVEN>vh_amn</GIVEN>
      <TABLE>0.959598318542737 0.04040168145726296 0.8780821917808219 0.1219178082191781 0.7754098360655738 0.22459016393442624 0.6188118811881188 0.38118811881188125 0.8559322033898306 0.14406779661016952 0.34745762711864403 0.652542372881356 </TABLE>
    </DEFINITION>
    <DEFINITION>
      <FOR>hbsag_anti</FOR>
      <GIVEN>cholesterol</GIVEN>
      <TABLE>0.9952215464813207 0.00477845351867941 0.9911032028469752 0.008896797153024912 0.8614457831325302 0.1385542168674699 </TABLE>
    </DEFINITION>
    <DEFINITION>
      <FOR>hcv_anti</FOR>
      <TABLE>1.0 </TABLE>
    </DEFINITION>
    <DEFINITION>
      <FOR>hepatalgia</FOR>
      <GIVEN>encephalopathy</GIVEN>
      <GIVEN>hepatomegaly</GIVEN>
      <TABLE>0.9713178294573643 0.02868217054263566 0.6731800766283524 0.3268199233716475 0.8809523809523809 0.11904761904761904 0.29591836734693877 0.7040816326530612 </TABLE>
    </DEFINITION>
    <DEFINITION>
      <FOR>hepatomegaly</FOR>
      <GIVEN>Hyperbilirubinemia</GIVEN>
      <GIVEN>RHepatitis</GIVEN>
      <TABLE>0.2919647771051183 0.7080352228948816 0.6777777777777778 0.32222222222222224 0.6699346405228758 0.3300653594771242 0.5 0.5 </TABLE>
    </DEFINITION>
    <DEFINITION>
      <FOR>hepatotoxic</FOR>
      <GIVEN>vh_amn</GIVEN>
      <TABLE>0.9011976047904192 0.09880239520958084 0.9742857142857143 0.025714285714285714 </TABLE>
    </DEFINITION>
    <DEFINITION>
      <FOR>hospital</FOR>
      <TABLE>0.46831683168316834 0.5316831683168317 </TABLE>
    </DEFINITION>
    <DEFINITION>
      <FOR>injections</FOR>
      <GIVEN>hospital</GIVEN>
      <GIVEN>surgery</GIVEN>
      <TABLE>0.9380610412926391 0.06193895870736086 0.7159383033419023 0.28406169665809766 0.4503875968992248 0.5496124031007752 0.2948717948717949 0.7051282051282052 </TABLE>
    </DEFINITION>
    <DEFINITION>
      <FOR>inr</FOR>
      <GIVEN>Steatosis</GIVEN>
      <TABLE>0.8856315598986609 0.06044154904089758 0.05392689106044155 0.6254681647940075 0.04119850187265918 0.33333333333333337 </TABLE>
    </DEFINITION>
    <DEFINITION>
      <FOR>irregular_liver</FOR>
      <GIVEN>Cirrhosis</GIVEN>
      <GIVEN>ascites</GIVEN>
      <TABLE>0.9178615321589512 0.08213846784104874 0.8084832904884319 0.19151670951156813 0.7926829268292682 0.2073170731707317 0.7727272727272727 0.22727272727272727 0.3686131386861314 0.6313868613138687 0.22727272727272727 0.7727272727272727 </TABLE>
    </DEFINITION>
    <DEFINITION>
      <FOR>itching</FOR>
      <GIVEN>ast</GIVEN>
      <GIVEN>bilirubin</GIVEN>
      <TABLE>0.06313993174061433 0.9368600682593856 0.7138705927934909 0.2861294072065091 0.4429153924566769 0.5570846075433231 0.1581196581196581 0.8418803418803419 0.8168316831683168 0.18316831683168316 0.5621963070942663 0.43780369290573373 0.4012345679012346 0.5987654320987654 0.11904761904761904 0.8809523809523809 0.19060773480662985 0.8093922651933702 0.7069370958259847 0.29306290417401526 0.5183066361556065 0.4816933638443936 0.06756756756756757 0.9324324324324325 0.9528301886792453 0.04716981132075472 0.2948717948717949 0.7051282051282052 0.11904761904761904 0.8809523809523809 0.5 0.5 </TABLE>
    </DEFINITION>
    <DEFINITION>
      <FOR>jaundice</FOR>
      <GIVEN>alcohol</GIVEN>
      <GIVEN>bilirubin</GIVEN>
      <TABLE>0.44223826714801445 0.5577617328519856 0.8142972863507493 0.1857027136492507 0.6559074299634592 0.3440925700365408 0.24025974025974026 0.7597402597402597 0.7162162162162162 0.28378378378378377 0.9244897959183673 0.07551020408163266 0.2623762376237624 0.7376237623762376 0.19230769230769232 0.8076923076923077 </TABLE>
    </DEFINITION>
    <DEFINITION>
      <FOR>joints</FOR>
      <GIVEN>THepatitis</GIVEN>
      <TABLE>0.8607257203842049 0.13927427961579508 0.9657534246575342 0.03424657534246575 </TABLE>
    </DEFINITION>
    <DEFINITION>
      <FOR>le_cells</FOR>
      <GIVEN>PBC</GIVEN>
      <GIVEN>gallstones</GIVEN>
      <TABLE>0.9715750232991612 0.02842497670083877 0.8431952662721893 0.15680473372781065 0.8872 0.1128 0.826797385620915 0.17320261437908496 </TABLE>
    </DEFINITION>
    <DEFINITION>
      <FOR>nausea</FOR>
      <GIVEN>PBC</GIVEN>
      <GIVEN>amylase</GIVEN>
      <TABLE>0.9137931034482758 0.08620689655172413 0.7475975127190503 0.2524024872809497 0.2230769230769231 0.7769230769230769 0.22727272727272727 0.7727272727272727 0.6695067264573991 0.3304932735426009 0.7926829268292682 0.2073170731707317 </TABLE>
    </DEFINITION>
    <DEFINITION>
      <FOR>obesity</FOR>
      <GIVEN>diabetes</GIVEN>
      <TABLE>0.936028659160696 0.06397134083930399 0.6818181818181818 0.3181818181818182 </TABLE>
    </DEFINITION>
    <DEFINITION>
      <FOR>pain</FOR>
      <GIVEN>PBC</GIVEN>
      <GIVEN>joints</GIVEN>
      <TABLE>0.8728191000918274 0.12718089990817263 0.2777777777777778 0.7222222222222222 0.8218045112781955 0.17819548872180452 0.6592920353982301 0.3407079646017699 </TABLE>
    </DEFINITION>
    <DEFINITION>
      <FOR>pain_ruq</FOR>
      <GIVEN>edema</GIVEN>
      <GIVEN>fibrosis</GIVEN>
      <TABLE>0.6077560686796921 0.3922439313203079 0.9 0.1 0.5077821011673151 0.49221789883268485 0.2777777777777778 0.7222222222222222 </TABLE>
    </DEFINITION>
    <DEFINITION>
      <FOR>palms</FOR>
      <GIVEN>Cirrhosis</GIVEN>
      <GIVEN>obesity</GIVEN>
      <TABLE>0.8720226843100188 0.12797731568998108 0.6297297297297297 0.3702702702702702 0.6463414634146342 0.3536585365853658 0.22727272727272727 0.7727272727272727 0.596 0.40399999999999997 0.6304347826086957 0.3695652173913044 </TABLE>
    </DEFINITION>
    <DEFINITION>
      <FOR>phosphatase</FOR>
      <GIVEN>ChHepatitis</GIVEN>
      <GIVEN>proteins</GIVEN>
      <TABLE>0.4512178710806083 0.22836764903781456 0.3204144798815772 0.471264367816092 0.0574712643678161 0.471264367816092 0.7249782419495213 0.02001740644038294 0.2550043516100957 0.07246376811594203 0.3333333333333333 0.5942028985507246 0.7050147492625368 0.0678466076696165 0.22713864306784656 0.3333333333333333 0.3333333333333333 0.3333333333333333 </TABLE>
    </DEFINITION>
    <DEFINITION>
      <FOR>platelet</FOR>
      <GIVEN>PBC</GIVEN>
      <TABLE>0.12761674718196458 0.749194847020934 0.10507246376811594 0.018115942028985508 0.11632390745501285 0.6973007712082262 0.05462724935732648 0.13174807197943444 </TABLE>
    </DEFINITION>
    <DEFINITION>
      <FOR>pressure_ruq</FOR>
      <GIVEN>PBC</GIVEN>
      <GIVEN>le_cells</GIVEN>
      <TABLE>0.5286919831223629 0.4713080168776371 0.7456140350877193 0.2543859649122807 0.7261380323054332 0.27386196769456683 0.4381443298969072 0.5618556701030928 </TABLE>
    </DEFINITION>
    <DEFINITION>
      <FOR>proteins</FOR>
      <TABLE>0.9811881188118812 0.01881188118811881 </TABLE>
    </DEFINITION>
    <DEFINITION>
      <FOR>sex</FOR>
      <GIVEN>gallstones</GIVEN>
      <TABLE>0.5871613663133097 0.4128386336866902 0.6987577639751553 0.30124223602484473 </TABLE>
    </DEFINITION>
    <DEFINITION>
      <FOR>skin</FOR>
      <GIVEN>bilirubin</GIVEN>
      <GIVEN>diabetes</GIVEN>
      <TABLE>0.11165048543689321 0.8883495145631068 0.5 0.5 0.8200606750094804 0.17993932499051954 0.24025974025974026 0.7597402597402597 0.4589509692132269 0.5410490307867731 0.4111111111111111 0.5888888888888889 0.029411764705882353 0.9705882352941176 0.5 0.5 </TABLE>
    </DEFINITION>
    <DEFINITION>
      <FOR>spiders</FOR>
      <GIVEN>Cirrhosis</GIVEN>
      <GIVEN>hbeag</GIVEN>
      <TABLE>0.8203263568641362 0.1796736431358638 0.22727272727272727 0.7727272727272727 0.3085106382978723 0.6914893617021276 0.5 0.5 0.5209790209790209 0.479020979020979 0.5 0.5 </TABLE>
    </DEFINITION>
    <DEFINITION>
      <FOR>spleen</FOR>
      <GIVEN>Cirrhosis</GIVEN>
      <GIVEN>jaundice</GIVEN>
      <TABLE>0.8636799233349305 0.13632007666506946 0.9562584118438762 0.04374158815612382 0.5857142857142857 0.41428571428571426 0.5 0.5 0.4719626168224299 0.5280373831775701 0.5 0.5 </TABLE>
    </DEFINITION>
    <DEFINITION>
      <FOR>surgery</FOR>
      <TABLE>0.595049504950495 0.404950495049505 </TABLE>
    </DEFINITION>
    <DEFINITION>
      <FOR>transfusion</FOR>
      <GIVEN>hospital</GIVEN>
      <GIVEN>surgery</GIVEN>
      <TABLE>0.9883303411131059 0.011669658886894075 0.787917737789203 0.2120822622107969 0.8844961240310077 0.11550387596899225 0.6864801864801865 0.3135198135198135 </TABLE>
    </DEFINITION>
    <DEFINITION>
      <FOR>triglycerides</FOR>
      <GIVEN>Steatosis</GIVEN>
      <GIVEN>hbsag_anti</GIVEN>
      <TABLE>0.011898224418817499 0.9542375983891633 0.033864177192019035 0.07936507936507937 0.6507936507936508 0.2698412698412699 0.1483622350674374 0.7726396917148363 0.07899807321772641 0.33333333333333337 0.33333333333333337 0.33333333333333337 </TABLE>
    </DEFINITION>
    <DEFINITION>
      <FOR>upper_pain</FOR>
      <GIVEN>diabetes</GIVEN>
      <GIVEN>proteins</GIVEN>
      <TABLE>0.6280583029672046 0.3719416970327954 0.9242424242424242 0.07575757575757576 0.36885245901639346 0.6311475409836066 0.5 0.5 </TABLE>
    </DEFINITION>
    <DEFINITION>
      <FOR>urea</FOR>
      <GIVEN>encephalopathy</GIVEN>
      <TABLE>0.03042735042735043 0.9104273504273505 0.05914529914529915 0.1619047619047619 0.6190476190476191 0.21904761904761905 </TABLE>
    </DEFINITION>
    <DEFINITION>
      <FOR>vh_amn</FOR>
      <TABLE>0.8267326732673267 0.17326732673267325 </TABLE>
    </DEFINITION>
  </NETWORK>
</BIF>
