<?xml version='1.0' encoding='utf-8'?>
<BIF VERSION="0.3">
  <NETWORK>
    <NAME>UNTITLED</NAME>
    <VARIABLE TYPE="nature">
      <NAME>ChHepatitis</NAME>
      <OUTCOME>0</OUTCOME>
      <OUTCOME>1</OUTCOME>
      <OUTCOME>2</OUTCOME>
      <PROPERTY>weight = None</PROPERTY>
    </VARIABLE>
    <VARIABLE TYPE="nature">
      <NAME>Cirrhosis</NAME>
      <OUTCOME>0</OUTCOME>
      <OUTCOME>1</OUTCOME>
      <OUTCOME>2</OUTCOME>
      <PROPERTY>weight = None</PROPERTY>
    </VARIABLE>
    <VARIABLE TYPE="nature">
      <NAME>ESR</NAME>
      <OUTCOME>0</OUTCOME>
      <OUTCOME>1</OUTCOME>
      <OUTCOME>2</OUTCOME>
      <PROPERTY>weight = None</PROPERTY>
    </VARIABLE>
    <VARIABLE TYPE="nature">
      <NAME>Hyperbilirubinemia</NAME>
      <OUTCOME>0</OUTCOME>
      <OUTCOME>1</OUTCOME>
      <PROPERTY>weight = None</PROPERTY>
    </VARIABLE>
    <VARIABLE TYPE="nature">
      <NAME>PBC</NAME>
      <OUTCOME>0</OUTCOME>
      <OUTCOME>1</OUTCOME>
      <PROPERTY>weight = None</PROPERTY>
    </VARIABLE>
    <VARIABLE TYPE="nature">
      <NAME>RHepatitis</NAME>
      <OUTCOME>0</OUTCOME>
      <OUTCOME>1</OUTCOME>
      <PROPERTY>weight = None</PROPERTY>
    </VARIABLE>
    <VARIABLE TYPE="nature">
      <NAME>Steatosis</NAME>
      <OUTCOME>0</OUTCOME>
      <OUTCOME>1</OUTCOME>
      <PROPERTY>weight = None</PROPERTY>
    </VARIABLE>
    <VARIABLE TYPE="nature">
      <NAME>THepatitis</NAME>
      <OUTCOME>0</OUTCOME>
      <OUTCOME>1</OUTCOME>
      <PROPERTY>weight = None</PROPERTY>
    </VARIABLE>
    <VARIABLE TYPE="nature">
      <NAME>age</NAME>
      <OUTCOME>0</OUTCOME>
      <OUTCOME>1</OUTCOME>
      <OUTCOME>2</OUTCOME>
      <OUTCOME>3</OUTCOME>
      <PROPERTY>weight = None</PROPERTY>
    </VARIABLE>
    <VARIABLE TYPE="nature">
      <NAME>albumin</NAME>
      <OUTCOME>0</OUTCOME>
      <OUTCOME>1</OUTCOME>
      <OUTCOME>2</OUTCOME>
      <PROPERTY>weight = None</PROPERTY>
    </VARIABLE>
    <VARIABLE TYPE="nature">
      <NAME>alcohol</NAME>
      <OUTCOME>0</OUTCOME>
      <OUTCOME>1</OUTCOME>
      <PROPERTY>weight = None</PROPERTY>
    </VARIABLE>
    <VARIABLE TYPE="nature">
      <NAME>alcoholism</NAME>
      <OUTCOME>0</OUTCOME>
      <OUTCOME>1</OUTCOME>
      <PROPERTY>weight = None</PROPERTY>
    </VARIABLE>
    <VARIABLE TYPE="nature">
      <NAME>alt</NAME>
      <OUTCOME>0</OUTCOME>
      <OUTCOME>1</OUTCOME>
      <OUTCOME>2</OUTCOME>
      <OUTCOME>3</OUTCOME>
      <PROPERTY>weight = None</PROPERTY>
    </VARIABLE>
    <VARIABLE TYPE="nature">
      <NAME>ama</NAME>
      <OUTCOME>0</OUTCOME>
      <OUTCOME>1</OUTCOME>
      <PROPERTY>weight = None</PROPERTY>
    </VARIABLE>
    <VARIABLE TYPE="nature">
      <NAME>amylase</NAME>
      <OUTCOME>0</OUTCOME>
      <OUTCOME>1</OUTCOME>
      <OUTCOME>2</OUTCOME>
      <PROPERTY>weight = None</PROPERTY>
    </VARIABLE>
    <VARIABLE TYPE="nature">
      <NAME>anorexia</NAME>
      <OUTCOME>0</OUTCOME>
      <OUTCOME>1</OUTCOME>
      <PROPERTY>weight = None</PROPERTY>
    </VARIABLE>
    <VARIABLE TYPE="nature">
      <NAME>ascites</NAME>
      <OUTCOME>0</OUTCOME>
      <OUTCOME>1</OUTCOME>
      <PROPERTY>weight = None</PROPERTY>
    </VARIABLE>
    <VARIABLE TYPE="nature">
      <NAME>ast</NAME>
      <OUTCOME>0</OUTCOME>
      <OUTCOME>1</OUTCOME>
      <OUTCOME>2</OUTCOME>
      <OUTCOME>3</OUTCOME>
      <PROPERTY>weight = None</PROPERTY>
    </VARIABLE>
    <VARIABLE TYPE="nature">
      <NAME>bilirubin</NAME>
      <OUTCOME>0</OUTCOME>
      <OUTCOME>1</OUTCOME>
      <OUTCOME>2</OUTCOME>
      <OUTCOME>3</OUTCOME>
      <PROPERTY>weight = None</PROPERTY>
    </VARIABLE>
    <VARIABLE TYPE="nature">
      <NAME>bleeding</NAME>
      <OUTCOME>0</OUTCOME>
      <OUTCOME>1</OUTCOME>
      <PROPERTY>weight = None</PROPERTY>
    </VARIABLE>
    <VARIABLE TYPE="nature">
      <NAME>carcinoma</NAME>
      <OUTCOME>0</OUTCOME>
      <OUTCOME>1</OUTCOME>
      <PROPERTY>weight = None</PROPERTY>
    </VARIABLE>
    <VARIABLE TYPE="nature">
      <NAME>choledocholithotomy</NAME>
      <OUTCOME>0</OUTCOME>
      <OUTCOME>1</OUTCOME>
      <PROPERTY>weight = None</PROPERTY>
    </VARIABLE>
    <VARIABLE TYPE="nature">
      <NAME>cholesterol</NAME>
      <OUTCOME>0</OUTCOME>
      <OUTCOME>1</OUTCOME>
      <OUTCOME>2</OUTCOME>
      <PROPERTY>weight = None</PROPERTY>
    </VARIABLE>
    <VARIABLE TYPE="nature">
      <NAME>consciousness</NAME>
      <OUTCOME>0</OUTCOME>
      <OUTCOME>1</OUTCOME>
      <PROPERTY>weight = None</PROPERTY>
    </VARIABLE>
    <VARIABLE TYPE="nature">
      <NAME>density</NAME>
      <OUTCOME>0</OUTCOME>
      <OUTCOME>1</OUTCOME>
      <PROPERTY>weight = None</PROPERTY>
    </VARIABLE>
    <VARIABLE TYPE="nature">
      <NAME>diabetes</NAME>
      <OUTCOME>0</OUTCOME>
      <OUTCOME>1</OUTCOME>
      <PROPERTY>weight = None</PROPERTY>
    </VARIABLE>
    <VARIABLE TYPE="nature">
      <NAME>edema</NAME>
      <OUTCOME>0</OUTCOME>
      <OUTCOME>1</OUTCOME>
      <PROPERTY>weight = None</PROPERTY>
    </VARIABLE>
    <VARIABLE TYPE="nature">
      <NAME>edge</NAME>
      <OUTCOME>0</OUTCOME>
      <OUTCOME>1</OUTCOME>
      <PROPERTY>weight = None</PROPERTY>
    </VARIABLE>
    <VARIABLE TYPE="nature">
      <NAME>encephalopathy</NAME>
      <OUTCOME>0</OUTCOME>
      <OUTCOME>1</OUTCOME>
      <PROPERTY>weight = None</PROPERTY>
    </VARIABLE>
    <VARIABLE TYPE="nature">
      <NAME>fat</NAME>
      <OUTCOME>0</OUTCOME>
      <OUTCOME>1</OUTCOME>
      <PROPERTY>weight = None</PROPERTY>
    </VARIABLE>
    <VARIABLE TYPE="nature">
      <NAME>fatigue</NAME>
      <OUTCOME>0</OUTCOME>
      <OUTCOME>1</OUTCOME>
      <PROPERTY>weight = None</PROPERTY>
    </VARIABLE>
    <VARIABLE TYPE="nature">
      <NAME>fibrosis</NAME>
      <OUTCOME>0</OUTCOME>
      <OUTCOME>1</OUTCOME>
      <PROPERTY>weight = None</PROPERTY>
    </VARIABLE>
    <VARIABLE TYPE="nature">
      <NAME>flatulence</NAME>
      <OUTCOME>0</OUTCOME>
      <OUTCOME>1</OUTCOME>
      <PROPERTY>weight = None</PROPERTY>
    </VARIABLE>
    <VARIABLE TYPE="nature">
      <NAME>gallstones</NAME>
      <OUTCOME>0</OUTCOME>
      <OUTCOME>1</OUTCOME>
      <PROPERTY>weight = None</PROPERTY>
    </VARIABLE>
    <VARIABLE TYPE="nature">
      <NAME>ggtp</NAME>
      <OUTCOME>0</OUTCOME>
      <OUTCOME>1</OUTCOME>
      <OUTCOME>2</OUTCOME>
      <OUTCOME>3</OUTCOME>
      <PROPERTY>weight = None</PROPERTY>
    </VARIABLE>
    <VARIABLE TYPE="nature">
      <NAME>hbc_anti</NAME>
      <OUTCOME>0</OUTCOME>
      <OUTCOME>1</OUTCOME>
      <PROPERTY>weight = None</PROPERTY>
    </VARIABLE>
    <VARIABLE TYPE="nature">
      <NAME>hbeag</NAME>
      <OUTCOME>0</OUTCOME>
      <OUTCOME>1</OUTCOME>
      <PROPERTY>weight = None</PROPERTY>
    </VARIABLE>
    <VARIABLE TYPE="nature">
      <NAME>hbsag</NAME>
      <OUTCOME>0</OUTCOME>
      <OUTCOME>1</OUTCOME>
      <PROPERTY>weight = None</PROPERTY>
    </VARIABLE>
    <VARIABLE TYPE="nature">
      <NAME>hbsag_anti</NAME>
      <OUTCOME>0</OUTCOME>
      <OUTCOME>1</OUTCOME>
      <PROPERTY>weight = None</PROPERTY>
    </VARIABLE>
    <VARIABLE TYPE="nature">
      <NAME>hcv_anti</NAME>
      <OUTCOME>0</OUTCOME>
      <PROPERTY>weight = None</PROPERTY>
    </VARIABLE>
    <VARIABLE TYPE="nature">
      <NAME>hepatalgia</NAME>
      <OUTCOME>0</OUTCOME>
      <OUTCOME>1</OUTCOME>
      <PROPERTY>weight = None</PROPERTY>
    </VARIABLE>
    <VARIABLE TYPE="nature">
      <NAME>hepatomegaly</NAME>
      <OUTCOME>0</OUTCOME>
      <OUTCOME>1</OUTCOME>
      <PROPERTY>weight = None</PROPERTY>
    </VARIABLE>
    <VARIABLE TYPE="nature">
      <NAME>hepatotoxic</NAME>
      <OUTCOME>0</OUTCOME>
      <OUTCOME>1</OUTCOME>
      <PROPERTY>weight = None</PROPERTY>
    </VARIABLE>
    <VARIABLE TYPE="nature">
      <NAME>hospital</NAME>
      <OUTCOME>0</OUTCOME>
      <OUTCOME>1</OUTCOME>
      <PROPERTY>weight = None</PROPERTY>
    </VARIABLE>
    <VARIABLE TYPE="nature">
      <NAME>injections</NAME>
      <OUTCOME>0</OUTCOME>
      <OUTCOME>1</OUTCOME>
      <PROPERTY>weight = None</PROPERTY>
    </VARIABLE>
    <VARIABLE TYPE="nature">
      <NAME>inr</NAME>
      <OUTCOME>0</OUTCOME>
      <OUTCOME>1</OUTCOME>
      <OUTCOME>2</OUTCOME>
      <PROPERTY>weight = None</PROPERTY>
    </VARIABLE>
    <VARIABLE TYPE="nature">
      <NAME>irregular_liver</NAME>
      <OUTCOME>0</OUTCOME>
      <OUTCOME>1</OUTCOME>
      <PROPERTY>weight = None</PROPERTY>
    </VARIABLE>
    <VARIABLE TYPE="nature">
      <NAME>itching</NAME>
      <OUTCOME>0</OUTCOME>
      <OUTCOME>1</OUTCOME>
      <PROPERTY>weight = None</PROPERTY>
    </VARIABLE>
    <VARIABLE TYPE="nature">
      <NAME>jaundice</NAME>
      <OUTCOME>0</OUTCOME>
      <OUTCOME>1</OUTCOME>
      <PROPERTY>weight = None</PROPERTY>
    </VARIABLE>
    <VARIABLE TYPE="nature">
      <NAME>joints</NAME>
      <OUTCOME>0</OUTCOME>
      <OUTCOME>1</OUTCOME>
      <PROPERTY>weight = None</PROPERTY>
    </VARIABLE>
    <VARIABLE TYPE="nature">
      <NAME>le_cells</NAME>
      <OUTCOME>0</OUTCOME>
      <OUTCOME>1</OUTCOME>
      <PROPERTY>weight = None</PROPERTY>
    </VARIABLE>
    <VARIABLE TYPE="nature">
      <NAME>nausea</NAME>
      <OUTCOME>0</OUTCOME>
      <OUTCOME>1</OUTCOME>
      <PROPERTY>weight = None</PROPERTY>
    </VARIABLE>
    <VARIABLE TYPE="nature">
      <NAME>obesity</NAME>
      <OUTCOME>0</OUTCOME>
      <OUTCOME>1</OUTCOME>
      <PROPERTY>weight = None</PROPERTY>
    </VARIABLE>
    <VARIABLE TYPE="nature">
      <NAME>pain</NAME>
      <OUTCOME>0</OUTCOME>
      <OUTCOME>1</OUTCOME>
      <PROPERTY>weight = None</PROPERTY>
    </VARIABLE>
    <VARIABLE TYPE="nature">
      <NAME>pain_ruq</NAME>
      <OUTCOME>0</OUTCOME>
      <OUTCOME>1</OUTCOME>
      <PROPERTY>weight = None</PROPERTY>
    </VARIABLE>
    <VARIABLE TYPE="nature">
      <NAME>palms</NAME>
      <OUTCOME>0</OUTCOME>
      <OUTCOME>1</OUTCOME>
      <PROPERTY>weight = None</PROPERTY>
    </VARIABLE>
    <VARIABLE TYPE="nature">
      <NAME>phosphatase</NAME>
      <OUTCOME>0</OUTCOME>
      <OUTCOME>1</OUTCOME>
      <OUTCOME>2</OUTCOME>
      <PROPERTY>weight = None</PROPERTY>
    </VARIABLE>
    <VARIABLE TYPE="nature">
      <NAME>platelet</NAME>
      <OUTCOME>0</OUTCOME>
      <OUTCOME>1</OUTCOME>
      <OUTCOME>2</OUTCOME>
      <OUTCOME>3</OUTCOME>
      <PROPERTY>weight = None</PROPERTY>
    </VARIABLE>
    <VARIABLE TYPE="nature">
      <NAME>pressure_ruq</NAME>
      <OUTCOME>0</OUTCOME>
      <OUTCOME>1</OUTCOME>
      <PROPERTY>weight = None</PROPERTY>
    </VARIABLE>
    <VARIABLE TYPE="nature">
      <NAME>proteins</NAME>
      <OUTCOME>0</OUTCOME>
      <OUTCOME>1</OUTCOME>
      <PROPERTY>weight = None</PROPERTY>
    </VARIABLE>
    <VARIABLE TYPE="nature">
      <NAME>sex</NAME>
      <OUTCOME>0</OUTCOME>
      <OUTCOME>1</OUTCOME>
      <PROPERTY>weight = None</PROPERTY>
    </VARIABLE>
    <VARIABLE TYPE="nature">
      <NAME>skin</NAME>
      <OUTCOME>0</OUTCOME>
      <OUTCOME>1</OUTCOME>
      <PROPERTY>weight = None</PROPERTY>
    </VARIABLE>
    <VARIABLE TYPE="nature">
      <NAME>spiders</NAME>
      <OUTCOME>0</OUTCOME>
      <OUTCOME>1</OUTCOME>
      <PROPERTY>weight = None</PROPERTY>
    </VARIABLE>
    <VARIABLE TYPE="nature">
      <NAME>spleen</NAME>
      <OUTCOME>0</OUTCOME>
      <OUTCOME>1</OUTCOME>
      <PROPERTY>weight = None</PROPERTY>
    </VARIABLE>
    <VARIABLE TYPE="nature">
      <NAME>surgery</NAME>
      <OUTCOME>0</OUTCOME>
      <OUTCOME>1</OUTCOME>
      <PROPERTY>weight = None</PROPERTY>
    </VARIABLE>
    <VARIABLE TYPE="nature">
      <NAME>transfusion</NAME>
      <OUTCOME>0</OUTCOME>
      <OUTCOME>1</OUTCOME>
      <PROPERTY>weight = None</PROPERTY>
    </VARIABLE>
    <VARIABLE TYPE="nature">
      <NAME>triglycerides</NAME>
      <OUTCOME>0</OUTCOME>
      <OUTCOME>1</OUTCOME>
      <OUTCOME>2</OUTCOME>
      <PROPERTY>weight = None</PROPERTY>
    </VARIABLE>
    <VARIABLE TYPE="nature">
      <NAME>upper_pain</NAME>
      <OUTCOME>0</OUTCOME>
      <OUTCOME>1</OUTCOME>
      <PROPERTY>weight = None</PROPERTY>
    </VARIABLE>
    <VARIABLE TYPE="nature">
      <NAME>urea</NAME>
      <OUTCOME>0</OUTCOME>
      <OUTCOME>1</OUTCOME>
      <OUTCOME>2</OUTCOME>
      <PROPERTY>weight = None</PROPERTY>
    </VARIABLE>
    <VARIABLE TYPE="nature">
      <NAME>vh_amn</NAME>
      <OUTCOME>0</OUTCOME>
      <OUTCOME>1</OUTCOME>
      <PROPERTY>weight = None</PROPERTY>
    </VARIABLE>
    <DEFINITION>
      <FOR>ChHepatitis</FOR>
      <GIVEN>fibrosis</GIVEN>
      <GIVEN>hbsag</GIVEN>
      <TABLE>0.8941021292632372 0.08008290936498962 0.025814961371773124 0.4839924670433145 0.3483992467043314 0.16760828625235405 0.027322404371584706 0.9453551912568307 0.027322404371584706 0.12820512820512822 0.7435897435897436 0.12820512820512822 </TABLE>
    </DEFINITION>
    <DEFINITION>
      <FOR>Cirrhosis</FOR>
      <GIVEN>diabetes</GIVEN>
      <GIVEN>fibrosis</GIVEN>
      <TABLE>0.9622375154402681 0.005117346038468324 0.03264513852126345 0.45641025641025645 0.33333333333333337 0.21025641025641026 0.6608187134502923 0.029239766081871347 0.3099415204678363 0.1851851851851852 0.1851851851851852 0.6296296296296297 </TABLE>
    </DEFINITION>
    <DEFINITION>
      <FOR>ESR</FOR>
      <GIVEN>ChHepatitis</GIVEN>
      <GIVEN>PBC</GIVEN>
      <TABLE>0.9079261672095549 0.0479913137893594 0.044082519001085785 0.323034672159286 0.46515619636113975 0.21180913147957436 0.7068741893644617 0.0298313878080415 0.26329442282749677 0.4541387024608501 0.3333333333333333 0.21252796420581654 0.868544600938967 0.10798122065727697 0.023474178403755864 0.2907801418439716 0.6737588652482269 0.03546099290780142 </TABLE>
    </DEFINITION>
    <DEFINITION>
      <FOR>Hyperbilirubinemia</FOR>
      <TABLE>0.9217821782178218 0.07821782178217822 </TABLE>
    </DEFINITION>
    <DEFINITION>
      <FOR>PBC</FOR>
      <GIVEN>Hyperbilirubinemia</GIVEN>
      <GIVEN>encephalopathy</GIVEN>
      <TABLE>0.607717934480844 0.392282065519156 0.23770491803278687 0.7622950819672131 0.8489932885906041 0.15100671140939598 0.7222222222222222 0.2777777777777778 </TABLE>
    </DEFINITION>
    <DEFINITION>
      <FOR>RHepatitis</FOR>
      <TABLE>0.9752475247524752 0.024752475247524754 </TABLE>
    </DEFINITION>
    <DEFINITION>
      <FOR>Steatosis</FOR>
      <GIVEN>Cirrhosis</GIVEN>
      <GIVEN>fibrosis</GIVEN>
      <TABLE>0.9559827524254402 0.044017247574559826 0.9468085106382979 0.05319148936170213 0.5 0.5 0.7571428571428571 0.24285714285714285 0.021008403361344536 0.9789915966386554 0.7068965517241379 0.2931034482758621 </TABLE>
    </DEFINITION>
    <DEFINITION>
      <FOR>THepatitis</FOR>
      <TABLE>0.9277227722772278 0.07227722772277227 </TABLE>
    </DEFINITION>
    <DEFINITION>
      <FOR>age</FOR>
      <GIVEN>Hyperbilirubinemia</GIVEN>
      <GIVEN>PBC</GIVEN>
      <TABLE>0.1850766456266907 0.41230838593327324 0.35820559062218216 0.04440937781785392 0.012284196547144754 0.4638114209827357 0.4213147410358566 0.10258964143426295 0.6409774436090225 0.15977443609022557 0.15977443609022557 0.039473684210526314 0.05 0.53 0.21 0.21 </TABLE>
    </DEFINITION>
    <DEFINITION>
      <FOR>albumin</FOR>
      <GIVEN>hepatalgia</GIVEN>
      <TABLE>0.0905938448201127 0.12180320762895536 0.7876029475509319 0.12309820193637622 0.2226832641770401 0.6542185338865837 </TABLE>
    </DEFINITION>
    <DEFINITION>
      <FOR>alcohol</FOR>
      <GIVEN>hbc_anti</GIVEN>
      <GIVEN>hepatalgia</GIVEN>
      <TABLE>0.920817843866171 0.079182156133829 0.8661327231121282 0.13386727688787187 0.9455958549222798 0.054404145077720206 0.5 0.5 </TABLE>
    </DEFINITION>
    <DEFINITION>
      <FOR>alcoholism</FOR>
      <GIVEN>Steatosis</GIVEN>
      <GIVEN>obesity</GIVEN>
      <TABLE>0.866685945633314 0.13331405436668595 0.9778761061946902 0.022123893805309734 0.5137931034482759 0.4862068965517241 0.6818181818181818 0.3181818181818182 </TABLE>
    </DEFINITION>
    <DEFINITION>
      <FOR>alt</FOR>
      <TABLE>0.16881188118811882 0.36485148514851484 0.0400990099009901 0.4262376237623762 </TABLE>
    </DEFINITION>
    <DEFINITION>
      <FOR>ama</FOR>
      <GIVEN>PBC</GIVEN>
      <TABLE>0.9830917874396136 0.016908212560386472 0.4588688946015424 0.5411311053984575 </TABLE>
    </DEFINITION>
    <DEFINITION>
      <FOR>amylase</FOR>
      <TABLE>0.0132013201320132 0.9518151815181517 0.03498349834983498 </TABLE>
    </DEFINITION>
    <DEFINITION>
      <FOR>anorexia</FOR>
      <GIVEN>fibrosis</GIVEN>
      <GIVEN>pressure_ruq</GIVEN>
      <TABLE>0.6866897147796024 0.31331028522039756 0.7991128010139417 0.2008871989860583 0.7040816326530612 0.29591836734693877 0.42 0.58 </TABLE>
    </DEFINITION>
    <DEFINITION>
      <FOR>ascites</FOR>
      <GIVEN>anorexia</GIVEN>
      <GIVEN>proteins</GIVEN>
      <TABLE>0.8653979238754326 0.13460207612456748 0.1 0.9 0.8985102420856611 0.10148975791433892 0.8076923076923077 0.19230769230769232 </TABLE>
    </DEFINITION>
    <DEFINITION>
      <FOR>ast</FOR>
      <TABLE>0.4915841584158416 0.19257425742574258 0.29158415841584157 0.024257425742574258 </TABLE>
    </DEFINITION>
    <DEFINITION>
      <FOR>bilirubin</FOR>
      <GIVEN>PBC</GIVEN>
      <GIVEN>jaundice</GIVEN>
      <TABLE>0.0053735926305015355 0.8569600818833163 0.1363868986693961 0.00127942681678608 0.09528301886792453 0.6688679245283019 0.18584905660377357 0.05 0.13605108055009824 0.5525540275049116 0.2932220039292731 0.018172888015717092 0.2128252788104089 0.22769516728624536 0.4804832713754647 0.07899628252788105 </TABLE>
    </DEFINITION>
    <DEFINITION>
      <FOR>bleeding</FOR>
      <GIVEN>THepatitis</GIVEN>
      <GIVEN>palms</GIVEN>
      <TABLE>0.8989802421924793 0.10101975780752072 0.8081967213114755 0.1918032786885246 0.756 0.244 0.30952380952380953 0.6904761904761905 </TABLE>
    </DEFINITION>
    <DEFINITION>
      <FOR>carcinoma</FOR>
      <GIVEN>Cirrhosis</GIVEN>
      <GIVEN>PBC</GIVEN>
      <TABLE>0.9848137535816618 0.015186246418338108 0.9258064516129033 0.07419354838709678 0.5638297872340425 0.4361702127659574 0.5 0.5 0.7112676056338029 0.2887323943661972 0.26623376623376627 0.7337662337662337 </TABLE>
    </DEFINITION>
    <DEFINITION>
      <FOR>choledocholithotomy</FOR>
      <GIVEN>cholesterol</GIVEN>
      <GIVEN>diabetes</GIVEN>
      <TABLE>0.8724787090990587 0.12752129090094128 0.8802816901408451 0.11971830985915495 0.8743119266055045 0.1256880733944954 0.1470588235294118 0.8529411764705883 0.6741935483870968 0.32580645161290317 0.22727272727272727 0.7727272727272727 </TABLE>
    </DEFINITION>
    <DEFINITION>
      <FOR>cholesterol</FOR>
      <GIVEN>PBC</GIVEN>
      <TABLE>0.8851315083199143 0.10896403650026841 0.005904455179817501 0.55955441302485 0.30762639245929735 0.1328191945158526 </TABLE>
    </DEFINITION>
    <DEFINITION>
      <FOR>consciousness</FOR>
      <GIVEN>encephalopathy</GIVEN>
      <TABLE>0.981025641025641 0.018974358974358976 0.6428571428571429 0.35714285714285715 </TABLE>
    </DEFINITION>
    <DEFINITION>
      <FOR>density</FOR>
      <GIVEN>encephalopathy</GIVEN>
      <GIVEN>phosphatase</GIVEN>
      <TABLE>0.5988086895585144 0.4011913104414857 0.7347826086956522 0.2652173913043478 0.5487540628385699 0.45124593716143013 0.13076923076923078 0.8692307692307693 0.5 0.5 0.6304347826086957 0.3695652173913044 </TABLE>
    </DEFINITION>
    <DEFINITION>
      <FOR>diabetes</FOR>
      <TABLE>0.9673267326732673 0.032673267326732675 </TABLE>
    </DEFINITION>
    <DEFINITION>
      <FOR>edema</FOR>
      <TABLE>0.8683168316831683 0.1316831683168317 </TABLE>
    </DEFINITION>
    <DEFINITION>
      <FOR>edge</FOR>
      <GIVEN>Cirrhosis</GIVEN>
      <GIVEN>encephalopathy</GIVEN>
      <TABLE>0.7806698216235893 0.2193301783764106 0.463855421686747 0.536144578313253 0.4361702127659574 0.5638297872340425 0.5 0.5 0.2480916030534351 0.7519083969465649 0.1470588235294118 0.8529411764705883 </TABLE>
    </DEFINITION>
    <DEFINITION>
      <FOR>encephalopathy</FOR>
      <TABLE>0.9653465346534653 0.034653465346534656 </TABLE>
    </DEFINITION>
    <DEFINITION>
      <FOR>fat</FOR>
      <GIVEN>diabetes</GIVEN>
      <GIVEN>upper_pain</GIVEN>
      <TABLE>0.7392886014551334 0.26071139854486663 0.795676429567643 0.20432357043235705 0.9 0.1 0.35365853658536583 0.6463414634146342 </TABLE>
    </DEFINITION>
    <DEFINITION>
      <FOR>fatigue</FOR>
      <GIVEN>THepatitis</GIVEN>
      <GIVEN>diabetes</GIVEN>
      <TABLE>0.43946064942212437 0.5605393505778756 0.7456140350877193 0.2543859649122807 0.2518248175182482 0.7481751824817519 0.2777777777777778 0.7222222222222222 </TABLE>
    </DEFINITION>
    <DEFINITION>
      <FOR>fibrosis</FOR>
      <TABLE>0.9633663366336633 0.03663366336633663 </TABLE>
    </DEFINITION>
    <DEFINITION>
      <FOR>flatulence</FOR>
      <GIVEN>Steatosis</GIVEN>
      <GIVEN>diabetes</GIVEN>
      <TABLE>0.5667779632721202 0.4332220367278798 0.5888888888888889 0.4111111111111111 0.7802547770700637 0.2197452229299363 0.30952380952380953 0.6904761904761905 </TABLE>
    </DEFINITION>
    <DEFINITION>
      <FOR>gallstones</FOR>
      <GIVEN>choledocholithotomy</GIVEN>
      <GIVEN>injections</GIVEN>
      <TABLE>0.9085422469823584 0.0914577530176416 0.9777947932618682 0.0222052067381317 0.30141843971631205 0.6985815602836879 0.25838926174496646 0.7416107382550335 </TABLE>
    </DEFINITION>
    <DEFINITION>
      <FOR>ggtp</FOR>
      <GIVEN>PBC</GIVEN>
      <GIVEN>carcinoma</GIVEN>
      <TABLE>0.1413951545530493 0.05116959064327485 0.04782790309106098 0.7596073517126148 0.4722222222222222 0.29444444444444445 0.027777777777777776 0.20555555555555555 0.12445255474452555 0.25291970802919705 0.2237226277372263 0.3989051094890511 0.1424731182795699 0.1424731182795699 0.22849462365591397 0.48655913978494625 </TABLE>
    </DEFINITION>
    <DEFINITION>
      <FOR>hbc_anti</FOR>
      <TABLE>0.8821782178217822 0.11782178217821782 </TABLE>
    </DEFINITION>
    <DEFINITION>
      <FOR>hbeag</FOR>
      <TABLE>0.9930693069306931 0.006930693069306931 </TABLE>
    </DEFINITION>
    <DEFINITION>
      <FOR>hbsag</FOR>
      <TABLE>0.905940594059406 0.09405940594059406 </TABLE>
    </DEFINITION>
    <DEFINITION>
      <FOR>hbsag_anti</FOR>
      <GIVEN>cholesterol</GIVEN>
      <TABLE>0.9952215464813207 0.00477845351867941 0.9911032028469752 0.008896797153024912 0.8614457831325302 0.1385542168674699 </TABLE>
    </DEFINITION>
    <DEFINITION>
      <FOR>hcv_anti</FOR>
      <TABLE>1.0 </TABLE>
    </DEFINITION>
    <DEFINITION>
      <FOR>hepatalgia</FOR>
      <GIVEN>encephalopathy</GIVEN>
      <GIVEN>hepatomegaly</GIVEN>
      <TABLE>0.9713178294573643 0.02868217054263566 0.6731800766283524 0.3268199233716475 0.8809523809523809 0.11904761904761904 0.29591836734693877 0.7040816326530612 </TABLE>
    </DEFINITION>
    <DEFINITION>
      <FOR>hepatomegaly</FOR>
      <GIVEN>Hyperbilirubinemia</GIVEN>
      <GIVEN>RHepatitis</GIVEN>
      <TABLE>0.2919647771051183 0.7080352228948816 0.6777777777777778 0.32222222222222224 0.6699346405228758 0.3300653594771242 0.5 0.5 </TABLE>
    </DEFINITION>
    <DEFINITION>
      <FOR>hepatotoxic</FOR>
      <TABLE>0.9138613861386139 0.08613861386138613 </TABLE>
    </DEFINITION>
    <DEFINITION>
      <FOR>hospital</FOR>
      <GIVEN>injections</GIVEN>
      <GIVEN>proteins</GIVEN>
      <TABLE>0.6648444070647603 0.3351555929352397 0.3620689655172414 0.6379310344827587 0.17969735182849936 0.8203026481715007 0.2777777777777778 0.7222222222222222 </TABLE>
    </DEFINITION>
    <DEFINITION>
      <FOR>injections</FOR>
      <GIVEN>fibrosis</GIVEN>
      <GIVEN>proteins</GIVEN>
      <TABLE>0.5909566126502875 0.4090433873497125 0.803030303030303 0.19696969696969696 0.8478260869565217 0.15217391304347827 0.5 0.5 </TABLE>
    </DEFINITION>
    <DEFINITION>
      <FOR>inr</FOR>
      <GIVEN>Cirrhosis</GIVEN>
      <GIVEN>proteins</GIVEN>
      <TABLE>0.8866930171277998 0.058809438256078574 0.0544975446161217 0.6737588652482269 0.1631205673758865 0.1631205673758865 0.8014184397163121 0.03546099290780142 0.1631205673758865 0.3333333333333333 0.3333333333333333 0.3333333333333333 0.5151515151515151 0.011655011655011654 0.47319347319347316 0.3333333333333333 0.3333333333333333 0.3333333333333333 </TABLE>
    </DEFINITION>
    <DEFINITION>
      <FOR>irregular_liver</FOR>
      <GIVEN>Cirrhosis</GIVEN>
      <GIVEN>Hyperbilirubinemia</GIVEN>
      <TABLE>0.895553852050594 0.10444614794940589 0.9886877828054299 0.011312217194570137 0.8191489361702128 0.18085106382978722 0.5 0.5 0.3686131386861314 0.6313868613138687 0.22727272727272727 0.7727272727272727 </TABLE>
    </DEFINITION>
    <DEFINITION>
      <FOR>itching</FOR>
      <GIVEN>ast</GIVEN>
      <GIVEN>bilirubin</GIVEN>
      <TABLE>0.06313993174061433 0.9368600682593856 0.7138705927934909 0.2861294072065091 0.4429153924566769 0.5570846075433231 0.1581196581196581 0.8418803418803419 0.8168316831683168 0.18316831683168316 0.5621963070942663 0.43780369290573373 0.4012345679012346 0.5987654320987654 0.11904761904761904 0.8809523809523809 0.19060773480662985 0.8093922651933702 0.7069370958259847 0.29306290417401526 0.5183066361556065 0.4816933638443936 0.06756756756756757 0.9324324324324325 0.9528301886792453 0.04716981132075472 0.2948717948717949 0.7051282051282052 0.11904761904761904 0.8809523809523809 0.5 0.5 </TABLE>
    </DEFINITION>
    <DEFINITION>
      <FOR>jaundice</FOR>
      <GIVEN>Hyperbilirubinemia</GIVEN>
      <GIVEN>PBC</GIVEN>
      <TABLE>0.80297565374211 0.19702434625789 0.6620185922974767 0.3379814077025232 0.650375939849624 0.34962406015037595 0.42 0.58 </TABLE>
    </DEFINITION>
    <DEFINITION>
      <FOR>joints</FOR>
      <GIVEN>THepatitis</GIVEN>
      <TABLE>0.8607257203842049 0.13927427961579508 0.9657534246575342 0.03424657534246575 </TABLE>
    </DEFINITION>
    <DEFINITION>
      <FOR>le_cells</FOR>
      <GIVEN>PBC</GIVEN>
      <GIVEN>pressure_ruq</GIVEN>
      <TABLE>0.9364723467862481 0.06352765321375187 0.974694589877836 0.02530541012216405 0.9208566108007449 0.07914338919925512 0.7738589211618258 0.22614107883817428 </TABLE>
    </DEFINITION>
    <DEFINITION>
      <FOR>nausea</FOR>
      <TABLE>0.7079207920792079 0.29207920792079206 </TABLE>
    </DEFINITION>
    <DEFINITION>
      <FOR>obesity</FOR>
      <GIVEN>diabetes</GIVEN>
      <TABLE>0.936028659160696 0.06397134083930399 0.6818181818181818 0.3181818181818182 </TABLE>
    </DEFINITION>
    <DEFINITION>
      <FOR>pain</FOR>
      <GIVEN>PBC</GIVEN>
      <GIVEN>joints</GIVEN>
      <TABLE>0.8728191000918274 0.12718089990817263 0.2777777777777778 0.7222222222222222 0.8218045112781955 0.17819548872180452 0.6592920353982301 0.3407079646017699 </TABLE>
    </DEFINITION>
    <DEFINITION>
      <FOR>pain_ruq</FOR>
      <GIVEN>edema</GIVEN>
      <GIVEN>fibrosis</GIVEN>
      <TABLE>0.6077560686796921 0.3922439313203079 0.9 0.1 0.5077821011673151 0.49221789883268485 0.2777777777777778 0.7222222222222222 </TABLE>
    </DEFINITION>
    <DEFINITION>
      <FOR>palms</FOR>
      <GIVEN>Cirrhosis</GIVEN>
      <GIVEN>obesity</GIVEN>
      <TABLE>0.8720226843100188 0.12797731568998108 0.6297297297297297 0.3702702702702702 0.6463414634146342 0.3536585365853658 0.22727272727272727 0.7727272727272727 0.596 0.40399999999999997 0.6304347826086957 0.3695652173913044 </TABLE>
    </DEFINITION>
    <DEFINITION>
      <FOR>phosphatase</FOR>
      <GIVEN>THepatitis</GIVEN>
      <GIVEN>proteins</GIVEN>
      <TABLE>0.4767336592431649 0.20296940068803188 0.32029694006880316 0.29292929292929293 0.1717171717171717 0.5353535353535354 0.7494089834515367 0.09692671394799054 0.1536643026004728 0.33333333333333337 0.33333333333333337 0.33333333333333337 </TABLE>
    </DEFINITION>
    <DEFINITION>
      <FOR>platelet</FOR>
      <GIVEN>PBC</GIVEN>
      <GIVEN>hbeag</GIVEN>
      <TABLE>0.12712206952303962 0.7512126111560227 0.10448666127728375 0.017178658043654 0.25 0.25 0.25 0.25 0.11605981794538361 0.6986345903771132 0.05364109232769831 0.13166449934980495 0.1388888888888889 0.5833333333333334 0.1388888888888889 0.1388888888888889 </TABLE>
    </DEFINITION>
    <DEFINITION>
      <FOR>pressure_ruq</FOR>
      <GIVEN>PBC</GIVEN>
      <TABLE>0.538647342995169 0.4613526570048309 0.6902313624678663 0.3097686375321337 </TABLE>
    </DEFINITION>
    <DEFINITION>
      <FOR>proteins</FOR>
      <TABLE>0.9811881188118812 0.01881188118811881 </TABLE>
    </DEFINITION>
    <DEFINITION>
      <FOR>sex</FOR>
      <GIVEN>PBC</GIVEN>
      <GIVEN>encephalopathy</GIVEN>
      <TABLE>0.42792792792792794 0.5720720720720721 0.30952380952380953 0.6904761904761905 0.9087791495198903 0.09122085048010974 0.6224489795918368 0.37755102040816324 </TABLE>
    </DEFINITION>
    <DEFINITION>
      <FOR>skin</FOR>
      <GIVEN>bilirubin</GIVEN>
      <GIVEN>diabetes</GIVEN>
      <TABLE>0.11165048543689321 0.8883495145631068 0.5 0.5 0.8200606750094804 0.17993932499051954 0.24025974025974026 0.7597402597402597 0.4589509692132269 0.5410490307867731 0.4111111111111111 0.5888888888888889 0.029411764705882353 0.9705882352941176 0.5 0.5 </TABLE>
    </DEFINITION>
    <DEFINITION>
      <FOR>spiders</FOR>
      <GIVEN>Cirrhosis</GIVEN>
      <GIVEN>hbeag</GIVEN>
      <TABLE>0.8203263568641362 0.1796736431358638 0.22727272727272727 0.7727272727272727 0.3085106382978723 0.6914893617021276 0.5 0.5 0.5209790209790209 0.479020979020979 0.5 0.5 </TABLE>
    </DEFINITION>
    <DEFINITION>
      <FOR>spleen</FOR>
      <GIVEN>Cirrhosis</GIVEN>
      <GIVEN>jaundice</GIVEN>
      <TABLE>0.8636799233349305 0.13632007666506946 0.9562584118438762 0.04374158815612382 0.5857142857142857 0.41428571428571426 0.5 0.5 0.4719626168224299 0.5280373831775701 0.5 0.5 </TABLE>
    </DEFINITION>
    <DEFINITION>
      <FOR>surgery</FOR>
      <GIVEN>injections</GIVEN>
      <GIVEN>transfusion</GIVEN>
      <TABLE>0.7045248868778281 0.29547511312217195 0.3053097345132743 0.6946902654867256 0.5551053484602917 0.44489465153970825 0.25135135135135134 0.7486486486486487 </TABLE>
    </DEFINITION>
    <DEFINITION>
      <FOR>transfusion</FOR>
      <GIVEN>injections</GIVEN>
      <TABLE>0.9072249589490968 0.09277504105090312 0.7693266832917706 0.23067331670822944 </TABLE>
    </DEFINITION>
    <DEFINITION>
      <FOR>triglycerides</FOR>
      <GIVEN>Steatosis</GIVEN>
      <GIVEN>hbsag_anti</GIVEN>
      <TABLE>0.011898224418817499 0.9542375983891633 0.033864177192019035 0.07936507936507937 0.6507936507936508 0.2698412698412699 0.1483622350674374 0.7726396917148363 0.07899807321772641 0.33333333333333337 0.33333333333333337 0.33333333333333337 </TABLE>
    </DEFINITION>
    <DEFINITION>
      <FOR>upper_pain</FOR>
      <GIVEN>diabetes</GIVEN>
      <GIVEN>proteins</GIVEN>
      <TABLE>0.6280583029672046 0.3719416970327954 0.9242424242424242 0.07575757575757576 0.36885245901639346 0.6311475409836066 0.5 0.5 </TABLE>
    </DEFINITION>
    <DEFINITION>
      <FOR>urea</FOR>
      <GIVEN>encephalopathy</GIVEN>
      <TABLE>0.03042735042735043 0.9104273504273505 0.05914529914529915 0.1619047619047619 0.6190476190476191 0.21904761904761905 </TABLE>
    </DEFINITION>
    <DEFINITION>
      <FOR>vh_amn</FOR>
      <GIVEN>hbsag</GIVEN>
      <GIVEN>hepatotoxic</GIVEN>
      <TABLE>0.8403235470341522 0.15967645296584781 0.984472049689441 0.015527950310559006 0.5790960451977402 0.4209039548022599 0.5 0.5 </TABLE>
    </DEFINITION>
  </NETWORK>
</BIF>
