<?xml version='1.0' encoding='utf-8'?>
<BIF VERSION="0.3">
  <NETWORK>
    <NAME>UNTITLED</NAME>
    <VARIABLE TYPE="nature">
      <NAME>Akt</NAME>
      <OUTCOME>0</OUTCOME>
      <OUTCOME>1</OUTCOME>
      <OUTCOME>2</OUTCOME>
      <PROPERTY>weight = None</PROPERTY>
    </VARIABLE>
    <VARIABLE TYPE="nature">
      <NAME>Erk</NAME>
      <OUTCOME>0</OUTCOME>
      <OUTCOME>1</OUTCOME>
      <OUTCOME>2</OUTCOME>
      <PROPERTY>weight = None</PROPERTY>
    </VARIABLE>
    <VARIABLE TYPE="nature">
      <NAME>Jnk</NAME>
      <OUTCOME>0</OUTCOME>
      <OUTCOME>1</OUTCOME>
      <OUTCOME>2</OUTCOME>
      <PROPERTY>weight = None</PROPERTY>
    </VARIABLE>
    <VARIABLE TYPE="nature">
      <NAME>Mek</NAME>
      <OUTCOME>0</OUTCOME>
      <OUTCOME>1</OUTCOME>
      <OUTCOME>2</OUTCOME>
      <PROPERTY>weight = None</PROPERTY>
    </VARIABLE>
    <VARIABLE TYPE="nature">
      <NAME>P38</NAME>
      <OUTCOME>0</OUTCOME>
      <OUTCOME>1</OUTCOME>
      <OUTCOME>2</OUTCOME>
      <PROPERTY>weight = None</PROPERTY>
    </VARIABLE>
    <VARIABLE TYPE="nature">
      <NAME>PIP2</NAME>
      <OUTCOME>0</OUTCOME>
      <OUTCOME>1</OUTCOME>
      <OUTCOME>2</OUTCOME>
      <PROPERTY>weight = None</PROPERTY>
    </VARIABLE>
    <VARIABLE TYPE="nature">
      <NAME>PIP3</NAME>
      <OUTCOME>0</OUTCOME>
      <OUTCOME>1</OUTCOME>
      <OUTCOME>2</OUTCOME>
      <PROPERTY>weight = None</PROPERTY>
    </VARIABLE>
    <VARIABLE TYPE="nature">
      <NAME>PKA</NAME>
      <OUTCOME>0</OUTCOME>
      <OUTCOME>1</OUTCOME>
      <OUTCOME>2</OUTCOME>
      <PROPERTY>weight = None</PROPERTY>
    </VARIABLE>
    <VARIABLE TYPE="nature">
      <NAME>PKC</NAME>
      <OUTCOME>0</OUTCOME>
      <OUTCOME>1</OUTCOME>
      <OUTCOME>2</OUTCOME>
      <PROPERTY>weight = None</PROPERTY>
    </VARIABLE>
    <VARIABLE TYPE="nature">
      <NAME>Plcg</NAME>
      <OUTCOME>0</OUTCOME>
      <OUTCOME>1</OUTCOME>
      <OUTCOME>2</OUTCOME>
      <PROPERTY>weight = None</PROPERTY>
    </VARIABLE>
    <VARIABLE TYPE="nature">
      <NAME>Raf</NAME>
      <OUTCOME>0</OUTCOME>
      <OUTCOME>1</OUTCOME>
      <OUTCOME>2</OUTCOME>
      <PROPERTY>weight = None</PROPERTY>
    </VARIABLE>
    <DEFINITION>
      <FOR>Akt</FOR>
      <GIVEN>Erk</GIVEN>
      <GIVEN>PKA</GIVEN>
      <TABLE>0.2216153591525985 0.0004137702747434624 0.777970870572658 0.048917748917748916 0.0021645021645021645 0.9489177489177489 0.7083333333333334 0.005208333333333333 0.2864583333333333 0.8149847094801222 0.006989951944080384 0.17802533857579728 0.8521303258145364 0.006265664160401002 0.14160401002506265 0.1169259783121169 0.8807166430928806 0.0023573785950023567 0.4257158292814695 0.002701242571582928 0.5715829281469476 0.08743169398907104 0.01366120218579235 0.8989071038251366 0.2897919690372521 0.002418964683115626 0.7077890662796322 </TABLE>
    </DEFINITION>
    <DEFINITION>
      <FOR>Erk</FOR>
      <GIVEN>Mek</GIVEN>
      <GIVEN>PKA</GIVEN>
      <TABLE>0.6934208926182659 0.25343548583242126 0.05314362154931291 0.3333333333333333 0.6145833333333334 0.052083333333333336 0.4662447257383966 0.18143459915611812 0.3523206751054852 0.6145833333333334 0.3333333333333333 0.052083333333333336 0.3333333333333333 0.3333333333333333 0.3333333333333333 0.21124031007751937 0.7763565891472868 0.012403100775193797 0.6202668236217384 0.24151461644104377 0.13821855993721796 0.6758846268212905 0.2182575081772227 0.10585786500148675 0.09264565425023877 0.015281757402101241 0.89207258834766 </TABLE>
    </DEFINITION>
    <DEFINITION>
      <FOR>Jnk</FOR>
      <GIVEN>PKA</GIVEN>
      <GIVEN>PKC</GIVEN>
      <TABLE>0.39901023318235196 0.0004193927193423922 0.6005703740983056 0.9654517843583902 0.012148823082763854 0.02239939255884586 0.39019459186252214 0.0012635835228708618 0.6085418246146072 0.016025641025641024 0.016025641025641024 0.967948717948718 0.3333333333333333 0.3333333333333333 0.3333333333333333 0.001588814744200826 0.001588814744200826 0.9968223705115984 0.4701114488348531 0.005065856129685916 0.524822695035461 0.855072463768116 0.07246376811594203 0.07246376811594203 0.29814271749755616 0.43010752688172044 0.27174975562072334 </TABLE>
    </DEFINITION>
    <DEFINITION>
      <FOR>Mek</FOR>
      <GIVEN>PKA</GIVEN>
      <GIVEN>PKC</GIVEN>
      <TABLE>0.5145109880892468 0.007213554772689146 0.47827545713806413 0.29916476841305994 0.0018982536066818522 0.6989369779802581 0.32878443265099827 0.0012635835228708618 0.669951983826131 0.27564102564102566 0.016025641025641024 0.7083333333333334 0.3333333333333333 0.3333333333333333 0.3333333333333333 0.001588814744200826 0.001588814744200826 0.9968223705115984 0.3059777102330294 0.005065856129685916 0.6889564336372848 0.463768115942029 0.07246376811594203 0.463768115942029 0.03421309872922776 0.6280547409579668 0.33773216031280545 </TABLE>
    </DEFINITION>
    <DEFINITION>
      <FOR>P38</FOR>
      <GIVEN>PKA</GIVEN>
      <GIVEN>PKC</GIVEN>
      <TABLE>0.19745009226639829 0.0004193927193423922 0.8021305150142594 0.22741078208048593 0.012148823082763854 0.7604403948367501 0.08996714682840534 0.0012635835228708616 0.9087692696487237 0.10256410256410256 0.44871794871794873 0.44871794871794873 0.3333333333333333 0.3333333333333333 0.3333333333333333 0.07022561169367651 0.07880521131236097 0.8509691769939626 0.3880445795339412 0.005065856129685916 0.6068895643363729 0.07246376811594203 0.07246376811594203 0.855072463768116 0.08699902248289344 0.6016617790811339 0.3113391984359726 </TABLE>
    </DEFINITION>
    <DEFINITION>
      <FOR>PIP2</FOR>
      <TABLE>0.10713101160862355 0.06434494195688226 0.8285240464344942 </TABLE>
    </DEFINITION>
    <DEFINITION>
      <FOR>PIP3</FOR>
      <GIVEN>PIP2</GIVEN>
      <TABLE>0.17234262125902994 0.5252837977296182 0.3023735810113519 0.4415807560137457 0.3642611683848797 0.19415807560137455 0.45943421403789697 0.31892180410995463 0.22164398185214837 </TABLE>
    </DEFINITION>
    <DEFINITION>
      <FOR>PKA</FOR>
      <GIVEN>PKC</GIVEN>
      <TABLE>0.9017472203312912 0.023598820058997053 0.07465395960971183 0.9690949227373068 0.005518763796909492 0.025386313465783662 0.3534297963558414 0.28108252947481244 0.3654876741693462 </TABLE>
    </DEFINITION>
    <DEFINITION>
      <FOR>PKC</FOR>
      <TABLE>0.48723051409618573 0.10016583747927033 0.41260364842454395 </TABLE>
    </DEFINITION>
    <DEFINITION>
      <FOR>Plcg</FOR>
      <GIVEN>PIP2</GIVEN>
      <GIVEN>PIP3</GIVEN>
      <TABLE>0.06387225548902195 0.7105788423153692 0.22554890219560875 0.5690897184020955 0.0032743942370661427 0.42763588736083824 0.005688282138794085 0.988623435722412 0.005688282138794085 0.006485084306095978 0.987029831387808 0.006485084306095978 0.05031446540880503 0.7720125786163522 0.17767295597484276 0.014749262536873156 0.9705014749262537 0.014749262536873156 0.018782069900280765 0.010940071642947042 0.9702778584567722 0.10613668061366807 0.004463040446304045 0.8894002789400279 0.03351394742123218 0.0606060606060606 0.9058799919727072 </TABLE>
    </DEFINITION>
    <DEFINITION>
      <FOR>Raf</FOR>
      <GIVEN>Mek</GIVEN>
      <GIVEN>PKA</GIVEN>
      <TABLE>0.5620819652195063 0.06627751428918886 0.3716405204913049 0.052083333333333336 0.8958333333333334 0.052083333333333336 0.4662447257383966 0.12447257383966243 0.40928270042194087 0.3333333333333333 0.6145833333333334 0.052083333333333336 0.3333333333333333 0.3333333333333333 0.3333333333333333 0.0751937984496124 0.9228682170542635 0.0019379844961240305 0.175299195605258 0.10378654110260938 0.7209142632921326 0.11388641094261076 0.017543859649122806 0.8685697294082665 0.19579751671442217 0.5826170009551098 0.22158548233046801 </TABLE>
    </DEFINITION>
  </NETWORK>
</BIF>
