<?xml version='1.0' encoding='utf-8'?>
<BIF VERSION="0.3">
  <NETWORK>
    <NAME>UNTITLED</NAME>
    <VARIABLE TYPE="nature">
      <NAME>Akt</NAME>
      <OUTCOME>0</OUTCOME>
      <OUTCOME>1</OUTCOME>
      <OUTCOME>2</OUTCOME>
      <PROPERTY>weight = None</PROPERTY>
    </VARIABLE>
    <VARIABLE TYPE="nature">
      <NAME>Erk</NAME>
      <OUTCOME>0</OUTCOME>
      <OUTCOME>1</OUTCOME>
      <OUTCOME>2</OUTCOME>
      <PROPERTY>weight = None</PROPERTY>
    </VARIABLE>
    <VARIABLE TYPE="nature">
      <NAME>Jnk</NAME>
      <OUTCOME>0</OUTCOME>
      <OUTCOME>1</OUTCOME>
      <OUTCOME>2</OUTCOME>
      <PROPERTY>weight = None</PROPERTY>
    </VARIABLE>
    <VARIABLE TYPE="nature">
      <NAME>Mek</NAME>
      <OUTCOME>0</OUTCOME>
      <OUTCOME>1</OUTCOME>
      <OUTCOME>2</OUTCOME>
      <PROPERTY>weight = None</PROPERTY>
    </VARIABLE>
    <VARIABLE TYPE="nature">
      <NAME>P38</NAME>
      <OUTCOME>0</OUTCOME>
      <OUTCOME>1</OUTCOME>
      <OUTCOME>2</OUTCOME>
      <PROPERTY>weight = None</PROPERTY>
    </VARIABLE>
    <VARIABLE TYPE="nature">
      <NAME>PIP2</NAME>
      <OUTCOME>0</OUTCOME>
      <OUTCOME>1</OUTCOME>
      <OUTCOME>2</OUTCOME>
      <PROPERTY>weight = None</PROPERTY>
    </VARIABLE>
    <VARIABLE TYPE="nature">
      <NAME>PIP3</NAME>
      <OUTCOME>0</OUTCOME>
      <OUTCOME>1</OUTCOME>
      <OUTCOME>2</OUTCOME>
      <PROPERTY>weight = None</PROPERTY>
    </VARIABLE>
    <VARIABLE TYPE="nature">
      <NAME>PKA</NAME>
      <OUTCOME>0</OUTCOME>
      <OUTCOME>1</OUTCOME>
      <OUTCOME>2</OUTCOME>
      <PROPERTY>weight = None</PROPERTY>
    </VARIABLE>
    <VARIABLE TYPE="nature">
      <NAME>PKC</NAME>
      <OUTCOME>0</OUTCOME>
      <OUTCOME>1</OUTCOME>
      <OUTCOME>2</OUTCOME>
      <PROPERTY>weight = None</PROPERTY>
    </VARIABLE>
    <VARIABLE TYPE="nature">
      <NAME>Plcg</NAME>
      <OUTCOME>0</OUTCOME>
      <OUTCOME>1</OUTCOME>
      <OUTCOME>2</OUTCOME>
      <PROPERTY>weight = None</PROPERTY>
    </VARIABLE>
    <VARIABLE TYPE="nature">
      <NAME>Raf</NAME>
      <OUTCOME>0</OUTCOME>
      <OUTCOME>1</OUTCOME>
      <OUTCOME>2</OUTCOME>
      <PROPERTY>weight = None</PROPERTY>
    </VARIABLE>
    <DEFINITION>
      <FOR>Akt</FOR>
      <GIVEN>Mek</GIVEN>
      <GIVEN>PKA</GIVEN>
      <TABLE>0.34537273501155297 0.0006080505898090721 0.654019214398638 0.3333333333333333 0.052083333333333336 0.6145833333333334 0.5232067510548523 0.18143459915611812 0.2953586497890295 0.3333333333333333 0.052083333333333336 0.6145833333333334 0.3333333333333333 0.3333333333333333 0.3333333333333333 0.24263565891472866 0.6821705426356589 0.0751937984496124 0.4242691779478125 0.0031391014322150286 0.5725917206199725 0.2343146000594707 0.0014867677668748138 0.7641986321736545 0.3118433619866285 0.015281757402101241 0.6728748806112702 </TABLE>
    </DEFINITION>
    <DEFINITION>
      <FOR>Erk</FOR>
      <GIVEN>Akt</GIVEN>
      <GIVEN>PKA</GIVEN>
      <TABLE>0.3720994858969015 0.5184104487981104 0.1094900653049882 0.13696969696969696 0.8242424242424242 0.03878787878787878 0.4453176162409954 0.16240995415848067 0.39227242960052394 0.11904761904761905 0.761904761904762 0.11904761904761905 0.3333333333333333 0.3333333333333333 0.3333333333333333 0.0026624068157614475 0.994675186368477 0.0026624068157614475 0.8338655313109811 0.07229022529714389 0.09384424339187512 0.8321943811693241 0.042900531511009865 0.12490508731966589 0.15777395295467583 0.0028686173264486515 0.8393574297188755 </TABLE>
    </DEFINITION>
    <DEFINITION>
      <FOR>Jnk</FOR>
      <GIVEN>PKA</GIVEN>
      <TABLE>0.47771836007130125 0.0022686760654675093 0.5200129638632313 0.004317789291882557 0.004317789291882557 0.9913644214162349 0.3385780885780886 0.3438228438228438 0.3175990675990676 </TABLE>
    </DEFINITION>
    <DEFINITION>
      <FOR>Mek</FOR>
      <GIVEN>PKA</GIVEN>
      <TABLE>0.44417436396046023 0.005185545292497164 0.5506400907470427 0.02763385146804836 0.004317789291882557 0.9680483592400692 0.09207459207459208 0.5011655011655011 0.40675990675990675 </TABLE>
    </DEFINITION>
    <DEFINITION>
      <FOR>P38</FOR>
      <GIVEN>PKA</GIVEN>
      <TABLE>0.17873926430076165 0.0022686760654675093 0.8189920596337709 0.07426597582037997 0.11312607944732297 0.8126079447322971 0.1445221445221445 0.48018648018648014 0.37529137529137524 </TABLE>
    </DEFINITION>
    <DEFINITION>
      <FOR>PIP2</FOR>
      <GIVEN>PIP3</GIVEN>
      <GIVEN>Plcg</GIVEN>
      <TABLE>0.13852813852813853 0.021645021645021644 0.8398268398268398 0.2894308943089431 0.61869918699187 0.09186991869918698 0.011143984220907299 0.0004930966469428008 0.9883629191321499 0.5228640192539109 0.01925391095066185 0.4578820697954272 0.009469696969696968 0.9299242424242424 0.0606060606060606 0.09141817163656728 0.015819683606327874 0.8927621447571049 0.02824858757062147 0.02824858757062147 0.943502824858757 0.5793333333333334 0.21933333333333335 0.20133333333333336 0.0011052166224580016 0.0011052166224580016 0.9977895667550839 </TABLE>
    </DEFINITION>
    <DEFINITION>
      <FOR>PIP3</FOR>
      <GIVEN>Plcg</GIVEN>
      <TABLE>0.11159420289855071 0.8028985507246377 0.08550724637681159 0.3775322283609576 0.16206261510128914 0.4604051565377532 0.4649883065070849 0.3275553721282157 0.2074563213646994 </TABLE>
    </DEFINITION>
    <DEFINITION>
      <FOR>PKA</FOR>
      <TABLE>0.6822553897180763 0.12802653399668326 0.18971807628524048 </TABLE>
    </DEFINITION>
    <DEFINITION>
      <FOR>PKC</FOR>
      <GIVEN>Jnk</GIVEN>
      <GIVEN>PKA</GIVEN>
      <TABLE>0.537878787878788 0.28753957485300774 0.17458163726820444 0.3333333333333333 0.3333333333333333 0.3333333333333333 0.2662076878944349 0.03384968445209409 0.6999426276534709 0.11904761904761905 0.761904761904762 0.11904761904761905 0.3333333333333333 0.3333333333333333 0.3333333333333333 0.002824858757062147 0.002824858757062147 0.9943502824858758 0.743741560195284 0.0061285966552404696 0.25012984314947545 0.08768873403019745 0.0014518002322880372 0.9108594657375145 0.31681957186544346 0.003058103975535168 0.6801223241590214 </TABLE>
    </DEFINITION>
    <DEFINITION>
      <FOR>Plcg</FOR>
      <TABLE>0.07628524046434494 0.12006633499170813 0.8036484245439469 </TABLE>
    </DEFINITION>
    <DEFINITION>
      <FOR>Raf</FOR>
      <GIVEN>Mek</GIVEN>
      <GIVEN>PKA</GIVEN>
      <TABLE>0.5620819652195063 0.06627751428918886 0.3716405204913049 0.052083333333333336 0.8958333333333334 0.052083333333333336 0.4662447257383966 0.12447257383966243 0.40928270042194087 0.3333333333333333 0.6145833333333334 0.052083333333333336 0.3333333333333333 0.3333333333333333 0.3333333333333333 0.0751937984496124 0.9228682170542635 0.0019379844961240305 0.175299195605258 0.10378654110260938 0.7209142632921326 0.11388641094261076 0.017543859649122806 0.8685697294082665 0.19579751671442217 0.5826170009551098 0.22158548233046801 </TABLE>
    </DEFINITION>
  </NETWORK>
</BIF>
